6.153032397176256413e-03 3.509156183027380832e-02 -1.830187312683641959e-02 -1.049430555713555188e-02 3.753749432995455437e-02 4.121150628994303677e-02 1.995620211235433691e-02 5.130091648715144614e-02 2.893895491220947400e-02 -7.667370781668707558e+00 -2.308160971555399144e+01 -5.697147381280916884e-02 9.076560805613802241e-03 -4.894305958646272964e-02 2.547186997189478108e-02 -4.351582437838039802e-03 4.558812426672505247e-02 1.055182829415809813e-02 2.034207410667227683e-02 3.387057403310379106e-02 -4.537197812465718592e-03 -3.847003910281252687e-02 -5.240240252408678162e-02 3.054402956024668617e-02 7.916174885675105952e-03 1.093226694401759798e-02 2.980678929685470074e-02 -1.364721448439936043e-02 -2.769143395156814513e-02 -1.314124269105310973e-02 3.002213822884469696e-02 -1.020545622150298253e-02 6.476328199247261593e-05 8.215945999470161687e-03 -2.829001248649182232e-02 -4.193148071920139053e+00 -6.432852804294005011e+01 -3.355603209212654860e+02 -2.919997069542808390e+02 -1.910030015757434683e+02 -1.616298934409072956e+02 -1.875130320724099775e+01 2.437066545965765971e-03 3.694971017454368872e-02 2.609380011938991148e-02 2.338120666706740292e-02 -2.089791708552643165e-02 1.444814325310337169e-02 -2.904995484589687968e-02 -5.188767281414288085e-02 8.874424141835169158e-03 2.733060883520251408e-02 4.998656359837683888e-02 -9.985950727736564100e-03 2.951304414811002641e-02 -5.329698737135833697e-02 -2.860273100392763876e-02 9.348109323846633817e-03 6.237170669954921615e-02 -1.992870026397740649e-02 -3.247465196667153470e-02 -1.129503332697955331e-01 -5.926221341879833737e+00 -1.788543773058881641e+02 -3.636573201763318934e+02 -5.915822536714961188e+02 -4.760814400827493387e+02 -4.195734518503981576e+02 -3.534214488151198452e+02 -2.213743785241002797e+02 -1.285816216398373513e+02 -1.446190281843278740e+02 -1.647314914380510800e+02 -1.647218162918286453e+02 -1.588795487776772859e+02 -3.953862589831833674e+01 -1.017917676227001067e+02 -1.432271883832534343e+02 -3.294040191992110778e+01 -3.524062944703409278e-02 2.613209027491895497e-03 -8.998390176227452977e-03 4.210600000392153430e-03 -1.629529492968656221e-02 9.926507264942771927e-03 -1.733375671932950099e-02 -2.799869946612775634e-02 -8.154473809899127554e-03 -3.077647565058233425e+01 -4.768776216732217677e+01 -2.493805236849712230e+02 -4.826640935556197292e+02 -7.166913852091234958e+02 -8.848404019551736610e+02 -5.908470738028381675e+02 -5.572619315113372522e+02 -4.826365973245316923e+02 -5.850231915352160286e+02 -5.268006343685680122e+02 -2.794133803642092744e+02 -2.030573203410441181e+02 -2.264946711788543894e+02 -4.392756378670256368e+02 -5.887590511638525186e+02 -6.111539806967087998e+02 -5.163183948826348342e+02 -2.409741043939046961e+02 -2.347428658903551835e+01 -1.179585680224434885e+00 -3.653089475106462147e-02 1.200222659563617705e-02 -3.959755539910744804e-02 5.451860749687376800e-02 1.920232007849645428e-02 4.788076842929960691e-02 1.981232605751200374e-02 -1.351591995504288377e+02 -2.663641346555979794e+02 -5.911586101443399457e+02 -6.621590574276202688e+02 -7.613458781828938982e+02 -1.059698772288835926e+03 -8.173295068202414768e+02 -7.798455570128090812e+02 -6.723995274078682769e+02 -1.025087974709465470e+03 -1.130586625078004090e+03 -8.922964783711819337e+02 -7.462885877194548812e+02 -3.059407759276185743e+02 -4.882703512980971254e+02 -1.211844209459777630e+03 -1.461387959806168510e+03 -1.096677021665870143e+03 -5.094709005228475576e+02 -1.361575390555163381e+02 -7.241226631083998200e+01 -7.404918390733254796e+01 3.368998519619717156e-04 -7.748193341040474080e-03 1.527810355529344265e-02 3.100175238752900936e-02 -1.266338556408114329e+02 -1.488012957902000153e+02 -3.288814038225851846e+02 -7.653418619056476473e+02 -7.751678592281672309e+02 -5.553659937618417644e+02 -9.916742592893302799e+02 -1.155544035601142241e+03 -1.173935468868418184e+03 -1.184294791692901072e+03 -1.076404812250562145e+03 -1.883471373562784947e+03 -2.082169539739869833e+03 -2.242408340982141908e+03 -2.350300449339015358e+03 -2.109137419284844327e+03 -2.150904285390855421e+03 -2.437001435260852304e+03 -2.536392540833487146e+03 -1.892467609498697129e+03 -1.262508382846080167e+03 -6.978422719407358272e+02 -4.099360503279278873e+02 -2.184514154744163363e+02 -2.795382951512855388e-02 3.668020131363897152e-02 -7.689211908701155604e-03 -5.621076090265115718e-03 -2.666252993205165467e+02 -3.876977949564420101e+02 -5.418209253334589448e+02 -1.034210759040335006e+03 -8.864219115069942063e+02 -1.056722889456838175e+03 -6.826382545210774424e+02 -1.480660453755014885e+02 -1.378071444394661000e+02 -2.182260536477365633e+02 -1.203776338153476217e+03 -1.404506656662415935e+03 -1.666730130798709297e+03 -2.269042455645874270e+03 -2.141215052070550428e+03 -2.250818011024564839e+03 -2.536758675264100020e+03 -2.485802995252447090e+03 -2.536755846641701737e+03 -2.776619275303872200e+03 -1.936477325058168390e+03 -1.288110434762967088e+03 -4.726092057335381469e+02 -3.241767035735161357e+02 -4.915518710673458358e+00 -3.205695887499797336e-02 -1.439279939258895566e-02 2.977859763931000811e-02 -2.364781431925417223e+02 -5.420572635525240912e+02 -7.367997750596598507e+02 -9.788862796991419373e+02 -5.426040943155176137e+02 -3.300914645093130275e+02 2.599419357590434743e+02 5.837275270488461274e+02 6.581396049097294281e+02 3.508342299394351471e+02 2.972802614522076965e+02 1.193815848594149287e+02 -1.066304552164607912e+03 -1.204887508167159467e+03 -8.920873311282857685e+02 -7.447313070507359498e+02 -5.016756520776361867e+02 -7.775864498662208462e+02 -1.336841390884933162e+03 -1.677606564393623330e+03 -2.081811653359529373e+03 -1.408829603812204368e+03 -8.063884773342383596e+02 -4.046223167414684099e+02 -5.868829540355088881e+01 6.904578840612876807e-03 2.812470074816297329e-03 -5.171503141614640953e+01 -2.811836839377638739e+02 -7.040187147723577255e+02 -8.621271653981444842e+02 -7.211056315569807111e+02 2.622816551184717682e+01 7.050897672435778532e+02 8.561149901918574869e+02 2.856756535588864381e+02 -1.145093569326128424e+01 5.873835088755886318e+02 3.593115661322748906e+02 -3.920852931394806262e+01 -1.427524806764801895e+02 -3.423792984187714694e+01 8.551819445436616434e+02 1.107638429135469551e+03 1.224342181123332239e+03 1.164279139946529085e+03 -1.501797775371037247e+01 -5.801302303583886442e+02 -4.380484721341392742e+02 -1.172291071068037581e+03 -8.289338976503784124e+02 -3.223669529828524674e+02 -1.588694300323561492e+02 -5.312750116506064629e-02 -3.959635749522715659e-02 -7.438367255767225572e+01 -4.366707989331826525e+02 -9.752716397832051598e+02 -8.934195629528911695e+02 -1.439175523643915540e+02 -1.219751627691265128e+02 5.138106941681536455e+02 9.263237811615316559e+02 6.359514891435505888e+02 2.804477709620280024e+01 -3.413440666255581846e+02 -1.188728907397879766e+02 2.598796299522804176e+01 1.007237835198864786e+03 1.259649282644750656e+03 1.751759002913987388e+03 1.614188288005778986e+03 1.184618419766438137e+03 1.150718875169271087e+03 9.876428344431161577e+02 1.452922852734728281e+02 2.176248951831682064e+02 1.798166244071254312e+02 -3.634935835330494456e+02 -2.744858474509447888e+02 -2.258327575329087438e+02 -2.360449205583676768e-01 -2.356052658654983771e-04 -1.335609551422055006e+02 -6.147005326304142727e+02 -1.216745917592792239e+03 -7.497566013803620990e+02 -3.885377636446722818e+02 2.280469638014484133e+02 4.665739174986952094e+02 8.012693864645015651e+01 -6.124084126361972835e+01 -9.168525237139381261e+02 -7.293017033512375065e+02 2.160473221331670146e+01 1.628323222529087957e+02 5.119824568191025946e+02 1.825059348079764732e+03 1.623543660436354912e+03 1.360453507756694080e+03 8.892440906674039525e+02 1.237956486788650494e+02 -2.077918300826046760e+01 4.836625183467903639e+02 7.220383872226757376e+02 1.156293738801721247e+03 2.324195201051824995e+02 -3.690374493329818506e+02 -1.724238788517197918e+02 -3.085221589522260111e+00 1.452116248879624719e-02 -1.178023059814842242e+02 -5.506748451388873491e+02 -1.090880962785176962e+03 -2.519730657964567513e+02 1.988989954232019297e+00 6.620698417135823775e+02 5.855264011891586051e+02 1.655007094067087792e+02 -1.024166794730678248e+03 -6.414579189071871497e+02 4.399434930724872288e+02 1.140482385710630808e+02 -4.027313532754391900e+01 2.997856496209146826e+02 9.718060516373245719e+02 5.688100952289969428e+02 3.923798352932729472e+02 6.520555562599101904e+02 2.380191364575637749e+02 -4.587014611574920764e+02 2.884273606651282194e+02 1.124282909543617734e+03 1.707775700300823246e+03 4.021665318355131831e+02 -3.949662852324506730e+02 -2.320819107866803677e+02 -4.433831994656887332e+01 2.616218097524015268e-02 -1.171924326244004249e+02 -2.564759863636343198e+02 -8.105668156984875168e+02 3.185266818240270936e+02 1.023501895638550877e+03 9.344888403823481440e+02 1.243466388659577575e+02 5.379072275441812678e+01 -8.578583252667232273e+02 -2.864090530328276145e+02 3.173719932827111734e+02 1.032646738337647463e+02 -8.693796127602183788e+01 -9.328728361705625503e+02 -5.445593860139315439e+02 -4.719432103906032694e+02 -4.453322074792835679e+02 3.313703433446102053e+02 4.957680326240384829e+02 1.095515792496218843e+01 1.686458561231534077e+02 1.115896676342390265e+03 1.398020246655028131e+03 -3.817858560767885479e+01 -5.769554028680132660e+02 -4.756235020340177471e+02 -1.456446297371085734e+02 7.443677746190890954e-02 -4.179021767396619680e+01 -1.228287157576893804e+02 -4.517868131576626638e+02 3.673750387911733810e+02 9.112818086258752146e+02 1.013041870476331496e+03 1.401502842573055716e+02 -4.083616347553008552e+01 -9.878991008891288175e+02 -2.403797337845965103e+02 -3.665058984567085076e+02 -7.905999674905601751e+02 -1.258449223285567996e+03 -2.437256017776081990e+03 -2.080011273810059720e+03 -1.263577214666540385e+03 -7.826396695184187990e+01 5.096654104561783925e+02 6.778942603866642003e+01 -8.257718505789248411e+02 -5.421721107662777968e+02 6.524367434566058819e+02 9.977930234674851135e+02 -7.049672274429788104e+02 -1.093732759920993885e+03 -8.742161542666718788e+02 -2.606704430089332050e+02 -2.383837520560596127e-02 -4.929010985348222107e+01 -5.669126941478565129e+01 -3.249381704572604690e+02 1.907498291940983961e+02 4.755817801652851244e+02 6.840642403540725809e+02 2.797064224723924326e+02 -4.089059486039892022e+02 -7.575551243647817046e+02 -3.668329646711523537e+02 -6.273360990123638885e+02 -9.086188100426199981e+02 -1.948333236077615993e+03 -2.544362389383120444e+03 -2.270729350826491554e+03 -1.126795697544075210e+03 3.107908607580458948e+01 7.351805744163949612e+02 -1.294872045246302150e+02 -1.409304747211950826e+03 -1.116748885676412328e+03 1.973359595385984449e+02 1.702371460169644877e+02 -1.172951619714648814e+03 -1.676927734363792069e+03 -1.187884479301523015e+03 -3.246056051499239175e+02 2.508167761001774132e-02 -4.309060250996647312e+01 -1.533113471292519137e+02 -4.111289109465560614e+02 1.921675182003435225e+02 8.157561265874962828e+02 3.106904885871916804e+02 -2.994350079068113146e+01 -7.975401323123249142e+01 1.208818369652925107e+01 -1.715293306971259142e+02 -1.925451074288559425e+02 -1.337805395201200554e+03 -1.855889549395918493e+03 -1.935833041942220916e+03 -1.540951413945928834e+03 -6.243202244939475349e+02 -2.082722435444240432e+02 -3.022191727224543101e+01 -5.251470391359358700e+02 -1.504363480620645532e+03 -7.905146075687588336e+02 1.794958410054217097e+02 2.094958223571386213e+02 -1.081924680652387451e+03 -1.823585795325745266e+03 -1.243686362302891212e+03 -4.227152871169960804e+02 1.396965345303975703e-02 -1.560188262385110569e+01 -1.472147495216652544e+02 -4.255381062022560172e+02 -2.063964090684545170e+02 9.629084026438940782e+02 5.503255220943059385e+02 -9.552747835520764008e-01 7.091871814322565797e+02 1.037519181821675829e+03 6.533731726534275595e+02 -3.852629936265695960e+02 -1.348621778302022449e+03 -1.163644759718084060e+03 -7.984106261399670075e+02 -5.864878850134822414e+02 -1.032963147404162555e+03 -7.345928445476220077e+02 -8.384554345133688003e+02 -6.167199696142893117e+02 -9.993217790715318642e+02 -6.036775964748642309e+02 4.277232084367705056e+01 3.939905186682480576e+02 -6.923385982053756607e+02 -1.388595626270226603e+03 -1.086322864826933028e+03 -4.458014364743127089e+02 5.500545669942978610e-02 -2.592656390503499253e+01 -1.994090543716102388e+02 -5.736779337197320956e+02 -1.461324870375802050e+02 8.788459997138298263e+01 4.028858988838238133e+02 -1.661878191299192906e+02 4.485671237691217357e+02 8.121783728266386788e+02 6.418854115747270725e+02 -3.169322360896060786e+02 -6.883079463435225698e+00 -3.092625397748296336e+02 -7.265567928880534510e+02 -1.944101578416112943e+02 -9.920933802756010209e+02 -1.156360621707283599e+03 -9.515000496187387853e+02 -7.091010887742548903e+02 -1.849747866480947778e+02 4.040187719874097638e+02 4.373931556186833518e+02 3.406768357643510399e+02 -1.303208810269850574e+03 -1.188625081489003833e+03 -8.445496385004832973e+02 -2.293230811347779365e+02 4.908253810610550827e-02 -4.108480785164999105e+01 -2.440453155231399194e+02 -7.727937420772840369e+02 -5.198682308224931603e+02 -9.669013915408974071e+02 -8.290145980753286494e+02 -4.884456133832630940e+02 -1.993141378449337537e+02 6.909418251316952819e+02 1.963743560877194625e+02 9.789121863245551936e+01 4.179764676738384424e+02 -3.320528463460964872e+02 -6.565110220922819053e+02 -2.607712270427231829e+02 -2.593092852815954075e+02 -4.659030500421125112e+02 -1.005084913435885255e+03 -3.343769616073766997e+02 2.376313172815971431e+00 8.184233989627316532e+02 9.104274525865288297e+02 1.901839942860451060e+02 -9.183403949877759942e+02 -9.517023692155249819e+02 -6.678063634246447009e+02 -1.184671317472031120e+02 4.098758671537637566e-02 3.758810482072599130e-02 -2.510793266633118321e+02 -8.108379663983419050e+02 -1.167895437804049379e+03 -1.018011514550530137e+03 -1.251101904404577908e+03 -2.073057519257831132e+02 8.900106067217668624e+02 1.121436036612378075e+03 5.239155197255955727e+02 9.264702344309544060e+02 8.280071972791232611e+02 1.649530383847961161e+02 -2.195264074412777688e+02 -1.874358782591095860e+02 2.386086476645809569e+02 1.571918653301283939e+02 -3.766398364848241727e+02 -5.953689422669166476e+01 4.533509448147794387e+02 6.644735044246287998e+02 -1.196679329463599828e+02 -1.944220352427108764e+02 -6.553339197753714416e+02 -6.842864190071845769e+02 -5.035442139153781227e+02 -8.722024588099287712e+01 -4.139093838406314452e-02 8.000711339549446480e-04 -2.147527102576918026e+02 -8.100878779722060017e+02 -1.107020536841486319e+03 -1.745276091512542962e+03 -2.213894540704863175e+03 -8.895916709022054647e+02 1.757593483379325221e+02 8.900052956180271622e+02 7.193360175748260872e+02 4.932560796880903808e+02 4.517985602899385640e+02 -1.290620812112477722e+01 -5.217526268355746879e+02 -5.754166070801327351e+02 -5.409104274641722299e+01 3.437882125671994515e+01 2.207351284260124942e+02 1.951654290467349142e+02 2.863449253745024521e+02 5.042215517758598935e+02 -1.918828259292675114e+02 -6.081485292712388855e+02 -4.997234365139389070e+02 -5.578578234985333211e+02 -3.467237185430188902e+02 -5.825625638254505745e+00 -1.045235337055502693e-02 3.750259707062011949e-02 -1.052977526256514551e+02 -6.199368592399262070e+02 -7.264929575808985192e+02 -1.224481884797514567e+03 -2.666049887899461282e+03 -1.794535587671056874e+03 -1.715472148236873636e+03 -1.074714112166202312e+03 -6.730465735890778660e+02 -5.828069637358890986e+02 -4.227406074077723019e+01 -1.634511135771468560e+02 -8.797626223118124926e+02 -5.346987477259100388e+02 -5.158351040911624068e+02 1.670408587946333512e+02 3.041808241460240083e+02 -1.837057957714613110e+02 -5.111284526648131532e+02 -4.657244412525136568e+02 -3.345293304266127166e+02 -5.328689527423238133e+02 -3.248374775366339691e+02 -4.788998104458649436e+02 -2.304430355844563110e+02 -2.537461268456414065e-01 -1.333438265236095918e-02 3.787843690734589430e-02 -6.518007422709641219e+01 -5.058130084564464823e+02 -4.741040774170256213e+02 -1.453722649370015006e+03 -2.753276362076042460e+03 -2.654646187901803387e+03 -2.617851020113643244e+03 -2.086635277398580456e+03 -1.571767386048516755e+03 -9.810580860287701626e+02 -1.043599582692326976e+03 -1.082928200879070346e+03 -9.293245380032412868e+02 -9.650771024542306122e+02 -5.590548858519191526e+02 -4.208602703681904700e+02 -4.505369442707305438e+02 -3.376314472890653064e+02 -5.654770113842070032e+02 -7.254183972039404580e+02 -4.324094008266301330e+02 -3.905703358520240158e+02 -3.669000175596640929e+02 -2.244896943006523315e+02 -1.774565287430729086e+02 -2.388363737623047309e-02 -3.399130844471436735e-02 -1.392901182795923572e-02 -4.391856766072096718e+01 -2.732054516025745556e+02 -3.577662184545415585e+02 -1.098490955210581433e+03 -1.912128075600732473e+03 -2.181601120600748800e+03 -1.966146359068697848e+03 -1.223361546883076926e+03 -1.094959336993382067e+03 -1.712229819538934180e+03 -2.150594852304494452e+03 -2.131575591711485686e+03 -1.933444534728160761e+03 -1.304368096005634015e+03 -6.264707778888389385e+02 -9.575851277205677547e+01 -1.183804975543962996e+02 -4.022814845558875732e+02 -4.821691980961293211e+02 -5.124313641890554436e+02 -2.818907081955610465e+02 -2.216815410880204809e+02 -1.071176444579558336e+02 -1.074336272825137115e+02 -2.490210886785184860e-02 -2.971677515241083131e-02 -7.827925637648586177e-03 3.559726358703425159e-02 -1.273954489545608748e+00 -1.072294870148385684e+02 -2.637179701602192949e+02 -4.395841400916603448e+02 -1.160797859842039998e+03 -1.177299567175967468e+03 -1.108663549584929115e+03 -3.956986418516799517e+02 -1.597405395193032689e+02 -9.216137367613915785e+02 -1.604282314630701194e+03 -1.670195092717069201e+03 -1.808129949330386808e+03 -1.350349754272113159e+03 -6.258984394063452328e+02 -1.588338647856221542e+02 6.354667855479732008e-01 -2.247610302166859242e+02 -2.681514291487783339e+02 -1.819735061105502609e+02 -6.910071860110535624e+01 -2.883606798461586607e+01 -3.772780474163306508e+01 -1.160384967512581866e+01 -2.383464725378512880e-02 -1.694951431884792132e-03 2.274111303796699270e-03 2.899504674858956275e-03 -2.906444442254291910e-02 -2.818782827014062065e+01 -1.224725077998331244e+02 -2.488495169241996621e+02 -4.149746119993911293e+02 -3.922804295734007383e+02 -2.518532461163211451e+02 -1.933438966453620083e+02 -2.205186431483045340e+02 -2.053843952110873090e+02 -4.419896751044639132e+02 -5.578926764844886748e+02 -5.406079289633199778e+02 -5.409913679965601432e+02 -2.249079677632481946e+02 1.991590291920657592e+02 1.609754555059097640e+02 4.214921163598764764e+01 -7.878559228117495650e+01 -5.419393545557598202e+01 1.485260630193729980e+01 6.023713903081829102e+01 1.176347938735222032e+00 -1.253214956586571650e-02 1.516106874733577810e-02 -9.194500700887786593e-03 4.979431117083113478e-03 7.825029590288318931e-03 -2.246971431362316737e-02 3.469957136428592631e-02 -7.882178522567518542e+01 -1.203115941555400497e+02 -2.949459753184457327e+02 -2.032625007836082602e+02 -2.401076341313437297e+02 -1.372987810995131497e+02 -1.748097723305042166e+02 -6.981148961028758038e+01 -1.030035401214041713e+01 -1.204792385233572238e+00 -3.619986410689666911e+01 -9.176453210978499442e+01 -1.022651485286381785e+02 -6.145250568558869730e+01 -1.041756626402640080e+02 -5.915621404230172686e+01 -3.876524351618414244e+01 -3.661541755715183655e+01 -2.571722902025639801e+00 -1.453751516124309438e-02 3.100923993712959362e-02 -2.971116065003197651e-02 5.497169085857135651e-02 8.101500038392413575e-03 -6.708958871880343899e-02 1.779759479941714004e-02 4.985220301596722525e-02 2.453773194289528975e-02 -5.484804264705300109e-02 -1.573730403709186140e-02 -2.015518272688768420e+01 -1.581136757075085386e+00 -5.142410300817483204e+01 -2.404817338050627740e+01 -3.537200378275542079e+01 -1.230801597608094204e-02 6.319722136391781042e-02 5.003484732095843379e-02 9.545874823032897416e-02 -2.091934686055905601e+01 -3.117780880116782072e+01 -3.117225736202131969e+01 -2.594852561544070824e+01 -5.077124889469423863e+00 -1.528002622108119669e-03 3.109751885467728835e-02 -2.265639303616225064e-02 5.833512550470996982e-02 5.042075035181113260e-03 -2.930204084389569780e-02 -2.751704880298731434e-02 1.583923890073705640e-02
2.768750518151900670e-03 -3.903014300417925048e-02 -2.849898772441717895e-02 -1.607532716801271869e-02 2.859833049020278975e-02 2.528356978826992382e-02 -5.076301001320635518e-03 2.317725521331680163e-03 -4.509945555151132976e-03 -2.421229316463936243e+00 -7.149637347281242228e+00 -1.899717011850582740e-02 7.237898976120571426e-02 -3.923285236444662427e-02 1.713836031177276217e-02 -2.417903405410965628e-02 1.662839661731331173e-02 -1.278383765075356664e-02 4.470445631668772818e-02 2.335631541256189339e-02 4.072817307409347387e-02 2.464014879934120494e-02 7.106808325570611318e-02 -4.146886691988360685e-02 5.101031893055604088e-03 1.024622350366710677e-02 -9.633304261203930532e-03 7.001376517450923209e-02 3.771486171458211106e-02 -1.766033185700245298e-02 2.713353051401006660e-03 2.676945388340598586e-02 2.639286399258808369e-02 4.859403514082628883e-02 6.094059666752738719e-02 -4.924624704059413105e+00 -3.609071799447392692e+01 -1.742116735507827912e+02 -1.582540337453150698e+02 -1.280832748566079715e+02 -1.116501533887352196e+02 -1.304631197842472012e+01 -2.880338855681605081e-02 1.626303051897063203e-03 3.435107706437084962e-02 -5.913435604719009114e-04 1.445499457870249140e-03 9.411565476515572001e-04 2.759828926646473377e-02 -7.133899076227162572e-02 -4.647971902955839313e-02 1.321903772480334180e-02 -6.470307848855869938e-03 2.694727529359383644e-02 4.747208991812269102e-02 7.534248579495906456e-03 6.737076960782087398e-02 3.183708362040824774e-02 8.555125671628504343e-04 -3.641324151895563438e-02 2.934977878431471038e-02 -1.710092656187162385e-01 -5.992545347560032098e+00 -1.121164880042560839e+02 -1.956380642227616136e+02 -2.486377025383819728e+02 -2.194146832661568567e+02 -2.263607471919412433e+02 -1.933670765479088800e+02 -1.407869560855812097e+02 -9.316249812404826969e+01 -1.455876537649583611e+02 -1.658720997533436332e+02 -1.658218109406284668e+02 -1.599913071310377575e+02 -3.986668578649258166e+01 -7.247520523751090593e+01 -1.012419847822050372e+02 -2.403975522154994593e+01 3.302165219103878058e-02 -7.910101933905077515e-03 -3.011534507301126540e-02 -5.971923493256236278e-04 -1.188971578780025594e-02 1.450240148776810005e-02 -4.969298690715774625e-02 -1.588254861969744247e-02 6.434738620205002549e-03 -3.278884075671265919e+01 -3.882258095754143312e+01 -1.482115839532509938e+02 -2.833543548563606009e+02 -2.336678416550334987e+02 -5.757394612427550840e+01 1.244972571810321398e+02 -5.173462402309916541e+01 -1.610559548425033256e+02 -3.199308932249616078e+02 -3.539986435599370225e+02 -1.938003328167751818e+02 -1.881261279453455018e+02 -2.328737326918023598e+02 -3.816718318416014313e+02 -4.836455001952542148e+02 -4.052809513955061789e+02 -3.057710422806907786e+02 -1.586235113503927892e+02 -1.764018630107347718e+01 -9.581510646369596484e-01 5.709736938786662275e-02 -5.477226159171569991e-02 2.172491573038219659e-02 -4.423568587145298991e-02 -2.944498450960598285e-02 7.900127182997509351e-04 -6.714459701426247693e-03 -1.032801813920112437e+02 -2.104888681146259160e+02 -3.550432356400660296e+02 -3.029789275788930354e+02 1.098515315134271049e+02 7.716985699094702511e+01 1.408717460971878950e+02 -5.466062052902648816e+01 -1.397607305213793722e+02 -3.696283144968444958e+02 -4.687170063286015420e+02 -4.044780249519053541e+02 -2.497189294622126852e+02 1.646255383857279639e+02 1.284178286755897034e+02 -4.422903147111358066e+02 -6.926507513767248838e+02 -5.271983403107529966e+02 -2.605999613585671000e+02 -6.569228778683581993e+01 -5.174604897505437862e+01 -5.848825734052292091e+01 8.023301522671191094e-03 -8.505411077577683041e-03 -1.936635152688267678e-02 2.217192456253843508e-02 -1.108725748953956582e+02 -1.177710648439310290e+02 -2.536864755547910306e+02 -4.592800453400411698e+02 -4.208121729923087742e+02 -3.249086921922070559e+01 2.165095966638352252e+02 2.385641060686774324e+02 2.121456138639148037e+02 -9.483999032643680493e+00 -1.706948943386099415e+01 -4.360795777739510868e+02 -3.072097159465753293e+02 -2.991441974752445390e+02 -2.471643467636846765e+02 7.461360414997507462e+01 2.627778581700057430e+02 3.787073974174799673e+01 -2.822016972849552872e+02 -3.728919347531908670e+02 -2.188056852062981648e+02 -7.794311456013222994e+01 -1.029592844427460108e+02 -1.226544674608417438e+02 -6.731157863032710166e-03 4.345863924039780612e-02 -7.122545355697586233e-02 6.872132386593475528e-02 -2.274728345415277033e+02 -3.286972149539276415e+02 -4.391399698648875187e+02 -6.363290609838775254e+02 -5.209688083607035196e+02 -4.529215315360833927e+01 5.748019095576357813e+02 6.199100195579125057e+02 3.263711632630636927e+01 -2.213243596739281998e+02 -5.959059481474423592e+02 -4.824865039497678936e+02 -4.580477837789643445e+02 -5.300665027544349641e+02 -2.110743025938942594e+02 2.091736039681478232e+01 -7.614467692247229991e+01 1.033843439015026355e+01 -1.585051054577131140e+02 -1.783257447553642976e+02 -6.640144067270306039e+01 1.528129603680147675e+01 3.719781487087266214e+01 -1.449600296826355077e+02 9.041696970885690909e-01 -1.104210502756156585e-03 -1.952979752435132083e-02 5.824866700379058293e-03 -2.414089542416751044e+02 -5.425273982311457530e+02 -7.808010312406327103e+02 -1.101043717700040588e+03 -7.701206838108436159e+02 -1.639735999607415395e-01 5.157977230072471002e+02 3.272619369703670600e+02 -3.006661435636500528e+02 -6.300262482395060033e+02 -2.666676837925231212e+02 -1.529513967474968013e+02 -1.007381363719988485e+03 -1.012257567769838943e+03 -6.865867966800632303e+02 -2.986390523946323583e+02 -5.333719894444153908e+01 -1.891620380788715750e+02 -2.477954745274247159e+02 -3.264879600889114499e+02 -7.363576653877163380e+01 2.178679327773507168e+02 -4.085063073096496566e+01 -1.966775912629360619e+02 -6.230627154332365336e+01 1.281224874170264682e-03 -6.768856620297423847e-03 -6.355698679481426439e+01 -3.345171163884757561e+02 -8.664801155052452941e+02 -1.337159142019312185e+03 -1.524297197577355746e+03 -5.322184179719381518e+02 6.526760385093019750e+02 8.060834346039483762e+02 2.165891823487448562e+02 -6.273102315165535856e+02 -4.742104935865845050e+02 -5.136656870464045141e+02 -5.256181509939998477e+02 -6.959148140005185041e+02 -8.683365105604690370e+02 -6.354165382768982226e+02 -4.666106580185756343e+02 -4.127001763231065183e+02 2.470145293769431021e+02 -2.343767277569731391e+02 -7.627314809690851689e+02 8.026695928507260192e+01 3.219421959429187723e+02 -1.848538958402911092e+01 -2.232813689643084558e+02 -1.419168915663419170e+02 -1.107158314160733119e-02 1.388651091472354509e-03 -8.750167787219274373e+01 -5.138153587770840431e+02 -1.335315824338737457e+03 -1.828743554140132801e+03 -1.540851400940498024e+03 -5.209127583753364661e+02 8.180501329718722445e+02 1.351796134304116549e+03 6.372767953875190869e+02 -7.136009371460334023e+02 -8.480750292467337204e+02 -3.268456042876422885e+02 -1.634682809539324069e+02 4.463632763830099748e+01 -3.578363741741336526e+02 -5.899448158136115126e+02 -8.971129635591084934e+02 -9.584664190219366446e+02 -2.317197365942531633e+02 1.007219866743805028e+02 -6.107895057773368990e+02 -4.272422616283131447e+02 4.120182364125291201e+02 1.754885891131447408e+02 -2.404768301926380900e+02 -2.111980756325917810e+02 -3.919665080414906355e-01 3.575556753461517356e-02 -1.419857087604378876e+02 -6.884730716304246698e+02 -1.584757841493493288e+03 -1.900146437576866447e+03 -1.809193855833772886e+03 -1.065673806178631935e+02 1.041929844851123107e+03 1.079429972655754000e+03 1.887704205218582558e+02 -1.094098153272404943e+03 -9.961728353243646552e+02 -5.338049416736857893e+02 -5.648631510468463830e+02 -5.748737912596931210e+02 -1.237391781169789198e+02 -5.809727494357435944e+02 -1.351557184433254861e+03 -1.703579084390539265e+03 -1.382873676358507737e+03 -8.359827805179911593e+02 -6.937154727938838050e+02 -6.253878047420073472e+02 -2.005321798775493036e+01 3.355263358086595531e+02 -1.994083944727960045e+02 -1.354158760014352367e+02 -6.173157756706797450e+00 -1.306494607498972539e-02 -1.295587937568297718e+02 -6.547469565007540950e+02 -1.557095134677010492e+03 -1.940610055022862525e+03 -1.792492307692129543e+03 3.831565259565539350e+01 1.047749017962398966e+03 7.239468607399570601e+02 -1.130232441806003635e+03 -1.705109398028743044e+03 -9.478495921789207159e+02 -1.002699971131449729e+03 -1.082968573001531695e+03 -6.272869984747975423e+02 -4.123526059572615310e+01 -1.113926083841955915e+03 -2.048069586767185228e+03 -2.114402596158192864e+03 -2.133522498251526486e+03 -1.972376000723154220e+03 -1.633793923095498485e+03 -1.219143917258915735e+03 -8.243038298119012097e+01 3.568007815735135182e+02 -1.159543005044073283e+02 -1.040559252689886449e+02 -4.263463505218347649e+01 9.766525858071473110e-02 -1.250777383631954365e+02 -3.922788347250383936e+02 -1.424009296997967795e+03 -1.856399337464945120e+03 -1.315063031407826202e+03 -7.911621724516186305e+01 7.289089413441922716e+02 1.192452394790953463e+02 -1.706975588145444817e+03 -2.364548953967332181e+03 -1.636502147621884205e+03 -1.238611651348097894e+03 -1.204089746033723486e+03 -1.268318349790469256e+03 -1.055845486987725053e+03 -2.154073177378130367e+03 -3.307300957554075012e+03 -3.250971101199954319e+03 -3.135410066244919562e+03 -3.276165111728766988e+03 -2.716034378002101676e+03 -1.903664182042000675e+03 -7.996180243438039952e+02 1.735590841850238348e+02 2.252173675561079236e+01 -5.722879395058257757e+01 -1.079241673717275205e+02 3.698140935003569729e-03 -6.527366448873871718e+01 -3.197167271342167396e+02 -1.343275132567944183e+03 -2.146595155327659086e+03 -1.675801029384340609e+03 -4.686174078348028047e+02 -5.106982048603204305e+01 -9.141393832067830090e+02 -3.185464014565653997e+03 -3.288217067231509645e+03 -3.186395810008799344e+03 -2.846059011051072048e+03 -2.714073841044827532e+03 -3.371224389783546485e+03 -3.670522890599690527e+03 -4.367001590205219145e+03 -4.529590659860214146e+03 -4.493323038344682573e+03 -4.692969492475013794e+03 -5.166421987601406727e+03 -4.194708410540223667e+03 -2.611629287887612918e+03 -9.382838101028667097e+02 -2.790071906172799459e+02 -6.403522763730018497e+00 -5.386533309886910104e+01 -6.254795841645716337e+01 3.915430571187055592e-02 -7.619128954168211010e+01 -3.466687501897717425e+02 -1.209068884711926785e+03 -2.198950462305067049e+03 -1.953394403794997288e+03 -1.071798645268801238e+03 -9.439756819584412142e+02 -2.484876526019336779e+03 -4.306669925126686394e+03 -4.431705464835454222e+03 -4.518634986771915464e+03 -3.923009131951434483e+03 -3.651894083098751253e+03 -3.897039302070625126e+03 -4.640122619950385342e+03 -4.926552231843756090e+03 -5.106804486426055519e+03 -4.695060165391209921e+03 -5.042942915956477918e+03 -5.305152159028953065e+03 -4.338442175853453591e+03 -2.292266337585211659e+03 -6.431963253850340152e+02 -4.462493022185304312e+02 -2.566012332699470448e+02 -1.838995310330752204e+02 -7.978125474465664979e+01 5.075262279713417535e-02 -7.199115273027842932e+01 -4.185162052521140481e+02 -1.204029508398461530e+03 -1.999372132098737438e+03 -1.700082248029476432e+03 -1.438920152696867490e+03 -1.749647184312575519e+03 -2.654749307659464648e+03 -4.055122898521169645e+03 -4.506136676895865094e+03 -4.546987594863370759e+03 -4.305156642891574847e+03 -3.729364373462187814e+03 -3.474568489511870666e+03 -4.076762889919909867e+03 -3.769379495967163621e+03 -3.946941704769633816e+03 -3.299421722198606858e+03 -3.474168534641009501e+03 -3.918580190333952942e+03 -2.680721026645954680e+03 -9.000018560806570349e+02 9.752052390662910852e+01 -2.027226659502592838e+02 -4.546588034568803778e+02 -3.101333545645710501e+02 -1.411747392484834052e+02 8.955949979112047890e-03 -2.541772539687285359e+01 -3.893940255329725346e+02 -1.105249120086766425e+03 -1.801241084525196811e+03 -1.288440639197299788e+03 -1.129736789693943820e+03 -1.492770434888662976e+03 -1.544801900166379482e+03 -2.771062299333054398e+03 -3.122730775160194753e+03 -3.383019990689042061e+03 -3.160713413656977082e+03 -2.178944123931017202e+03 -1.549817483965007568e+03 -1.415336985764560723e+03 -1.488097229414516733e+03 -1.311429017273550471e+03 -1.408332751506984096e+03 -1.508126977332610750e+03 -1.628643649750083796e+03 -9.449887115021258523e+02 -6.589184744824788709e+01 4.610103360278188802e+02 -2.312673247599636284e+02 -5.845662965592691762e+02 -3.255694955646883955e+02 -1.813749285009747894e+02 3.679554758248671561e-03 -3.929941069871359360e+01 -3.720801367774137134e+02 -1.023656112146143073e+03 -1.242079704397349360e+03 -1.146886114987366682e+03 -9.787848386573132302e+02 -5.742432196732440843e+02 -6.303758715101232610e+02 -1.295238576643614579e+03 -1.491894560435008998e+03 -1.874583180876341885e+03 -1.173661971489123289e+03 -7.289735133291964075e+02 -2.818449636566915615e+02 2.403965856576447209e+02 2.181016206258574357e+02 -3.012166852494997471e+01 -4.740302807354897254e+02 -8.071297024306516050e+02 -7.938110848858246982e+02 -1.037662146272484165e+02 3.554267578155019010e+02 3.104727037244997518e+02 -6.154610020398046117e+02 -5.416804543440298403e+02 -3.075088801481676342e+02 -1.059489053863122905e+02 3.067710498307890665e-02 -6.044029460836902246e+01 -3.502609272013092436e+02 -9.756810023902256717e+02 -9.536273843086063380e+02 -1.151432476545393456e+03 -1.333607191011460600e+03 -2.825326755594004453e+02 -9.991324427933696484e+01 -1.801191022025309678e+02 -3.731442702045388842e+02 -5.541470843972991815e+02 -1.164082919181723241e+02 -3.742672173425553410e+02 -1.612171188436881835e+02 4.684178700148885355e+02 5.212482368282225025e+02 -5.380204002356371973e+01 -7.682249017524413830e+02 -1.188271007862867009e+03 -1.256776670773134128e+03 -3.161206289946400716e+02 2.986595456945300953e+02 4.548211753364168430e+01 -4.550762826322347223e+02 -4.077366399215787851e+02 -2.499236545824953168e+02 -4.784352207711857830e+01 1.951616151558674406e-02 -3.391638704040235430e-02 -2.889467633956346617e+02 -9.449697663622848722e+02 -1.007536900443215814e+03 -4.903744464029248320e+02 -6.118467568487029666e+02 2.733511467427999264e+02 7.859968042742924581e+02 7.134992277712281066e+02 2.327686254406147270e+02 3.053413148833860191e+02 3.605686062858027299e+02 1.468957132170440616e+02 2.887364088465756851e+01 -3.992093410990513291e+01 -4.172088589071388043e+01 -4.291215430568766465e+02 -1.267714472535486948e+03 -1.518391443793953158e+03 -1.286760207097803459e+03 -7.403084512700469304e+02 -2.047182969028648643e+02 1.494667362529294792e+02 -9.336245273839185188e+01 -2.104838717806201203e+02 -1.573008747132783185e+02 -2.908421552290171164e+01 1.170684814694309198e-02 3.983246872836051361e-02 -2.264857045114420941e+02 -8.958536835353003198e+02 -8.175410315349862458e+02 -5.576539925995514295e+02 -3.688363932704214108e+02 5.690580782501009480e+02 7.034131114842606394e+02 7.136461253802060583e+02 2.702972405999725538e+02 6.489260025215544658e+01 1.508355990648580871e+02 -1.011609137924814235e+02 -4.866758539043644305e+02 -8.478946022024273361e+02 -8.449209480059657835e+02 -1.402540933829290225e+03 -1.607404691142609636e+03 -1.613364454147288598e+03 -1.199414046415925213e+03 -2.721155628216025661e+02 5.704100168162475626e+01 -1.684855478318641246e+02 -1.538362483987847611e+02 -2.054417110714313992e+02 -1.873951981644437126e+02 -9.378353450557119331e+00 -5.735728494596613498e-03 2.719893536587070920e-02 -1.178905556912912260e+02 -7.178650685862702403e+02 -4.993885286312864764e+02 1.926045175932832194e+02 2.215730298448191888e+02 8.285653219257450246e+02 2.804259341998591708e+02 8.382933931593385068e+01 1.626675878495412917e+02 -3.003828581171217138e+02 -3.768543862751589018e+02 -5.712316887142958421e+02 -1.158443986435914667e+03 -1.217226747549414767e+03 -1.489466322560587514e+03 -1.296841494417406238e+03 -1.194003708672968969e+03 -1.302450788486945612e+03 -1.088105214183542103e+03 -4.409219168383521037e+02 9.402285743916161120e-01 -2.811073524827422716e+02 -2.253504883484892503e+02 -2.332697265987602009e+02 -1.436617750397404620e+02 -8.924137900301154502e-01 -8.678598941376318085e-03 -7.224154026624063189e-03 -7.902507606053973177e+01 -5.545101511326327000e+02 -3.629559738584276261e+02 -9.749547405194195449e+01 1.157465529312459296e+02 5.991653011494609018e+02 3.396526540844609485e+02 2.194744566456401174e+02 8.120149133632232008e+01 -2.262170035614007872e+02 -6.418753023641102118e+02 -1.093604931599148131e+03 -1.425051071445583148e+03 -1.448996662445508264e+03 -1.321389354764527980e+03 -1.109201019863688771e+03 -8.460605307856358195e+02 -5.359974517121028157e+02 -4.160398049076659390e+02 -4.465350291092821067e+02 -1.226067471839031100e+02 -2.605001587883322145e+02 -2.416595157378664851e+02 -1.323312877167331010e+02 -9.338195059578708879e+01 1.473278875267791665e-02 3.244868558986550855e-02 1.794270185990162053e-02 -5.322063501706753641e+01 -3.178224528248504157e+02 -3.203280971427843156e+02 -2.248412263683625270e+02 1.797172394668266975e+02 4.389386914714775116e+02 2.752331583799117993e+02 2.886239886290800314e+02 2.838499195901898702e+02 -2.507482890947910619e+02 -7.961154011980639780e+02 -1.132938000020738855e+03 -1.424758820855103977e+03 -1.157301298206866477e+03 -9.648840495375239925e+02 -6.209567341338039341e+02 -3.577882952136894232e+02 -4.554251994806161861e+02 -5.540442746443000033e+02 -4.910703356969034985e+02 -2.423739468053080088e+02 -1.883860866864262391e+02 -9.373655771900732248e+01 -7.474160551013116560e+01 3.427221915631164031e-03 5.754797976507589931e-03 -3.612611951320198606e-02 2.332873716887353885e-02 -1.551824825251066242e+00 -1.123543414430297389e+02 -2.774786344113351220e+02 -1.095845682838728408e+02 1.056781710088006037e+02 3.130337638337049384e+02 1.320948718778521709e+02 1.132902696917969934e+02 1.287746498866939078e+02 -2.743676786409202464e+02 -5.876719398126914484e+02 -6.810171756895274484e+02 -8.237675996054695133e+02 -7.263635470124345375e+02 -5.754062149584121926e+02 -4.027176146935940437e+02 -2.875035796600103595e+02 -5.947552721840811500e+02 -6.311802295067147952e+02 -3.087946580702855499e+02 -2.376626062325580335e+01 2.195788322623829103e+01 -2.935925896638904220e+01 -9.023640826106223756e+00 -5.554399116363457900e-02 6.329464245950410135e-03 3.124756108188740666e-02 2.259768107975362178e-02 6.362353354934436288e-03 -2.407770499966663991e+01 -1.177372835741686714e+02 -1.706268809360096270e+02 -1.187693242671177813e+02 -2.949500478197533582e+01 4.214457001269930458e+01 -1.454423017741619901e+02 -2.328941165805573519e+02 -2.084171297381931822e+02 -2.850754330860409596e+02 -3.661437707572334830e+02 -4.438284661923564158e+02 -4.306818350069994494e+02 -3.095976177785501591e+02 -8.516599735518545344e+01 -1.124123025223345280e+02 -2.270686610392965576e+02 -2.560810185590598849e+02 -1.019516668872203127e+02 1.577978934007389533e+01 6.409528168510063040e+01 1.245302435698931731e+00 1.921064818454626053e-02 3.067892782574500182e-02 1.830152188452450687e-02 -2.208626173815608426e-02 3.728834531418947357e-02 2.778556168860653319e-02 4.290226923289136574e-02 -8.898127120334393680e+01 -9.106480209691666516e+01 -1.325446820306102040e+02 -5.371533238722519599e+01 -2.699969932967298547e+01 -7.246991371607336418e+01 -1.437278029205565133e+02 -7.908795505254663283e+01 -1.149688613024416028e+01 -1.825852851431778667e+00 -3.831312260370409462e+01 -5.928909862723138957e+01 -9.336050401371130647e+01 -7.395312852725038510e+01 -1.237342877929016538e+02 -8.676676007442833338e+01 -7.245618071496215862e+01 -5.989202677070571923e+01 -3.993569578656984476e+00 6.205259387470692806e-02 -3.935604034339924839e-02 3.186814432448459300e-02 -1.393987028158665681e-02 2.672734332560661522e-02 1.271798637412620107e-02 2.331394130692198037e-03 -9.224651891987614358e-03 3.778418758239079998e-03 3.221203028084475978e-02 6.455693897941414995e-03 -4.370216292411804204e+00 -2.628977705973963297e-01 -8.720401311902838515e+00 -1.490922036010852381e+01 -2.793208451265688907e+01 -3.212362204453901040e-04 8.533848724997818852e-03 -2.812551413464929595e-02 5.457368900785600913e-02 -1.494473342320250353e+01 -3.446515192224404700e+01 -3.954926703826352252e+01 -3.202003169040744979e+01 -6.324738640808306833e+00 2.132192411084922121e-02 -1.449744828002842538e-02 3.803976474313274653e-02 -5.956968355318795205e-03 -1.449779307209501586e-02 1.471918642121968109e-02 5.475385554129364937e-03 -4.100142134502660074e-02
4.148321161862818934e-02 1.941280255355316495e-02 -3.057567396010265563e-03 -6.934204081855617485e-02 3.175342757447980474e-02 3.458275880944296221e-02 -2.255916232955088030e-02 -1.350630216165822281e-02 5.288237345095683252e-03 -7.908913859240310096e+00 -2.359650084472801979e+01 4.486189923482446218e-02 5.612409711382431582e-02 -1.193029323968040033e-02 -1.141895127965321388e-02 -4.748662549282544471e-02 -2.684672491857830259e-02 3.001908952074806847e-02 7.311229229470278534e-02 7.470201222847681899e-02 8.462563602587767214e-03 -2.231054889451333442e-03 3.221494491671171318e-03 -4.825886373446798550e-02 -2.380284565628550467e-02 -2.659253861979037764e-02 -4.148127370494549687e-04 3.518699175529167028e-02 -9.988399206767127961e-03 9.284650602478411105e-03 2.397527909260122048e-02 -4.545310714554821191e-02 -3.009094023255915254e-02 5.117182364975705541e-03 1.693713363826473842e-03 -3.935680694046772565e+00 -6.173122025014674819e+01 -3.324882568208521434e+02 -3.005551549624495351e+02 -2.048553170227796727e+02 -1.727489684401571424e+02 -1.992295873626906655e+01 -4.946673952568816229e-02 -8.138694329830050561e-03 5.708111843924903311e-02 -1.935586079665213002e-03 1.187225618574079544e-02 -1.828931926924530190e-03 -7.877616080151151820e-03 -6.912440966212971341e-03 1.581421296630399279e-02 -8.273447265128143144e-03 4.805504991399401314e-03 3.506525747040453028e-02 3.114835175849330149e-03 -2.841490010400220950e-02 1.791840458856867879e-02 1.105880098710228243e-02 2.925022066623722376e-03 1.485105761356195382e-02 -2.902899022390376810e-02 -9.647831998274160326e-02 -4.831032326700318791e+00 -1.498274525110178672e+02 -3.144356553612022367e+02 -5.581192783746877240e+02 -4.742289640088235956e+02 -4.311148046883138818e+02 -3.614820023358876711e+02 -2.268092412041251009e+02 -1.262586510252992156e+02 -1.280375371751968885e+02 -1.458691356948366149e+02 -1.458992977888888731e+02 -1.407444982984125943e+02 -3.503877381147446357e+01 -9.071168706014827876e+01 -1.300301732252452211e+02 -2.742494885894174317e+01 6.995460119745940814e-03 9.401247956546593398e-03 -3.647221249827611151e-04 -2.959512020494840454e-02 6.519085867083061758e-02 2.843017002069127622e-02 3.697173816047059219e-02 -2.556428688370150984e-02 -2.071435860790560735e-03 -2.554587687219285641e+01 -3.689330520455384743e+01 -1.836054850812809320e+02 -3.295848814561857125e+02 -4.774687576501764852e+02 -6.313687085944299042e+02 -4.361375542676986470e+02 -5.060623399958899995e+02 -4.274957286866477943e+02 -5.452662531177379606e+02 -4.800455413602461476e+02 -2.329038823082925092e+02 -1.937363744603103726e+02 -1.855488496523308868e+02 -3.668134059475038953e+02 -5.189334303232450338e+02 -5.522358907722425556e+02 -4.742086257937763207e+02 -2.253405099181535149e+02 -2.847520959543126651e+01 -1.145890623217985960e+00 -3.330782191953133436e-02 2.363354424534153120e-02 -2.748002888091004639e-02 -7.956970892058589165e-03 -2.390600140386697769e-02 -1.855088454527614381e-02 4.939236933310937189e-02 -9.436682471596682831e+01 -1.492262349228223286e+02 -3.439887068544858835e+02 -2.663695715735146337e+02 -1.835170164812967926e+02 -4.584421433663231937e+02 -4.359121545792976349e+02 -6.335875645904466182e+02 -5.740360051023176311e+02 -9.279072025066471952e+02 -1.016949387744078876e+03 -7.610774025724480225e+02 -6.522138642828508637e+02 -3.394511959462169557e+02 -5.048202083911086220e+02 -1.115036146595851733e+03 -1.309817551209739349e+03 -1.001656397408957559e+03 -5.139838698568042901e+02 -2.050367790349783945e+02 -8.689807473038820262e+01 -7.195940482832880036e+01 5.412309494718191977e-02 -4.750058967789951188e-03 3.421410389539728675e-02 1.498613395157381498e-02 -1.130230475140373869e+02 -1.220955833120040666e+02 -2.486469977620061229e+02 -5.076536123302436749e+02 -3.699326422793661209e+02 1.633686670010319233e+02 -4.337306025865628811e+01 -2.298025994639335750e+02 -5.208638654685836400e+02 -9.172443468754861442e+02 -9.980864044439775853e+02 -1.900138243395277414e+03 -2.143111585347575328e+03 -2.293101470543567302e+03 -2.445268418573413783e+03 -2.238622486129356730e+03 -2.293727466939437818e+03 -2.384575747980304186e+03 -2.332252086429588417e+03 -1.700143800980477408e+03 -1.172184813688156964e+03 -7.328195089404583769e+02 -4.221364936231732372e+02 -2.150202238411550013e+02 1.345207776320485327e-02 -6.399651622485566516e-02 -2.265756839866281749e-02 5.881014279444054388e-02 -2.234676982920422290e+02 -3.208537558030760124e+02 -3.964702184279718153e+02 -6.391483285023801955e+02 -3.722866277705554126e+02 -9.516364704533344820e+01 4.570926244581389710e+02 6.785924259819892086e+02 1.666914952988642540e+02 -5.317399637307045168e+02 -1.671217528782975251e+03 -1.953183886074712973e+03 -2.188988116846142020e+03 -2.778153641490778682e+03 -2.672900984368230183e+03 -2.678601565693359589e+03 -2.846423473957509486e+03 -2.737703573277824489e+03 -2.570226450137678057e+03 -2.633068377480492472e+03 -1.800408238131263488e+03 -1.259436706243506251e+03 -5.067362760011528735e+02 -3.068956068788827451e+02 -3.248660539347554277e+00 2.409818380740513105e-02 -7.042821613556141114e-03 -4.547136831272674193e-03 -1.922142603395185176e+02 -4.585957259084697171e+02 -5.518210060914752830e+02 -6.079782092971393013e+02 -1.778426346788901071e+02 4.202748112636671749e+02 8.610870077588982667e+02 7.694744094138379751e+02 1.692151796510820247e+02 -6.146777240367537161e+02 -7.788096506695385415e+02 -9.445567641343861851e+02 -1.931627664879385293e+03 -1.893456013756341463e+03 -1.562311562902602645e+03 -1.294722619720505236e+03 -9.089359455463367112e+02 -1.251128856114258042e+03 -1.739264980641937655e+03 -2.124785107563687234e+03 -2.271125151629115408e+03 -1.466081755792481090e+03 -8.158208594288901168e+02 -4.069566247436352455e+02 -4.446776790231441367e+01 -8.344003367316199168e-03 -2.647195395848958924e-02 -4.836446063744197232e+01 -2.226386881857481228e+02 -5.676640958587047407e+02 -6.728220247265928720e+02 -7.081956119920514539e+02 -2.292684704351369760e+02 5.085410834934656350e+02 6.489869868683659888e+02 -1.661399242592022674e+01 -6.013096700829165684e+02 -2.285714020124171668e+02 -4.198838353069504024e+02 -4.741474336871784772e+02 -5.273713440132469259e+02 -2.389672793575967091e+02 5.755176880045059988e+02 7.532922811412549891e+02 8.589441355030763816e+02 5.878192867008532403e+02 -7.381009434644166731e+02 -1.521439997713076764e+03 -1.200193029616530566e+03 -1.375301861484857682e+03 -6.786380855558099938e+02 -2.804329429015559185e+02 -1.356408698599846616e+02 -1.384180224528829819e-03 2.516332497533029997e-02 -6.865211758586421809e+01 -3.378063813239398883e+02 -7.387166257759793098e+02 -8.762629291194580219e+02 -7.301892166700502003e+02 -1.174755931406144555e+03 -3.256531150929499177e+02 5.749505311560430982e+02 4.229962938469476512e+02 -7.896791624589809544e+01 -4.036264117956531550e+02 -2.687343657885427461e+01 1.695740457341215688e+02 1.205459885432651845e+03 1.869164439210517230e+03 2.448517738376534453e+03 2.030681663353062504e+03 1.044594376194725328e+03 7.137715645157463769e+02 2.729347868810955333e+02 -6.474368750046753576e+02 -5.019471723067123889e+02 -1.271684578194280846e+02 -6.476271515470070028e+01 -7.218451098527923193e+01 -1.808046693755880199e+02 7.917494175087556180e-03 -6.491439121474150073e-03 -1.186041079241779528e+02 -5.083662229513050761e+02 -1.045291711140509733e+03 -1.073207217736818848e+03 -1.574989267097306083e+03 -1.400134449798678133e+03 -6.451664018831596650e+02 -7.414440900122259848e+01 7.944220970603133480e+01 -6.393463435721147334e+02 -3.313609673551001720e+02 2.615941348489058100e+02 3.033591684075408352e+02 9.233846851147586676e+02 2.545616100819039730e+03 2.593880103151529966e+03 2.082590061581041482e+03 1.172744955003214500e+03 2.336389903322880173e+02 8.290546892595082795e+01 2.470779178418461299e+02 4.173531966099002375e+02 1.045322832763270071e+03 6.770603786589313131e+02 -5.321327632675551911e+01 -1.332155802360267387e+02 2.699752513144468291e-01 8.484695436769690291e-03 -9.918323858315291375e+01 -4.227380325766053488e+02 -1.023786898319344004e+03 -1.060763633560217158e+03 -1.770960910434559764e+03 -1.254542057071033923e+03 -3.154366557692836750e+02 4.910025710290877328e+02 -2.950754035336732883e+01 1.262103781132582867e+02 8.097496120314884820e+02 1.802350782443614889e+02 -7.845547215049812451e+01 7.247626431694892517e+02 1.861477545531474334e+03 1.788692320975744906e+03 1.261547081362647532e+03 1.256309961843328665e+03 1.029811932926152167e+03 2.496435882774983099e+02 4.980886321473254270e+02 1.148750292146993161e+03 1.975260066226757090e+03 1.155893601687043883e+03 -4.779318626685502380e+01 -1.695905498519671823e+02 -3.737219032170567345e+01 3.205379353600100456e-02 -1.072938022935260278e+02 -1.362823592305730926e+02 -8.230273631679360733e+02 -8.644365967794390144e+02 -1.179645724595398406e+03 -1.092463160586581125e+03 -1.676811120997211333e+02 1.253265693767685207e+03 7.315266311413968197e+02 8.150511201827071091e+02 9.199779807891792416e+02 2.971354850135983270e+02 -1.066794703605086170e+02 -1.945360549256773766e+02 1.005171961226848907e+03 1.161963948825458147e+03 5.956004611817160139e+02 1.032183651904314502e+03 1.062562395543268394e+03 5.694401117769386929e+02 2.488957817359283524e+02 1.009182046877524385e+03 1.694880979475645290e+03 8.715108855123691001e+02 -2.228324183034245891e+02 -3.533021598053238108e+02 -1.360684038328921304e+02 3.181416197571545340e-02 -4.041031217629785743e+01 -1.347916937016521111e+01 -5.678880774546846624e+02 -1.014289657069022496e+03 -1.312352758853983687e+03 -7.645376999276232937e+02 5.196203149669073582e+02 1.816199670732446521e+03 7.121701152378551569e+02 9.971945415894746247e+02 4.183539065151595082e+02 -1.047916240712669520e+02 -5.420600211289893195e+02 -1.114750539250125712e+03 -1.961109783994696159e+02 3.633293863670990049e+02 5.464453298890824726e+02 6.819657752625878402e+02 -1.598447691452336414e+02 -1.040448354099158905e+03 -8.673813146585233653e+02 2.798838630769749898e+02 1.107744414733676649e+03 2.086012956385531254e+02 -6.422812164643462438e+02 -6.550119841010985056e+02 -2.410642356440897061e+02 -6.983271643442573624e-03 -5.161011085877461113e+01 -3.509027549148936664e+00 -4.401863490728596275e+02 -1.135194078443300441e+03 -1.572507978686271144e+03 -7.383564234138120810e+02 1.044086913929371121e+03 1.403041858442386228e+03 8.266050600694480863e+02 8.486383892262349491e+02 2.818265302561813428e+02 1.890875377468766487e+02 -7.148757046444852676e+02 -1.216858531460532731e+03 -8.662233379515370189e+02 -4.943164483903712494e+02 -3.177232623190374170e+02 -3.269457553711442301e+02 -1.388348271086754721e+03 -2.554498675340269983e+03 -2.087554241116353751e+03 -3.291005136327132732e+02 2.041981304119094034e+02 -4.504647399212772712e+02 -1.269011371831096312e+03 -9.971367959186569578e+02 -3.207036541974097759e+02 5.844345523117921298e-02 -3.772745868142131798e+01 -1.273292621513726033e+02 -4.125666707947611371e+02 -1.068694948548289858e+03 -1.087930882817706106e+03 -8.607224212158116643e+02 3.336015561539056762e+02 7.653427693696786491e+02 8.530679146721810184e+02 4.451968387501332245e+02 5.893178857592968143e+02 -1.694894759395021424e+02 -9.841663572721632818e+02 -1.414112340494449654e+03 -1.371701912231618280e+03 -1.212620785212702913e+03 -1.425687929372047847e+03 -2.036171804954849677e+03 -2.741427273694951509e+03 -3.336091288733163310e+03 -2.052394764730854604e+03 -3.443710612657105230e+02 1.429406513381747175e+02 -7.119370328645824202e+02 -1.592938917555590933e+03 -1.099138994630409798e+03 -4.126766799174754397e+02 2.431915963861266614e-02 -5.373376378579276746e+00 -7.001137989320527311e+01 -3.087145192379755372e+02 -9.492856398410083330e+02 -3.707300070206145506e+02 -4.819165575836165658e+02 -6.177023081815711976e+02 2.075724327268797822e+02 6.090430497617912806e+02 6.029382966565767674e+02 1.643617323504524848e+02 -6.226286740659671750e+02 -9.830924384031795853e+02 -1.145708093269494384e+03 -1.292847028026659018e+03 -2.025009093926616970e+03 -2.324369692093267076e+03 -3.028597939662751742e+03 -2.876714589915548913e+03 -2.718603832753910865e+03 -1.399544148183555535e+03 -7.167137323228196522e+01 5.243101377261124298e+02 -4.472598292322235238e+02 -1.273298530868346006e+03 -9.222361395402518838e+02 -4.262416038730829655e+02 -1.629022619530545030e-02 -7.626452380398617947e+00 -7.935714024240864717e+01 -2.940009332877855854e+02 -2.752771758031057630e+02 -4.419355176400205778e+02 -2.610227145057377243e+02 -8.863265155449314534e+02 -8.000770970937890070e+02 -5.056369938806985260e+02 -1.188186953169513771e+02 -6.138674129063699638e+02 -1.556075394838414354e+02 -6.391874491959736133e+02 -1.280797434240018902e+03 -1.221296663381905319e+03 -2.242974017720057418e+03 -3.003069615286456610e+03 -3.211728783942701739e+03 -2.702234527499183059e+03 -1.515400155529303674e+03 2.592148336848346162e+02 8.548724624223515320e+02 7.133926933639617118e+02 -1.094429260844941837e+03 -1.082584353082879943e+03 -6.274907787707753641e+02 -2.059753224437764061e+02 -1.006999833282587048e-01 -1.414425911964818461e+01 -1.443287489974503899e+02 -3.692753455464023205e+02 -9.003132182384941018e+01 -6.463675244553040784e+02 -5.513706168538490147e+02 -6.421623394093280695e+02 -1.306919763828193481e+03 -9.320743159823159658e+02 -1.149590232495742157e+03 -9.248049719733825214e+02 -4.079406960077290023e+02 -8.945258715297113667e+02 -1.108968484936583081e+03 -1.141666587548756524e+03 -1.639794827254294205e+03 -2.459312092373440009e+03 -2.938293322973658633e+03 -1.830260624842624566e+03 -6.525633569099313718e+02 1.077467880903637933e+03 1.397948564824697542e+03 5.117261695798240453e+02 -9.392229956049759494e+02 -1.003890343760656492e+03 -5.595316113543789243e+02 -1.085371027453791299e+02 3.400740755482242056e-02 -4.905789396826686771e-02 -1.735104077014083828e+02 -4.583039152517229127e+02 -4.126484412372921042e+02 -1.093653131754664258e+02 -5.567815188459306910e+02 -3.475112174337114652e+02 -1.085156187242558872e+02 -2.996934060127185830e+02 -1.010512388256015470e+03 -4.268024209734258534e+02 -7.893507818738150661e+01 -1.679332725332377265e+02 -2.252796163362260984e+02 -3.871221081915035143e+02 -5.308273347670921112e+02 -9.180939661532596574e+02 -1.385264696087145921e+03 -7.730117085243853126e+02 4.605743645484477611e+02 1.203234759804958912e+03 4.503330422644652913e+02 -1.585540273627826480e+02 -9.196687756570387364e+02 -8.808668496707970235e+02 -4.673828438693051339e+02 -9.193567291036654865e+01 -3.236845473523183164e-02 9.769256659395538639e-03 -1.578743137057159913e+02 -5.325453890957122667e+02 -4.671673858165235060e+02 -6.413945718282402595e+02 -1.188733769519096768e+03 -5.299623308023510617e+02 -2.015886547512945128e+02 5.994703535788188020e+01 -2.236252596483411708e+02 -3.354554417594586084e+02 1.220675762202854919e+01 1.149650970197805293e+02 1.214360318049619991e+02 2.074538085932900628e+02 4.872299931215053448e+02 4.356079530780161804e+02 4.883711177142137103e+02 5.624441706956808957e+02 9.620755699895147472e+02 1.238362533224289791e+03 1.533598254072781515e+02 -6.988437953279350268e+02 -7.892856641349374058e+02 -6.672143265993244086e+02 -3.561903806077277181e+02 -1.078983462088641332e+01 2.721446259010060556e-02 1.220997031182383639e-02 -7.784646552611053494e+01 -4.662929281731613855e+02 -3.283619775580871760e+02 -3.584216181545392601e+02 -1.535376871825249964e+03 -1.104056987165041619e+03 -1.411074515683251548e+03 -1.083117976417196360e+03 -6.409696265068562298e+02 -5.463644906813577791e+02 5.539752994531139052e+01 3.036233033823507981e+02 1.559907666693148443e+01 6.209394962575042882e+02 7.310407261904914549e+02 1.447311226832385046e+03 1.477172073081952703e+03 9.464281082574113952e+02 4.904878140260596524e+02 2.682846780764001551e+02 -1.573624580275646849e+02 -5.756860466537528964e+02 -3.992857206409960327e+02 -4.604762249303400381e+02 -2.207602950559945327e+02 -6.592087291126598192e-01 -2.398590072459974576e-02 -6.930138510458673518e-02 -5.637071272680584144e+01 -4.048041116117069578e+02 -2.607465843942131869e+02 -8.226605214091534890e+02 -1.708934621265904070e+03 -1.691183039842792141e+03 -1.966890691688373408e+03 -1.502721106275259217e+03 -1.173939313812398041e+03 -6.198539494856787542e+02 -7.643950140852145978e+02 -6.647831393761842946e+02 -3.041861946345981664e+02 2.736185249226221217e+01 7.142883645314429941e+02 9.924090342345758700e+02 7.891655496612709157e+02 7.506103057401611522e+02 3.227057448560653938e+02 -2.192498677495974846e+02 -3.473088369929417354e+02 -4.310084684657310277e+02 -3.307841201344123192e+02 -2.013474842879064965e+02 -1.626140940592378286e+02 2.546111160952141406e-02 1.960708977049220245e-02 -1.984439003666155221e-02 -3.795116254768136344e+01 -2.309523389351964511e+02 -2.516535068836798530e+02 -8.085851929268111462e+02 -1.326121351069438333e+03 -1.495463457331881727e+03 -1.513920358979322373e+03 -7.119473964109100734e+02 -6.655413250354214370e+02 -1.368315576759058786e+03 -1.824769675213888604e+03 -1.778674508605166238e+03 -1.468751487853676508e+03 -7.064302929998096943e+02 7.018001836414831018e+01 5.467430286598523708e+02 4.468680685672591153e+02 1.330996705032606258e+02 1.018281561303482903e+02 -1.283738027510195536e+02 -1.823980832239892607e+02 -1.808475125091801203e+02 -7.430674477553652935e+01 -8.353554901840868752e+01 2.226168096285626244e-02 -8.442097199665384022e-03 2.517523834701055827e-02 2.895797295363060700e-02 -1.107348479030650479e+00 -9.121023026183921445e+01 -2.352912185107416008e+02 -3.685612401696320148e+02 -8.946132518993254052e+02 -9.209385822445743770e+02 -9.189583988903000318e+02 -1.971577358662868278e+02 5.738112375273404098e+01 -7.888923861485619682e+02 -1.530758815956067792e+03 -1.643294854162025331e+03 -1.716297812217477713e+03 -1.186677698468105973e+03 -4.173421960794285042e+02 2.535252164937689656e+01 1.384663505968289030e+02 -8.715823154571300080e+00 -4.849847206326286297e+00 -2.934373299074670172e+01 2.714625509430956285e+01 1.004003344071072279e+00 -2.922558926748251196e+01 -9.053359642886610104e+00 -1.959907613270714388e-02 -4.226019895666762241e-03 -1.899319152205204350e-02 -5.084893686056125156e-02 4.939584758910467790e-03 -2.433994881413255129e+01 -1.171061861440592935e+02 -2.338495011238232451e+02 -3.394203187690645791e+02 -3.468007329742171692e+02 -2.275197804877779220e+02 -8.911994777931504075e+01 -1.000001735099923081e+02 -1.671000369283826217e+02 -4.147816059158380426e+02 -5.644487816441411496e+02 -5.298937975848280075e+02 -4.778969418580882120e+02 -1.338318516589060607e+02 1.905752693295744677e+02 1.431094891817711243e+02 6.754286704289145860e+01 -5.149943098746897618e+01 -4.745917957583444036e+01 1.782349349912977488e+01 6.623120547326014673e+01 1.270701982434727650e+00 1.715276824660175864e-02 -9.324803581631220528e-02 1.982253695101462564e-04 -3.637699844052549175e-02 -3.805402431664180359e-03 -1.044153347061126634e-02 2.970963515130459198e-02 -7.958884503828339518e+01 -1.235476723606252420e+02 -2.426947531597078012e+02 -1.721412684491807568e+02 -1.843862691619187615e+02 -8.796876754041771562e+01 -1.019171836911175717e+02 -4.508847749735719646e+01 -5.539516207356519395e+00 2.092896350678916384e-01 -1.540677676532424378e+01 -6.903222956886841644e+01 -7.430609175835786573e+01 -4.554156082371248715e+01 -7.565296419863203425e+01 -3.006772538692947094e+01 -3.343589961318232184e+01 -3.606270651929126103e+01 -2.305588348415850586e+00 2.606640720605806621e-02 1.622245670685644459e-02 -2.167579296987972790e-02 -2.178880949100738169e-04 1.917799925068960215e-02 -2.671971592091025235e-02 -9.063104676008893607e-03 5.609476588866101759e-02 7.335087570312501769e-03 1.634528860858749932e-02 -1.738170159537838835e-02 -1.059546924973841620e+01 -1.067040275064647048e+00 -4.034063328834871243e+01 -1.241690569593720816e+01 -9.737193839833127029e+00 -1.185022246791335616e-02 9.212883331204459528e-03 6.079601709576928914e-02 1.063875747738269283e-02 -1.821728448411697698e+01 -2.285935052193041273e+01 -2.103966199419103233e+01 -2.033694830775120366e+01 -4.058158377163213260e+00 -3.707123121975577917e-02 9.980902302542652219e-03 -2.116910746624895909e-02 -3.990783505911786773e-03 3.328170048784503000e-03 -5.565823205733352180e-02 5.864459605362426498e-02 6.678386434115576864e-02
-5.462862431674908592e-02 9.886315312579843639e-03 1.116656979122788301e-02 -1.267351278367154568e-02 5.358475209314368486e-03 7.800952224214281749e-02 -1.195369414134761152e-02 2.637719806602396508e-02 6.610292263434040805e-02 -8.561332766949412587e+00 -2.566375707444393584e+01 -4.663644467926453263e-02 1.309405224464573044e-03 3.610335016332830160e-02 -2.510165179838554778e-02 1.741895261355342825e-02 2.910633255087593727e-02 -2.230893802052534916e-02 -6.974584391932368843e-02 7.655501511112987323e-02 -2.563162961970142512e-02 8.759637118552255491e-03 2.631399502830093773e-02 -2.941512706783125375e-02 -6.997273208549050459e-03 -3.358843776555833077e-02 2.914814729145344743e-02 1.167487262934937924e-02 -3.466740003504006906e-02 4.453478366524726839e-02 2.048060975387205537e-02 5.875359491512407301e-02 6.859314627332365778e-03 4.345128860553990752e-02 3.877724625778405237e-02 -3.539973112055708970e+00 -5.637693097535854747e+01 -3.477905567561256817e+02 -3.157135949488798587e+02 -2.187257021841815288e+02 -1.774120346669647574e+02 -2.016518497305827040e+01 -1.099058649372962673e-02 -2.139411043130182849e-02 2.616820522473603181e-02 -3.371018912004247747e-02 -1.117762985682179376e-02 2.834099276403853271e-02 -2.444649032985161258e-02 -3.139762665918902074e-02 7.072592174421128697e-02 -2.631272575086793936e-02 -1.178476014093863232e-02 2.710243892729203782e-02 4.657623639407992150e-02 -6.374832681355305231e-02 -2.518739942828488246e-02 2.347705909282175180e-02 9.061364778021470086e-04 6.685018611934714916e-02 -3.628927028599707866e-02 -2.448215849623940621e-01 -6.612630655830219695e+00 -1.885943836059211094e+02 -3.765849640677238312e+02 -6.339926457773121911e+02 -5.232648737192712360e+02 -5.014014690198891913e+02 -4.077966858877886125e+02 -2.496248786529054087e+02 -1.560520391334234205e+02 -1.213834301646432721e+02 -1.382523498054464994e+02 -1.382566881383767736e+02 -1.333531322244224668e+02 -3.314071942215695543e+01 -1.061789403557165770e+02 -1.455708625549439716e+02 -3.721560824176979310e+01 -5.963799795543443284e-03 -1.151279142671330843e-02 2.336687353018401109e-02 5.259503907601418421e-02 7.258680793367016607e-04 -2.978966834517715601e-02 2.712947058052105412e-02 3.111865629843348774e-02 -1.474104378014891477e-02 -3.544660226108295120e+01 -5.905917217091352001e+01 -3.115879715554973473e+02 -5.640357681534165977e+02 -8.285843789738032683e+02 -1.041774118632204136e+03 -7.376702945347020659e+02 -7.665307737417369935e+02 -6.393707255202734814e+02 -6.639305789371601350e+02 -5.502621006278621962e+02 -2.435349338153518204e+02 -1.282872152482294439e+02 -1.709824219268797378e+02 -3.524979233831447800e+02 -4.871834526465470390e+02 -5.244805829195405522e+02 -4.495884916714853716e+02 -2.295411186015168710e+02 -1.756847053938189873e+01 -7.628711517016435462e-01 4.114456523880923033e-02 -2.686631328999763979e-02 -9.949936781600278793e-03 -6.858458146225793195e-02 2.500423928466260701e-02 -3.420705150278235615e-03 -2.305412110765804948e-02 -1.460018460447902555e+02 -2.528881889608281881e+02 -6.476923897268229666e+02 -9.561186699798721520e+02 -1.245979038027059460e+03 -1.644977580717093133e+03 -1.366793434004509436e+03 -1.223604568232620750e+03 -9.865640744760883081e+02 -1.206501656044638821e+03 -1.180886608408562779e+03 -7.947314253046727117e+02 -5.191846366018427261e+02 -5.362439018149596137e+01 -1.399352360506672710e+02 -6.946037199661054728e+02 -8.677160979731748967e+02 -6.666637448514779862e+02 -3.546531347726782428e+02 -1.302459304915994842e+01 -2.038607991401214292e+01 -5.250561621136500889e+01 -1.276625260842092352e-02 1.394380860462834763e-02 9.633736708805731505e-03 -1.450893290516096050e-02 -1.251673570253847316e+02 -1.761642704576400433e+02 -3.677694319161979024e+02 -8.094851452278595616e+02 -1.105198140462641959e+03 -1.100418924682962370e+03 -1.758285107528109393e+03 -2.041768739869067986e+03 -2.181250703459504166e+03 -2.320249933559103738e+03 -2.074235044216022743e+03 -2.404105285343728156e+03 -2.078547707746507513e+03 -1.662676266031714022e+03 -1.319741213923891337e+03 -8.805331077523577505e+02 -6.311559613217930291e+02 -5.542176146634822089e+02 -5.265572890090494411e+02 -2.443925071763670474e+02 -2.281323275657011891e+02 -1.340215138904548553e+02 -1.432541442784035723e+02 -1.536124246940497073e+02 2.654220583368525031e-03 -6.199158646609028225e-03 -2.160595386544679822e-02 -1.105062891526292952e-02 -3.038982899379182641e+02 -4.499586018787780972e+02 -6.651651688998477994e+02 -1.440041862133832410e+03 -1.610381479926660404e+03 -1.971453216314688461e+03 -1.642858014955122371e+03 -1.321715188822373420e+03 -1.526080567612290224e+03 -1.591710731210513131e+03 -2.056617333803719248e+03 -2.002708143440060667e+03 -1.905782296932440659e+03 -1.691702079879202529e+03 -8.698887435381196838e+02 -5.369210611239583386e+02 -3.299819651644285159e+02 1.355427760645761168e+02 2.023362512797712895e+02 -3.124633398494268022e+02 -5.397016347623270605e+01 -2.399099036120855999e+02 -1.577208718222514960e+02 -2.329795022703543452e+02 -3.685659579667573293e+00 -1.798574431251196912e-02 3.409307283298640412e-02 -1.866301741192357908e-02 -2.360877258339101274e+02 -6.324675874591990805e+02 -1.022050963161703066e+03 -1.446034277666632306e+03 -9.160730572645157963e+02 -7.353166935256889474e+02 -4.312860138991543977e+02 -4.833024531091690505e+02 -2.446803679835277592e+02 -4.761487835190583837e+02 -3.925978865076813236e+02 -4.738526871544539176e+02 -1.452330232019818141e+03 -9.563308403204782735e+02 -3.929360651023811783e+02 1.853802253100426469e+02 7.801691245759922140e+02 6.017563384757168023e+02 2.522313710041360935e+02 -1.283555066346356455e+02 -2.842866624291742141e+02 -3.673607154388949994e+02 -4.887103827367050712e+02 -3.878203109271877338e+02 -5.109047506544854400e+01 1.141084805543389306e-02 -1.930829979472385369e-02 -4.407835333374027442e+01 -3.151639736442825779e+02 -8.601843350509576567e+02 -1.161707303922653409e+03 -1.000854005969969080e+03 5.900506392975692194e+01 7.635373132174235025e+02 5.590744906904795926e+02 1.068663774803354301e+02 3.374294551971722740e+02 1.300723291601802202e+03 1.187643736710546818e+03 3.930257548730172630e+02 -2.827243520740227467e+01 -6.764079170420076537e+01 2.310536772501153280e+02 6.405053903714220951e+02 1.215052199224690639e+03 1.428642616380505842e+03 3.210482388331407151e+02 -1.211854565143345326e+02 2.184158746343490236e+02 -6.102416427480051198e+02 -8.358023036687332024e+02 -6.069539547678906501e+02 -2.357732638101680323e+02 7.323548789482221225e-05 2.381662671481877755e-02 -6.739827132060692350e+01 -5.192521182341163239e+02 -1.200226762409124149e+03 -1.280711838311719930e+03 -5.865743522656365485e+02 5.968224089845871561e+01 1.072295330527581882e+03 1.543426217700229927e+03 1.541596318686145651e+03 1.241549179590987478e+03 1.351913435254227124e+03 1.722264492455604568e+03 1.044205333196596939e+03 1.269517468367689617e+03 1.035385173266821312e+03 7.107870240190378581e+02 3.457490070036323004e+02 4.097339299121504723e+02 7.645845715451014257e+02 1.270324274890092511e+03 3.885656171997243291e+02 -2.415430562575032241e+02 -4.603283658192800090e+02 -9.088570766940034673e+02 -8.557027596474371194e+02 -4.686845433323226757e+02 -8.122426456815030615e-01 3.119359319718299946e-03 -1.585454254112621584e+02 -7.718729419245962617e+02 -1.580017184083768143e+03 -1.302262224481241219e+03 -1.079767065727025283e+03 3.239174448164528712e+02 1.025266592014294702e+03 9.754275444847932022e+02 1.268288683676229994e+03 7.367466226694269835e+02 4.459268242868763537e+02 7.611697096429307976e+02 2.380667562000480189e+02 1.744292158895388525e+02 1.310390226068853963e+03 1.032579870132859014e+03 6.593826763289179382e+01 -2.753629536288232202e+02 -5.117635501527916517e+02 6.466476703910038282e+01 9.656269930882563131e+02 2.692391204593697296e+01 -1.002529831683716338e+03 -1.089679818623783831e+03 -1.049759292016974541e+03 -5.385054926567482880e+02 -1.338916642087275299e+01 -1.755761102485885183e-02 -1.532355339843618367e+02 -8.179418846499627307e+02 -1.518860948790126940e+03 -1.059417566112922259e+03 -1.100730965754084082e+03 2.640733146304158936e+02 5.573666405852911794e+02 6.865760479249098580e+02 -1.446480451852526414e+02 -4.323843625408206321e+02 -2.388975464925788401e+02 -7.891413843167512141e+02 -9.358264698522815479e+02 3.874153004657927113e+01 1.445921992490625598e+03 7.376266576827201789e+02 -4.340798335996997253e+02 -6.753615708914613833e+02 -1.024212462145505242e+03 -6.529605077095242223e+02 6.342706320439715455e+02 3.024495904507264186e+02 -9.172497832043940207e+02 -1.411811083359812983e+03 -1.188464991057456700e+03 -7.119353716379117714e+02 -7.111455357737231964e+01 2.990918367495042432e-02 -1.517356993503117906e+02 -4.695416366537875206e+02 -1.298881030546002876e+03 -6.445566643669652649e+02 -6.047058390522232685e+02 -6.814312660258960364e+01 -3.718933875856245130e-02 4.296794151074699926e+02 -7.516031723708258596e+02 -9.541194437934058215e+02 -8.089793204345793356e+02 -1.034982649536783128e+03 -4.875478414570706605e+02 6.188890930023164856e+02 1.344944268426970211e+03 7.400756365172217102e+02 -7.151580923257217819e+02 -1.020418355068520668e+03 -9.660825863558933406e+02 -6.337199795733489509e+02 5.268247249863276238e+02 6.641424224500585751e+02 -9.161284742631308973e+02 -1.790175727369097103e+03 -1.286944587169683473e+03 -9.891401010148975956e+02 -2.036281693537340800e+02 3.532536889813776230e-03 -5.538462637143422995e+01 -3.565962268757484139e+02 -1.019476930090917449e+03 -8.244933974234814968e+02 -9.455453337199037378e+02 -4.548947717804252875e+02 -7.527844383187246535e+01 3.111497592984144376e+02 -1.062842571368548988e+03 -9.224728788918545206e+02 -1.189088834347585816e+03 -1.153907585817579957e+03 6.658542301438863831e+01 3.099234676740211398e+02 4.361699490007907798e+02 4.681649086187925946e+01 -2.478782412305601213e+02 -6.527512039945761444e+02 -9.648234705959257553e+02 -6.509018307553230898e+02 3.572009128671918461e+02 8.964808092881089578e+02 -1.742921545196678892e+02 -1.438504099387581391e+03 -1.137362707765093546e+03 -1.210267907655125782e+03 -3.077283912736683078e+02 1.575758491998434721e-02 -7.049818119857619081e+01 -4.339646952456511144e+02 -7.992806977193425837e+02 -8.081072985094713204e+02 -1.653872139893603389e+03 -8.509072769959382185e+02 1.265381266955807682e+01 1.890774982033120750e+02 -9.764657791747762303e+02 -9.033397028919303011e+02 -1.129971503616161499e+03 -3.452189991627642485e+02 1.479541488054595675e+02 3.284973517335403130e+02 -2.164193719676696332e+02 -3.037070191812798043e+02 -2.732067132129743641e+02 7.523022747991697656e+01 2.044525982603747138e+01 -5.227411024987660682e+01 5.624278845417499042e+02 9.487062026916902369e+02 2.007490173420821975e+02 -6.523217496268124478e+02 -1.074818810005858268e+03 -1.307465714590937978e+03 -3.697564088396933357e+02 -1.465646956465450033e-02 -6.813734390459532619e+01 -5.229937002876621364e+02 -7.329728008551953735e+02 -9.191609239225476813e+02 -1.365416612159589022e+03 -1.197012394646759958e+03 -2.381751092073841392e+02 1.383697535009023909e+02 -1.189275350370682247e+02 -3.680792905375836312e+02 -1.686411080762413519e+02 -3.364747867676822466e+02 -8.028192622371760123e+00 -2.286771554444081005e+02 -6.036318995240507093e+02 8.862111803743519545e+01 3.161556370564169924e+02 4.763244591039778015e+02 3.885668433997710736e+02 7.338167563340631716e+01 7.481512776993990883e+02 1.164033442314879494e+03 6.053246912271267774e+02 -2.946147902779200649e+02 -1.371455020192016036e+03 -1.307971453722741899e+03 -4.891891590718435054e+02 1.250898173298571094e-03 -2.403047018946528013e+01 -4.728276715054794863e+02 -7.324942252196583468e+02 -9.146125403207968247e+02 -5.170807936813118886e+02 -4.682644192481656091e+02 4.108760537957572296e+02 9.359652705580713246e+02 4.308583893103181595e+02 1.020527122470547852e+02 -3.097880117421778436e+02 -7.078111911978485296e+02 -9.988131218889467391e+02 -8.308049237577785107e+02 -4.847616665344784792e+02 -4.247128621992447393e+02 1.872738970256200730e+02 2.107779970677368553e+01 4.923252997169813483e+01 9.368480734939306842e+01 5.047032718514657859e+02 8.576320041411739794e+02 9.034011462817976508e+02 8.091230427499962019e+00 -1.225248526049126895e+03 -1.177769958800152153e+03 -5.269088140005439982e+02 -5.334756057514447591e-02 -3.598271354040582537e+01 -3.946824164873488030e+02 -6.891509367801418193e+02 -1.300874087138196842e+02 6.059610168896124804e+01 6.206517677555938235e+02 8.049674468231595483e+02 3.445164763175060330e+02 -1.050155041945218954e+02 -3.595755091388517144e+02 -1.277293017937072818e+03 -1.209262754075172779e+03 -1.901136203809072867e+03 -1.753813658429137377e+03 -3.766655697738461868e+02 -6.197638674799635510e+02 -7.784163700735542761e+02 -1.188335822109994524e+03 -1.267265070968983991e+03 -7.093742701354480573e+01 9.877698372427854565e+02 1.287903736787162870e+03 8.289307801571264918e+02 -8.572944382875854217e+02 -1.253574156658199854e+03 -9.825540464789215775e+02 -2.753526423484580050e+02 -8.774589701221423982e-03 -5.526238946034086297e+01 -3.249108179755393166e+02 -4.661671896072987806e+02 3.296296069303522245e+02 4.089574892273101909e+02 8.589811374508414019e+02 8.532984025203541023e+02 -4.343710226086023454e+02 -9.027461680452920518e+02 -1.664778209175286747e+03 -1.880014965162601584e+03 -1.588231697823070590e+03 -1.983386379057352087e+03 -1.629989035165362566e+03 -6.667887558888724016e+02 -6.696683682797465735e+02 -1.362631853129267711e+03 -2.426805141382853435e+03 -1.682567295437680514e+03 -5.788282190814328487e+02 1.012185413636717612e+03 1.440639446575757120e+03 4.857889583983900934e+02 -8.658863101165947000e+02 -1.231361045371797900e+03 -8.511802302858872054e+02 -1.361058908718273983e+02 7.789267404071929454e-03 2.611680976153856609e-02 -2.226401431666166104e+02 -2.818288786428396975e+02 3.359581467953061633e+02 1.294965724593346749e+03 1.108837686507879198e+03 8.020350647027521518e+02 -1.292498538779830994e+02 -1.035078692962296600e+03 -2.210318769164692185e+03 -1.732516242238413497e+03 -1.526682942352242208e+03 -1.444371880192124763e+03 -8.976017879877231280e+02 -1.927360933414903457e+02 -2.751063485249828773e+02 -1.162864128304568112e+03 -2.117401317070384721e+03 -1.469805256262090097e+03 -4.095550238071200511e+02 4.708199836761839379e+02 1.143669026540950426e+02 -1.459069925540906638e+02 -9.615735125922498128e+02 -1.081638524862861459e+03 -6.230390451605318276e+02 -1.011007731588465646e+02 -4.384092883331704854e-02 2.208036953465085557e-03 -1.546683257120662631e+02 -1.915027715958530621e+02 4.597059101191644004e+02 9.797013503712028069e+02 6.857936955495533766e+02 6.033318206375352020e+02 -2.314384235507738197e+02 -7.818838832857611578e+02 -1.266700837407380504e+03 -1.676726256666778681e+03 -1.924651987377134446e+03 -1.641614652217109096e+03 -1.171622682852030493e+03 -7.304031956266221641e+02 -5.853063704198171990e+02 -8.693385505932735668e+02 -6.882353350116064803e+02 -7.625604164867156669e+02 -1.314638699635289640e+02 6.387232929142023750e+02 -4.695041882893484342e+01 -7.925951788291699813e+02 -8.978780152168008044e+02 -8.600986582703202430e+02 -4.319713317075358532e+02 -7.261072218428597402e+00 -4.026018658028902852e-02 -5.239494402316547533e-02 -6.298433405887826808e+01 -9.294159330551717346e+01 4.698910097211569337e+02 1.290732732814094334e+03 9.879287474685372672e+02 8.639573413980410805e+02 -5.175163580877643881e+02 -1.048061083905834721e+03 -1.074225243303963907e+03 -1.601954558047946875e+03 -1.486838683067999682e+03 -1.316206104550731879e+03 -1.617991772766894655e+03 -1.138437045350726066e+03 -1.179984225214630897e+03 -3.916744680998838817e+02 -1.203671954191095210e+02 -1.013543689048629375e+02 -2.021441408355340457e+02 -2.662794999159822282e+02 -5.229466924780941781e+02 -8.606555091687718004e+02 -5.681854705561502215e+02 -6.532301453486944638e+02 -2.796894142795646303e+02 -2.057790177072462423e-01 -2.738295978394690924e-02 -1.043501691513650832e-02 -4.029317032182355973e+01 8.345957441711499669e+00 4.090733092660540819e+02 5.450543855244736733e+02 5.829550205858004119e+02 4.382405912664133893e+02 -4.685479900396617836e+02 -9.544170988452995061e+02 -1.426791714198770023e+03 -1.370593930955836640e+03 -1.564315460888368762e+03 -1.521176174891428218e+03 -9.499171667321943460e+02 -9.606469374936406211e+02 -7.061224776490971635e+02 -4.101635073669575604e+02 -3.356875983289755006e+00 4.775541699996610419e+02 -5.199699406561573056e+01 -7.361426496320318620e+02 -7.586229957026120019e+02 -6.016008310805499377e+02 -4.841542700705807079e+02 -2.654490532686375559e+02 -2.131677307045984264e+02 2.011445440438879365e-02 -3.094002176188886261e-02 4.172835436302038681e-02 -2.712888839632468674e+01 5.801143984861350411e+00 2.278460282463240105e+02 9.969105283198614131e+01 1.838722678300594566e+02 -2.325199601286682949e+01 -6.821906495004099042e+02 -6.443419958952778188e+02 -8.888566589050029734e+02 -1.491428044606317144e+03 -2.090171820785325963e+03 -2.229570149162785583e+03 -1.917859614953207256e+03 -1.258643711274098905e+03 -6.033898010142896737e+02 2.798592302149184263e+01 3.708495196618659406e+02 2.126286962715377626e+02 -3.528214712139300104e+02 -8.106021072506737255e+02 -4.530588410598484188e+02 -2.849495837922744386e+02 -1.314782294215675904e+02 -1.098394733682980444e+02 -1.131239013508478566e-02 -5.866984992313303837e-02 -1.108232766739676751e-02 1.829637114417451485e-02 -7.820647919767341749e-01 9.451541096151478527e+00 7.769777687469030525e-01 1.280815549763411525e+02 -1.941824485655455490e+01 -1.845994717039537818e+02 -6.518285879375032437e+02 -3.603300603179788482e+02 -2.142198808692725720e+02 -9.972688092088394569e+02 -1.642607622628255058e+03 -1.723815424509475633e+03 -1.901302327373669414e+03 -1.469685734386584954e+03 -8.200482932544155119e+02 -2.685671745448596539e+02 9.109473984251675205e+00 -1.040218415126163620e+02 -3.793763261476848925e+02 -3.576568335252734414e+02 -1.374899061089107306e+02 -1.514754593620710743e+01 -3.867529153510059103e+01 -1.189360159229136826e+01 -1.230824734763135732e-02 -5.003646085033452984e-02 3.543552751454859761e-04 6.237534006603039603e-03 1.088007331192940470e-02 -3.598372095707882412e+00 -4.582628982771036874e+01 -1.053066251464944685e+02 -1.163085745540776372e+02 -1.709645255986548023e+02 -2.812134035645696599e+02 -4.589376714949012239e+02 -3.945872317116172212e+02 -3.426787923020656876e+02 -5.578857761190895417e+02 -6.484320146600522321e+02 -5.959856606000652164e+02 -6.242274047221777664e+02 -3.160395218589147248e+02 8.141797085753221097e+01 1.170816691792814765e+02 3.963626085340300165e+01 -1.402237846304282698e+02 -8.833713235109529194e+01 1.762421622713583957e+01 6.861085983521252274e+01 1.240435991678748628e+00 2.823264733703621798e-02 -2.373336676594420963e-02 3.755222684319724225e-02 -2.665225906287006785e-02 4.197254134038802542e-02 3.084037118264769742e-02 -6.427962716327620396e-02 -4.291739315256463527e+01 -6.667926261145269962e+01 -1.236368548260465161e+02 -1.346186086042562238e+02 -2.190310677610091830e+02 -1.559150147948246286e+02 -2.358813422884964837e+02 -1.111591583536805672e+02 -1.980896680456288905e+01 5.890262180486778298e-01 -8.291906416060111695e+00 -7.754357003391730530e+01 -1.180467805422021854e+02 -8.547372639529400828e+01 -1.039095605412735353e+02 -5.612686267259130091e+01 -4.710689169658679987e+01 -5.482037289550078896e+01 -4.074033512934128964e+00 6.858375248863536437e-03 2.114406328464375068e-02 -1.897834681627242129e-02 2.472780481592741844e-02 3.349543372710032940e-02 6.120233071764934890e-02 -4.041481647651742892e-02 1.889850676200217775e-03 5.192760846955987719e-02 -7.469522616599508225e-02 7.363649005474380560e-02 -8.716048113832293609e+00 -7.893755334248173661e-01 -3.084960865589179946e+01 -3.150788085870935618e+01 -6.072947527533071366e+01 -2.964598244884935133e-02 -2.136164864418665411e-03 -5.835502238652730614e-03 2.357991214578884775e-02 -1.578805731394204592e+01 -4.271835978558020486e+01 -4.899749715986509102e+01 -2.433001677094221549e+01 -4.827764900931931891e+00 8.432988941034828823e-03 6.892845767551424030e-02 -3.682392208379627746e-02 -2.398431965154466244e-02 3.089397376912234039e-02 2.988307333131201560e-02 -2.144566248126096239e-02 3.222543607849642083e-02
