-1.464653339868072016e-02 -4.035281733600953186e-02 5.051732081222928307e-03 -1.046145556719474574e-02 2.626066030069441545e-02 3.383672965447432485e-02 -1.262029701169500168e-02 4.344873941866068956e-02 2.058237054356005374e-02 -8.702688934280757849e+00 -2.603245076041459427e+01 1.811410533994215963e-02 1.584355291737934643e-02 5.355114701990586548e-03 2.140001663488173139e-02 -1.461064717447678289e-02 -2.392700441688603435e-02 -1.014557725823378616e-02 1.796663187348176288e-02 -1.258144475835344667e-02 -2.464629201569119550e-04 -6.291713318092791163e-02 2.038114843712968572e-03 1.916171256821486493e-02 -1.687919939269964115e-02 3.733814876638466562e-02 -1.332358193966826088e-02 -2.953417205024908010e-02 -9.519037136033836263e-03 -2.422273335425017757e-02 1.788456011091910797e-02 6.261039145222150638e-03 -3.974714319716911304e-02 -2.470065413278315497e-02 -1.276494528792893783e-03 -3.042492145043147911e+00 -6.407891415031561166e+01 -3.570506632227117620e+02 -3.541348370298215968e+02 -2.422264592523617637e+02 -2.139468721273996721e+02 -2.515572274400697950e+01 7.645874446880958873e-03 5.128275052484201901e-02 -5.247547682974274333e-03 2.506587633180020619e-02 6.213269260016070217e-02 -5.790946201696203777e-02 4.129596927268753409e-02 -4.911034267874007236e-02 -5.556235990155808380e-02 -7.506792784338639155e-03 -1.268104851165132666e-03 3.671676186613358206e-02 -7.122975712957000001e-03 3.606147438996294002e-02 -1.585615046135663286e-02 4.433423567911776858e-02 5.300711485203783019e-02 -3.586658349977495802e-02 1.494588502559735400e-03 -3.589155665247644733e-01 -7.920907212433988320e+00 -1.147786438025999871e+02 -2.704502304778308712e+02 -5.267916123161306814e+02 -5.031234143102453800e+02 -5.127652895712147938e+02 -4.884272705823996148e+02 -3.180840454811279301e+02 -1.450311481730942944e+02 -1.427041775434253452e+02 -1.625277051089612712e+02 -1.625461266265672862e+02 -1.568337787543693196e+02 -3.903284761474951381e+01 -9.688324303934531656e+01 -1.385811705998898162e+02 -2.936772766451685968e+01 -2.600029611543131988e-02 -8.413226151749192416e-03 -3.880328989282999519e-02 1.409222044388793588e-02 6.339721732214932681e-02 -7.641974747166413451e-02 -4.815385100743933833e-02 5.579939948477377273e-03 3.422155866601652580e-02 -3.678492541554319217e+01 -6.918436677315962413e+01 -3.088939863956335330e+02 -4.961394056641265706e+02 -7.577624280460536283e+02 -8.984370124638537618e+02 -7.238508275498307967e+02 -6.394221281301864792e+02 -5.003184864565910743e+02 -5.438445216761675738e+02 -4.772769053919255953e+02 -2.652567728838753283e+02 -2.689417434472771333e+02 -2.518130924506298243e+02 -4.247929563967441027e+02 -5.432541175250670449e+02 -4.865206854351968104e+02 -3.657137193359825460e+02 -1.714434604347288769e+02 -1.489004777483354403e+01 -1.273906519648964064e+00 5.638051847805524569e-02 -2.930253991331732005e-02 -3.870618311410637530e-02 1.958001430654519870e-02 -3.385629354104973537e-02 -7.347748292757162562e-03 -1.806596949727737322e-02 -7.324540258414980087e+01 -3.743869894374639671e+02 -9.838975288485175952e+02 -1.166017965888646586e+03 -1.097728574557324009e+03 -1.335244935158193357e+03 -1.278910261070757997e+03 -1.146432283781186015e+03 -8.199906926665753417e+02 -1.317152438783422213e+03 -1.399781312424893486e+03 -1.317406796129417671e+03 -1.202063072304657908e+03 -9.624710755543028426e+02 -1.019327364002377180e+03 -9.820826740843267544e+02 -7.540639312109690309e+02 -5.270846183464082060e+02 -3.379797782688532948e+02 -1.668375428521660524e+02 -1.129810526669362929e+02 -7.711196258779260404e+01 -2.498684134016301850e-02 4.937360610032847513e-02 4.392411766153648395e-02 3.862954881884045344e-02 -1.243210763230880360e+02 -1.939904330273237463e+02 -4.033812533668253195e+02 -1.115133290510576899e+03 -1.558530197947968418e+03 -1.290214459545186401e+03 -1.399990798397433082e+03 -1.422815865721955333e+03 -1.693681671157532946e+03 -2.145978270067239919e+03 -2.002714980204632866e+03 -3.279729509711160972e+03 -3.763174275543744898e+03 -3.767719810130246515e+03 -3.356552373076153799e+03 -2.915762432202932359e+03 -2.438254523170352513e+03 -1.679485508144828145e+03 -8.952339625679994697e+02 -3.256775462175583016e+02 -1.509367866309480064e+02 -2.407145893109848203e+02 -3.035000299636050158e+02 -1.750765776803119138e+02 -4.269711067330644177e-02 -5.486169363433986146e-02 1.005674079744872402e-03 5.175474940192701691e-03 -2.787016755300061845e+02 -5.408205509160139854e+02 -9.444308106480037850e+02 -1.985977748702277495e+03 -1.911400009301084538e+03 -1.716142945433728983e+03 -1.345645996496054067e+03 -8.213187936914779357e+02 -1.015790396710408800e+03 -1.934719064630442290e+03 -2.976610771903734076e+03 -4.115371040116057884e+03 -4.883943250768442340e+03 -5.127236517829165678e+03 -4.138563466691793110e+03 -3.357465458028790181e+03 -3.020194361317271159e+03 -2.447753935298918805e+03 -1.892600234905796697e+03 -1.232399695532922351e+03 -1.629855776870822979e+02 -3.136592305329711508e+02 -2.155695273673770487e+02 -2.160352827930900901e+02 4.175257812689703307e+00 -1.837234188846099611e-02 4.652524336084609691e-02 1.093809326385235120e-01 -2.386547052275462875e+02 -6.552933474610605344e+02 -1.187730658670218872e+03 -1.647799845658789764e+03 -1.162963213398126527e+03 -9.652918135285922290e+02 -3.436775102576928589e+02 -1.430251877844145554e+02 -5.240328224340817087e+02 -1.426672035766547651e+03 -1.350397819769780654e+03 -1.603649036903939304e+03 -3.174176612173426292e+03 -3.263150216925815130e+03 -2.408944962106168077e+03 -1.623521398601164037e+03 -8.188479172141817344e+02 -1.056564027415097598e+03 -1.229656021461718865e+03 -1.373131669187180023e+03 -4.976026710217668665e+02 -7.160679998247651667e+01 -1.617208060669478300e+02 -3.549306613159849917e+02 -7.890691598458633393e+01 -1.212302780463105252e-02 -4.491287551308019432e-02 -4.903384814293649185e+01 -3.287000380858462023e+01 -5.860900466964675388e+02 -1.368450417914495119e+03 -1.373353183408235054e+03 -5.738765732292205257e+02 1.968921030705956241e+02 7.587056044233358989e+02 4.903150067661108551e+02 4.747169599562262192e+02 2.385527825200552741e+02 -4.880619404805239725e+01 -4.865900252301272531e+02 -5.413843859675233716e+02 -9.292600527467100164e+02 -1.011902386746768798e+03 -7.007005892861269558e+02 -1.056643256365244525e+02 7.801896508502215966e+01 -8.392122098515504831e+02 -6.736124972118468577e+02 4.420921452426110250e+02 1.384437756294320252e+02 -3.630511425436558284e+02 -4.317250916021446301e+02 -2.079929405829340112e+02 -8.615474757512156870e-03 -5.008740089631298284e-03 -6.354923790815169582e+01 -2.257855095282011462e+02 -1.083541002440431612e+03 -1.576970525888281145e+03 -1.021105012775257819e+03 -1.254222099942466286e+02 8.739982144930581853e+02 1.469855857978885524e+03 7.917356439374335650e+02 1.120149330561553711e+02 -1.597871532038334692e+02 -2.044972257669753617e+02 6.053287749874945121e+02 8.283794641616700574e+02 6.416041324472369070e+02 3.670194911102873903e+02 -2.303491248573239147e+02 -2.936664307705496668e+01 1.256807753737970756e+02 6.113924777989045651e+02 -2.139360893188137425e+02 4.064425836189077472e+02 6.793815063947128010e+02 -3.728495987692618883e+02 -5.488742694359222014e+02 -3.559274800856301226e+02 -1.152491086141492982e+00 -5.593215603191262035e-03 -1.123216789477490067e+02 -7.600427047646868459e+02 -1.477205043462821550e+03 -1.456317681981509850e+03 -1.640434502031799639e+03 3.634055069573895480e+01 7.196631141184265061e+02 3.565385757144937315e+02 -7.535556791010941424e+01 -7.439475297733901016e+02 -1.191054659182574596e+03 1.050489333658457127e+02 8.087698430956987750e+02 1.016055632404937228e+03 8.766456673763080971e+02 4.400354523214886058e+02 -2.484327580417727432e+01 -4.529144913788007329e+02 -1.352862930811583908e+02 4.600939974648889574e+02 1.242046054809438402e+02 -9.274807064518117272e+01 3.080836908458663856e+02 -3.162885949443649380e+01 -5.902293910721632528e+02 -3.198038848341528819e+02 -1.637074801647945677e+01 -5.387031297724408779e-02 -5.692673371583549624e+01 -8.104703698034090849e+02 -1.448500169794171370e+03 -1.452671824774684865e+03 -1.824518408003609011e+03 -4.033867231595664293e+02 -2.873428683559962593e+01 -1.652185210563776820e+02 -1.341528428987873667e+03 -1.595752434675487621e+03 -5.724876653393538390e+02 3.626553218593899146e+02 5.041710303770972814e+02 8.467854489385658781e+02 1.128753600215269671e+03 5.997669471642085455e+02 4.719854979064350431e+01 2.689901896816301132e+02 2.789478318938541292e+02 4.430588969157398083e+02 7.950559944388131406e+00 3.033107410365102652e+01 -4.055234475783995407e+01 -9.977533182598490669e+01 -4.960863237892945676e+02 -4.047457677646983711e+02 -6.990089415641558901e+01 -3.979758829826198982e-03 -1.056705393052160673e+02 -5.746112550853738412e+02 -1.612995496416677497e+03 -1.028862798991631962e+03 -1.031669968744882681e+03 -1.164048132184423821e+03 -7.316658608409177305e+02 -5.017645225271868412e+02 -2.127812857649752914e+03 -1.302053542079929457e+03 -6.519125511953382102e+01 6.301448991849140384e+02 1.043521446532750588e+03 1.155289569871004005e+03 1.399461792083947785e+03 1.411045796549181659e+03 6.000516908371151885e+02 2.713764196389056451e+02 9.746082574207237030e+02 8.024316171327143365e+02 -2.539335645443267353e+01 7.037940274984778455e+01 -2.231550015855818003e+02 -3.251160379087024239e+02 -4.947951668846233702e+02 -5.619053579368749070e+02 -1.583359198170682589e+02 4.105441728530632300e-02 -2.993558622536832559e+01 -5.165519281533426010e+02 -1.414462246069833554e+03 -1.278659164587943451e+03 -9.590235711764474900e+02 -8.940126647662297046e+02 -5.470790545740286461e+02 -9.440357716729705544e+02 -2.054374084501113430e+03 -1.049164657195778091e+03 -3.537875531724383791e+02 5.080853474379713361e+02 1.189734142646127111e+03 1.127456186700717126e+03 7.424126962448513041e+02 8.868679363825000337e+02 1.145344524694875417e+03 2.992688041766120364e+02 8.549792038045853815e+01 -1.788066459651674052e+02 -9.125609565948232103e+02 -8.953579554866486205e+02 -7.059375892347426316e+02 -3.419219070891147680e+02 -5.927865543179358383e+02 -7.085715369902354723e+02 -1.864887034227211871e+02 -1.733247273612197395e-02 -8.054628350426750671e+01 -5.492195638178570789e+02 -1.045654475648353127e+03 -7.600085716977329184e+02 -1.188539314416380648e+03 -9.661774252982405642e+02 -5.254798580480684222e+02 -9.154819841955448965e+02 -1.521201872768989460e+03 -8.845417047184778312e+02 -2.763784597480673142e+02 1.374867772826259625e+03 1.259537216431721390e+03 8.402655705251644349e+02 -4.526899009141978780e+01 -1.170643124504562564e+02 -1.017014160559505626e+03 -9.204973983534740682e+02 -1.245654524006528618e+03 -1.481536406426057738e+03 -1.658943998987165514e+03 -2.004907050612839612e+03 -1.355752212452840240e+03 -8.362347453185553547e+01 -8.758250347887508269e+02 -8.259686644461412470e+02 -3.330153834194991873e+02 -4.091773205921020451e-02 -8.075447403265714286e+01 -4.667454694717828829e+02 -9.956997821472888290e+02 -4.137674510718989040e+02 -1.392374450347312518e+02 -6.920639772338187186e+02 8.824834242423337471e+00 -3.964780266851487767e+01 -7.044523359040616128e+01 4.160229723940989288e+02 8.481795784692803863e+02 1.441655033756024523e+03 1.081740129372316915e+03 1.395285417493783484e+02 -1.162845709570074632e+03 -1.567855204604976052e+03 -2.386564386894621293e+03 -2.338450430163704368e+03 -2.013277792042870033e+03 -2.037313333952260109e+03 -2.038685724860016762e+03 -2.460495085969118918e+03 -1.437490240652299235e+03 -5.281482977830089567e+02 -1.261473647809547856e+03 -9.922985299836897184e+02 -4.517836526419156371e+02 -2.912532937534909744e-02 -1.050853148551900063e+01 -3.304312489793946384e+02 -5.237796661339681350e+02 -5.448531360451603405e+02 5.234883333588077221e+02 4.260315485510258782e+01 4.849593765903060216e+02 7.559999890433642804e+02 4.463761043426478636e+02 6.328938833863032869e+02 3.051137225358190221e+02 6.432543333018088560e+02 4.381976915739530796e+02 -5.362085509552192661e+02 -1.181813610737943463e+03 -2.259260151450616831e+03 -2.447449281765038450e+03 -2.453652494905251388e+03 -1.038222697954338628e+03 -1.081483552116194460e+03 -1.445650271686154383e+03 -2.212982295884214182e+03 -1.468007737538252059e+03 -7.078205323768868311e+02 -1.240436034386661277e+03 -9.366643129020623064e+02 -3.881138843292849288e+02 -9.696705340245675292e-03 -5.409649576316955866e+00 -2.280301760458989122e+02 -2.507315021853236487e+02 -3.194340615237258589e+02 -2.807168104288249424e+02 -2.286190929455081289e+01 -3.697141839998499790e+02 -1.672185542940887331e+02 -4.430341292059147804e+02 -5.043937489214199559e+02 -8.274944885795533764e+02 4.955040531339328709e+02 2.021995947823710935e+02 2.749043627936375742e+02 7.382981557221206970e+01 -6.054997097641099799e+02 -7.914591954562811225e+02 -8.622557327071283453e+02 -1.834009809637930459e+02 3.487188371423518447e+02 -5.598961113034772552e+02 -1.414526466943302921e+03 -2.149455791064674486e+02 -5.098970001819653248e+02 -8.688550302189788681e+02 -6.900857296409029686e+02 -1.637181947351333520e+02 9.882290302737498436e-03 -1.575334778338617525e+01 -2.375098637882887829e+02 -2.806273115777526073e+02 -1.227809698260327167e+02 -6.519794100669575982e+02 -1.080066225226420329e+03 -1.146897223530069141e+03 -1.394790601241487593e+03 -1.689359965690799299e+03 -2.190808329712198883e+03 -1.160516484980742462e+03 5.276299575686107346e+02 1.028707594021325349e+03 2.047703852899401909e+03 1.518964306648992533e+03 1.244101884897252376e+03 7.999045668996288896e+02 5.044855242291246213e+02 5.158996026402529651e+02 -5.300370742641901245e+01 -9.815027198338873404e+02 -5.054087994315428318e+02 4.756947041294650944e+02 -5.131919994055982670e+01 -4.547346077289503228e+02 -5.394710489360408019e+02 -8.958288691586751895e+01 1.073686686400429245e-03 -2.535907605216130428e-02 -1.699496528335227481e+02 -3.753068871973470664e+02 -1.719134893249878075e+02 -1.652564466010607447e+01 -1.035048047981149011e+03 -1.207914976627974283e+03 -9.742960855431781511e+02 -1.048950484038961804e+03 -1.069363513167096926e+03 2.186326317042964433e+02 1.473484019121763595e+03 2.493305865688892482e+03 3.205337943443383665e+03 2.199568546101926131e+03 2.087627004338069128e+03 1.564038959891644254e+03 7.355876706644355636e+02 -1.714917984470799581e+02 -7.370621713351054041e+02 -9.907230551542904777e+02 -8.877778392901742563e+02 -1.718260580449810604e+01 -2.652738712869119126e+02 -3.859704499901913550e+02 -3.967413024974279665e+02 -4.059946184117412571e+01 1.822137106659459452e-02 2.587381923800861211e-02 -1.573750070134984469e+02 -6.433029670922496734e+02 -4.251206644833002883e+02 -4.069433178886415590e+02 -6.503687780049506273e+02 -6.807303458292367395e+02 -9.157950705254952481e+02 -4.282336419094854705e+02 -1.935311855149138296e+02 6.946921298747415676e+02 1.246961682400734389e+03 2.114404020910208601e+03 2.389053657114553516e+03 2.055340153137557991e+03 1.273859831335133549e+03 4.159854164650466828e+02 -7.384479961969717579e+02 -1.673267043234707216e+03 -2.482728172585323136e+03 -1.624767503134480194e+03 -1.083544675122683657e+03 -7.509891865486797542e+02 -4.449544799547904290e+02 -3.655105208222415740e+02 -2.376044562810084244e+02 -4.938003342810215912e+00 4.633923603504578465e-02 -1.489826341203336242e-02 -1.094550066049655896e+02 -6.918475040178188920e+02 -3.578050657261659353e+02 -9.613698507118235170e+01 -5.869292465927201192e+02 -3.213787721453775816e+02 -4.877409091434434458e+02 -6.033996205572738063e+02 -4.261480847713398816e+02 -1.990624351175943332e+02 2.610904837324797256e+01 4.546567094668556592e+02 2.315065007989318531e+02 2.511750403076430871e+02 -2.311727078940836577e+02 -1.127704019060710607e+03 -2.026201429592147406e+03 -2.763136572995568258e+03 -3.658694758405060838e+03 -2.479289577357800681e+03 -1.229240286908509461e+03 -9.136913104885510393e+02 -5.193852011255013394e+02 -3.455636726927077120e+02 -1.537406486736218483e+02 -4.179386898290480268e-01 -4.118245589665150280e-02 5.546252332496486026e-02 -1.050676392082996813e+02 -6.061872200397565393e+02 -3.121308975694491892e+02 -3.079986861226057044e+02 -6.082300822100844471e+02 -6.160318153129028360e+02 -9.667357192324527659e+02 -1.146102809794329232e+03 -1.222231775372377342e+03 -1.569961302922195728e+03 -2.360909248882329393e+03 -2.795737375652906394e+03 -2.777855613648922372e+03 -2.783841959906427746e+03 -2.377409770637078964e+03 -2.728098649387278329e+03 -3.300515288231473278e+03 -2.458090453305048413e+03 -2.752735720632431367e+03 -2.220980893187751008e+03 -1.014599487580367963e+03 -6.087015717413936500e+02 -2.707475022838736436e+02 -1.305832066533282614e+02 -1.549073232194552929e+02 -1.592045859121135262e-02 1.399685547713211582e-02 -6.654682952788493200e-02 -7.075587362725337925e+01 -3.465482231059264677e+02 -3.806210858263735304e+02 -4.705129267283472814e+02 -7.408935790813102358e+02 -8.286005690497845535e+02 -1.419383135235741975e+03 -1.231292868778480852e+03 -1.278646300783060724e+03 -2.531122293880247071e+03 -3.794524142348559508e+03 -4.451038540404960258e+03 -4.729924753369163227e+03 -4.277245708317525896e+03 -3.400168364735397972e+03 -2.469759490911940247e+03 -2.204001522594659946e+03 -1.896332266525530258e+03 -1.937799512739778265e+03 -1.449644081624347336e+03 -5.252168296052682308e+02 -3.260622829301186698e+02 -1.216133342256497407e+01 2.962714681803781147e+01 -3.347805286231733679e-02 -1.066439277301962398e-03 -3.144646421747578774e-02 3.826850666314145916e-02 -2.095720116237632880e+00 -1.341113551717363350e+02 -3.441911400190388122e+02 -3.921467382493021887e+02 -7.386970419281998375e+02 -7.916095894057878013e+02 -1.333822782699387744e+03 -7.967333815912362525e+02 -4.568349547733316740e+02 -1.248921335661153762e+03 -2.170850141915487711e+03 -2.804548007192686327e+03 -2.969683980943462757e+03 -2.851748616052252146e+03 -2.480600240633124486e+03 -1.704973155079456319e+03 -1.150445602539927449e+03 -1.042962715739553232e+03 -9.089770414718345819e+02 -3.735232970661161289e+02 -8.778028869436568016e+01 3.145129714791980646e+01 1.845732295966239178e+01 5.411215052468067555e+00 -6.836451927017486718e-02 -1.522798967969434328e-02 -3.093758567460414347e-02 6.602537275620708190e-02 -1.991928811174123806e-02 -3.207669756892013879e+01 -1.466476439447331757e+02 -2.792572090508409701e+02 -4.190403390590591926e+02 -4.209398307233637411e+02 -4.187359572085568971e+02 -4.195240307024852768e+02 -3.436683786691293108e+02 -2.590589600780213004e+02 -5.082451403495030036e+02 -7.519720173619863317e+02 -8.093632224118179010e+02 -6.817061992762182854e+02 -4.027228902540385320e+02 1.602495448261709310e+00 -6.177860969894685894e+01 -6.737962620690007043e+01 -1.930944519319994868e+02 -8.666061220265630993e+01 2.380346656871616418e+01 6.070871011314026333e+01 1.282682606900414690e+00 -4.224947545911921648e-02 1.465167153275450133e-03 8.158104026917453733e-02 4.824888635208316595e-02 -3.007577859303810913e-02 -2.399521905199942032e-02 -3.719935587942305860e-02 -1.036943688830676109e+02 -1.573121621810522015e+02 -2.762804189775968098e+02 -2.442245466051094525e+02 -2.838195255014206850e+02 -1.348820999464305999e+02 -1.660632907474598312e+02 -7.654717241161660013e+01 -6.705376270459886712e+00 -1.383543119872834959e+00 -2.389268546368180779e+01 1.152773189070679294e+01 -9.585937794082134644e+01 -1.132912802787808886e+02 -1.472230578237338818e+02 -6.163502324186699610e+01 -1.118231192512492633e+01 -1.063032872274516372e+01 6.692486505049199952e-01 -2.488699018221500817e-02 5.456657136950756465e-03 2.312808424796821555e-02 6.957574232067503459e-03 -1.528820714137692910e-02 1.854118754334342298e-02 -4.397506478647610767e-02 -1.156116173506574474e-02 7.731869548223453334e-03 1.260535311954670210e-02 1.893475349425092005e-02 -8.535138808358334828e+00 -1.195161561900870861e+00 -5.244488401042345060e+01 -2.023806667018654437e+01 -2.983270740222409856e+01 -3.949887145050873932e-02 -5.000274007787825631e-02 7.862454693278403059e-03 -8.397658520084519407e-03 -6.127349755923867214e+00 -5.987330842284157484e+01 -7.492479033389517440e+01 -4.490325200856432986e+01 -8.859887998141205756e+00 -1.972001730367384936e-02 -9.585635707588023233e-03 -4.036664584673241296e-02 -2.404241526709032309e-02 1.156238533700665316e-02 -5.742510225273399216e-02 -2.372151696746825980e-02 -9.966523057644800093e-03
7.666979759908185837e-03 1.586257420851780800e-02 1.740213277613419235e-02 8.953546089729142246e-03 2.747709278801596308e-02 -2.009042684374795842e-02 1.008169536207009949e-02 -2.107118432792014218e-02 3.506320914554121593e-02 -7.712059992718182322e+00 -2.288548105834682644e+01 9.063510086240381472e-03 -2.355601795004685570e-02 1.720343984323726566e-02 1.318593514512138472e-02 4.252320211271460454e-02 3.147643790747593068e-02 -1.169915630933292434e-02 7.297047681892293580e-02 -2.415132812310616297e-03 2.365973389923684694e-02 -4.357413656579142702e-02 -2.057850921584750484e-02 -5.889488831081194330e-03 2.093809436111122163e-02 6.023801536390877009e-02 3.353154527384145933e-02 5.114286814908727309e-03 1.252200790977310747e-02 4.189236239987911836e-02 6.300931321385032369e-02 -4.745468746121780934e-02 2.086400108675166062e-03 -6.029337048410730177e-02 -5.064966481730602543e-02 4.472068959043796199e-01 -3.280188888009223547e+01 -3.212474318012185108e+02 -3.683682168266689700e+02 -2.599901344394275498e+02 -2.319891308854367367e+02 -2.735350067258553963e+01 7.176597346655765562e-03 1.828587528454191438e-03 3.698847347258488877e-02 -2.623659253518826132e-02 -2.887224770887888980e-02 -6.548383121785947281e-02 -4.594198190212641503e-02 -1.218276997600985581e-02 7.265450899856479294e-02 4.483158937300632182e-03 -1.371036638589613089e-02 2.445732103507668870e-02 -2.433025801215118328e-02 2.894666612259320579e-02 6.841417966146853824e-02 2.436982574699057477e-02 -1.596346823827002326e-02 4.497213596020024906e-03 -9.857302971407079853e-03 -4.023479423621103557e-01 -9.063622730004434302e+00 -5.469346138766418619e+01 -1.052506159271486439e+02 -4.039005437805276415e+02 -4.692940793371359405e+02 -5.484530992860541119e+02 -5.427690261850899560e+02 -3.387902598832838521e+02 -1.444710720454123702e+02 -1.082001299642186467e+02 -1.232717566246106458e+02 -1.232885707545283509e+02 -1.188888255710167670e+02 -2.958813606007235109e+01 -6.190401708463123498e+01 -8.887659302748228640e+01 -1.863469074400767056e+01 -6.787110218049166241e-03 3.968480637925702464e-02 1.709014461857408934e-02 9.019644672918172845e-02 -3.477164478449874807e-02 -6.252078899985903833e-03 5.082152661625029960e-02 6.847749728954771742e-02 -1.101445963951678750e-02 -1.677626140526248477e+01 -5.796038295604865453e+01 -3.059609650512537087e+02 -2.626532203991181973e+02 -3.906471617373953222e+02 -5.829934359848626855e+02 -7.104494738899104505e+02 -8.180231535706620889e+02 -7.150166303614912522e+02 -6.989157037045096104e+02 -5.917963909006108452e+02 -3.330547767514967745e+02 -2.727258045403260098e+02 -2.199452498133888128e+02 -3.595978023536926571e+02 -4.825437264054549473e+02 -4.023550338200826673e+02 -3.213962584047370683e+02 -1.605875717083828818e+02 -1.131562126099162313e+01 -1.040843960103401411e+00 1.321590299506591841e-02 4.324596255098014930e-02 5.261657426927526110e-02 3.814423472067143828e-02 -3.698434155904156001e-02 -3.938956589529184205e-02 5.188528390035616195e-02 -3.183470341995225539e+01 -2.989676113498586574e+02 -8.437168016118663445e+02 -6.121061516834434997e+02 -2.733390379841165441e+02 -9.149426832624452572e+02 -1.419419396983557363e+03 -1.620741575558982504e+03 -1.294499243161238610e+03 -1.763872742103467544e+03 -1.856863667965802051e+03 -1.715492942655914703e+03 -1.435303765683879647e+03 -1.016718119279116422e+03 -9.710463387513877933e+02 -8.643542375742928243e+02 -5.491239277170840296e+02 -3.932735083521832848e+02 -2.444697293229125421e+02 -7.742555342770288007e+01 -8.121762339879265369e+01 -6.507713252899154099e+01 4.492658132349664629e-02 -4.004446408236222998e-02 4.660327337033277201e-02 7.388849238566968548e-04 -1.156378862963551057e+02 -1.680384738411164847e+02 -3.209762556428167954e+02 -8.423192340933551350e+02 -9.810042552709741130e+02 3.831088157095566515e+01 -4.087970208498973079e+01 -1.087000859965022073e+03 -2.734525796853796237e+03 -3.869415950362447347e+03 -3.817923972506846440e+03 -5.077628853889486891e+03 -5.499008295688627186e+03 -5.195348998657232187e+03 -4.309202721649198793e+03 -3.377721266321313578e+03 -2.658686770252413680e+03 -1.791326695409527701e+03 -8.286078035860952014e+02 -3.996116500423728013e+01 1.258085781546343611e+02 -1.167321601015749337e+02 -2.659118961884795453e+02 -1.732840697978463709e+02 1.195562245992857174e-02 -3.931062584313469582e-02 1.454013764980151280e-02 1.713875628551892599e-02 -2.845522490206196835e+02 -4.476444752976039467e+02 -6.896058385782320101e+02 -1.210961356351656605e+03 -5.829341122688953192e+02 1.028481417885524962e+02 -1.029352224594549767e+02 -1.231201225306218248e+03 -3.236094119470792975e+03 -5.349568436829756138e+03 -6.854941317747478024e+03 -7.985853430004423899e+03 -8.409173601994845740e+03 -8.105915853826237253e+03 -6.281087297624015264e+03 -4.544379991339566914e+03 -3.683158423394351303e+03 -2.578511369977224149e+03 -1.746127562364797086e+03 -9.239532383608285500e+02 1.238044806345000381e+02 -7.584781451959385379e+01 -1.106311807535781639e+02 -2.488865195919010205e+02 2.612615744250713856e+00 -1.456861632930255175e-02 1.362712729302146229e-02 -4.115235441383899989e-03 -2.215115642656623436e+02 -4.827187242330680874e+02 -6.573394359540665164e+02 -4.281717921380811163e+02 5.008875777492200427e+02 8.304001803474675398e+02 5.966666727334096549e+02 -1.550724043407062254e+03 -3.629488707046451054e+03 -5.513207703996576129e+03 -5.951466476869688449e+03 -6.563937551751165302e+03 -7.873978521767283382e+03 -7.125959757090849052e+03 -5.108378711854301400e+03 -3.296435573578353797e+03 -1.547392979401427965e+03 -1.258782306031228927e+03 -1.153215069992036206e+03 -1.039414302194024458e+03 -3.110293730818922882e+02 9.023457398642744920e+01 -5.730923391315575088e+01 -4.446952515311731986e+02 -1.161064672641742703e+02 -7.513322510891160336e-03 6.839309009466755518e-02 -3.645724961379767848e+01 2.711778738803142019e+01 -3.113093796656418704e+02 -4.292758098244600546e+02 -6.668298133018831209e+01 9.922790223816888329e+02 1.743981703442929302e+03 1.354117669616983903e+03 -7.646486812307512082e+02 -1.633762741684068942e+03 -1.803688729616194451e+03 -2.303827582517450992e+03 -3.553101407029113943e+03 -3.857307847524050885e+03 -3.657983077804438381e+03 -2.950007690202466165e+03 -1.464624057967179624e+03 -1.564600312326687686e+02 2.148483103969449246e+02 -3.489490161896130758e+02 -7.655466090055708150e+01 6.997830967742125949e+02 1.726043374783156139e+02 -3.030224278908991664e+02 -5.425408286211373934e+02 -3.034476331249723557e+02 -6.939728577143159695e-05 5.301980493189179140e-03 -5.037849455532602150e+01 -1.324312253821540537e+02 -7.056469222568091482e+02 -5.196928983019784027e+02 3.863319641032450136e+02 1.401147233255259835e+03 2.493131922440977178e+03 1.952097031116431026e+03 8.565789259266630040e+01 -8.330101920471958010e+02 -7.585928469577435180e+02 -7.420835700374103681e+02 -4.578442924949571875e+02 -8.264976903454374906e+02 -9.401192078012647926e+02 -7.213086213402248177e+02 -4.631104466122275198e+02 3.628756842062689998e+02 5.398494180999707623e+02 1.481814473815278461e+03 6.319529908420408901e+02 5.665116730782683589e+02 5.956384844077429079e+02 -2.925969181449435723e+02 -7.445893328427197275e+02 -5.994777691786928244e+02 -1.821889098523472139e+00 4.934428149862691432e-02 -1.191373415862834122e+02 -7.615542138958570604e+02 -1.208422201339751155e+03 -5.250044170678152113e+02 -2.226946021970690595e+02 1.897089696890639289e+03 2.487916294754682440e+03 1.231183373849218469e+03 -1.117410607861990997e+02 -1.218049250533940040e+03 -1.404241093766407403e+03 -2.957178423413342330e+02 1.042500264066841993e+02 -8.413522937689039338e+01 2.449521396178332111e+02 4.708199537740129585e+02 7.170624207519167612e+02 1.619030590332499457e+02 1.512865063314950476e+01 6.878569154485196577e+02 7.630430761777104181e+02 2.460489832563563439e+01 -4.271176091875058489e+01 -3.284499852163027356e+01 -9.060783174370790221e+02 -5.558074955183207067e+02 -2.808194828929286047e+01 4.169045737489316707e-03 -6.015775710045056712e+01 -7.378265438601525830e+02 -1.080217691801772844e+03 -3.830903206387031332e+02 -3.003103300753067515e+02 1.970068754001759544e+03 2.173033889929221004e+03 9.343652760207153278e+02 -1.117129923324440824e+03 -1.708993349788746627e+03 -8.258180366700005379e+02 -2.095491074997964986e+01 2.357615967807362267e+02 2.505926403269259595e+02 5.225174570416054394e+02 8.397522099394552697e+02 7.822738032522593130e+02 3.889679418765248329e+02 -1.533571228766278125e+02 2.654585478537179029e+02 3.720541181644601920e+02 -4.012304650821663188e+01 -9.053992673574717855e+02 -3.946228302659043266e+02 -7.880296965381214704e+02 -6.037369198345824088e+02 -9.186956346066834556e+01 -3.936737034432684357e-02 -1.256395510383065215e+02 -4.671176641098339246e+02 -1.106367366262723181e+03 5.800998467557880645e+01 7.897810040209188855e+02 1.714445152607258478e+03 1.842966811796833554e+03 7.863094572046582016e+02 -1.551344013529515905e+03 -1.207094899129222313e+03 -1.894737227811651792e+02 6.306845603605167980e+02 1.158540704513752871e+03 6.404586865938654228e+02 4.699150025391573848e+01 7.572648845326709761e+02 4.292571235957062754e+02 -3.686865940163561959e+02 1.799283038202671605e+02 5.815759671386927039e+02 6.827285990860552829e+02 8.800599044134428084e+01 -1.002373437874329738e+03 -9.623303495775301144e+02 -7.685403309854355030e+02 -9.031445627785635679e+02 -1.943838232216918129e+02 -4.878322626139675738e-03 -3.388924186137355576e+01 -3.813114534121385759e+02 -8.985836433170966302e+02 -2.376176360030275703e+02 1.053528209150784733e+03 2.283062037801900260e+03 2.122916742338896711e+03 2.210935160137580624e+02 -1.363142487468371883e+03 -9.908769028868050555e+02 -4.165486225137376550e+02 7.036145101957789620e+02 8.985209334742986584e+02 -4.491400667891505805e+02 -1.308827040898790301e+03 -9.187434904785795879e+02 -2.235319384495438655e+01 -6.210406151539659731e+02 -4.002548200120354522e+02 5.297592756344516829e+02 6.109005912890793297e+02 2.347922554869990961e+02 -7.466807226850138477e+02 -1.016234119826975643e+03 -9.842355635090840451e+02 -1.311157320232156735e+03 -2.787906798326538933e+02 -7.217379815768519037e-03 -6.505617522801664165e+01 -4.263429803442551815e+02 -5.631177289828034418e+02 1.341328869221648574e+02 5.571203548373329113e+02 1.645542399597299436e+03 1.199757486252941362e+03 -4.518431839434903736e+02 -1.816326990426888187e+03 -1.378889980378785140e+03 -5.526415473550880506e+02 8.402437774137806628e+02 -2.470921260418364511e+02 -1.632750172243043153e+03 -2.440601895614169280e+03 -1.886532180338038188e+03 -1.487673926111654055e+03 -5.660674886951576354e+02 -1.065033001501888208e+02 7.014970421199542443e+02 1.303112978615370594e+03 3.150567560481265446e+02 -4.439996553003295503e+02 -1.422684138124465676e+02 -9.082469717321749840e+02 -1.145292386415559804e+03 -4.179954313600513274e+02 2.530257079303796161e-02 -5.930756257152322064e+01 -3.431904051165707870e+02 -5.609839746143729826e+02 -9.658451188492270489e+01 3.972962737340148465e+02 5.483463531695360871e+02 1.078238734501248217e+02 -1.189084276792234959e+03 -1.376811551089763270e+03 -2.646624174519576513e+02 2.809892824907806812e+02 5.748907495865475994e+02 -5.494124392950798210e+02 -1.727966857559769551e+03 -2.403222908540159096e+03 -1.954019959275904966e+03 -1.847169218334021025e+03 -8.435514570270954664e+02 4.664090341755747318e+02 1.181223188665383304e+03 1.642674136695477728e+03 4.978776393003146836e+02 -1.308138795647780910e+02 -1.638403831154041370e+02 -9.053091014420277816e+02 -9.548425534853524823e+02 -5.345088375469471202e+02 2.271486339147161040e-02 -1.202824407860164513e+01 -2.267888518948755063e+02 -2.402092433717710094e+02 -5.091850393596237723e+02 2.189919342079791988e+02 9.110622264723900798e+01 -4.277987312915479947e+02 -1.239813797159942624e+03 -1.244234043156870257e+03 -2.338631885870621261e+02 -7.910347108748092637e+01 1.601329495147403179e+02 -4.607658083477305127e+02 -1.209397106272546125e+03 -1.467391509928328787e+03 -2.160542598374133377e+03 -1.644350160001978566e+03 -9.777036597513659899e+02 1.131970164908040715e+03 1.696234359774825862e+03 1.634218926357920964e+03 5.825417726834120913e+01 -5.931962942066298865e+02 -6.310649394278739237e+02 -9.691898348443926352e+02 -9.720455787985092684e+02 -4.863064744317924237e+02 -7.053648399049043671e-02 -1.394696217793972615e+01 -2.567343817206947278e+02 -2.587299230170187343e+02 -7.415781663993600432e+02 -6.076974715433365191e+02 1.144745053251105702e+02 -8.227290562691351852e+02 -1.301949959315129036e+03 -1.211063989434595669e+03 -5.023293061414182716e+02 -5.776445977584661478e+02 4.475076624388240703e+02 -5.711763353287637983e+02 -4.939073949519237203e+02 -4.622641671072869372e+02 -9.605118481603731198e+02 -1.116356037635726580e+03 -4.874420038022180961e+02 6.747424148259844969e+02 1.642189249455045456e+03 1.000562945284633429e+03 -8.017558794868269842e+02 -9.000693966784359645e+02 -1.500992154493146018e+03 -1.434051910674664441e+03 -1.037120062072165865e+03 -2.337043150950078996e+02 1.008587225695982328e-03 -2.624152332767088325e+01 -3.243570899950544231e+02 -5.341239831474645143e+02 -6.378078445510660686e+02 -1.116154714850469645e+03 -8.592582497538106736e+02 -4.008467534128408829e+02 -7.512848931328358049e+02 -7.733199341284196180e+02 -9.051110620631882284e+02 -2.989106357525867708e+01 4.656283169721094168e+02 -8.014734270745043432e+01 6.487580323824890911e+02 2.883650631903528847e+02 2.199826837081612894e+02 -3.228054181364993838e+02 9.644522540452676651e+01 7.597567043818729644e+02 5.533198930042057100e+02 -4.774768735738876444e+02 -1.135582199953926647e+03 -1.249254692891822970e+03 -1.512314541894061449e+03 -1.400566088030681158e+03 -9.209584056065571076e+02 -1.082275030480156062e+02 2.990763913664267956e-02 2.084879807324694495e-02 -2.470118552991128809e+02 -5.692467465323877605e+02 -5.723474726791851026e+02 -4.706763787624032034e+02 -9.424016112166979156e+02 -1.708801855688940350e+02 2.472209071185832840e+02 2.413272980041611859e+01 -2.874696465924554332e+02 3.177654219761466265e+02 6.271464226916950793e+02 7.474973665894418673e+02 1.226063898277181352e+03 1.082955436817419468e+03 1.560313283535929031e+03 1.416946723288089288e+03 8.643525712645492831e+02 6.583877773272189415e+02 3.135511317855526272e+02 -6.368507742589197278e+02 -1.582618631815873186e+03 -1.404507934717326634e+03 -1.525689592753127272e+03 -1.137967452749114273e+03 -6.824838733505681603e+02 -8.030319375315509944e+01 -4.216317021504844588e-03 -6.582205294815450525e-02 -2.279786837077491555e+02 -7.408019118958443414e+02 -7.173750908965430426e+02 -1.098793957634716435e+03 -1.270140262909165585e+03 -7.388614573416875828e+02 -7.906467155666109647e+02 -7.181344857647540039e+02 -9.845389611979639994e+02 -3.579587840043277538e+02 -1.906859384020618791e+02 1.243252438359574086e+02 6.174457406153428565e+02 9.938221978876939602e+02 1.281503554089209501e+03 1.137136606758485868e+03 7.519499608735769698e+02 2.341979176785360153e+02 -1.011114825447836665e+03 -1.002857347541321474e+03 -1.201638910796469645e+03 -1.370360912821527108e+03 -1.069484975938026537e+03 -6.938303262660508608e+02 -3.500869242008352558e+02 -1.667431534100484214e+01 2.358682825238065522e-02 8.868755440483429980e-03 -1.287223012144924610e+02 -6.971909339897425752e+02 -4.971322408594454600e+02 -7.659378869104356227e+02 -1.660582183077481432e+03 -1.149117062167591030e+03 -1.585539767942395883e+03 -2.248075223338007163e+03 -2.557029117149149897e+03 -2.293407900568569403e+03 -1.811643705935068738e+03 -1.234003282244009370e+03 -1.400565797028457609e+03 -9.371431542749762684e+02 -5.262500332457218519e+02 -2.908362589649470920e+02 -6.613726498738268447e+02 -9.152350415864045772e+02 -1.828186939454310505e+03 -1.499096465525069561e+03 -9.724179080247504317e+02 -1.022615740434622239e+03 -6.775957095247707684e+02 -4.196463379169013024e+02 -1.627772873191805161e+02 -1.386699259623020097e+00 2.562428543475105819e-02 -2.633470462815282534e-02 -1.118927857195655378e+02 -6.303144474305526046e+02 -4.160582190318361882e+02 -8.609755980062318486e+02 -1.673760316452983943e+03 -1.741128294194946420e+03 -2.381051328375136109e+03 -3.164228804317133836e+03 -3.579825759336386454e+03 -3.732812842918332535e+03 -4.122948571874933805e+03 -4.521914396428069267e+03 -4.497720756361870372e+03 -4.229481639299373455e+03 -2.971828577371986739e+03 -2.283191488137918441e+03 -2.009334211949237897e+03 -8.713906950633898987e+02 -1.505374104309496715e+03 -1.588107448861563853e+03 -8.045903257864351872e+02 -5.419133772277075423e+02 -2.941911135362283858e+02 -1.433743382396120865e+02 -1.399269091596551959e+02 5.037558991571696419e-03 2.567434425737503620e-02 -6.496004467009315435e-03 -7.528843556430520323e+01 -3.414518340570252803e+02 -4.163546065347878766e+02 -8.438828989634515665e+02 -1.569405759254390659e+03 -1.581699196599117613e+03 -2.171655438625637998e+03 -2.180574638968465933e+03 -2.365151144198434395e+03 -3.627857980241320092e+03 -4.892673613289286550e+03 -5.450952712188574878e+03 -5.571545750860540466e+03 -5.049585833072291280e+03 -3.597615765151374944e+03 -2.109650329531732950e+03 -1.314530615219995752e+03 -9.221864492590920008e+02 -1.229649081476755782e+03 -1.151101854463876862e+03 -3.953636682338267860e+02 -3.015115452440527406e+02 -1.575385810623162008e+01 2.555699808362075842e+01 2.706032082845524420e-02 -2.411126722292034064e-02 4.240782000469249524e-02 -2.838722012685616219e-02 -2.265723406586822364e+00 -1.266316259901182804e+02 -3.614624797654056465e+02 -6.359997958011819037e+02 -1.196923560791543878e+03 -1.099343491176325188e+03 -1.476370369325780530e+03 -9.767412297978914921e+02 -7.492201839218838586e+02 -1.733257255145061436e+03 -2.734193836694738366e+03 -3.267455592709969096e+03 -3.364158468493836608e+03 -3.240126974288070869e+03 -2.610016571166180256e+03 -1.506844425487836133e+03 -7.020604467648739728e+02 -4.942192224098382667e+02 -5.640367535787261204e+02 -3.093036506519630393e+02 -1.119557539551325931e+02 -1.045049134954675196e+01 1.666898831509597301e+01 4.957018396230730595e+00 8.470499073893064668e-03 5.625624629499932638e-02 3.274632767255361565e-02 1.538080355527754808e-02 -8.095153761684754923e-02 -3.269930561198039953e+01 -1.734949538122860702e+02 -3.580027845709098528e+02 -5.413566662494378079e+02 -4.556581256047891202e+02 -3.820514208896151445e+02 -4.249792973130721521e+02 -3.896052098795390179e+02 -3.270954615267944519e+02 -6.121096562845275457e+02 -8.902263381073881874e+02 -9.012013627743607458e+02 -7.901735749166821279e+02 -4.365484520257813301e+02 1.101368840749628220e+02 8.157588285895371882e+01 9.625318404219656543e+01 -1.244341554778599601e+02 -6.147748697265873119e+01 4.100807035762455754e+00 1.071786970734071254e+01 3.820279240666719089e-01 3.760439219063476529e-02 -1.714194231895162235e-02 -1.486773867592987991e-02 -4.915688891240845536e-03 -6.950960845139074994e-03 -2.556614702439530176e-03 -3.038953338492420692e-02 -1.293504777898095028e+02 -1.956184161895775730e+02 -3.237688360834238779e+02 -2.789531856390675557e+02 -3.038728217712385344e+02 -1.458016892125213531e+02 -1.996331104276594886e+02 -1.007738005305986633e+02 -1.146086546656712102e+01 -2.552928470770611469e+00 -2.986290777147636177e+01 -5.665794987114973758e-01 -9.543305409167929554e+01 -1.103772801769747929e+02 -1.510389855855119947e+02 -5.218307428367688061e+01 -1.536096340580083819e+01 -8.647006429703653296e+00 3.193602237862004922e-01 -3.294027787748177172e-02 2.661226674127623038e-02 -1.407599046819776704e-02 -6.394924813066488883e-03 3.660598455959202663e-02 -2.947504659903947555e-02 -1.798588775609396423e-02 4.712923872454085478e-02 1.427294491115952725e-02 -2.696519628574977744e-03 5.361574198706340472e-03 -9.507188392369883445e+00 -1.257688184085910432e+00 -5.522267431640777602e+01 -2.053101879185390644e+01 -2.792853594438580345e+01 3.152288345151285209e-03 2.274650948413445457e-03 2.145702688102270675e-02 -1.923218952743743770e-02 2.830939635313042935e+00 -5.265606177510540675e+01 -7.111219625558624102e+01 -3.359814849463788988e+01 -6.664728916045098650e+00 -1.342725289688134717e-03 -7.789442412690344292e-03 -1.765003475870000407e-02 -1.260174492207011276e-02 -2.555352723418568769e-02 -5.062126816837856161e-03 -3.153755606242582277e-02 -1.325268000460017893e-02
-8.465165366976190944e-03 2.657632179220160984e-02 -9.260840906460173633e-03 -4.270930148600785015e-02 -2.005262754185032151e-02 -8.180873173720150382e-02 -2.915141123940051884e-02 -4.446521587234459477e-02 1.465388827092182523e-02 -8.115337587898000749e+00 -2.434289224160488985e+01 -3.007887384855215725e-03 -3.064715417368971476e-02 2.986110488642788191e-02 6.437007161357906349e-02 -2.572399308619791047e-02 -3.387802297672594387e-02 -1.516226914520899666e-02 -1.248889858606591630e-03 1.187408770411418381e-02 -2.070253055773598957e-02 1.098933326863445019e-03 -4.702384905319962477e-02 -3.125932671129872525e-02 -1.377625337149812959e-02 6.189424190651934832e-02 -3.165563707955175443e-02 3.794176385579626359e-02 4.414832943118378143e-03 -2.997141570817621185e-04 3.565759354297660163e-03 1.470287839939241580e-02 8.097446927375304485e-03 -1.887183595665034574e-02 5.955725709325337264e-02 -5.755678911765056860e+00 -6.488550552986212949e+01 -3.288536569102919316e+02 -3.150231883382685965e+02 -1.772728801176453430e+02 -1.649095648238516674e+02 -1.972565168383808754e+01 3.237256820911781768e-02 2.521590690966942720e-03 -4.097907675977684877e-02 6.639857538989558938e-02 5.168349691500712106e-02 2.392346276266223842e-02 -2.861658249013696032e-02 -4.631347772449908792e-03 -1.011793536258566092e-02 -4.188905200940905293e-02 -8.920050964885514050e-03 -5.668592600325564335e-02 4.929119510731944792e-02 4.775567862936530572e-02 -2.024673717188541291e-02 4.603868093855672389e-02 1.923718814890430437e-02 2.855009115844791157e-03 6.908143606040613449e-02 -2.442435857176930014e-01 -7.983962443520967511e+00 -1.602497353534644731e+02 -2.816009493282477365e+02 -3.912157490232164605e+02 -3.500501806544324381e+02 -3.001093043448836966e+02 -3.602991271126295487e+02 -2.479641658111828804e+02 -1.052474850782637219e+02 -1.231477686765392292e+02 -1.403099521451599969e+02 -1.403244567566034959e+02 -1.353486180280984001e+02 -3.367358624180725002e+01 -7.553472533243190412e+01 -1.153261703707149906e+02 -1.738345924234675977e+01 3.412448686053872610e-02 2.331274191545635102e-02 3.041407064052734088e-02 -1.075513593536670150e-02 -4.363098985141578706e-02 -1.123732149875383661e-02 1.306454030845282353e-02 -1.215175311446996427e-02 -5.128546934145345598e-03 -2.334341998289671949e+01 -5.559479109657063844e+01 -2.423384024920167690e+02 -4.560292629861593809e+02 -5.755502637131345409e+02 -5.996683523466102770e+02 -4.233537149176794401e+02 -4.020132976099238817e+02 -7.927946709622449362e+01 -1.021252186986560275e+02 -8.768893859683420544e+01 5.355923226644416957e+01 2.612345001439799308e+00 8.763085645712781258e+00 -1.308473202559696631e+02 -2.399409026043977065e+02 -2.867784766565060863e+02 -2.572661859659169750e+02 -1.161098724551133472e+02 -1.604468994354303035e+01 -1.075768384356976082e+00 -4.428849760891467174e-02 -4.160073207500023657e-02 1.966378471975817332e-03 -1.345559480434914933e-02 2.480499681790257656e-03 1.103587551427530691e-02 1.624126589006728632e-03 -1.100928592925172111e+01 -1.085430921015115189e+02 -4.629531778003307068e+02 -8.177662698093226936e+02 -6.162826604494417779e+02 -6.978228615897236295e+02 -4.304096156672564462e+02 -3.483449435890830728e+02 7.120131925625011604e+01 -2.315592096756725482e+02 -1.985669418740761785e+02 -2.368436287648677308e+02 -1.498917066429824843e+02 3.386596844184741428e+01 -1.177450792573767728e+02 -2.205774909315807406e+02 -1.498097858144264762e+02 -1.118935219291866616e+02 -1.677625379372527732e+02 -9.584724347441094494e+01 -7.180875640295163009e+01 -4.598812959279004531e+01 -2.393541617906256094e-02 -2.889750727671359758e-03 -4.752666343851413150e-02 3.652885530709405748e-02 -6.082567099166934099e+01 -1.058283879362515876e+02 -1.869906419101143342e+02 -4.231534604850018013e+02 -7.129701136070740404e+02 -2.295787080174648622e+02 -2.486168001467829072e+02 -2.091343669525183770e+02 -2.781694166447830412e+02 -6.926337896407377457e+02 -2.694563962009608531e+02 -1.027507215180624598e+03 -1.003859647212389291e+03 -7.503200992574102202e+02 -3.600980667922422640e+02 -3.358487931605878316e+02 -1.014528553459192182e+02 2.629009030336791284e+02 5.155213881821142650e+02 6.735606217806270024e+02 2.329530532158028109e+02 1.637513226020150370e+01 -1.458619284039269246e+02 -1.261279398879121487e+02 -4.241220326575254745e-02 2.248687032338892583e-02 1.679382222418886531e-02 1.413851829610300245e-02 -1.345388985196198348e+02 -2.482643494906494936e+02 -2.810704144661776809e+02 -6.404206609357512434e+02 -3.601060778010842114e+02 2.174335984409083977e+01 9.385025537790357930e+01 1.499267138356754003e+02 -2.321273113178735059e+02 -7.201697093770992524e+02 -1.355909505577847767e+03 -1.964849436170618901e+03 -1.730780250572987825e+03 -1.248886862563575050e+03 -3.798803623831225877e+02 -2.509988008176579797e+02 1.930051094388667465e+01 2.679334687869853155e+02 4.647477230686909593e+02 6.234330264212950397e+02 7.229219815425288971e+02 1.242274825234136841e+02 1.070438847702590657e+01 -1.499797134700553158e+02 6.799740565981290175e+00 -9.799909665812571447e-02 1.586540503889924403e-02 5.894595483734809890e-03 -1.043460370661995569e+02 -1.846639901979929732e+02 -1.300313916533870042e+02 9.659948181844567827e+00 5.789771642479809088e+02 4.799795823033538795e+02 1.133137433585230838e+02 -4.916088450587182592e+02 -1.472839626594383617e+03 -2.337673724673440120e+03 -2.186623122813049577e+03 -1.795866957891516904e+03 -1.915180770629526023e+03 -1.038037605790131011e+03 -9.105460011885834604e+01 6.568307123003182824e+02 1.382986093022822160e+03 1.214091703449634906e+03 7.712907202975425207e+02 6.031367540745693532e+02 8.879261812615060308e+02 7.126601337680692723e+02 1.419362769883497037e+02 -1.239121882252098175e+02 3.702137433631715879e+01 -1.869369529305584671e-03 3.589581021868854926e-03 -5.370792507691827211e+01 1.027038711125431689e+02 5.354129136526343302e+01 1.466828296249389894e+02 1.997908604129737853e+02 -2.112622903222700188e+01 -3.605635107824734860e+02 -1.326646188202419808e+03 -2.164938854677675863e+03 -2.307899227172222254e+03 -2.372191046178205397e+03 -2.817780225369827804e+03 -2.600566547721019560e+03 -1.204666464877438557e+03 -3.497867906047612792e+02 2.654097722749719335e+00 6.762647649867077462e+02 1.054779976282448615e+03 1.585851492814332005e+03 1.063872835387315263e+03 6.625297424089311562e+02 1.236699730347804916e+03 9.662863384098229744e+02 1.816984720033074723e+02 -3.731455277583570052e+01 -2.706595239462979308e+01 3.260150627073318819e-02 3.014745321789005783e-02 -6.980046444262758598e+01 -6.244662550645096388e+01 -6.446233536215488868e+01 2.491943593985322138e+02 3.345228875639726596e+00 -9.980425901927433188e+02 -2.356229398906582446e+03 -2.985778269051709231e+03 -3.248464776690701001e+03 -3.056063162754662699e+03 -2.887262123302807595e+03 -3.213391052971451245e+03 -2.597705973060179986e+03 -1.342733644560903258e+03 -6.168113480744227672e+01 4.829340510149067995e+02 7.316760800420121313e+02 8.409678672983732213e+02 1.261307089446012924e+03 2.002911957081676292e+03 1.028062674796512738e+03 7.992698424206473646e+02 1.004969886258443466e+03 2.169213764128220419e+02 2.276520202459893483e+01 -1.822896994703250471e+02 -6.547259147884529340e-02 4.931636624534285057e-02 -1.264222997295913018e+02 -4.847178358562023845e+02 -1.601935490949406358e+02 5.403124824370017905e+02 -9.195010384476048557e+02 -1.983671066346051020e+03 -4.024289665825085649e+03 -4.416153960571394236e+03 -3.785443423947861447e+03 -3.167580893407953681e+03 -2.501057155610655627e+03 -1.999497804471450991e+03 -1.615805931361237072e+03 -1.126190591288332826e+03 -4.008267860747674831e+02 3.482752953417797812e+02 1.002202970631811695e+03 4.038228272742399554e+02 7.433635771385039561e+02 1.598988106598765171e+03 8.490034414192455188e+02 1.976205109678792269e+02 4.270225700367894319e+02 3.425999703790269564e+02 -5.430866697003161647e+01 -1.256989544270833079e+02 -5.195596774302452259e-01 1.428497237463607385e-02 -6.669056344822324434e+01 -4.794029895215160195e+02 2.092397165551228966e+01 -4.384257944741683843e+01 -1.383226929898690514e+03 -2.750107164767296581e+03 -4.539333478493143957e+03 -4.306799830181637844e+03 -3.335102529924551163e+03 -2.079686922509751184e+03 -9.465726689428515783e+02 -5.148233532645701871e+02 -5.699033858878452747e+02 -1.879556922400396388e+02 7.022032935020222340e+02 1.410169278639838012e+03 1.601218085276528427e+03 1.746893840761519414e+03 1.704596718983531446e+03 1.215794800392935713e+03 5.229361873595226484e+01 -5.191320006303016044e+02 -5.594016820457258063e+02 4.104460533823591106e+01 -1.984344784273519338e+02 1.952889046663765527e+01 -4.456888635720655145e+01 1.226627602045358631e-02 -9.777345205963609942e+01 -1.889335319170864977e+02 -3.257068309043894061e+01 -1.374387253161780720e+01 -1.344308309545316888e+03 -3.968721239881193014e+03 -4.035382410544819322e+03 -3.101072030100939628e+03 -2.773982149700368154e+03 -5.973930006021355439e+02 2.451006178557697410e+02 3.182896097773808037e+02 4.438548294432744115e+02 1.962237220404064715e+02 1.463989829061595174e+03 2.257191193732259308e+03 1.651606308142784428e+03 1.610960127673611169e+03 1.878194059158636946e+03 1.273998505613304133e+03 -6.729096894385332916e+02 -1.444984954810095360e+03 -1.692912127714119379e+03 -4.274522910167004284e+02 -5.352000308689512167e+02 -1.629632087596162933e+02 -7.273916497926643387e+01 4.739893813413121465e-02 -5.964747455357451855e+01 -2.519798475812361858e+02 -1.545770953690645229e+02 -1.646023018608670441e+02 -1.559850665365484474e+03 -3.258701642663696930e+03 -2.870647792180473971e+03 -1.848314666925247366e+03 -1.015657754914647512e+03 1.115696171609476778e+03 1.036270973256820753e+03 5.553305386918781323e+02 7.397857368916173755e+02 9.057703538784315924e+02 1.372915065134675842e+03 2.636480240280313410e+03 2.326405178885034275e+03 1.759503416284560444e+03 1.301426085979884192e+03 8.122989044154594467e+02 -1.573186259394697117e+03 -3.359876502584587342e+03 -3.746661658341067323e+03 -1.428081717571526497e+03 -8.270953869291371348e+02 -4.963616598916260045e+02 -1.029855055059336593e+02 -3.390003930050570352e-02 -8.016875170936638995e+01 -3.332389932473814724e+02 -1.348183984150373931e+02 -7.493851176326857910e+01 -2.043228408207084840e+03 -2.752664267619635666e+03 -1.843619465354240219e+03 -1.072668463054845461e+03 7.931260672105116782e+02 2.599965313242592401e+03 1.558290589777763898e+03 1.412584589317870496e+03 1.177570907959101760e+03 1.294495182439376094e+03 1.280726318678048528e+03 2.361111652739062265e+03 1.249804454209874393e+03 1.395102801996584049e+03 1.048247215616575431e+03 3.574531713321475124e+00 -2.310262279693663004e+03 -4.987604311282661001e+03 -5.647764506553778119e+03 -2.721693178301215539e+03 -1.923856871951771382e+03 -1.023009845438865227e+03 -1.884521679068150490e+02 8.109512270573295684e-03 -6.419550109517055603e+01 -3.080070456161358265e+02 -2.010806284735291740e+02 -4.764223598934066786e+02 -1.223031908545631268e+03 -2.467223505558104080e+03 -1.693607793772565628e+03 -5.440166914972728591e+02 1.535988212960135570e+03 2.360621198729360913e+03 1.524150717162149476e+03 8.502107280995596739e+02 4.273999346120125438e+02 -6.290641949729018734e+01 2.283772487255088492e+02 1.146535174560810447e+03 9.324917777206766232e+02 7.909849749355703352e+02 1.664328442237842012e+02 -1.144979214073807270e+03 -3.750101717491092131e+03 -6.974530864394036143e+03 -7.168607301071707298e+03 -4.284744561188177613e+03 -3.197788374423018922e+03 -1.553359351864512973e+03 -4.649401411028543407e+02 3.504228804272309372e-02 -1.364683046583433068e+01 -1.739360795377503450e+02 -7.052232040650815748e+01 -7.710937379377983234e+02 -4.661094748763679831e+02 -1.404521457633865793e+03 -9.403555304845505134e+02 3.751751588628780496e+02 1.219562888864018078e+03 2.312362768494057946e+03 1.285221878736793769e+03 8.577214761110453765e+02 4.453465813368109139e+02 -5.948258897229250124e+02 -3.217651953033280279e+02 -4.973954073575643520e+02 -1.010802140805163276e+02 -5.770899150920004104e+02 -1.346631247288955251e+02 -2.000331255653539074e+03 -5.007770722027382362e+03 -8.368190256332509307e+03 -8.477458192524123660e+03 -5.080458965360912771e+03 -3.345916914511877621e+03 -1.616991695827303829e+03 -5.160527232800727688e+02 1.076378112212097310e-02 -1.149357922817340594e+01 -1.796571932020911788e+02 -2.194424075920840664e+02 -7.037146174859946086e+02 -1.222455455669167577e+03 -5.032888780404374529e+02 -1.568128037602920699e+02 7.629365067284454653e+02 1.331766330794283022e+03 1.145672834195658197e+03 6.472260373330204857e+02 1.751829832305922764e+03 7.061577334312059975e+02 -3.141591928365656941e+02 -8.621171673514063514e+02 -1.345200792625606255e+03 -6.969626315945545230e+02 -1.744724135225108057e+02 -2.285670174345474379e+02 -1.749949062606748384e+03 -4.723269450373019026e+03 -6.912784966967258697e+03 -5.212553259001790138e+03 -3.115633038215321449e+03 -2.328822854854194702e+03 -1.052063394267105650e+03 -2.411228204593495548e+02 -4.948855889783863871e-02 -1.595638372773292524e+01 -2.899672835698221434e+02 -4.803134502902226473e+02 -4.662296960750976496e+02 -1.118214925950224142e+03 -9.192201112106240544e+02 2.753135792538593023e+02 7.715316587410657121e+02 1.337192706370594578e+03 5.093036453608843317e+02 7.490202120156786805e+02 1.204177183407390203e+03 6.161622340562084901e+02 5.034625396327587623e+02 -6.945589020687548327e+02 -7.377981195019771121e+02 -3.010710135981991584e+02 8.928453576049813591e+02 8.875520632928164559e+02 -1.070491615748373079e+03 -3.365771765986868559e+03 -3.166141794086650862e+03 -9.669464732183913611e+02 4.179870198381768631e+01 -5.240562355831997365e+02 -5.971787129970834940e+02 -9.823768456072821209e+01 -2.605223702834817689e-02 -2.916729001257403059e-02 -2.225088506350486171e+02 -5.362685035854553917e+02 -2.041182976185159248e+02 -9.972690119836907741e+01 -8.112907133640604798e+02 -3.898392464297924676e+01 9.938116572965307114e+02 1.375347667908325548e+03 6.361131402154176158e+02 5.056514530829142586e+02 6.096420032943317437e+02 7.728066564237800549e+02 1.338001905962834144e+03 1.320036898007260504e+02 2.851502975221505380e+02 7.969472580722670045e+02 1.828566900329340342e+03 1.274745558463247335e+03 2.088286089438878150e+02 -8.327311490822395399e+02 -7.277116774834237276e+02 9.939396760906760164e+02 9.293814349881296266e+02 1.299289285127598248e+02 -2.317416793639895332e+02 -3.071528722530043254e+01 7.672813607607693875e-02 -6.433777321846455288e-02 -1.811034613665802624e+02 -5.626963033746478686e+02 -2.362056518140613832e+02 -1.571775606029779340e+02 -6.422234923354599232e+02 -2.387806231113069373e+02 1.313139447566945250e+02 8.503591161516159218e+02 5.909357778105579655e+02 4.244088719190924053e+02 1.392701567457789338e+02 4.773347644129953551e+02 1.028222756714696516e+03 8.328698590624544522e+02 6.092247063446581024e+02 5.401832759698761492e+02 2.707545993168552059e+02 4.224422078076727871e+02 1.562286422457494268e+02 1.805735539288668861e+02 5.376460587327604799e+02 5.095250875365588286e+02 7.320547060870160294e+02 3.215673038730258781e+02 4.665134630207015576e+00 9.311726904598014443e+00 4.770735775784336330e-02 -3.833532752850002390e-02 -9.980299972222152860e+01 -4.530425457325395087e+02 -1.368607664860374840e+01 -6.773270493853748064e+01 -5.217697956921545028e+02 -2.976219560332199876e+02 2.204197305153584807e+02 2.966718323596990672e+02 2.549133731127053011e+02 2.280801792779064030e+01 -4.212180105093667137e+00 6.407655213126859906e+01 -5.444817331217291212e+02 -3.084512128015746839e+02 -2.101336224649867859e+02 -2.710407912237720325e+02 -5.728362963164288857e+01 -4.857492855321505232e+01 -6.553316562246109243e+02 -2.283639521525013834e+02 1.939224155754861272e+02 1.187859791543810815e+02 2.435533292975289044e+02 6.638977815425320728e+01 -2.461330726714148653e+01 1.054215750330959489e+00 2.826880826410411648e-02 2.603863348509789441e-02 -9.084469897716843434e+01 -3.503804179469921110e+02 4.002388397104328988e+01 -1.142110125882633724e+02 -3.375052080426436873e+02 -4.095176228459200161e+02 9.621379144160430030e+01 3.271561301018043650e+02 -1.853319917298844075e+02 -6.139393382069264362e+02 -1.157096611462645569e+03 -1.781551934633109568e+03 -2.310100686385827885e+03 -1.901372129424292552e+03 -7.561761321521851187e+02 -4.133919569824584528e+02 -7.072260139647765982e+02 1.076999246974852440e+02 -2.458064494832779019e+02 -4.773442074310358407e+02 -1.315074166916317893e+02 -8.710296239764230108e+01 1.106730529871769875e+02 5.680913764000990795e+01 -9.511205125590498710e+01 -2.009037835538361391e-02 -6.999912139516144792e-03 1.539801998798825608e-02 -6.112865881083175168e+01 -1.694729980543746422e+02 -1.087232193594620071e+02 -3.360117450841277673e+02 -4.446894120875429621e+02 -2.693621953515806808e+02 -2.258807324054170067e+02 2.631314296164202915e+02 2.319319497368977352e+02 -7.706880496206177895e+02 -1.859097423111479202e+03 -2.606208658776283301e+03 -2.993797495584003173e+03 -2.267859756906114399e+03 -1.183959591766492167e+03 -3.901643639072871679e+02 -7.467821256846724509e+01 9.667793640205091776e+01 -1.408612869693344862e+02 -4.948067138673217755e+02 -1.226272545447926774e+02 -1.308599961997280730e+02 8.346900277164827742e+01 4.493836975107466003e+01 -5.268810911477261189e-02 3.135187079971316071e-02 -4.841788101789244736e-02 1.814620996286171392e-02 -1.802021462199422164e+00 -6.622736550799810118e+01 -2.153796499633514543e+02 -2.996136812069618713e+02 -5.107375647530188303e+02 -4.442522909318086022e+02 -4.966690988508109399e+02 1.158465458379170201e+02 4.207000615646280153e+02 -3.610613268100343589e+02 -1.072137530533282188e+03 -1.646445097266120911e+03 -1.686986952592092848e+03 -1.489254813879975245e+03 -1.142370210746406656e+03 -5.366619294466688643e+02 -1.389566434285152070e+02 -7.396103994591121022e+01 -1.970200967424553085e+02 -1.989361379543062114e+01 8.520057439661756860e+01 1.127668467114661439e+02 1.905489811222866336e+01 5.539531298496325640e+00 -5.811360223116016077e-02 -6.685024829074464811e-03 -3.009684682843842551e-03 -2.305261373766025364e-03 2.142946097076620093e-02 -1.376653689172119321e+01 -8.895699143869322256e+01 -2.333147463388364145e+02 -1.922849723997087494e+02 -7.980772520449653484e+01 -6.070054701677781850e+01 6.587514286934273855e+01 5.016286230017715297e+01 -3.912499986364412052e+01 -2.573851286192872294e+02 -5.010170050856881403e+02 -5.640380353431419280e+02 -4.468945731079621169e+02 -2.024385528973187434e+02 1.595503701000996273e+02 1.069622747295395158e+02 1.123237310750395466e+02 -6.816154775511660091e+01 -7.045694653720752854e+01 3.177376526912712507e+01 9.562933097162134288e+01 1.695952787321699295e+00 1.659146790311060229e-02 -3.191387259126218789e-02 -1.062214936974375037e-02 -4.013401843576718669e-02 1.959526804296657029e-02 1.507624096398065688e-02 6.502560395665474280e-02 -6.967697002716515442e+01 -1.402884666591485257e+02 -2.182967420221859811e+02 -1.012857381707324436e+02 -1.252159124794360849e+02 -5.401122600765574333e+01 -1.453987770972458904e+01 -1.010932970351617577e+01 4.132808321764801285e+00 -3.860088234205679147e-01 -1.441311211167523609e+01 1.955879454208816526e+01 -5.373846501370302775e+01 -5.605406604725920516e+01 -6.917567624005154414e+01 1.490570444387754812e+01 3.347168021494211843e+01 -2.673994061227903174e+01 -1.774645065172215874e+00 1.727572838573012901e-02 1.062996371523516025e-02 -1.631988256452815075e-02 -1.231894421943993158e-02 -2.315164270743527708e-02 -7.209475028310198715e-03 1.771710095313925107e-02 -2.896351129517794193e-02 3.787316607302453064e-02 -2.025609219731997618e-02 5.426819330631834498e-02 -3.063418923582220676e-01 -2.458119712089522346e-01 -1.653511290954400437e+01 8.197787991783040962e-01 6.957868688664469836e+00 -1.294188228307544160e-02 -3.894784402804461060e-02 1.167228859378202817e-02 1.154179851483777726e-02 -9.230598178020548161e+00 -2.944709211073904243e+01 -3.611863260819615107e+01 -2.510655680223030473e+01 -4.905316688425850558e+00 1.619125842688782027e-02 -1.881377505180896123e-02 5.069331610113662553e-03 6.955170123484441524e-03 1.749793733423719508e-02 1.201481984719494564e-02 6.102442347633079897e-03 3.186899981114431433e-03
-5.090069807478798947e-02 -9.763493470202253693e-03 -2.933449695709608104e-02 1.115655568761686825e-02 -1.171186210594702889e-02 1.358426699829530862e-02 1.540049224816377946e-02 4.950906878880432550e-03 -5.097868814450456226e-02 -8.874130477235599557e+00 -2.652268857821761827e+01 1.341706974113114625e-03 5.417061024433458133e-02 3.581231641987330655e-02 5.253634260960226426e-02 6.136030121794121012e-04 -1.677673490960826866e-02 -2.548344275080163118e-02 -3.467361882551422969e-02 4.035047377650597539e-02 1.188364137236437405e-02 -2.480771995753827154e-03 -2.783400838727277324e-02 -6.137320897589879955e-03 2.478092835008530517e-02 5.171399087547269569e-02 -5.674716366834721241e-03 3.987068706319234213e-02 -2.694731703092298133e-02 7.285258699044452890e-02 -2.806461031414405824e-02 -4.929343815134558382e-02 8.299358945042087377e-02 5.741824039681914411e-03 6.020102155538100547e-02 -5.751545329453006339e+00 -8.547062014589326395e+01 -3.959431673180824305e+02 -3.323911821638283186e+02 -1.888489262201947554e+02 -1.743033354968428910e+02 -2.080938300240526573e+01 -1.272814973586522749e-03 -1.561438164877142730e-02 -2.074198156110486010e-02 -3.036439627977740446e-02 6.339700514715929103e-02 9.630780582890314384e-03 -9.742492471602642520e-03 1.159249168295917350e-02 2.282509149404074802e-02 -2.632999677570994207e-02 3.436335966148968551e-03 5.554050305607419885e-02 -1.247169681364686776e-02 1.362200831462730653e-02 1.168252051949335117e-02 -7.136915613005562209e-02 2.726530941340416653e-03 8.278604170091420286e-03 -2.416307160364772593e-03 -3.631105849631445226e-01 -9.059085266252932200e+00 -1.696014057630690104e+02 -4.202916417481574740e+02 -6.744755042622232395e+02 -5.481102004591365358e+02 -4.583884715625394506e+02 -4.268969905042683877e+02 -2.626036479507513945e+02 -1.070774854847440878e+02 -1.218434872332362886e+02 -1.388407221956300361e+02 -1.388309331484500433e+02 -1.339212931848696542e+02 -3.333401156913464547e+01 -9.514626932541067106e+01 -1.374722199123812914e+02 -2.789566887258207117e+01 1.295229332206541094e-02 -7.665856517052166419e-02 -1.687022256200048156e-02 -3.926797521099566896e-02 -1.923014307374937282e-02 -6.968662317175869370e-02 6.716345882708611714e-02 -4.654166686644288509e-02 -4.201096550589238088e-02 -2.563888856668990357e+01 -6.106589594448274028e+01 -2.924823149727946543e+02 -5.912289659264296233e+02 -8.553374010017975024e+02 -1.010936391290318056e+03 -7.678670420553311260e+02 -6.633394953345169824e+02 -4.944098021831033520e+02 -5.023965699531194105e+02 -3.697268331228930265e+02 -1.899855856737264332e+02 -1.706257210442906853e+02 -1.279302952608526311e+02 -2.292820135806102542e+02 -3.346480461713989598e+02 -3.780206269137894992e+02 -3.413885654830369845e+02 -1.671309651903545728e+02 -2.320384646092535164e+01 -1.722960903549510148e+00 -6.704870987353365227e-04 -3.685028433672504766e-02 -5.607748055535338554e-03 -3.644606839105932888e-02 2.606205960398337226e-02 -3.859328783821508457e-02 -9.326851088744125481e-03 -7.262098977775659137e+01 -3.162993191992297852e+02 -6.878874654578536365e+02 -1.023084759064605578e+03 -9.748054077619481177e+02 -1.103215548228371745e+03 -8.726108964897682654e+02 -7.018996930347816487e+02 -3.304182520563519461e+02 -4.408250716597571000e+02 -4.273288479154088577e+02 -2.947242676103389272e+02 -1.545267997965296729e+02 1.458571377604947372e+02 -4.010360325967117490e+01 -4.090233108180042336e+02 -5.350647528796549750e+02 -5.117492976018729109e+02 -4.281796311268789736e+02 -3.061355660281651012e+02 -1.678482482140372554e+02 -9.878183754666608252e+01 3.215575532688388222e-02 4.411992481821828960e-02 -2.198349442019521122e-02 1.299073924750888476e-03 -5.599612185825572652e+01 -8.621415859850965546e+01 -1.972564266958589769e+02 -5.964953853582389911e+02 -7.851071401829675551e+02 -7.330500131354255018e+02 -7.356407793380352587e+02 -4.981180771317257836e+02 -3.949191975360512856e+02 -2.797172043933600207e+02 2.543434239179746896e+02 9.818216960145004180e+01 1.378254666386793588e+02 1.914007409425969684e+02 1.818130096550220856e+02 1.988719109923941630e+02 1.242130097545578025e+02 -4.058624268516041411e+01 -2.233000264292040242e+02 -3.469200972963386675e+02 -4.571938490197209148e+02 -5.957792418663993885e+02 -5.547882127020656071e+02 -2.652483310974180881e+02 5.303213496962527751e-02 -2.728094239535866841e-02 6.698533928207383789e-03 -1.392769774735907887e-03 -1.131288981338906581e+02 -2.157155085824907133e+02 -2.899633250732055672e+02 -6.736332539139931441e+02 -4.819993395501950886e+02 -3.814102993210775594e+02 -2.769470701098833274e+02 9.932376469447393674e+01 2.916428697665992331e+02 6.467226134848605170e+02 6.322072579478127636e+02 6.844538696609638464e+02 7.551445272608449386e+02 6.972389168718859764e+02 8.492289777815988145e+02 4.418317618846344885e+02 2.984182975453425115e+02 3.084665613399621975e+02 1.989187946958295754e+02 -2.619935023644534908e+02 -4.536144227728971714e+02 -7.758878164653914382e+02 -6.943714715875380534e+02 -4.046606762823111012e+02 -6.097685441610580348e+00 1.535645941708374193e-02 3.524878959193532973e-02 2.395326199901996050e-02 -6.287623963769222968e+01 -1.658407192596610571e+02 -2.322940185720304385e+02 -2.450710346312398542e+02 -1.245731588370452130e+02 -3.719897902995173240e+02 -1.856964146844631180e+00 2.590773529465260481e+02 5.030666722954534293e+02 5.266786682478691546e+02 7.728172444856894572e+02 9.820541929713687068e+02 4.911048010197573035e+02 5.654195485071431904e+02 7.323325332414286777e+02 5.730809369512377316e+02 6.818099941998764280e+02 4.944200834457021188e+02 1.322529733536713366e+02 5.869968944959912704e+01 -2.296431765717827886e+02 -6.754739312154947584e+02 -9.736455016101732554e+02 -6.609023588673856011e+02 -9.157295020290814591e+01 1.289301138133539144e-02 3.198753877312489335e-02 -2.071380923372568716e+01 4.398948287444431315e+01 -8.684295604148620384e+01 -2.343495579012044345e+02 -2.328311083813186997e+02 -4.732563070653492900e+02 -3.444145754795565608e+02 -2.729670004973044328e+01 1.385360276902369492e+02 6.653185348024406949e+02 4.301053060005231714e+02 1.489001043286864387e+02 1.902433438933791479e+02 1.670428939801827255e+02 -8.732073004423857299e+01 2.311750835254163690e+02 5.052310522284439571e+02 4.027163228301848790e+02 5.297298591818641853e+02 -2.812525233651201262e+01 -1.538196580433529164e+02 2.272671950150083546e+02 -2.290294534459981719e+02 -1.062161378025170734e+03 -7.179976095992277578e+02 -1.893425755056501316e+02 -3.371910186941918380e-02 1.508027318152278806e-02 -2.856486362159262526e+01 4.617726929019694282e+00 -1.269419014783578348e+02 -2.386944855321000034e+02 -3.961898205800260939e+02 -8.451331149512134289e+02 -8.641165398137012517e+02 -4.628938288418327147e+02 -1.278585057122676005e+02 -2.999267020247572759e+02 -3.813381177998638805e+02 -3.432731761914007507e+02 -1.090539372430829133e+02 -6.310998709964708020e+00 -6.333257457342809005e+01 3.296366221211353604e+02 4.199671266429472212e+02 2.117553839127572246e+02 3.657184533046093975e+02 4.375584505907074231e+02 -1.112627628560304238e+01 -1.650707652109937484e+01 1.273585452358814933e+02 -6.792400773187601999e+02 -6.421957394127073258e+02 -3.558496005319060487e+02 -6.146612131301929516e-01 -1.360446175880637015e-02 -3.981679153939441562e+01 -7.806356838931714037e+01 -1.396216706906109550e+02 -1.183153546618840535e+00 -8.704999750499006268e+02 -8.124882281579546088e+02 -8.817582815620926340e+02 -9.847526677097058609e+02 -8.421138072556043426e+02 -9.778487966944875325e+02 -4.514393165061169952e+02 1.081308776240785789e+02 -1.073446979029600783e+02 -1.781823031474812637e+02 1.608995889259814760e+02 4.433196043433713385e+02 3.158391915423193836e+02 1.017289419655260616e+02 -6.237037361129522850e+01 4.627491934172106625e+01 -1.751240292226791837e+02 -2.215960185495952146e+02 2.082929494871428915e+02 -1.760917604567616195e+02 -7.594240941008752088e+02 -3.396415561333474784e+02 -8.027657441695025042e+00 -4.581678238989926599e-02 -3.114542351808488618e+01 -5.897215731047965193e+01 -1.432392331363238895e+02 -8.762785272243783652e+01 -7.294339712371610176e+02 -7.052627626931297300e+02 -6.521599370169374197e+02 -5.985435923846588366e+02 -8.327393848839625434e+02 -2.203473054448650998e+02 4.110926788224826396e+02 4.149850732027385902e+02 2.550516074020735502e+01 2.336374954283359386e+02 8.666684869734500580e+02 8.684201542138347349e+02 4.940647455066870180e+02 8.743427026364676067e+02 7.034369552306840205e+02 5.051219719686925487e+02 -1.098721823305467638e+01 -1.362076974719377063e+02 1.379993027641740753e+02 5.153172277418116209e+01 -5.509424431713360946e+02 -2.676888028956493031e+02 -6.554456773963357819e+01 -1.465282828034790430e-02 -3.810353688622777923e+01 -3.013128009718594313e+01 -1.321808895327153550e+02 2.299952185307424912e+01 -3.956851020332338180e+02 -9.700772871389685861e+02 -4.693945415322964436e+02 -1.370295948047660204e+02 -7.082104344786542924e+02 1.417441211868765834e+02 6.616512526038361557e+02 5.814651443207429793e+02 7.484495631378558755e+02 5.909371515546588398e+02 9.415073714425088838e+02 7.959697813864002001e+02 2.619282923398941421e+02 6.705840075735873143e+02 1.215742523419187819e+03 1.159650110189814541e+03 6.135158117120009820e+02 -2.053032534680169476e+02 -4.236146951198826969e+02 -2.228675316486985025e+02 -7.270464115915996217e+02 -5.988358434037736515e+02 -1.734519873319147791e+02 -4.537147273213364834e-02 -2.114646307775095480e+01 -5.646185087708229844e+01 -1.905612117963941614e+02 -1.404120591663030098e+02 -4.140804172368597733e+02 -6.225996651323906690e+02 -2.219823465726374820e+02 -1.801216743832155771e+02 -7.612340406588202768e+02 -5.682316339964552299e+01 2.604001980766852853e+02 1.417235608771732984e+02 4.399680594803901954e+02 4.576685903745399742e+02 2.306177842474744182e+02 6.867073328467492388e+01 1.241698095375177218e+02 6.609110805505137023e+02 1.158055422215478984e+03 9.365934273678960835e+02 2.629494604416164520e+02 -9.432489974624769502e+02 -1.908989684018796879e+03 -1.645086372798124557e+03 -1.189564857631592304e+03 -1.119982728942488848e+03 -2.817115092567206034e+02 5.749405869545295283e-02 -2.092960488949711362e+01 -5.920053167431651531e+01 -1.081861335658466032e+02 1.003525059871153644e+02 -5.164162535934453899e+02 -6.135732528310602447e+02 -4.883250226030841645e+02 -7.403839775138894765e+02 -9.704967494584695942e+02 -2.745707720465682655e+02 -2.453956823460023031e+02 6.755040572556552547e+01 -1.069278943631546923e+02 1.520954820203870668e+02 -1.899360864652753378e+02 -1.860277116873407977e+02 -3.208453072586141275e+02 5.160323135078955374e+02 9.219093984643781141e+02 3.676463815754402731e+02 -4.914228661664213860e+02 -2.390663095074219200e+03 -3.622000691095473030e+03 -2.853557173565791345e+03 -1.560908208588572279e+03 -1.081950883635274977e+03 -3.079780215882458947e+02 -4.849916538465510150e-03 -2.413245112957032745e+01 -2.229121897560732179e+01 -2.782569278764108489e+01 5.430387968857794334e+01 -1.792509811644070510e+02 -1.050102020504782104e+03 -8.966359953026046696e+02 -1.195839201277960456e+03 -1.006728328537157381e+03 -2.993047183786487153e+02 -2.407730924569030151e+02 -3.529932537060489040e+02 -2.563889688074178252e+02 -1.223429837632964023e+02 -3.004301859521979168e+02 1.699436203553591440e+02 2.685234266193344297e+02 4.399429415474977532e+02 3.719304812010819319e+02 -4.855390505949405338e+02 -1.468903867801072465e+03 -3.174716663582521505e+03 -4.301568699483586897e+03 -3.235975679593725999e+03 -1.648674912914931383e+03 -1.068416806771917663e+03 -4.534005384138050658e+02 -1.745526921128195269e-02 -8.148009945473292603e+00 2.561378264607562016e+01 1.069849927114092623e+02 -3.258133093610398419e+02 2.252517292177576280e+01 -7.160048690503907665e+02 -1.093939188719965387e+03 -1.007108667317574827e+03 -8.947737200400090387e+02 5.025504330864726654e+01 -5.211914341046851860e+02 -5.085611237663999304e+02 1.462296063036811233e+02 3.065359729333721361e+02 6.512424906718364355e+02 6.449067924447226687e+02 7.701770781848222214e+02 3.659215710193245172e+02 4.253778223176855136e+02 -6.137471311103379321e+02 -1.659687951334324680e+03 -3.035171080767046988e+03 -3.531696882611166529e+03 -2.501979145459746178e+03 -1.326959458580391811e+03 -1.002290917956738326e+03 -4.788257867641016787e+02 -1.211846281494365594e-02 -1.152964370414201056e+01 1.121197282894251934e+01 5.540793269567830492e+01 -1.852836465798926326e+02 -7.007690051005898795e+02 -3.851160585883490626e+02 -9.080759970808062462e+02 -7.543602993817273727e+02 -5.233187725202523097e+02 -3.635897685226237286e+02 -7.649257773812552159e+02 5.050059385012079360e+01 5.690353148662521789e+02 9.335865055351532646e+02 1.283293995663794476e+03 9.757073218927943117e+02 8.730605645933039796e+02 4.885487241375057010e+02 -4.558700697929997148e+01 -6.862304382449038940e+02 -1.420932810449683302e+03 -2.152678818731542833e+03 -1.730026229435554797e+03 -1.347795283583789342e+03 -8.792653955254378388e+02 -6.316567873453400352e+02 -2.371254712476698785e+02 -4.519175959736002057e-02 -1.790767585082307178e+01 -2.611378392392062509e+01 -2.124649573423487539e+02 -2.548065190348353042e+02 -1.066148236601910867e+03 -1.306828920217849827e+03 -6.087526540301806790e+02 -5.844865879998078526e+02 -1.753649162730188777e+02 -4.601311725447289405e+02 -4.009347658801207217e+02 2.777868150917681191e+02 3.868475379222565493e+02 9.837915193116537012e+02 1.017596476923852606e+03 6.678787413139576756e+02 7.035314392260042951e+02 4.235574823753589726e+02 -3.217022927579441216e+02 -1.284503643812196515e+03 -1.419316977066396930e+03 -1.234979541502872280e+03 -7.397510352963284959e+02 -3.543578965718163545e+02 -3.079833644114293634e+02 -3.945874627792944693e+02 -1.272907325975636326e+02 -1.694373231269903635e-02 5.808070664360298618e-02 -5.305074472696674093e+01 -4.785667403589213222e+02 -5.816269254100094486e+02 -1.010336083150333593e+03 -1.817937276227983830e+03 -1.304059636980632604e+03 -3.583223761480742837e+02 -1.156834627729781602e+02 -3.381315263051071724e+02 1.567338348731064741e+02 3.382453368576247499e+02 4.986846989458124426e+02 6.160156560363254812e+02 2.755288844883159527e+02 5.229955255466182962e+02 4.402061528474134775e+02 -2.007965482914140054e+01 -7.782080962298741724e+02 -7.789738960125137055e+02 -8.913589595265332264e+02 -1.201399253970942482e+03 -6.084597280297555244e+02 -3.345343824558161145e+02 -2.335644631119952521e+02 -2.790954642203524259e+02 -7.141443663281120280e+01 2.092150406243153959e-02 8.771866469539760930e-03 -9.924418813847566412e+01 -6.527556010272570575e+02 -7.893005350703078875e+02 -1.348838164549463727e+03 -2.002255884240235218e+03 -1.774189866039086382e+03 -1.206477112692398578e+03 -6.810722050060396668e+02 -3.162908288993128281e+02 1.519347673112972075e+02 2.089946956007088374e+02 2.395772547623863602e+02 1.711544147787130328e+02 1.966178307103151326e+02 4.328185259109988579e+02 3.309907142088752039e+02 3.951213191832911065e+01 -3.044404251536091124e+02 -4.788682811747877395e+02 -8.523271479517914031e+02 -9.691314492056658310e+02 -8.939571519039700433e+02 -4.871699982169342888e+02 -2.338055009091915792e+02 -1.667692632411115028e+02 -1.882810184420757649e+00 -7.819620477069856926e-03 -1.971102823917589980e-02 -9.929882080243365294e+01 -6.255467956730071819e+02 -5.363300354006163388e+02 -1.005577129061608730e+03 -1.755902794998198488e+03 -1.444704277261495690e+03 -1.269665930000923026e+03 -7.704542433073337406e+02 -1.813376975105592237e+02 3.620735797223295549e+02 6.038020910513358785e+02 5.845103332898239614e+02 7.883336139800823616e+01 3.999800275045284934e+02 6.526233700567834148e+02 1.043841377396751568e+03 9.652651678098900447e+02 2.066700585101016827e+02 -6.943354677428076229e+02 -7.938787717618690749e+02 -8.591857543572981513e+02 -7.830141305033941990e+02 -2.897557919637520740e+02 -2.294084223432133740e+02 -1.348533247688106655e+02 6.681278846043628428e-02 -2.997655091182048828e-02 2.225461201927503990e-02 -8.746660308518943339e+01 -5.292694963548140095e+02 -3.988088918072868978e+02 -7.952710476372898256e+02 -1.344175740774469659e+03 -1.082987932699262501e+03 -6.034777236208856266e+02 -8.807786505582554071e+01 3.963716736101749802e+02 6.424798579852697458e+02 7.322535254459992302e+02 4.111669140610635509e+02 1.587194538235894186e+02 4.569405927607455737e+02 1.252391743266003459e+03 1.435825789603177782e+03 8.442763790666231216e+02 3.436232629098249163e+02 -3.701350775055748272e+02 -7.108344792138237835e+02 -5.397137770647740354e+02 -4.379631414301016434e+02 -1.761230905644719087e+02 -9.301041590561489159e+01 -1.367546888570261956e+02 5.108336013192977740e-04 -6.757628178082558668e-02 5.874700459648649065e-02 -5.887878150736237615e+01 -3.050265560898164949e+02 -4.375179406008492720e+02 -7.153378647941150348e+02 -1.020047172251192933e+03 -8.681191795173652963e+02 -4.149548607851911584e+02 2.810847423091221344e+02 7.758679828984318192e+02 5.893363305349384973e+02 3.762656647231660827e+02 2.198673841065629802e+02 1.466765803167156434e+02 4.275926016874849438e+02 9.515959097559629072e+02 1.294756041420026577e+03 7.630551850653495194e+02 1.774972543718431268e+02 -1.370813399679621796e+02 -3.494143746756990936e+02 -1.784608863692060936e+02 -2.805126529659110588e+02 -6.256398223035923678e+01 -4.855055114213320877e+01 -4.976144890810894200e-02 2.420191056903647081e-02 -5.996083165384803217e-03 9.788664127409647808e-03 -1.695437092517488420e+00 -1.131097856556972943e+02 -3.837569399908208538e+02 -5.590548293742501755e+02 -7.420235522592965935e+02 -6.604060105780336016e+02 -5.363181092418698199e+02 -3.310777520893221038e+01 5.028443419524439264e+02 4.618112275002126239e+02 2.091817948316233640e+02 1.070288119431815943e+02 1.528987884147560123e+02 2.414676057583376689e+02 4.281275407445996279e+02 3.571777004573215208e+02 1.431047231086950546e+02 -2.308622305977305871e+02 -2.542012457649045984e+02 -3.935196893936300455e+01 8.562584865010062174e+01 3.374028770049275039e+01 -1.684903180530724143e+01 -5.320909673664313111e+00 -9.878596445507998886e-04 2.029059834025317977e-02 5.976988819438183893e-03 -5.859360472025786082e-02 7.880522190816778225e-03 -2.371512692438382430e+01 -1.629662025725971830e+02 -3.136486555365131039e+02 -3.948602735070749077e+02 -3.192334973176808148e+02 -2.111413760537503777e+02 -4.102716371332837042e+01 2.551093915168361548e+01 1.097869698402555940e+02 5.068665667111396544e+01 3.991390837498324906e+00 -5.273925663669755792e+00 -2.702069011143585087e+01 3.254252035108008556e+01 1.383771291556969345e+02 5.090805863332595038e+01 -6.611082274221467969e+01 -1.495041707528177994e+02 -6.416218085183761843e+01 2.283861279218226414e+01 5.604415135085580602e+01 1.076758598624639296e+00 -2.469849823216794388e-02 -1.539566838640272356e-02 -7.037937621216428311e-03 -2.451300293396620894e-02 -7.059607993593100539e-02 -4.592070550765228049e-02 4.731024444172872434e-02 -1.281326197748612117e+02 -1.590599034691692850e+02 -2.515836289342690293e+02 -1.693861392110106010e+02 -1.776754514403654923e+02 -6.960288068151255914e+01 -5.498940345252051998e+01 -1.938308546491100293e+00 4.827505070066748338e+00 2.117941138651739497e+00 1.939720033329106386e+01 -6.900260504209891899e+00 -4.105577136029251761e+01 -2.941762209942401185e+01 -5.387457413868931866e+01 -4.032877961126072819e+01 -3.286539335746749657e+01 -3.118315161595018026e+01 -1.813635746644556290e+00 -8.511573810568915516e-03 -1.943516921240718426e-02 -7.489509199050481403e-02 -8.168037279717231536e-02 -1.774311224032268375e-02 3.193187623462390851e-02 -3.144760199278734403e-02 1.118868103151141567e-02 -1.220496556060079833e-02 -1.994896784742652279e-02 2.137032834542722248e-02 -1.024625771982610623e+01 -8.844924232341293546e-01 -3.463013194612069157e+01 -1.337468541519928067e+01 -1.306397454076802767e+01 -2.191646823610645528e-02 1.097366398222829158e-02 2.218536762480206870e-02 -3.567658330716010073e-02 -7.779761716662118687e+00 -1.748313155400986929e+01 -2.141651073249553505e+01 -1.865378722219602281e+01 -3.694792423231909151e+00 -9.933462245135110669e-03 -3.237394796693662119e-02 1.846575780096131741e-02 -5.526679155972657326e-02 1.238145699197334797e-02 3.132486606196220689e-03 2.367874144583933735e-02 3.891322949578200803e-03
