-1.325815521525829155e+00 2.642005829401478656e-01 -7.392629896455304106e+00 -4.564717010423871457e+00 -2.067664247038725200e-01 -3.223612466044589731e+00 -5.151148630694919461e+00 -3.255729182056930071e+00 -1.325470492109441123e+00 -7.876467247284958673e-02 -2.723609833014920767e+00 -8.737275621467213149e-01 -7.730759058303329212e-01 -1.746722667922455008e+00 -1.370742433551735751e+00 -3.946381954436297690e-01 -8.783310362809829686e-01 7.676902483214425033e-01 1.921115975759376759e+00 -1.706572973066323051e+00 -2.082462090235150942e+00 -4.623987259230317726e+00 2.354481242419992071e-01 5.796631204606030430e+00 2.432121200466616617e+00 -3.398415233683423242e+00 2.123903925342355503e+00 -1.412509725050223430e+00 -9.910934591166902230e-01 2.196000143804741622e+00 -6.400506925633271671e-02 -4.897441018574869354e+00 -4.601566242070552093e+00 1.871129556152718143e+00 -3.272111496020161159e+00 -1.541084157708461078e-01 -4.394475261475994543e+00 -3.234494347598513730e+00 3.275876506452153891e-01 -2.373244480720625438e-01 5.820533764413550193e-01 -2.296917200279219085e+00 -6.022300970783806662e+00 -1.958156179785226270e+00 -4.404441703139638342e+00 -3.099285214932529620e+00 -4.875590458876637889e+00 1.081776985991104167e+00 3.731570913021392322e+00 1.733926296515815091e+00 -2.906505653805373957e+00 -3.264079215540546475e+00 -5.189484663166289424e-01 -3.262254333298876485e+00 4.516843570509752048e+00 1.580956812710825110e+00 3.073265381000313656e+00 -2.168438553579536077e+00 -5.589437272093927822e-01 -1.479391468538310273e+00 2.279867874550681517e+00 -3.404152196942073161e+00 8.398269185214418675e-01 -3.825091731142482021e-01 -1.542688272578899067e+00 -1.630076920330070234e+00 -1.094174542565752750e+00 -2.055130779384314099e+00 4.354618907940922545e-01 4.368166782499956907e-02 -9.936574473806494279e-01 -3.414417894621304406e-01 -5.085101991525668552e+00 -2.163183636995641645e+00 8.491871289585505300e-01 -4.847598392203062545e+00 6.973309014564116337e-01 5.518317962651634323e-01 -3.469261902852910584e+00 -2.385173203457469970e+00 -4.273148521965475788e-01 4.654341905448478589e-01 -2.236839905428701147e+00 -2.722368848010858766e-01 1.593233509699781392e+00 4.858493038461495633e-02 2.120957453921662683e+00 -2.148444123956576135e+00 -3.735842755540543791e+00 -5.614962529802574487e+00 -2.118535719576255527e+00 2.868385599894490157e-01 -3.131800354831808963e+00 -4.747079208636203695e+00 -2.233525661460714851e+00 -1.151324044066667218e+00 -2.361196348585372640e+00 -2.660074122434753274e+00 2.203908648477998611e+00 1.653046898029526313e+00 1.117433979399515831e+00 2.227437900660356629e+00 -2.437014771431471605e+00 -1.831141787147646527e+00 -3.770708303984106724e+00 -8.850565255402383924e-01 -2.336786898629419795e+00 -2.753548064924298711e+00 -5.006027742837722450e+00 -2.013619562637525284e+00 2.070199251011752395e+00 2.792068505602257611e-01 2.426029195576210551e+00 -3.285408029874348657e+00 -3.942949176000895228e+00 -2.068778484345562774e+00 2.142740494198904222e-01 -3.410860754456007005e+00 -6.812118862688436582e-01 -3.669698775550617187e-01 -1.330115472777743557e+00 1.246274885407153921e+00 1.551364901934429552e+00 -4.445263563984995336e+00 -2.749063262298748089e+00 4.550096509945268930e-01 -2.372966563891087066e+00 -1.345504866269841227e+00 -3.000328563035106644e+00 1.039294882546258486e-01 -5.595560924066828257e+00 -1.920102306255506930e+00 8.076564164682380476e-01 1.907728748994611312e+00 -9.548788326144937999e-01 6.076644275603092504e-01 -2.672463854487032275e+00 -4.304090619672618079e-01 -1.809141211683401806e+00 -2.179701823572250508e+00 -2.690132187153147392e+00 -1.919963587798137805e+00 2.095403054737620341e+00 1.020438487028317021e-01 -1.140404679364765084e+00 -5.533175900874587327e+00 1.548985748158875797e+00 2.030406954758411153e+00 -4.397255092985392189e+00 -5.218035655844969867e+00 7.762035989052523677e-01 -2.567358482855510715e+00 -4.906888192943686389e-01 -5.349823998502450273e+00 -4.563979465010156167e-01 2.341049424269166401e+00 1.379287496534658430e+00 -2.667746094134936463e+00 -3.527989477294407816e+00 1.486047746698473615e+00 -3.647028125654162345e+00 -2.834548219626431553e+00 -2.760752958733430962e+00 4.577400044586571459e-01 1.773153235388849280e+00 -3.171446094831619433e+00 2.053352801011103068e+00 -4.461016160604888370e+00 1.499846880057480902e+00 -2.344304560005856963e+00 -4.001801621417786059e+00 -2.716801945508878102e+00 2.366619932365906731e+00 -3.369509662202224698e-01 -2.023981471555982292e+00 2.870442091609524571e+00 2.915391107534263115e-01 -7.842977012191820751e-01 3.426402769177932406e+00 -2.000541937902285738e+00
1.187145379652326804e-01 4.843254416997786471e-01 4.022775684650585493e-02 -2.574666190346657224e-01 6.690431390507171061e-01 -1.294853312017500313e+00 -1.875266180103108082e+00 -4.751030660795875771e-01 -1.278097210613230006e+00 -1.249537758203656812e-01 -5.423132135964144895e-01 -3.027195098752899494e-02 2.092834158624883756e+00 3.226924547061438830e-01 -1.264096465629836741e-01 -1.184247358417847451e+00 -1.642975172678368817e-02 1.470800175313135449e+00 -4.848146356591034878e-02 1.472840115175292119e+00 -5.445468355398740412e-01 1.128106471246173470e+00 8.731150339701750918e-01 -6.002318344286970309e+00 1.578229854783591124e+00 -7.792578523593093331e-01 -5.322729047635446076e-01 -8.610584446376737588e+00 -1.354625952926149512e+00 -1.564766430567406497e+00 -6.468521642411149131e+00 2.427600205716426096e+00 3.937653724967100088e-01 1.029674154014500242e+00 2.343011699601386333e+00 -8.396188796760901241e+00 4.500717701116444674e-02 -1.785245251537003419e+00 2.236039993224167022e-01 5.299904012416640775e-01 -4.871416755125107301e+00 2.202122791650475697e-01 -1.394499057730802294e+00 -3.817411420723585191e+00 -1.679106749992898218e+00 1.344502395567243269e+00 1.505990910930792015e-01 -8.885107254920800557e+00 -1.464224522490363389e+00 -6.181551476208585472e-01 1.422851969155820129e+00 -4.803825100281786664e-01 1.187423558055208800e-01 -1.586032085438557448e+00 -4.444946832861753627e+00 2.223410763189437658e-02 -7.131553276257653895e-01 -1.696865308859125010e+00 2.143321301342726581e-01 1.264297468875364761e+00 -7.682305838105040197e-01 -4.605014528428575282e+00 2.383120370460730109e-01 -7.983441005421784142e-01 -1.048681481368155310e+01 -2.286846726156989973e-01 7.915483064280995906e-01 4.731150245624317074e-01 -7.042243170185211731e-01 5.598494435753623710e-01 3.934161247996110014e-03 5.267521948464063408e-01 -2.618072271963248543e+00 -5.422737172779146242e-01 -5.118836395412061258e+00 1.756615003568479771e+00 4.990214318907105762e-01 9.358144275549374891e-01 -2.088609394297365363e+00 -1.238773713550057565e+01 2.687004351377448419e+00 -5.918778190981939247e+00 -4.516225866928901489e+00 -1.445907941268427477e+00 -9.906539805095924134e-01 -1.060945894869659512e+00 3.748172749870664622e-01 -6.678245867213412623e-01 -1.404781773563627434e+00 -5.227965571601499439e-01 4.356530482285358441e-01 -1.096221840288903598e-01 -6.435148584837548924e+00 -4.872151648771912313e+00 -5.343241413775150495e-01 -1.413122669821279098e+00 -7.995072733079180427e-01 1.019310186437680121e+00 -1.263142857780555950e+01 1.275505929878553157e-01 -2.850139141897986228e+00 1.305844307358966061e+00 2.138925762495638594e+00 -8.912191816864177829e-01 -7.392566858465696167e-02 -7.934000327625809756e-01 1.354821360197555391e+00 -1.245113410993594405e+00 -1.308967594185938887e+00 -5.025700838395109393e+00 -1.168683788426938763e+00 6.234044075299506327e-01 -1.983773209446473007e-01 1.114845633264476971e-01 -1.986329668744210686e+00 -1.303886746495875326e-01 -3.182835061030307777e+00 2.378019015018540683e-01 9.054778108826361249e-01 1.410789415666952928e+00 -4.525438553951095955e+00 -4.588497747089198775e+00 -7.129264286360468272e-01 -7.358197125133913996e-01 7.232008986029898612e-01 -7.354812733686576509e-01 -1.019229838423128198e+00 -6.301105857790512133e-01 -2.911624237166520190e-01 -7.115139136152187405e+00 7.781144999512848437e-02 9.614211877145063534e-01 1.519353339172591966e+00 -1.294902179505816431e+00 -7.457630823626015815e-01 -6.921676633030406922e-01 -1.670380675264314441e+00 -1.814827159797696154e-01 -2.102361052948017228e+00 9.675551593441031883e-01 4.730558379354013465e-01 -2.835558743269118498e+00 -5.790114796670509101e-02 -2.319867175437991147e+00 1.373756510348004001e-01 -6.970246708542470193e-01 1.366284938944769989e+00 -3.033728441696514899e-01 6.164581977144462099e-01 1.019559779691620705e+00 -8.656414510043299870e+00 -2.485688183467179846e-01 -1.979201906730089222e+00 -3.881946617912868991e+00 1.293217163790738145e+00 -2.475191257027480052e-01 2.963898026362721816e-01 -4.649935386068196896e-01 -1.129946966305340750e+00 -6.504467958279454010e-01 -2.407160303642254640e+00 4.983350031874708708e-01 7.703615962311399779e-01 3.685454335035385776e-01 -1.253589298903657445e+00 -5.699668250427164518e-01 -4.916412478690017629e-01 -1.668656246320417758e+00 -8.296322863255749525e+00 1.124677386438674431e-01 -5.928882425952104462e-01 4.011576413602478963e-01 -4.969402561446141231e-01 1.567276483139241616e+00 3.250757693582139396e+00 1.137746742532441457e+00 -1.291283417396287492e+00 -2.937106917966464170e+00 -2.081391793463589934e+00 2.432438362578915214e+00
-1.496144811200365576e-01 4.156543044270153420e-01 -9.071021693941290209e-01 4.175310139819094456e-03 -4.989242109422232230e-01 2.364283248538800175e-01 -2.471273385262575673e+00 4.956513089152618790e-01 -1.574982181670502968e+00 -2.449177085099804307e-01 -2.933225360842461882e-01 -8.457163977490033124e-01 2.183375865564104235e+00 -4.439619013035838613e+00 -4.033833779410445075e-01 -4.246114348362521329e-01 -8.350463915999498665e-01 -6.829369060598363683e-01 -4.351690916065853898e+00 -5.629656910211702225e-01 3.660144817270280515e-01 -8.551156114741144398e-02 5.274390506879674589e+00 2.835201456341880366e-01 1.678089587936574478e+00 9.408340932978860316e-01 -1.112270148293356353e+00 8.859750290866317268e-01 -1.311209621084840071e+00 7.277013298189707324e-01 -7.742743635800525936e+00 1.304760958198586174e+00 -1.865651151480525405e+00 -6.487738128592753561e+00 1.878475709422257889e-01 -5.709565194918245767e-01 -9.602952601806626909e-01 -8.330308772916175997e+00 -2.865468658722303719e+00 1.736115623909823436e+00 -1.764454317894682767e+00 8.651124740518926215e-01 -1.150533840449467826e+00 -1.934980215569013229e+00 -7.429764264469337354e-01 -7.860189173018047870e-02 -1.334559500237006535e+00 -8.356770510116255934e-01 -3.805039969648283726e+00 -4.193712735456943008e+00 1.888740218444159291e+00 -1.441338598904450929e+00 6.598451116087450385e-01 -4.950858599901904467e-01 6.883819237509811728e-01 -4.689675418825972386e+00 4.193444805285774790e-01 -1.133491519029974137e+00 1.767455382862016311e+00 1.057823542171822062e+00 -3.688025562790004930e-01 -1.573242469233316232e+00 1.234102682301849940e+00 -5.629650132990432709e+00 -1.958560074973175191e-01 -8.540435002045970725e-01 -4.896004033576759062e-01 -5.219631368791421977e-02 -3.184112744918338400e+00 -3.709546068223524173e+00 -2.598557913947202591e-01 -1.189329231502819217e+00 7.477885977615297275e-01 3.107378118693310820e-01 8.799466106708591084e-01 -5.421491111395173590e-01 4.405869340582910798e-01 9.420535852935751908e-01 -6.207969974153911830e-01 -8.740921934085954526e-01 8.526518212042161204e-01 -8.531121700408045294e-01 1.658899405395402038e+00 1.285001391389221093e+00 2.420223859922942533e-01 -4.196371104101241922e-01 2.220358242707321850e+00 1.331973523217736988e+00 -5.740136559111120862e-01 -1.436608423753634067e+00 -1.027138494583248463e+00 -3.183970188686013891e-02 -2.435092844338605289e+00 6.612770447438565125e-01 8.360330061002286817e-01 -9.746534902291277280e-01 3.899935946650527341e-01 4.239291194235483839e-01 4.939173163621402018e-01 -4.787511168501045411e+00 9.897950328774774986e-01 5.246967266232029081e-02 2.838912809297787221e-01 -1.361452893190276514e+00 1.974202589043287714e+00 1.272962491136619523e+00 -1.112277793784056223e+00 -4.288558078790488004e+00 8.525907215498870761e-02 1.423997568875784214e+00 -8.047259460291609212e-01 -1.700550875035831411e-01 -3.889503902623557163e+00 -2.051414961494520739e+00 -2.009494470564682445e+00 1.160114750508760978e-01 -2.848604395583420157e+00 8.804869132346827554e-01 4.164203582450954899e-01 1.274623974722177699e+00 -2.277464776109334288e+00 -2.772096243163291174e+00 -4.820420885328569049e+00 9.223979415847223251e-01 -9.074282815909735511e-01 -4.260893885709564621e+00 2.798135357997857842e+00 -1.576603007545053781e-01 1.124060177246172909e+00 -8.796460031863063689e-01 -5.111905923770624360e-01 -5.551738682454303575e-01 -8.362059583089426207e-01 1.173020646509415288e+00 1.934535775006420433e-01 -9.213200820132100288e-01 -2.541887639547704136e-01 5.577294881028967977e-01 -1.966020007127462499e+00 3.335235437615711729e-01 1.732018940778608185e+00 -8.406182154163565068e-01 -5.207193496833422586e+00 7.369343598199423750e-01 -4.641583146048572361e-02 -8.903354163929839693e-01 4.715533319886614505e-01 6.659984536307584913e-01 -6.298079106171224906e-01 9.067217486722547459e-01 -1.807344120556462874e+00 -8.490259951648554404e-01 2.085834507035755903e-01 -4.617509004939454598e-02 4.698380372220997137e-01 -4.321535499403817759e+00 -3.762397326120645147e+00 -1.418052798837839967e+00 1.670469070615428819e+00 1.302554503751768511e+00 -1.828085002439881812e+00 7.565948429148514620e-01 -8.036965805366070859e-01 -9.698761277640004924e-03 -3.547219098431757089e+00 1.228225722929362052e+00 2.159778210490302108e-01 -1.377622003371059556e+00 -1.193200425860269087e+00 -9.493409907054267682e-01 9.423335373320959052e-01 3.500224397412772526e-02 -4.658475493708712278e+00 -1.417291263882845209e+00 1.765728152766337378e-01 -8.552713064225182515e-01 3.934838307765989307e-01 -6.322863848140484189e-01 -6.913669572132030261e+00 3.142798158225618699e-01
-3.421609586344822040e-01 6.057747364448201610e-01 1.340502887008816479e+00 -3.872631307150625757e-03 1.694508881907002440e+00 1.353145897921669283e+00 -2.325726021188831094e+00 -2.435034431371754515e-01 -7.722383207369599711e-01 -1.211976525754301592e+00 -6.775179484818544262e-01 5.412851726458358659e-01 -1.705414342110228798e+00 -1.536873927040147914e+00 7.228859651798652530e-01 8.293302693200216291e-01 1.577871031283033743e+00 -2.717567151175672713e-01 -6.070817380029581045e+00 -2.551413957180725944e-01 -1.325593948302423053e+00 -6.768753607356553514e-01 -1.432648302683400265e+00 -1.069679763269423267e+00 9.497187659894509859e-02 -7.791859706989082701e-01 1.240905588594116149e-01 -1.605827085734106374e+00 2.842509779536702141e-01 2.636958453025820548e-01 -3.437226613917279128e+00 9.057317785306925328e-01 -5.439120315986585297e-01 -2.256197231554945226e+00 -7.324173017256192519e-01 2.173236192015610413e-01 1.468893053923459258e+00 -8.981584218925032781e-01 -5.187127801216868228e+00 -1.905562845552350726e-01 -4.209886157475356550e-01 -2.926988186324738783e-01 -2.066021288502712938e+00 2.327446617264993800e-01 -4.034246335437396414e-01 5.237753624783687556e-01 -7.522177367573570361e-01 -1.863139786779905160e-01 -6.438696384361195513e+00 -5.959246014316547324e+00 -3.504028271566821950e-01 -7.402840589979514663e-01 1.253942075436157433e+00 -1.383092137422718082e+00 1.694312256308573739e+00 -5.973242055918825066e+00 -2.227002478913539807e-01 -1.653659133524766345e-01 9.463891855514992013e-01 -6.787765654160583528e-01 6.367989092251247207e-02 3.151629389362946565e-01 5.660347701001621212e-01 -5.041468070885786190e+00 -5.448935389114318850e-01 -3.265292661233388793e-01 1.621180184060327267e+00 -6.468335639602701415e-01 -4.322569505531307144e+00 -1.891584879359261284e-01 -2.136591170422248442e+00 -1.297303977513303286e-01 -8.206797944828339020e-01 2.936266984057921969e-01 -1.705151097436685470e+00 1.175746537313368867e+00 6.361930016446544212e-01 5.580457658541258109e-02 -1.741188097407106727e-01 -6.485551718673899790e-01 -1.085580320354255779e+00 -1.215964558171091170e+00 -2.761358000013747760e-01 -4.734548859556828027e-01 1.164870270302141186e+00 -2.075332203771205197e+00 2.610589439473615103e-01 5.247663889224490896e-01 -3.693883932005728177e-01 9.262897843108324203e-01 5.273931567117988717e-01 -1.466968344234623745e-01 -6.648006678149373516e-02 -9.932817688660257049e-01 5.787852939531034496e-02 -2.231562528320423677e+00 7.387228197911063221e-01 -3.498150088479607400e-01 -2.372065809117867019e+00 -6.195780881588225597e+00 -2.890894481523555437e-01 -2.040742947595604873e-01 1.750081700258086181e+00 5.943321814611625398e-02 8.092035283498650866e-01 1.197110914807110876e-01 -4.049657453468626378e-01 -1.009950640567437219e+00 -9.799798625848418210e-01 1.799817619377278577e+00 -1.277182602234845810e+00 -4.192263159162016861e-01 -6.288199530538127746e+00 -5.999365999620773909e-02 -6.750709706373904107e-01 -1.047874501658210944e+00 -5.278557847587626028e-01 2.919175282145653472e-01 1.438410530366512008e+00 2.839728618442661778e-01 -3.513601487400326739e+00 1.870907320837569832e-01 -5.546460826285260381e+00 -5.763978020143684794e-02 -5.733999569002856678e-01 8.680969887100746796e-01 4.673033677859347867e-01 -1.215850553801290701e+00 1.201120430448350040e+00 1.168270683909038293e-01 1.790474505568339536e+00 -9.236760863360564677e-01 -9.611187126148378057e-02 2.755068877056554566e-01 -1.478164355329627977e+00 1.248259614822616381e+00 -1.423188079899982306e+00 2.140256976153573076e-01 -2.072803874047921546e+00 3.042408743293099627e-01 -1.600234392779873671e+00 -4.941306200389152664e-02 -3.436706338815309625e+00 -1.885450059765813868e-01 -1.955191181682831347e+00 -1.270026810532354666e+00 -3.529178332112068994e-01 -5.501716309122800519e-01 4.872801976616455422e-01 -1.935550156582744652e+00 -9.138050087870258631e-01 -5.480633008126564176e-01 2.302133713848885932e-01 -2.998460741246811723e-01 2.337978143880549142e-01 -6.331257161565654989e+00 -9.759733897113137546e-02 -2.734950505301139700e-02 -4.096273507584241025e-01 5.081964788288356738e-01 -2.786762115783124827e+00 -2.001978144446495134e-01 -2.837854005516595585e-02 -1.079965076143224234e+00 -6.335672518395059960e+00 1.165301478035115856e+00 1.838136887482244797e+00 2.490982830109056134e-01 1.342019710013362177e+00 -2.224305970648720876e-01 7.148215481012143435e-02 -2.875648029873790534e+00 -5.635838317715139212e+00 7.078530102842890415e-01 -2.849856840992294749e-01 7.045679890033647308e-02 2.957772257907719249e-01 -2.261923466764773072e-01 -2.392223048604558144e+00 -2.270536553137801672e+00
-1.057618682636788066e+01 -1.178976710582017162e+01 6.107633994287245960e-01 1.437357189271147639e+00 1.188189181011563456e+00 1.109867587040586079e+00 8.377812659107681803e-01 7.033550738544273040e-01 -2.333305237449111669e+00 -9.571085585275936225e+00 2.263059592856414337e+00 -9.051536163916528821e+00 -5.593540613683162910e+00 -1.929406206792490530e-01 -6.851298773089698813e+00 -5.719078786469357745e+00 -6.909390156453780740e+00 -5.339883647079790130e+00 -7.932243522456926321e+00 -3.315807014817262477e+00 6.475716065960451795e-01 2.719373834382456057e+00 -1.208275432099040891e+01 1.712366342233408556e+00 -1.401429749857416773e+01 -3.821262079814529589e+00 -1.410150748521338038e+01 -1.028062722408837892e+01 -1.084777573682717877e+00 -5.575698114360450930e+00 2.813861510523465004e+00 1.474588415224157290e-01 -3.357345683641892009e+00 -7.560541049136204172e+00 -2.999056072465852818e+00 -8.070522287809641426e+00 1.156661334703292576e+00 -5.015949025515094029e+00 -5.813944935541257131e+00 -9.673418522853491908e+00 1.985637987608770971e-01 -1.680042917069718644e+00 3.853380734768641069e+00 5.311564566680285537e+00 2.411486799690868210e+00 -1.200207939493826315e+00 2.564062999937012366e-01 -1.042368218775552791e+01 -6.057391961178788087e+00 -6.414206226864542337e+00 -9.427854756004579784e+00 2.757115268279781706e-01 -1.185037980695770976e+01 -6.218539815553643990e+00 -1.339367066166224030e+00 -8.505610612567501505e+00 3.804219424405109184e-01 1.072954589244450974e+00 4.755342721292170338e-02 -1.415404737704099247e+01 -8.916086492775376016e+00 3.277389712056957727e+00 -8.007683655905168507e+00 -6.387997777771910357e+00 -6.245907803917653212e+00 -7.743153484483295657e+00 -1.022050821941821752e+01 -1.026715247619284810e+01 -6.027836519043993313e+00 -1.055010258131913403e+01 1.252594100593565907e-01 3.838772454150292113e+00 -5.848436488664519040e-01 1.502165191426813040e+00 2.267971278023735326e+00 -5.520345409237897849e-01 1.329550624664523895e+00 -9.153417328767451622e+00 1.490766693597392001e+00 -2.003581480063878484e+00 -1.751708267989891210e+00 3.454435724106115768e-01 4.747953172476587547e+00 1.224067889533500875e+00 -7.802685374816791253e+00 -1.767056937246575532e-01 -1.497723974997393626e+00 -3.652005061714758583e+00 6.706818610556988247e+00 2.071100053216819337e+00 3.748431991707095623e+00 -7.287837011028037715e+00 -1.137318721260802157e+01 -8.040357388473682310e-01 6.101106000213567526e-01 1.250651833999749662e+00 1.020938132340341697e+00 -2.112403989357508394e+00 3.529486793182756266e+00 -8.022571640521013236e+00 -1.020553443078175171e+01 -1.381503580282078225e+01 -2.950078286333656763e+00 -9.819034327947317564e+00 -9.583331832492004709e-01 -5.197656711017392794e+00 -3.902758511181065870e+00 4.748729907750436574e+00 -3.428204562588998416e-01 -3.309249444733041834e+00 1.523741149024095076e+00 -9.851219707469249798e+00 -7.557327170340218281e+00 1.233303141753199217e-01 7.545028514414756415e+00 -1.233727181909611836e+00 -1.314736350459529746e+01 -1.725034958875680535e-01 -4.578344816331642586e-01 -1.277393617348322863e+01 3.380302767690180676e+00 4.334360407151766070e-04 -6.723405642683631278e+00 -6.653961838284774277e-01 3.996995348200125253e-01 -1.066153989365210819e+01 2.419219982895053800e+00 -1.015731872729654262e+00 6.534913632119896398e-01 2.771220292764684956e+00 1.245705953593139848e+00 -4.747462098798057362e+00 6.079442829219157129e-01 -1.214759223909097940e+01 3.124391103045413232e+00 -9.251463119110459488e+00 -1.432053055999631574e+01 -1.539937464388085209e+00 -5.523357981583156828e+00 -1.478888277874042867e+00 -2.625061434015778516e+00 3.544590626618687956e+00 -1.038576958273888806e+01 -1.306978956597967034e+01 1.174441162591973287e+00 1.020460996069305182e+00 9.967578928806589689e-01 1.413158010953229071e-01 -1.156591327542504155e+00 -4.580040616093672412e+00 3.067952661881979015e+00 -7.277696924429444270e-01 1.430474563383687725e+00 2.112356880575391394e+00 -9.960425727083896397e-02 -7.124011143078289088e+00 -1.091596307141534083e+01 1.796021642170800292e-01 1.751399200650561205e+00 -1.436610883492816093e+01 -8.238617185589667713e+00 6.208731039141729413e-01 -8.151122046920037389e-01 4.993323824526062715e+00 -2.980671270561365827e+00 -1.861288720664957097e+00 -1.275656573911981795e+01 -1.854401057145100840e-01 -1.198084197355343683e+01 -4.559338689499195518e-01 1.935644241494279605e+00 8.516591985284562849e-01 -8.371679958381525566e+00 -5.087748491942312157e+00 -4.486788946951762114e+00 -1.314860355081555987e+01 -2.296164894581393501e+00 -1.094045474671356821e+01 -8.708737569857492034e+00 -2.736590703682544756e+00
-4.585283409601694227e-01 2.229811200634689017e-01 2.388339723639921475e-01 -1.262421974956205117e+00 -6.308972369547671821e-02 -1.203439312021996166e+00 -6.269283878140864685e-02 1.442836338746311897e+00 1.000932079255536289e+00 3.325929860954389694e-01 1.224225307586405687e-01 1.327926352533052690e+00 -1.495494206476088106e+00 -2.335237976297689644e-01 7.427577099610260802e-01 -1.411949052553943762e+00 6.280729898490298169e-01 -3.879474834392718230e-01 5.467799315513937469e-02 -2.465520505523059180e-01 1.226511874302857130e+00 -2.459758294828398473e+00 1.775167691285029603e+00 8.655786050595515313e-02 2.828849014704271428e-02 3.263198935357050634e-01 -4.432544147187797989e-01 -1.652225209578397636e-01 3.495682631868470835e+00 -1.304267301051851569e-01 -5.327939355679659483e-01 5.185348594381772314e-01 1.212788605498160699e+00 1.625913328782797818e+00 -1.025680888942600982e-01 1.262753368396389408e+00 -3.181396519329404704e-01 4.570171670069902992e-01 -2.004128169304577600e-01 -8.285855574976573601e-02 2.058425416652696349e-01 8.720955018091745004e-01 -6.821025170743555410e-01 -7.545329238747979783e-01 8.416893170864481188e-01 1.901173348934822593e+00 -5.552659641175606842e-01 5.638654884521954180e-01 2.916972877778981066e-01 -1.416029095555716433e-01 -1.007000369331795542e-01 2.557697121097632920e-01 -9.008249870961484995e-02 -5.491108526385597710e-02 4.267253270982893087e-01 6.944420637008156261e-01 -9.255408684378446660e-01 5.437185090953323696e-01 -1.474112888472220440e-01 5.453289473772826579e-01 -1.482705889284455347e+00 -6.281152880827352014e-01 -5.662095228796337754e-01 -6.720218445188699263e-01 1.646371420207119796e+00 -1.616866223578142525e-01 -1.246184534907154529e+00 9.393832996950466363e-01 -4.602883674540019787e-01 3.934131270217767207e-01 1.540707164342671076e+00 4.429685374481324156e-01 -1.046349521202924349e+00 -1.548827378100635088e-01 -1.702920226750342048e+00 -1.687760478334709102e+00 -9.275342050045612408e-02 8.853453409931050233e-02 2.226892740674509152e+00 -2.575199502038606481e-01 2.723194616292667347e-01 -1.989614357240232945e+00 1.063604632784180132e-01 -1.473693810089409029e+00 -7.400503949202262843e-01 2.298532955668651512e-01 -1.408719827858716966e+00 3.957069684277066957e-01 -2.577779378703961566e-01 -1.578266356129624404e+00 -1.232838324427285359e+00 6.091340728949458105e-01 8.959957360640972979e-02 8.877245874422748928e-01 -1.647230238987688500e+00 1.753105983681908064e+00 -1.406376390521875408e-01 7.877687817085750055e-01 1.033936366189055933e+00 8.342572839004578356e-01 2.775249575411279368e-01 1.628175529812641908e+00 -6.797216145609671356e-01 -1.315658765389606577e+00 3.378482179321676826e-01 1.324031550859186668e+00 9.451577760524626504e-01 1.277541247271948566e-01 -1.685172707707248974e-01 -2.156011243703804259e-01 -1.259777691662501642e+00 -1.454120318263501632e+00 6.061532999413374867e-01 6.699930543634888824e-01 -1.830377806928878276e-02 -4.969834899670025341e-01 4.052859470523857421e-01 -2.754927711223146766e-02 -1.537488851111815880e+00 5.534141868571238465e-01 -1.193049811039653241e+00 -9.201258449207307955e-01 -1.833638899403926825e-01 4.485340026421003046e-01 1.072113557833988873e+00 2.658168030881389865e-01 2.935403593953426205e-01 -3.974877409028955144e-01 3.058201458671097051e-01 -6.503848086712149534e-01 3.581576171678214071e-01 -3.730052163131655218e-01 -5.353350516303351236e-02 9.906729791662391982e-01 -8.260607079915080475e-02 4.212179075877834356e-01 1.119718814788546846e+00 2.631591051428560646e-01 -1.921378242086932087e+00 -7.797596828257240542e-01 8.558476233778570252e-01 -7.227285045050455548e-01 9.131527595961274058e-01 -8.814183929041112808e-01 7.882764271558223568e-01 -1.289577610173955335e+00 -1.232475720620978682e-01 -7.866993704862407233e-01 -4.675445055746213496e-01 -1.100080730250278194e+00 5.188595224402042794e-01 -1.483173404873614709e+00 2.725154459398833051e+00 -1.153693677876571622e+00 2.355373976695459282e-01 1.886775154791293374e-01 -1.140038379949607217e-01 3.285947739728981576e-01 4.918103825837317200e-01 -1.078782459312358055e+00 6.316783310200924095e-02 1.380268798455997148e+00 -7.183872228807413052e-01 -1.013818812877280262e+00 -1.457002979208019022e+00 -5.195421228998775565e-01 1.386916843869384630e-01 -6.851203270267667289e-01 -4.987071671134649664e-01 1.825753500249927552e-01 7.176606326443132344e-01 -1.497921043042004907e+00 1.538163362050372740e+00 -3.111787393452253858e-01 9.340058684712049253e-01 2.254450846785376883e-01 1.890664147524770411e-01 3.596336924918447364e-01 -2.656307893790360586e-01 -1.728708610694046355e+00
5.945246171370582866e-01 -5.965427115208808695e-02 -2.878215305706950833e+00 -1.365966670661032722e+00 -8.010129060927829725e-01 -9.104931261121629316e-01 3.742552678428347490e-01 3.671957834431646139e-01 2.040687707405823004e-01 -7.352561388692364641e-01 -5.878274220214193546e-01 -2.656891816881770563e+00 6.985660475437839301e-01 1.427169442195369564e-01 -1.668943883510163761e+00 1.595686484490515422e+00 4.148085123973281885e-01 -7.446678790096822320e-01 1.051307581393236434e+00 1.260055554453785698e+00 -1.383543145675796726e+00 3.430506897013308798e+00 -1.862490018866967745e+00 1.580672773285683119e+00 -1.488789361682654855e+00 -1.084416449436935714e-01 -1.384416307111151934e+00 4.630890966379977436e-01 1.678269141745671211e+00 -1.676501228641147589e+00 -2.547760434323414813e+00 1.705785625924660875e+00 8.322432507602410823e-01 1.440779996641405658e+00 6.301333414975970326e-01 -5.742065137048865120e-01 7.454586554442286239e-01 -6.157690557561468214e-01 4.490797704194537943e-01 6.224750902728384272e-01 1.869000410852826866e-01 -1.433623582514121642e-01 -1.090246876442347856e+00 -2.258623581149031279e-01 1.079170596762270451e+00 1.947202961380118946e+00 1.079659422389028567e+00 1.102700600767917205e+00 5.335565193487089575e-01 7.153090166010142026e-01 1.755859461611242622e+00 -4.506821720494627592e-01 -7.440686228107777911e-01 1.103991268665973857e+00 -1.512096464045371347e+00 1.522001520004707009e+00 -3.070548440999523621e+00 7.566070282233311461e-01 4.740039082658875080e-01 1.390730210806566669e+00 1.006440702471175896e+00 3.149459254890333515e+00 -1.009821530100967646e+00 -1.543156337523267307e+00 1.328865798486363603e-01 7.226736427399602092e-02 1.602282488248616188e+00 2.679725374824179163e+00 -1.230527512091841080e+00 9.444131365831265335e-02 -1.381161908054768350e+00 -6.402391709964160071e+00 3.651644313594536451e-01 -1.147973785427721882e+00 1.886394547654024478e-01 1.613439740454594706e-01 -5.750871076234363999e-01 9.752329727447049956e-01 2.585563893341570885e-01 3.304111212887196336e-01 2.468160521498733662e+00 2.119284514941886410e+00 -2.193628585168989342e-01 -7.589955235964829239e-01 -1.395490170541013430e+00 1.474761266111878966e+00 -2.223115198356764743e+00 -7.450750561693725293e-01 -4.357905877817815909e-01 1.493269628822346595e+00 -1.677280512554940595e+00 -1.655464517953271139e-02 -1.274281674525630903e+00 -1.444295496783386978e+00 -1.193331599691273670e+00 -7.926172079282799432e-01 3.158493251120195189e-02 3.744025415294506276e-01 -1.622918408536000001e+00 1.587573138321851873e+00 5.046307208742064621e-01 -1.105413889243095582e+00 7.759392096470667521e-01 7.930247983790013333e-02 1.243633546833158743e+00 7.584189271927341824e-01 -2.415639808931085764e+00 -1.581384613619945867e+00 -2.567033558551479189e-01 -1.272047160483985806e+00 -1.459081176099294164e-01 7.628936737118183764e-01 1.793667210643429044e+00 -4.208315672483942671e-01 -6.026573757753812544e+00 1.153907036972163930e-01 -2.534209856048013632e-01 -2.016597141863022136e-01 -2.741857116701541752e+00 -2.351221762203096421e+00 1.945794101221585581e+00 9.728164345426845161e-01 2.505086459130599907e-01 -2.529074938315054588e+00 -3.149063874940574159e-01 3.457936370470324761e-01 -5.425363346643567036e-02 -1.065055269806371330e+00 -6.765598934607721660e-01 -3.171216341699005792e-01 -2.621694801727674218e+00 1.080194466658462416e+00 -5.635854345269376786e+00 -2.155715739774330064e+00 -6.703956155809867035e-01 -4.420683608435387879e-01 -9.765888741112167815e-02 -2.562364857596973189e-01 -6.230426866042676481e-01 4.500725000605664827e-01 -2.375526611324219051e+00 -1.071472857966963704e-01 1.119251433976928611e+00 6.279243740444185873e-01 -9.379619684930490253e-01 -8.157126893915112031e-01 -3.197687240067917935e-01 -4.901255072343278091e-02 1.764403801274875283e+00 -3.307410636044059160e-01 -3.729403348372429261e-01 3.455962789045099015e+00 1.094152574917494292e+00 2.863827421021444053e+00 -9.566241932746006871e-01 8.099538069800472639e-01 4.381311268668028891e-01 -4.271633630315697649e-01 -8.220624391313863244e-01 -5.444595682363618794e-01 -1.201307857218374187e+00 4.848087304046879570e-02 1.452692858500196804e+00 -1.155705469363251803e+00 6.723483998594143030e-01 2.937519842499257683e-01 -9.777566249952803767e-01 -2.553964866057724659e-01 7.816207292269337081e-01 -8.400828479513208213e-01 7.776450786946654814e-01 -1.256653188880732172e-02 1.477635087671442804e+00 -8.188433165318440565e-01 1.208367035664911909e-01 -5.081659159078859567e-01 -2.123666472811486017e+00 -8.109996479031748029e-01 2.103989974252857387e+00 4.563939582176058107e-01
-9.061591782626977620e-01 2.199662309635856336e-02 -3.757240590948766612e-01 -1.519142992893374178e-02 1.143926047846525462e-01 2.228363776365668847e-01 2.712313100091774398e-01 1.072201924389525995e+00 1.106055637273814174e+00 -5.228846871828818355e-01 -1.093907260636225592e-01 -1.115787984131585864e+00 8.767638536657839099e-01 5.381894116069942946e-01 -9.933650241975133799e-02 -3.856787463433619667e-01 -2.539891013922473739e+00 6.948192063166096499e-01 6.667013210248294852e-01 -2.524317109642873369e+00 -2.273263642132193341e-01 -4.897945886881400201e-01 1.068278758874190160e-01 6.140932664304646904e-01 -1.001433596625153744e+00 -2.836864889783194399e-01 -1.258941238390754558e+00 2.364209969433481273e+00 -3.421547466965190187e-01 -2.044715779377775100e-01 -2.853665647589153087e-01 7.269972568891842624e-01 6.217147894234602568e-01 1.083131216213172099e+00 -5.284212658565408116e-01 7.526586410387727799e-01 -7.052031488786193458e-01 1.064292389775286285e+00 2.884011423477578218e-02 1.619913320536277568e-01 -4.558646916671366678e-01 -2.658499427763644785e-01 -2.997914484428105264e-01 2.404376887491435910e-01 -2.239802743919993289e-01 7.189793705603636509e-01 1.862606096936442857e+00 1.591009780316026578e+00 -1.219988754227672834e+00 -1.071594230382016781e-03 -8.596117797491853452e-02 9.376056688428936470e-01 8.138950941971986319e-01 2.596253225674407528e+00 -6.747701796471238245e-01 1.410083927018124905e+00 1.150922601327467154e+00 4.875505216001659869e-01 -1.330890351415868311e+00 -6.198754401883084242e-01 5.292827601517597902e-01 -2.922490184392310675e-01 1.398888592020847144e-01 6.295319827396981260e-01 -4.388515366540571172e+00 3.916330046927379294e-01 2.957229372003424395e+00 -5.103064203176875535e-02 9.992119756382725759e-01 -2.721254246425440781e-01 -1.737587050161137681e+00 -6.840734939074224474e-01 7.839285245407661140e-01 -6.224174306750722696e-01 -5.300195866225463348e-01 -7.183036422823018130e-01 1.086743283512727087e+00 3.074064517834946414e-02 -7.623735044774212488e-01 -1.706803691478384399e+00 -1.504540711838129097e+00 2.650422809318358386e+00 1.042305798987100823e-01 -8.157762328070296276e-02 1.005970190162235767e+00 5.063209668358814586e-01 1.345970594138035770e+00 1.769725503043937609e+00 -5.991496089055516894e-01 -4.091930040608363628e-01 8.143923309120595366e-01 -8.654291003777230262e-01 2.258330903642489229e+00 -2.547308496784769782e-01 -4.187235961232876336e-01 3.570971795145751887e-02 8.751071822352569918e-02 -2.232885530263940321e+00 -1.430992668581682725e+00 1.131503949945411813e+00 -2.774484922466773362e-01 -2.229944506590094022e+00 7.917605264915266172e-01 4.720234336276071807e-02 -5.152553455339861088e-01 -4.731276574530997259e+00 6.807074984756529279e-01 9.645572902797298065e-01 -4.698257674300349018e-01 -5.938681857334394687e-01 -8.122174911867661162e-01 -6.740769839697769994e-01 3.592382184589421046e-01 1.457515626661770591e+00 1.439531775926020662e+00 3.166653544617819560e-01 1.093480359367282162e+00 5.866644669183249672e-01 6.287728627474533649e-01 1.068043956040009235e+00 -2.884430910708371543e-01 -2.590253261797079154e-01 -8.594666443631990838e-01 1.077213601549706690e+00 6.392918059659264962e-01 -1.344423641508047496e+00 -3.122370343505555645e+00 -2.452871292459744279e-01 -3.852293168702762283e-01 -8.021105688423025848e-01 7.483739870684572026e-02 4.834704916387214668e-01 -4.419173123253227753e-01 7.216180929917340725e-01 -7.320381433367151303e-01 2.551303942689449933e+00 5.438840664115867085e-01 1.857474829223771384e-01 2.245386083073727113e-01 2.477039250823795669e-01 1.598461505815457873e+00 6.328703420231421850e-01 7.816208723709235917e-01 -1.086578415726960456e+00 -1.482969669751148745e+00 -1.867885308086944862e+00 -1.782483557595841983e-01 -6.770440644006442410e-01 -1.902907035934883750e-01 1.091390978357978492e+00 -1.015031107130914600e+00 4.282727502816197074e-01 -2.354077213396931767e-01 -9.039408681773261067e-01 -5.595153018326445293e-01 9.845221326658576411e-02 -3.669095768326832707e-01 2.188838245563147211e+00 -3.243218313835755318e+00 -7.400049113765706787e-02 -1.119169294009472626e+00 2.671395053886402859e-01 3.090419139343482668e-01 9.142290060873571600e-02 9.991664479812943922e-01 -6.068848521137645280e-01 -2.098768800410228952e+00 1.712685877615909708e-02 2.149907573932764659e+00 -8.606432513969337894e-02 -5.759806596388409305e-01 1.052455084035267413e-01 1.208140257037215948e+00 -1.369008130711783844e+00 -1.469701233033812171e-01 1.693023675633850422e-01 5.683884416772204684e-01 -9.997397339638695035e-01 2.624779314685369958e+00 8.085995134251303673e-01
6.090066842137532577e-01 2.539471972257764665e-01 4.061262589433994874e-01 -2.031053077082955183e-01 4.642172714150980539e-01 -1.809581092553932125e-01 -8.098025619134999742e-01 1.362091304459604579e+00 -9.124518552293033880e-01 -2.374608900661370203e-01 -1.407625506034416940e+00 -9.482288046893947442e-01 -3.783369208031621689e+00 -3.124789647384361935e+00 -2.310012358496444651e-01 -8.494714692668650091e-01 -1.170065453303245961e+00 2.097505555491128437e-01 1.159380333473209568e+00 -1.245339797135728427e-01 -3.248452047666414155e-01 -1.030812042472085244e+00 -1.532025213438261702e+00 -1.186365664042825285e+00 -5.360601987348698749e-01 5.985942080092545581e-01 -4.512741330902654724e+00 -1.543621435499878736e+00 -7.261751596615964588e-02 9.472622696046504309e-01 -5.136010764002679529e+00 2.681188143927357159e-01 -5.695537584471617454e-02 1.944759505754013240e+00 5.713675555059696265e-01 -1.395240675608280245e+00 -1.220553002512190233e-01 -1.202335154354503999e+00 8.753348479353600942e-01 1.152600824814853930e-01 -7.262132022059673842e-02 -1.021435898162590616e+00 -3.842897084806723984e-01 -2.501738874765453424e+00 4.607108989587408998e-01 1.453730460180463702e+00 -6.434257941911099010e-01 -1.588127366736260759e+00 1.511761334880219021e+00 1.249969114238882906e+00 -1.055320737813135290e+00 -8.971894898362464676e-01 -1.751249255976702557e+00 -1.560447062006108165e+00 3.106673105285191402e-02 1.587572572224211997e+00 -3.917645788934724371e-01 3.837256795505314955e-01 1.366660696166823175e-01 1.233585801590814796e-01 -3.213505637763263700e-01 -2.737429710926311710e+00 -6.126814890862019025e-01 -8.964970193112963281e-01 -1.860172690075544644e+00 -8.592050087293610916e-02 -3.398190805909557383e-02 8.644033902671954817e-01 -4.825140998074242682e-01 7.657853679340146380e-01 -2.568898627018454187e-02 -2.526407853900991540e-01 -4.587649803108067026e-01 -1.612433057966001337e+00 -1.392482576906430181e+00 -2.384287421877315793e+00 1.268260001758731992e+00 -2.587675516869304970e-01 4.609288926130484243e-01 3.569988711142152438e-01 2.961390511387995139e-01 6.071642790948502677e-01 -1.935912353581488998e-01 -7.947370075475245210e-01 3.734412757569390284e-01 -1.815095355469654947e+00 -3.775510654078266248e-01 -8.032373795092494217e-02 4.239911643403176944e-01 -2.748568596846961420e-01 -1.573268248599286601e+00 -2.129325500961352091e-01 -1.341814153603470228e+00 1.178309901490381728e+00 -2.775486817234188663e+00 -5.158263097606408110e-01 2.098330894811991920e-01 -5.673791373792996806e-02 8.713801503703539897e-01 1.607780564751259078e+00 1.072847105477212626e-01 -1.117320390207579422e-01 -1.721833427157488439e+00 2.429153217661216557e-01 8.044418249482829797e-01 -1.183397830059904066e-01 -1.128158081801577811e-01 -6.017301050963567155e-01 -3.928829092138699797e-01 -4.252526827252557928e-01 -9.480821210224903428e-01 -1.134509894940779917e+00 1.871516953712055731e+00 -2.864021314016965691e-01 -5.212666457666415010e-01 -1.513200619972752792e+00 -1.894134858911964425e+00 -1.713168159747059827e+00 1.697598491094144332e-02 -9.703843474783888645e-01 -4.034671620995407437e+00 8.015808346122635930e-01 9.114270185274915281e-01 -5.685909490219756002e-01 -4.072398912342394262e-01 -2.331135695134042563e-01 -2.739373224908683846e-01 -1.130231971608145924e+00 9.743391110563998092e-02 -5.323374333960552152e-01 -4.646348699752930744e-01 3.060420622168941729e-01 -5.092091320381093578e-01 9.514078984040928721e-02 -1.539003826178174439e+00 4.134789652415020722e-01 -4.633589590478059961e-01 -4.047357000160620166e-01 5.614750296712232025e-01 3.530207154497487787e-01 -6.152412718272891601e-01 -1.403775180268155010e-01 1.577795339275084308e+00 -2.000733117785274129e-01 -5.321837810041780970e-02 5.639105585299004630e-01 -1.061604636960307158e+00 -9.266587350997265160e-01 -2.194659466332649633e-01 9.246727690513271147e-01 4.120385750873491876e-02 -2.151041029301887786e-01 1.642941948225411730e+00 -2.573189832720104597e+00 -3.883682543637333451e-01 1.366966624393785690e+00 6.132342855537227244e-01 -5.755271718924814817e-01 -1.043504124346637640e+00 -2.595202612691486221e-01 5.261444276356939953e-02 8.707975063754778144e-01 5.116342164173089957e-01 4.162840330330188632e-01 -1.571555108439143700e+00 -1.626046128925240808e+00 -5.228535778736619344e-01 7.049410107459976871e-01 3.164856043696147037e-01 -5.544762874087934001e-01 3.387234311268111364e-02 -2.151149725248026279e+00 1.702537550130095001e+00 -9.081106508440326408e-01 -7.085426083707322409e-01 -2.004664994745788853e+00 -1.941067744805749229e-01 3.109985617587205514e-02 1.563023392863488237e+00 -1.392784113845162874e+00
-2.027269945795354134e-01 -3.822426539919887012e-01 -6.336463449755039834e-01 4.535110313625580480e-01 -9.574602010143477004e-01 -6.065433862906597362e-01 5.293236064046972222e-01 -5.077511390887161635e-01 -9.750657110798578442e-01 1.653505596493348717e+00 -1.047208621508709969e+00 1.004038040459220404e+00 -3.288443516250723953e+00 7.001385500349925628e-02 -2.233806178612733617e-01 9.630380426132244542e-01 -1.131254117169855800e+00 -2.227362096583975493e-01 -3.118212016472058923e-01 1.028767242457706121e+00 1.402862709367283855e+00 3.894843730119371822e-02 -1.636497200508253425e+00 1.153306444413486898e-01 -2.278790222637894658e+00 3.607746389342810223e-01 -1.379117378431254926e-02 -8.176044703411848857e-01 4.426728083378018985e-02 4.196173045824266312e-01 4.131772671501300898e-01 8.244820527437234370e-01 1.094111339100034552e-01 -2.009183209514985524e+00 5.736586820549873789e-01 -6.740256273139182408e-01 -1.993453051708137802e-01 7.579734936925849320e-01 -7.684401097291988503e-01 -9.044749359613336592e-01 -1.475500347199626139e-01 5.234090637499629883e-01 1.391609517042262434e+00 -3.055940499632880503e+00 -4.490335826754961457e-01 -1.142723831066484008e+00 -4.541223515594595972e-02 -3.421347403710033319e-01 -6.156546605661692428e-01 -4.135898122996649606e-01 1.063797029336911670e+00 -1.025628590559667375e+00 1.397283887388334644e+00 -4.378831630938493369e+00 -6.943755351411337040e-01 1.458869487126421394e+00 -2.221558957383225619e-01 -6.154663309727805842e-01 8.638248259622351988e-01 -1.942167867435179440e-01 1.672309000239207366e+00 -1.363448318590214647e+00 9.991821442460554481e-01 -5.165029402823265725e-01 -1.793904040647283649e-01 3.626466557099737864e-01 -1.344105489078452731e+00 2.532547690511183225e-01 -5.168592790104779011e-01 5.318683209047976590e-02 -1.090231230702996212e+00 5.418565361208652065e-02 2.902899261325908586e-01 -1.137854692224552267e+00 -3.583492072270030304e-01 1.745180977710554027e+00 -2.409517360193206281e-01 -3.509902928068472927e-02 -1.823549078923614175e-01 7.430620213558348786e-01 -3.476891970403936494e+00 4.341339504300427421e-02 -4.433927198615209564e-01 -3.302928785683841018e-03 5.443345115096992481e-01 -2.257839477867166433e+00 4.248459775353458645e-01 -9.056980508998910828e-01 -2.894215431819434359e-02 2.596380531355578225e-01 2.086455722451651951e-01 1.219458155763265328e+00 -1.098112958106427284e+00 -7.726785078338417323e-01 -1.262916874631379027e+00 -7.453958423617195184e-01 -1.557304146177150850e+00 9.516114894700186122e-01 3.256316979653976484e-01 8.652429091135435124e-01 2.082788172753560763e-01 -2.008564922348371473e-01 -6.436552190944921925e-01 5.063605863227992332e-01 9.707580774474153795e-01 -3.604740310954719362e+00 3.376316233134647737e-02 -2.083856588724913195e+00 7.628235332586412731e-01 1.026603929921923175e+00 5.385727546775845864e-01 6.199234403993281184e-01 -3.491544194049014393e-01 -8.328041626159600197e-01 7.601801292825034473e-01 -2.513187178790906029e-01 -6.790594944817274214e-01 -1.581931822101482199e+00 -1.021282195678977267e+00 -1.526377849825943711e+00 -3.305578817973244266e-01 4.934681148975846310e-01 -2.299320606657039023e-01 -3.766272402679637921e-01 -1.226610076111068343e-02 -2.448499127760783711e-01 1.352346383664044527e-01 -4.132713418642127157e-01 -1.713545248682815658e-01 -1.019414479491803194e+00 -1.197451091491434916e+00 -2.176798543142057230e-01 -1.216219868779273794e+00 -1.296533745099327728e+00 -9.469405402378536785e-01 -1.730264056268486339e+00 -7.467156992009748029e-01 7.272828327297031770e-01 2.142611679647858924e+00 -2.928074034409801074e-01 -2.774324691071168858e-01 -7.529895735150576863e-01 -5.048732646568778737e-01 -1.785928311829632076e+00 -3.037558958021282507e+00 3.648135511454237978e-01 -7.285367420490197476e-01 -3.410039595069468410e-01 8.367492580975096628e-01 -2.941060820234092099e-01 -9.519085696914854067e-01 2.058435124153472351e-02 1.746187777813772657e+00 2.276781324232925174e-01 3.833560572336891514e-01 8.448872137510447800e-02 -3.797005673322388919e-01 -1.674775412103393979e+00 6.208467150150669411e-01 -4.179071754133066863e-01 2.510706429226319814e-01 -1.277942774777183876e+00 -2.635137760931470230e-01 -1.745858395106818506e+00 -8.686204217318915788e-01 4.288773065799753592e-01 -1.106601978493682581e-01 -1.482848224901045509e+00 2.480738445600237652e-01 -9.735878687328147763e-02 5.008925774592465352e-01 4.635646043276778205e-01 9.670849754467577553e-01 -1.215675510037233398e+00 -1.469468367348749638e+00 -2.959458133568067417e+00 -1.105043964346314134e+00 -2.821404066055617499e-02 -1.167324060877285019e+00 1.166327844205275799e+00
