-2.358857278956927761e+00 -9.141962684872124295e-04 -8.977420682248828498e+00 8.427332743830088235e-01 -5.987061729066014415e+00 -1.135737893813718813e+01 2.733390331416537311e+00 -1.392655380540944954e+00 -7.378972487444704242e+00 -4.674805445556961203e+00 -8.030399956432953346e+00 -9.379936540341944351e+00 -7.872757402688933759e+00 -8.308730040861382893e-01 9.460059612675168594e+00 -2.583030193705579514e+00 7.872619618227999716e+00 -8.076033580822201685e+00 1.269065285052545677e+00 -3.149090575428651118e+00 -2.365486279660149904e+00 -9.146418262188871218e-01 8.017812403689195122e+00 1.664535490740426837e+00 -6.685685457544415122e+00 2.495705646180267134e+00 -2.608107760314772428e+00 -2.896002022007739374e+00 -2.187378113696715753e-01 -8.774980973914329851e+00 -4.650365752890131432e+00 5.124664568242156548e+00 5.451317007025507921e-01 7.896232029359471216e-01 -7.828183434666571294e+00 4.853786430341188729e-01 2.060469931970668078e+00 -5.716639748741555671e+00 -2.203154807824191153e+00 -1.826374721568376325e+00 -1.273238115673845527e+01 6.665721003796417632e-01 -2.522093192166256603e+00 -1.045156214095024616e+01 -6.045643241840683579e+00 -1.918546794798675070e-01 -9.154993915261814053e+00 7.743224023948968693e+00 -5.781238184660107970e-01 -6.104028015577340760e+00 3.198589264900190798e+00 3.260531252869084184e+00 -4.226813325057603876e+00 2.739180041744148308e+00 -6.785480262969680432e+00 -5.302591397193833878e+00 -4.470087206725056994e+00 -3.710060898693086529e+00 -5.196475339855396669e+00 4.063577275788725629e-01 3.301825871566829829e+00 -1.084203426350837773e+01 -8.501835477923623818e-01 3.361720849805342137e+00 -3.878282601324855694e+00 1.119561042743177776e-01 1.080492442861557822e-01 2.823386136660048784e+00 -5.903323560382500723e+00 -3.295808962894880345e+00 -9.279771194283336078e-01 -1.254165203486227753e+01 -8.574473216251545793e+00 -7.657151120651959353e+00 -1.679178753300812232e+00 4.022960631709358914e+00 -1.049801177659166207e+01 -9.419405720358648537e+00 2.602642791299132341e+00 4.941360140983030308e-02 2.726656511648268416e-02 -1.234031365357277643e+00 -9.670396300699239944e+00 -5.599808484757589966e+00 5.089263955968853281e+00 -2.748410966011828105e+00 -1.326535675839469741e-01 -4.795270522464395668e+00 2.095161249302668338e+00 -1.061879847750980232e+01 -6.295431394043013995e+00 -4.709636961628874019e+00 9.733107600314518493e+00 -9.030810233831630285e+00 6.170337262020851199e+00 -2.293731834653912893e-01 1.000473351593331373e+01 -8.064568247001535184e+00 -5.283991741946549858e+00 -2.521726660074708470e-01 -5.863236952345592279e+00 8.384533172573865656e+00 -3.969415020552008233e+00 -1.460984277769695749e+00 1.033879038961640129e+00 1.737395302271077968e+00 -6.602402826130453206e-02 -3.580162055737956983e+00 -9.417434378932624250e-01 -1.068754932787693690e+01 5.523367474223343621e+00 -6.073385127128762662e+00 -4.927350380782444361e+00 1.649924371847165894e+00 -4.820024910884105118e+00 1.504685411148356078e+00 8.258089635758889102e+00 7.194870719601681230e+00 9.667294112226502145e-01 2.222629753884192372e+00 -5.085401478872074499e+00 -1.547598065496811781e+00 -1.266923408824963992e+01 -2.690240956031831665e+00 -7.012392053134209213e+00 1.306012200395373135e+00 1.130664380449396988e+00 -4.669311597332868935e+00 -2.250584436141157330e+00 -5.590457041296784446e+00 1.935963807595858732e+00 3.031834078752077666e+00 2.315528947067135856e+00 -2.226177826797284265e-01 -7.215889769988641511e+00 -6.494775319444311634e+00 -3.023700771418001310e+00 -1.124617509366713008e+01 1.263197822643002954e+00 -8.162614662309630731e+00 -9.178000178348062477e+00 -1.292295264349500350e+01 -2.585334896053339548e+00 7.778577047300404557e-01 -4.435410483817908478e+00 7.234356951917044753e+00 -7.914493229923604822e+00 -1.203776008440140188e+01 -5.824091308549498081e+00 -9.748164418697024658e+00 1.863464422388153130e+00 -2.626310336577175608e-01 1.768829711736301880e+00 -2.385053196046869051e+00 3.061248780961054017e+00 -4.777871227674749477e+00 -1.696416084631456878e+00 -3.700091982562728976e+00 4.908185458980697469e+00 1.812657725479598803e+00 -2.051851687973805793e-01 -3.385360435949650970e+00 -1.147022489538864498e+01 -1.057839087683791668e+01 -2.517578102709909338e+00 4.733887876167746533e+00 -6.638946640856849157e+00 1.000192604830738796e+00 3.865378091771830782e+00 -7.224854240080078149e+00 -1.173411650865638123e+01 -3.105844868504411327e+00 4.374340497227714231e+00 -2.316184016827191439e+00 -1.220388671661002356e+01 -8.940206912911584425e+00 -1.120292634880398275e+01 -1.178998596919893771e+01 -1.761777943184446249e+00 -6.809350573922479555e+00
-1.358550685893364918e+00 -4.576351978643330431e-01 -4.952696926918331854e+00 -4.307515502723433976e+00 -2.053487618668027537e+00 -1.448745107074118188e+00 -6.755928961996650273e+00 -2.472115906218458115e+00 -1.331180845855241657e+00 -1.729724290286278054e-01 -2.806890098184613880e+00 -3.834615659836187795e+00 -2.844304434630569034e+00 -5.743383547532036060e-01 1.349805088208417547e-01 -2.738695221177038785e+00 5.434161931582991434e-01 -1.905002498646147124e+00 -5.240328871193104199e+00 4.223516584287155595e+00 -9.302638467768991060e-01 -6.738684044631645165e+00 6.611263193241226910e-01 6.332241758118763997e-01 -2.689734990846309071e+00 7.372759514832994965e-01 -1.135737659769569197e+00 -3.903458572679389116e-01 6.003384238233839820e-01 4.185338722546838586e-01 -2.017699310573511706e+00 -1.377444507563852123e-02 -4.392536412818944136e+00 1.245786129824381971e+00 -6.308557846817045567e-01 -6.244035686497613646e+00 -5.099496887261747879e+00 5.808373811321786429e-01 3.762075961472687302e-01 -4.906295879731290555e+00 -3.030888915268499240e+00 -1.306649235563676070e+00 -3.279163435258649617e+00 7.936209991102392003e-01 3.587042600535893744e+00 8.328325586569450545e-01 2.524312749474150408e+00 4.019914450865968991e-01 -5.338915725190414019e-01 2.887457532569580376e+00 -2.033777775953986566e+00 7.222247590899280034e-01 1.290938566599278969e+00 2.637722792015271267e-01 -2.745845833588794083e+00 -2.918572280570660427e-01 3.655648333856748033e-01 1.652470600365880671e+00 -6.499001654687384111e+00 -5.171556823927757840e+00 -6.076616013503127078e+00 2.523260350499755833e-01 -2.899658517187753137e+00 -2.223397475383332544e+00 -3.939233530072535627e-01 1.657282894682507557e+00 -4.495488578882722130e+00 3.625070720307873584e-01 -2.804676389526281621e+00 -1.075000474641260917e+00 -8.306637450126174160e-01 -8.684504931407459605e-01 3.436319491973603757e+00 -1.067259536129781861e+00 1.259930791085556390e+00 3.874203857843395715e-01 9.734012428545242568e-02 2.116061995876238055e-02 3.333795585185796995e-01 -5.027867211070301545e-01 -2.920596681910306192e+00 -4.058848028707968680e+00 -6.200413984371054843e-01 -3.286670038393825877e+00 -3.092005847815834763e+00 -6.488449531709887808e-01 -1.771841908373045227e+00 1.200635458741329931e+00 -4.791200348507460127e+00 2.842455095456370429e-01 -4.775581732649005318e+00 -1.558228277285259811e+00 -4.051330484856562997e+00 5.429471029757553246e-01 1.113270830515750820e+00 1.302821471420616328e+00 -2.379448179255684304e-01 4.455194233767522660e-01 -2.396510186880603577e+00 -2.079955617063672602e+00 -1.812010745479109453e+00 -3.496868167853008469e+00 2.664674546665085852e+00 7.897046647723541257e-01 1.240336140034827395e+00 -1.937400578875663637e+00 -1.587179336664726881e+00 1.532470999924598232e+00 -1.670680247518611994e+00 -5.818450867684680006e+00 -4.673645345274643148e+00 -2.340052353081697234e+00 3.174481815721330591e+00 -4.078271805118049542e+00 -9.870941320128504559e-01 -4.248301230727248523e+00 2.898443525698515266e-01 4.208336231732004440e-01 -2.455733162848293905e+00 -5.353477202598703855e+00 1.381712699401755673e+00 -3.040349067551041395e-01 -8.682023367988009332e-02 -2.106153258026905117e+00 -2.283728285353572307e+00 -6.913465681504656901e-01 -3.196308693797904166e+00 -5.253122689992014704e-01 -2.840022148169710992e+00 -6.448786815166638320e+00 8.746979575740537749e-01 5.436924001913741034e-01 2.264142102039927995e-01 -3.115503271078106540e+00 -2.861792204324910216e+00 -3.078867486716886301e-02 -2.093651365896141758e+00 -5.499054477740818569e+00 -3.129948802462371393e+00 -2.133348803820321216e+00 -1.486451315610158863e+00 -1.044252069826413498e+00 3.429580568021559778e-02 -5.269346356503788797e+00 2.514567643741509428e+00 -3.540195431134393278e+00 -4.784892622876507851e+00 1.112271668141067149e+00 8.280989660677576802e-01 -1.269760829183166351e-01 -6.010426021331675805e+00 7.891312416283732256e-01 -3.903524922419964405e+00 1.954940806475135684e+00 3.513530555311188408e-01 1.345871760306150078e+00 -1.756548101688917007e-01 3.826365692207925884e-01 -8.556288279077753911e-01 1.342136993248661980e+00 -1.947435765315886691e+00 -1.735621779993410385e+00 -1.783856810338864340e+00 9.844768832555294003e-01 1.974593695042272889e+00 -2.640999405076043693e+00 2.426892427421987630e+00 -5.685450685982063046e-02 3.963950860310717084e-01 4.320552321429324549e-01 -1.071188748642364352e-01 1.302848891865962644e+00 -2.966926660303455421e+00 -6.149900537741771478e-01 1.993341540354942376e+00 -1.472912177726423966e-01 -5.202290474226964001e+00 1.089943011451628418e+00 2.475760869111363061e+00 -1.301883039254189134e+00
-6.158505845639886678e-01 -1.014481210935715749e+00 -3.971002939159034462e+00 7.564035170705979416e-01 -2.364024250639538138e+00 -2.841697556494335863e-01 1.099583440157321013e+00 -3.903995577696505737e-01 -2.727229667212709985e-01 -1.726040241090141425e+00 -5.413879579750648929e-01 -5.038139122997319141e+00 -2.603593741298603437e+00 -1.049267856958815415e+00 -1.209140502797775740e+00 2.764680220758012896e-01 1.595203034427016830e-01 -1.180049772976054179e+00 -1.543952666296068754e+00 4.120162726981483892e-01 -1.325273690676110228e+00 -1.221668354030692960e+00 7.524267907962807478e-02 -4.988142748144587801e-01 -2.548930161457709231e-01 2.617909232508658146e+00 4.018142819219706063e-01 -2.208440649730813554e+00 8.829068650641631599e-01 -2.231824101270311278e+00 3.390942094161131792e-01 -1.151733313452756757e+00 -1.341691644883606038e+00 4.247761248507615495e-01 4.189598926369796361e-01 7.509376112002887904e-01 -4.627452398473506645e-01 -9.968665890806851504e-01 -3.157319340107802574e-01 -6.253749880168248954e-01 -1.371577361072761514e+00 2.493113684775063899e+00 -9.988969759117678482e-01 1.756226870198345669e+00 1.579297952900818869e-01 7.708446823457371089e-01 -2.440834172562638571e+00 -1.274904922372605554e-01 -1.112041903958351230e-01 -2.114159876151992190e+00 1.459471911253065857e+00 3.560773054896361423e+00 8.906822536232575915e-01 1.700009163201178453e+00 -8.807561834256529831e-01 -1.565829019870706995e+00 -1.480128382728127800e-01 -1.494107701030087942e-01 -9.202804006409187609e-01 -3.469730766936214572e-02 5.017860980141529426e-02 -7.232907912246596682e-01 -6.476685264039776235e-02 -3.933209675963046381e-01 1.026498336303030889e+00 1.058418431064540366e+00 -1.072151008199811129e+00 1.784096269669466883e+00 -6.633621834152651775e-02 1.095940908680736181e-01 8.777442839407950670e-01 5.833938692531056569e-01 2.235327645923627926e-01 -2.622496532281773929e-01 -1.279778248692703624e+00 1.364398636816218868e+00 -9.125590412407887930e-01 5.494586223518744816e-01 1.219340842438478179e+00 -1.711746052702109333e+00 -1.230523401712940501e+00 -6.965791861859265133e-01 2.975071299175910400e-01 -8.276009988693022734e-01 -2.484591385911933070e+00 3.724936524710740215e-01 1.128714160167570979e+00 8.369006369925493516e-01 -3.333813306159049694e-01 7.147476327203811097e-01 -3.156599312581902517e+00 -5.853135370456826747e-01 1.341083760114478052e+00 -6.521291085582784364e-01 -6.039982102330355707e-01 -3.141751880348528037e+00 -1.656614245196572188e+00 -1.922548289291444723e-01 -1.350928732858392323e+00 2.756627526707340903e-01 -2.193363999124780861e+00 2.709354919634043846e-01 2.446159737064821649e-01 1.122575797056076352e+00 1.508718444805466630e-01 -3.530729387820821796e-01 -7.971833723187403409e-02 -1.346460472673852715e+00 4.238003899837684552e-01 -4.475597741297718812e+00 -2.337246891373614854e+00 -2.886761435937843512e+00 -5.702688781324414258e-01 -2.211283706804778038e-01 1.191769606834374606e+00 3.281839433243761150e-01 -4.185535386905425703e-01 -5.874491031633952698e-01 -3.029979331034208245e-01 -2.937102669734794058e-01 -1.274752898396286582e+00 -1.791889288859549179e-01 1.366766714543223016e-01 2.813137376737637307e+00 -3.021318195394691486e+00 -1.148018447915517964e-01 -4.593768255275789691e-01 -2.690721083116442980e-01 9.527933320873581691e-01 3.839214320273703906e-01 5.557652387928613713e+00 -2.083430261638110181e+00 2.330354354884297319e+00 2.600349146694360680e-01 -2.902183613253668693e+00 3.080465615529971724e-02 2.078573895239338665e+00 -3.387927180385607695e+00 8.874632685957997147e-01 -1.532714524404423573e+00 1.127427734495149769e+00 5.769052922508187686e-01 3.075481003436148497e-01 -3.228378946789676185e-01 -6.534645737162543266e-01 4.911993053731150694e-01 -3.076614482744394419e+00 -2.468520918831502708e-01 -2.271401014256263728e+00 7.750723232231325754e-01 -1.763324184412706219e-01 1.293514034661487511e+00 -6.432286553890000924e-01 2.991929577777240556e+00 1.730566043873134952e+00 1.301849498418685414e-01 1.167224721683776389e-01 -1.366147102042880035e-01 6.288733649883530008e-01 1.056844961136987227e+00 -9.222216953674605699e-01 -2.887341535191828013e-01 1.149301248244475548e+00 1.079816511596148887e-01 -9.413652121711538756e-01 -1.889291113499874220e+00 1.885178905878127087e-01 1.659632784610300726e+00 1.491983774075828162e+00 1.061643460975030484e+00 -1.728640421920948578e+00 -8.726147663869557869e-01 5.284563521308891509e-01 6.072515935786662045e-01 4.743513712151876671e-01 -7.671825684269785450e-02 -2.860889415669508828e+00 2.898937808842957375e-01 5.164383238430267919e-01 -1.445034490919767434e+00
-3.102147387319711958e-01 -1.102443489907062535e+00 -5.932632125806972745e+00 -5.755598506096046840e-01 -1.304253523261975189e+00 -3.029170865109246172e-02 -4.565702738983387299e+00 9.284251372130966073e-01 -7.678634863245461517e-01 -3.564804348628768937e-01 6.382275740518247309e-01 -3.471966374323803173e+00 -4.324807524973751927e-03 -4.329473373325800623e-01 -1.139332147923965755e+00 -1.566333298608035163e+00 -3.053662962111423629e-01 1.124360239240574932e+00 -1.045427357716948169e+00 -1.634277223780168375e-01 8.521094339983112942e-01 -7.644888313493561904e-01 -1.328163096893725525e-01 7.366626243078533420e-01 -3.504100433141074333e+00 9.254508366131021235e-01 -4.669766291722240448e-01 -2.097802583287468603e-01 9.622122563964295994e-01 -8.569189899851348713e+00 5.311252015217763356e-01 -7.429201354574966887e-01 -1.179980205655757119e+00 -7.912363326964646504e-01 -8.392695167582734372e-01 -1.895144600049166184e-01 -5.236358634041638815e+00 -1.767187376594464565e+00 5.896986825206977922e-01 -1.347537865194329498e+00 2.050312939798390466e-01 4.788325470688304386e-01 -1.317063545579233663e+00 -5.596137973213322958e+00 -1.453575339626050011e+00 -2.135499726245388530e+00 5.811833257219681803e-01 -6.499325645332708346e-02 -4.890833016811418354e-01 8.655304853347113303e-01 -2.187443312973132770e+00 -2.726962335149694994e+00 -6.661123997793148011e-01 5.638815608207387031e-01 1.371059153136038544e+00 1.037549593028483041e+00 6.009930392602171739e-02 2.204429363141521048e+00 -7.246824478468587571e+00 -5.293603355027978630e+00 -4.090446621053120069e+00 -4.715643179936248042e-01 3.173866997196272965e-01 2.195994623853092076e+00 5.974031088623070751e-01 1.056227429222994063e+00 -1.094167749924003896e+00 8.118976917418326833e-01 -2.940252604095382472e-01 -2.554153069086802508e-01 -1.750949956611179470e+00 -4.417174997505732836e-01 -5.943280349038445598e-01 -8.689379350508761313e-01 1.460528468890152975e+00 7.008524334721789595e-01 5.660082859477987283e-01 -5.986831621484700605e-01 6.585988806397656825e-01 8.375211368138254509e-01 -1.093751842973984090e+00 -6.213513830988084408e-01 8.767077120739871221e-01 -1.076821330258359577e+00 -6.376374164061127114e-01 1.084087553634712542e+00 2.911240232961463947e-01 -4.734161943499836100e-01 -1.910123437483323805e+00 -1.300640215445122982e-01 -1.623361571325914854e+00 -4.244825304859164289e-02 -7.611998480593140659e-01 -1.416031030323718909e-01 -1.105039762753264876e-01 1.461379631986458483e+00 -1.892479702761556304e+00 1.432945252301943695e+00 -8.422289588950976347e-01 3.814263922139857210e-01 -2.756517150172320685e-01 -9.907915507670995714e-01 -4.530042808247542463e-01 -4.332948684313510657e-01 -5.248732172920087535e-01 -1.310659319582309301e+00 6.524191137698469589e-01 2.203242949270507178e-01 5.568914430822256012e-01 -6.291139375969066805e+00 -4.961101799818246505e+00 -1.608471151250793874e+00 1.433925136286781921e-01 -1.550920576585314570e-01 8.408967386639472075e-01 -9.353402621661917049e-01 -8.590724488576836348e-01 -6.339138903861708529e-01 6.781434409526641005e-01 -4.309641313277134067e+00 -4.058050884092118671e-01 -1.145678834640756261e+00 2.022193805457683791e-01 2.436149801520287372e+00 4.082803625687272953e-01 1.996016198649796181e+00 -1.155337075462976371e+00 6.548229516780197379e-01 8.911608161849169374e-01 -9.355663438864214143e+00 -5.560617690825314652e-01 1.295813595882561620e+00 -2.940244295102256711e+00 7.386579685259545558e-01 -2.494163378931346209e+00 -3.579455604950678715e-01 -2.518684844078745044e+00 -6.597049550850031530e+00 -9.334614075285136980e-01 -8.842908869513733450e+00 -2.924502607405136345e+00 4.758653487615407407e-01 7.770602631110354874e-01 -1.247599569059183899e+00 1.037298557879735350e+00 -6.925426271700758640e-01 -4.832695216862767928e+00 2.899587253543809418e-01 -1.891432341925991800e-01 5.994085453293988147e-02 -1.261433500494388626e+00 -3.105064348658842732e+00 -8.086582644354686211e-01 -2.831779615948130657e-01 7.390036762907105095e-01 -9.505036605273955441e-01 -1.166427636223587250e+00 7.245738387183326967e-01 -4.088117590846600535e-01 -6.402991538193929522e-01 -1.859691646306427804e-01 -3.657537832407556366e-01 -5.723857106743124312e-01 -9.372044820049773017e-01 -2.989084037851775719e-02 -6.798104317685781384e-01 -9.933075200382376346e-01 -3.353700293978107094e+00 4.166903346872655178e-01 2.624006716369713943e-01 -8.736257657486127259e-01 -1.018263992366046811e+00 7.279266979857863529e-01 1.405141882090686911e+00 5.181749516383560294e-01 3.693723264293736208e-01 -5.886807010738224655e+00 -4.531727999740031154e-01 -2.379607176632531629e-01 1.816296145329818756e-01
-5.195329749912445116e+00 2.357562212426095094e+00 1.068829375347907229e+00 -2.284401137171663709e+00 5.911061119330697222e-01 3.924076115271288301e-01 4.611791769118616102e+00 -8.857282337292053942e-01 -2.048627288770417110e+00 4.966726042438661670e-01 1.074939629859316126e+00 -1.439669590051727122e+00 -1.462928780619150021e-02 2.864818539033024969e-01 -1.871646892200331092e+00 1.267097078684437383e-01 -1.240913752697062611e+00 1.771233028892103434e+00 -2.298738379506011231e-01 -2.593835364392273579e+00 -1.578851544318590872e+00 -1.932838354772185852e-01 -1.730812490461785202e+00 -5.243304734285930913e+00 -2.089218237047041071e-01 -5.102600770942765651e-01 -3.826307484799476022e-01 -4.172885629883410274e+00 -2.909532720896921276e-01 -3.836709781597778868e+00 -2.001954206441392436e+00 -3.606556984806297828e-01 -5.453605270665944360e-01 -1.085511763886791714e+00 2.191332276207305640e-01 -2.300136457980822002e-01 2.454548157950959819e-01 -2.209210290528756726e+00 6.707964191533739851e-02 1.570451768394778957e+00 -1.160615897022030385e+00 -3.192189714564018566e+00 -1.717155130196599266e+00 1.901660269533956171e+00 7.264490697433641231e-02 -3.603469195498512523e+00 -4.991733227683636809e-01 -9.263807298382866762e-01 -1.241990275009646538e+00 -9.791018624041321061e+00 -2.929910262948332900e+00 -1.133161956965851536e+00 2.749541693840086509e+00 -2.358281482934999063e-01 -4.768666700755901378e-01 3.439420948736506278e-01 -5.625795602589936939e-01 -3.762426944779167837e+00 -5.443514226445297366e-01 6.696236655763028178e-01 3.119509467306366801e+00 2.851450834237911347e-01 -1.966749317218767779e+00 -2.593142741355474623e+00 1.628525776155486327e+00 -2.689803426399797193e-01 -7.366657408458712752e-02 -7.626637059317221690e-01 1.969842570923663105e+00 1.248018419318049077e-01 -1.786861972627849182e+00 6.213510479152048460e-02 -1.140170389753791902e+01 -1.176107652206751553e+01 -4.553013477629284544e+00 -1.137801202906594700e+00 1.025050629413615383e-01 -1.107596764395354150e+00 -3.234492971806659511e-01 -5.496298526925773587e-01 -2.243473670863339819e+00 3.640391040273819323e-01 5.246775066935546183e-01 2.122065480835573226e+00 -6.214181865172188068e-01 1.751523458379132148e+00 5.075097813842295302e-01 -1.737893743134714120e-01 -4.130276675392936525e-01 1.132237952278597193e-01 6.680026709427194787e-01 -1.579635969282222829e+00 -3.556113120713543241e-01 -9.314399751587394694e-02 -1.859460203533422007e+00 1.716624670327813407e+00 -2.823361132876929691e+00 -1.486636672686177385e-01 -4.377369175646608213e-01 -1.299424103623365578e+00 9.830602650499238593e-02 -2.254702346212074993e+00 -2.533689206621223100e+00 -1.555575175948890942e+00 1.028068704907756148e+00 -2.137968588117693247e-01 -5.483418588837514207e-01 -3.746573066453752765e-01 7.951844679775144087e-01 1.123317008896703051e+00 -1.458594006316791258e+00 9.315458019237788934e-01 -1.807084876226479619e-01 5.794409297158643890e-02 1.470818072008310273e-01 3.333095495781770445e+00 -1.508015937828784514e+00 -1.534296752613941717e+00 -2.590961001495898586e+00 -1.167879808795446506e+00 9.131038913227798037e-01 7.871719831313904736e-01 -1.310433786483622853e+00 -3.470114562205413034e-01 -6.266458023346104245e-01 1.585996636556804562e+00 -6.285571347085787686e-01 1.362105052092809965e+00 -4.017018160621300460e+00 -2.908991839170945948e+00 -1.817074605762736494e+00 -2.749863005831163942e+00 -2.986200685991611259e-01 -1.928549656339632878e-01 -2.913043561699394934e-01 -6.493608249768146878e-01 -1.861700717275381889e+00 1.294040742728674587e-01 -6.366920374603178834e-01 -2.023551785290709226e+00 -1.113527284404028528e+01 7.931918560908578497e-01 -9.367688480953587638e-01 -4.293268996569262197e-01 2.396897017023241538e+00 -4.589853757161252990e-01 -1.591972326098225476e+00 1.452285601538740034e-01 -2.895814586476928021e+00 -1.273989019157926394e+00 8.158111603109694521e-01 4.152749810740345104e+00 7.128144997341014921e-01 4.298830351940520766e-01 -3.606054125755733808e-01 -1.489429035815221347e+00 1.105126267422817055e+00 1.830938865884097710e+00 -3.485569457857998987e+00 2.164109634816372196e+00 -2.716660903923910020e+00 3.315184606976563919e-01 5.614064313999115319e-01 -3.999057877371443026e-01 -1.543148709528927132e+00 -2.414810184086042089e+00 7.822042130841319052e-01 -1.258770734509162992e+00 -1.158146627426295039e+00 -5.737855165523979978e-02 9.104978640392606959e-01 -8.784947793741364475e-01 -1.251691759753464916e+00 -2.224768166238674905e+00 -1.613750282919720058e-01 -1.855594365088697684e+00 2.714580968651202908e-01 2.448726554785476406e-01 -4.318631773742625413e+00 -1.156376155966520969e+01
4.210281365492864469e-01 -1.278077862191687730e-01 -3.165572111400636324e+00 1.154850151516864099e+00 -4.215073743012358598e+00 6.420822978407945136e-01 1.218617761929942311e+00 -9.265081253602106548e-01 -3.328338729928506656e-02 1.699311917500116564e+00 8.011347043265492143e-03 -5.058177788264107022e+00 3.600004142628457360e-01 1.204791856702727593e+00 -1.574635288274718325e+00 1.044004781866469944e+00 -2.446406276689465711e-02 -1.012829867657695226e+00 1.656761347358328917e+00 2.080497504744847070e+00 6.736596434424194646e-01 1.370126036452434137e+00 5.062721742640149403e-01 1.865339782112523936e-01 -5.607276643681733397e+00 3.910306304714331382e+00 -2.554058254554654184e-01 -2.629430492727966029e-01 -1.339931930303539694e-02 -1.666168798132295237e+00 -2.205711757720318911e+00 5.975746186719184116e-01 8.668714696546611087e-01 8.332750953076779599e-01 1.605963212402765850e+00 -1.490598887205652201e-01 -9.996744241176340751e-01 -3.919628735389248941e+00 5.842642626122789284e-01 2.726711394752850959e-01 1.895090870785649251e-01 3.111115497671400609e-01 4.098548216954937540e-01 -8.151894634570158615e+00 8.173112951843189977e-01 7.417418992687401236e-01 -1.871566923978931485e-01 8.431615684677516986e-01 -2.270650872918375252e-01 8.951112873887756560e-01 1.575626275259661480e+00 6.515109710640107910e-01 8.657634690463559268e-01 2.936514163580279835e+00 -4.197505622069678921e+00 2.028144354460115761e-01 9.839153896128388643e-01 -1.495862714324003306e+00 -1.351615067015822902e+00 -8.159101210363133294e-01 2.362527007403238122e-01 -2.752864051276233681e+00 6.299340864700863074e-01 -1.438346972878963070e+00 3.497791463470365514e-01 -9.370563497598166647e-01 -1.259513156818343971e+00 2.910863754592978303e+00 2.123928292875359169e-01 9.628606283925361664e-01 -1.157916200579073740e+00 -5.214734008496156870e-01 3.108392697301358698e+00 1.358739378851520740e+00 -1.865796027721688510e+00 2.624606763230011186e+00 2.456326322632917947e-01 -1.245953732662831159e+00 2.562247504263970743e+00 1.148653304349563253e+00 -9.740153091546023267e-01 1.725022592544436906e+00 -8.207219863713839381e-01 -4.744294428510096751e+00 -3.318053537096384842e-01 -5.518315383707780297e-01 -8.650106989745183217e-01 2.260390449341624086e-01 -3.455696187924177099e-01 -3.713955924652609930e+00 -1.651502641379003489e+00 -1.139938501425798334e+00 2.792981651444804286e-02 -3.841956079270413271e-01 2.994254082518770996e-02 8.099865124992378096e-01 -1.694809041946548245e+00 -4.657886083207262162e-01 -3.648018260731229478e+00 8.888690954657220145e-01 -3.577550933428686797e+00 -1.932387399115134574e+00 6.846083683401328612e-02 2.496189943073711115e-01 -2.072862435878549403e-01 7.227476457589362413e-01 -8.503130674960349689e-01 3.037496143570336038e+00 -2.404858410196518914e+00 -8.101874212966151845e+00 -2.211969222966895465e+00 -4.181605680773229139e+00 -1.013387149483042426e+00 -1.950725552741946478e+00 3.402567183983701282e-01 -1.339842098001835513e+00 -2.441270976886805166e-01 3.115803452661213280e-01 -7.277717658085879338e-01 -2.011682722714281391e-01 3.246530489845189660e-01 -9.974340314668318774e-02 6.825627047490391563e-02 2.184997729876834160e+00 -4.550203048753783897e+00 -1.490775568477964441e-01 2.723790819974742039e+00 -1.180146537603103507e+00 1.500417419031486732e+00 2.853287928115177507e+00 3.539638911380038611e+00 -2.658191006002923462e+00 -7.303410327122275003e-01 1.683634477075466540e+00 -5.433861636472191670e+00 1.050973577418980787e+00 -8.303064003279099214e-01 -9.163740797138624217e+00 3.373589185127872647e-01 1.499545996758871125e+00 -1.139489923532696736e+00 2.600375824780796208e-01 -6.369125703389805215e-01 4.229313437635460748e-01 -8.523273477183341829e-01 -8.189420326145425699e-01 -7.734437207587537166e+00 -3.570199415504653917e+00 -5.319741102216183348e-01 5.413881242200656585e-01 1.245468860359113528e+00 -1.108636907769871893e+00 -9.704181900143771244e-01 8.243933575381073853e-01 3.222582945896710349e+00 1.430048345295211965e+00 1.123404833955545135e+00 5.556085227098237489e-01 8.495960232084339703e-01 -6.502807101463868866e-01 1.443714380147197440e+00 -1.333544854372953115e+00 4.938570661854854715e-01 6.189201628702694080e-01 1.768488192541459503e+00 -1.939980779844878711e-01 -5.175130622437859040e-01 -1.611300248444835770e+00 2.499142864410659026e+00 1.707492537177897951e+00 3.784343649329335868e+00 2.151222601707043491e+00 -6.495214249957832475e-01 -3.665761582264567831e-01 -3.652669246357838517e+00 -1.494471084813381090e+00 -9.437010362785789752e+00 -3.677037906864671912e-02 2.443760775379509309e-01 1.957638290223848720e+00
5.868986467774766069e-01 1.648980522050658148e+00 -3.162652841359330669e+00 -6.712051100972046269e-01 -7.932877522743324583e-01 1.422355121024446500e+00 6.959544817828601238e-01 -7.453911802217707550e-01 1.510816196333766293e+00 -4.355949902943330176e-01 -3.869617706368426724e-01 2.115053000111287052e+00 -1.442406629583772526e+00 -6.317000707821398553e-01 -1.056329543018661443e+00 -4.930942470427274182e-01 -8.142651554963606930e-01 -1.185675129888561052e+00 -6.028798308701295294e-01 -1.278334374126506079e+00 -3.309881394683473310e+00 -2.044906418683914318e+00 -5.410267376394907179e-01 1.517167541761314520e-01 1.947203148917211912e+00 4.815016408484104615e-01 1.584535368344419104e-01 1.447211499434151172e+00 -4.739181721522054969e-01 -3.324944851934076517e+00 -1.779079767928318789e+00 -6.797365975004303618e-01 -4.335308372861311210e-01 -1.259270216567627054e+00 1.408699776861451203e-01 -1.708606078832246578e+00 6.747695480824813519e-01 -9.526258045644885319e-01 -2.307737788962483716e+00 8.333608107917628294e-01 -2.259074984840100608e+00 4.297154574897424362e-02 -1.445933971542419982e+00 2.345715710243053032e+00 -2.819155065843065966e+00 -7.602005533964428796e-01 -1.583919949697319085e+00 -2.856744772611108374e-01 2.038736434913479001e-01 -7.928040318778183604e+00 -9.443278794926293074e-01 -1.049921168344941869e+00 8.642536786605206078e-01 4.505585664133454626e-01 -2.215047256486122329e+00 6.140569953511998413e-01 -2.339624044051717699e-01 -5.228315075945352275e-01 -4.301187962964385658e-01 3.230105187874237616e-01 5.568775451142398136e-01 1.153977590827219846e+00 8.240173687138583336e-01 -5.367536718649891236e-01 5.723115585975997455e-01 -7.746263047880475039e-02 4.064605510932771115e-01 4.994402960570750172e-01 -6.642077999030203683e-01 -7.861942762607454505e-01 2.281658216850944498e+00 -9.646102050209801604e-01 -2.647671805171841086e+00 -6.361730495525275586e+00 2.231730782065830532e+00 4.272259813889932034e-01 -1.828772167087895140e+00 3.124007230035596550e+00 1.705518131297864837e-01 -2.109337394739465577e-01 1.412739178932654882e-01 -9.590240369118434582e-01 1.113891819709798670e+00 5.107141422567078592e-01 3.429188197028428586e+00 -4.112794632172653841e-01 -1.164100356813247084e+00 2.731823973795770022e-01 2.235317499605328773e-01 -5.487605979049481331e-01 1.415066387691879202e+00 -5.248443138449774281e-01 6.587337770187229324e-02 -1.504444253815694799e+00 -2.415685363638777391e-03 1.701371309602757620e+00 -1.085630573284654288e+00 -4.536231214615253471e+00 -1.732369569935411580e+00 2.006202948553453158e+00 -1.280233648268268798e+00 -6.707244865150533419e-01 -1.084489369277537307e-01 1.654040440683658408e-01 -7.173959755246043235e-01 2.632321952683037480e+00 1.473257041030790360e+00 -1.368891156342688653e+00 -4.964233848915874936e-01 -1.684235166382445748e+00 -3.105606635306911389e+00 -9.570062947846744716e-01 -5.410887464855167472e-01 9.420947714571006881e-02 -1.925404539437777507e-01 -4.076946482843490371e-01 -1.246506901099066589e+00 -4.369070601116708530e-01 -1.375558221066295328e+00 1.702692313449171824e+00 -4.211111111039958499e-02 4.413639718560124492e-01 1.357337975558607468e+00 1.137341171226402547e-01 -1.361390025091752332e+00 -9.300100232480357221e-01 5.037526727998373755e-01 1.247936673320584999e+00 -1.512619685281792581e+00 -9.252065406711809104e-01 -1.065678052289231736e+00 -1.771145150395963652e+00 6.899232489122526513e-01 7.697190932974368183e-02 -5.442812257791421748e-01 1.458207638401733952e+00 3.162441440404483578e-02 8.568146799332988506e-01 1.089998477801742860e+00 -2.633800595482196916e-01 -1.202551436031014775e+00 -1.272153971802115091e+00 -3.868371880894552195e+00 -1.434477948700407346e+00 -1.165788714920851232e+00 4.567595664685830115e-01 4.293281321376184678e+00 2.066579118266446136e-01 4.158173172127689554e+00 1.284081219564016108e+00 1.683656474609676046e+00 2.163237821695960239e+00 6.141213673389971373e-01 -3.465844433745058684e+00 5.240488733946825350e-01 -1.244557537793518964e+00 -1.929170720951361107e+00 -1.425205006564197019e+00 -1.236767713890194686e+00 -2.421618047876394453e+00 -5.379923258843377631e-01 7.140922976689938195e-02 -1.541303587820495258e+00 6.851094563358253176e-01 5.145937334550795272e-01 -1.202883669379960940e+00 6.060684282982514715e-01 -1.744196070070352933e+00 5.034401305633084966e-01 1.794098249631369324e+00 -5.861478875156436175e+00 3.413161156161640397e-01 -4.367380189028592929e-01 -3.084649957528439845e+00 1.806207615078659678e+00 5.409022879994904720e-01 1.845032009254064520e-01 5.425698292683759361e-01 7.378044203471840756e-01 -8.656111165466139568e+00
-1.236767008476203022e+00 -5.544178879636385560e-01 4.052154762637469876e-01 8.777355960953575620e-01 1.846065273589713590e-02 1.298453598881388893e-01 -1.060565582965632414e+00 -2.772726480417245926e-02 -8.555273416518360818e-01 8.127043668709321711e-01 1.583676278802001181e-01 2.157865713762131765e+00 -5.184011748200675340e-01 7.543829505570683047e-02 -9.131161749379889114e-01 3.229242606941222227e-01 -2.804686459128079012e-01 9.781251404646462699e-01 -1.114957715252253623e+00 9.491388238773851294e-02 -8.483800012176507810e-01 1.274817912027037814e-01 -5.139891801260240006e-02 -4.397191397450867179e+00 4.363475644629919992e-01 2.559711302948532552e+00 -9.293568562676753908e-01 3.489061927496082682e-01 1.136642533969523416e+00 6.480941141033556008e-01 -1.957021395512169859e-01 -1.152886789319737648e+00 1.156338316232962349e+00 6.545065905180236232e-01 -3.399855221323818122e-01 1.258328722771055036e-02 -1.195145151374505277e+00 -3.055168357686564473e+00 -2.704766766987985460e-01 1.283547513521069161e-01 -7.583861710988084592e-01 1.180000393501765998e+00 -5.968743426092506521e-01 -1.692828081046298672e-01 8.804128003280243808e-01 -4.896569618619217024e-01 -7.605173327875182077e-01 5.564856879795692102e-01 -2.834437840202414516e-01 -9.926165344972779359e-01 4.001390364061278682e+00 1.118301484622657549e+00 -9.136661485295410889e-02 1.808605835644435889e+00 5.631380650189858894e-01 3.947604283963534466e-01 -1.395194529195960265e-01 -9.067521811124925613e-01 -2.206954995222192739e+00 5.413506941754022694e-01 6.713950295896500275e-01 5.473080029744485930e-01 8.268844122460267121e-01 -1.364435935743730344e+00 -9.209921056414631657e-01 -1.162402450281724703e-01 -4.650926623224500567e-01 1.794371770573483404e+00 1.131484540604329236e+00 1.940278427696431607e-01 -4.234774926405752704e-01 -1.284920117341821433e+00 -1.588510166183643157e+00 -1.280600033414961703e-01 9.658107113462618409e-01 1.208898433192916011e+00 -9.202689681033445757e-01 -1.626382989613557040e-01 1.614384604406453816e+00 7.011917254938310196e-02 4.170750706620529602e-01 -5.947062579855492276e-02 -1.495661430037433792e+00 -9.556936760541250298e-01 8.752572833823960563e-01 -6.634213629238786547e-01 -6.972909351344586115e-01 -3.215762383238833788e-01 -5.588587919059245790e-01 4.282482873122044897e-01 -4.046537901852231278e-01 -6.294416829195841334e-01 -4.816190267116901569e-01 -7.952508478537155812e-01 -2.377433103720939800e-01 8.476471901437229173e-01 -1.182241536205191013e+00 8.592244199245937519e-01 8.425219163485024865e-01 5.646598859599268883e-01 -6.040315400895497344e-01 2.197293218806411208e-01 2.402317306126660890e-01 1.408817739572659766e-01 -7.265470811762829717e-01 -2.727135292884083739e+00 1.330901712664287195e-01 3.481090815313295783e-01 -1.832414192811981257e+00 3.556438132089416171e-01 5.374851965987611280e+00 5.749669142694122659e-01 6.470271350784436715e-01 1.173647733359661771e+00 -3.021149552670265304e-01 4.882283061488031928e-01 -4.458031270436137450e-01 -5.491420152482120454e-01 2.025473964778025771e+00 9.899180268896282664e-01 -8.257798277397350173e-01 3.902554943380840413e-01 -3.059495441413321304e-01 -1.054630434151136997e+00 1.186439719785999936e+00 -1.445111547004534813e+00 1.018886620714458680e+00 7.314113301222675556e-01 -4.301958217319707400e-01 2.920434577727478581e-02 1.570694194040415104e+00 3.395727826144278455e-02 -1.309466229563137407e+00 5.597877930550825276e-01 2.130119574650999326e+00 -1.505476477230075272e+00 1.757952776161799402e-01 -1.339750730016195046e+00 -3.868248890019406194e-01 2.213289655179612181e-01 1.432116772862329634e+00 2.683549086129167760e-01 -6.890246546976705466e-02 -5.810775040738300756e-01 5.714776814409403549e-01 1.150134243122947320e+00 3.803116345455235386e-02 -2.177241925999465200e-01 9.776862216668075201e-01 3.692386038569352991e-01 -3.244730303472718735e-01 8.175473866590800276e-02 -5.067242685231864580e-02 -1.657910448279055426e+00 1.884123398525743509e+00 -1.330053600679131365e-01 -1.175678179928805411e+00 3.848098399781728074e-01 2.777023946384138964e-01 3.860216488968046256e-01 3.570263755177048859e-01 -1.285726658818770185e-01 6.979694304932841931e-01 -3.641269833498676084e-02 -5.435230536605181184e-01 9.235327445138291624e-02 8.750145837267596649e-01 5.321534685181709134e-01 1.278313660224007497e+00 -1.023575357469660885e+00 6.464239002225156128e-01 -3.900669117920416151e-02 5.082220875869141175e-01 -2.530044629370868936e-01 -2.662626025556090459e-02 1.064605932957188195e+00 2.491992149030596571e-01 3.866066910991916572e-01 -2.184349108308190901e-01 -1.340860197517736774e+00
-4.937190939315400789e-02 -3.331592278010361285e-01 -5.576011983042395315e+00 -1.107170726510072756e+00 -2.928851998454682359e+00 5.173692545055680325e-01 7.124781496913125123e-01 3.185257928387782989e-01 5.608061557754301374e-01 1.119471584217576199e-01 1.785302366461040402e-01 -3.499957737057909135e+00 -1.693334974346163424e+00 -1.084525080027184604e-02 -2.042083570439489071e-01 -4.754642307928662603e-01 6.432439824292970343e-01 -1.370797906035100988e+00 -1.515296923809731577e+00 -1.771191141672511016e+00 -5.161959811463495917e+00 -5.633961957282953570e-01 6.380669738380757572e-01 -3.881708467558503184e+00 -2.913226860027916754e+00 6.740938621617900139e-01 4.613797526646014613e-01 -3.290845113316571147e-01 -2.862893952728211011e-01 -7.786091388514125633e+00 -3.251611040413492582e+00 -9.143044793764315559e-01 -8.908361225916562320e-01 -1.538894975221145822e+00 -6.577355674801486085e-01 3.326783466862137106e-01 -4.965254648979766094e-01 -1.616872891824718605e+00 7.750705880094225231e-01 -2.642354164754199708e+00 1.816147846087315110e-01 -2.965883204733419376e+00 -3.256595477077413481e+00 -5.077485869308599575e+00 8.695240400709044470e-01 -2.851085086335071406e+00 -1.070781651581732108e+00 7.115711689238238824e-01 4.056575931951975633e-01 -7.504437708468244317e+00 -1.914910187166435129e+00 -2.221389563864843097e+00 -8.757001914373356843e-01 5.070777410165605570e-01 -3.284622397189093324e+00 -7.222344422459899826e-01 5.791697784127115556e-01 -4.518906298355343409e+00 -5.581450522136033321e+00 3.043300405183461677e-01 1.632889806327505744e-01 4.026909697745564842e-01 1.645757658367442144e-01 -2.448964811239608075e+00 -9.145355638787406871e-01 7.865221318089686831e-01 -8.996163113058830429e-01 7.971889418933719718e-01 5.098237987817522132e-01 -6.641316136680365245e-01 -2.775692882203314671e+00 6.974520394201600970e-01 -8.443791466073095719e+00 -8.974174993226704089e+00 -1.045438166610964004e+00 9.069069260524801335e-01 2.179952628069633247e-01 -1.034560623724751327e+00 5.507349044861362675e-01 -2.731587387033340253e+00 2.251769794952091230e-01 -2.110655057416968017e+00 9.321721678711676617e-02 -3.735374746437834848e+00 1.047442646320039916e+00 -5.810141393767432882e-01 -1.269850106731459649e-01 -4.516300182235684080e-01 -2.071482265158337555e+00 -3.648066602481220277e-01 -8.614139091230246237e-01 1.282036156589505982e+00 -1.883712856130465019e-02 1.037303499755067637e+00 2.926753208035272613e-01 3.774370897607565167e-01 -6.592601438283873794e-01 -4.906647459432226244e-01 -3.634010614141244488e+00 1.250999297597769955e+00 -2.979338768498471346e+00 -3.491403191762054159e-01 1.152985787015615493e+00 -6.547786906950318064e-01 5.198788460066372519e-01 -9.390693741337223788e-01 -7.185934175110125777e-01 -1.180202333427009087e+00 -5.340533494021100225e-01 -6.168507361863669658e+00 -3.387416238884929154e+00 -2.843923613842387788e+00 -4.759781599876768410e-01 2.168538655082881961e-01 4.040508344836818422e-01 1.661875153623796342e-01 1.050997625884921849e-01 3.516559256028467528e-01 -1.968864201386946844e+00 -1.249083741809291909e-01 -4.703595190932290809e-02 -1.499438782123142966e+00 -3.404853036769098229e-02 6.412747542804789758e-01 -2.647495688702001804e+00 -1.396128189741970838e+00 8.651043738641152059e-01 -5.600506315596901485e-01 -1.421593741410594136e+00 -8.454346877970431606e+00 1.123156055807512210e+00 -2.496592608755288101e+00 -2.606513480358734203e+00 -8.792519594125312032e-01 -3.074815206650275634e+00 -1.181537475161327011e+00 -3.353360850410397997e+00 -6.345730691458190798e+00 -8.178198670863544573e-01 -6.977566102969427142e+00 -9.501300496184718725e+00 -4.350030830437580098e-01 -1.263679482377130459e+00 -5.968449518742001692e-01 4.069704361899373901e-01 6.258390056019407233e-01 -4.713302482518177072e+00 2.165655988477640514e-01 1.264707630125694537e+00 -8.325848456363222905e-01 -9.286664023893251851e-01 -4.551490545161658852e-01 -6.831554692097505654e-01 -4.456912629972836548e+00 7.074699395631549592e-01 -2.284991852580768590e-01 6.295576871799331009e-01 -8.264085224795498785e-01 -1.489526304887881958e+00 -9.782359545489002772e-02 -2.032495554322036213e+00 6.138589853086022785e-01 1.209212087981413469e-01 -8.790692196143160553e-01 -2.291508486526514649e-02 -2.664717139032927395e+00 3.648702520714459108e-01 -2.476727565109734464e+00 6.683075671695599684e-01 -1.733464206925226181e+00 -2.782067431811249492e+00 -1.094425686885176718e+00 8.179496205985786750e-01 -8.821822597147147560e-01 2.845726316731684302e-01 -1.574643916177997927e+00 -5.902324867260347219e+00 -1.318876509403585029e+00 -2.573961988772658138e+00 -8.357767821009977283e+00
-7.293386463960874755e-01 -1.252139289627424823e+00 -2.839426261627145953e-01 -4.125944445796761784e+00 9.573849978097582758e-01 6.651977647059255372e-02 -1.129035853754047380e+01 -2.589807795847592353e-01 6.360288178038152607e-01 -8.969872821653932959e+00 1.750834685981525196e-01 -3.352286439237142535e+00 1.125016432701215069e-01 3.701553929128838238e-02 -5.364726237619358074e+00 -4.549661315434984643e-01 -5.214933878468009709e+00 -1.993114034960974168e+00 -7.073670329270167478e-01 -1.089419164742238699e+01 -3.180646253773352861e+00 6.712285723440289953e-01 -5.187834617966737838e+00 -9.735021541076049445e+00 -3.008930205793702295e-01 -4.681884948050439199e+00 -9.292341031779249860e+00 -1.473474783039340208e+00 3.840598545010891041e+00 -1.006706575189840258e+01 7.536321765535461958e-01 -3.863409977417178620e+00 -7.230246688063772798e-01 -1.770468492326322529e+00 7.133453167446709431e-01 -9.274831184579221954e-01 -7.393647177078167820e-03 -7.435548162372447756e+00 -9.263482463989619831e+00 -6.048327857950244191e-01 -5.355702947918937751e-01 -1.210966142759938791e+01 1.070092791128402915e-01 -1.274522234746833682e+00 -4.162196522453296965e-01 -1.064085439371287301e+01 4.596580928220749818e-01 -4.823933072029719327e+00 -8.227029955962207097e+00 -3.284579516884202022e+00 -1.038390582744699486e+01 -5.343188868716649331e+00 -7.259396838303451283e+00 -3.824573243807658507e+00 -1.866504369821629705e+00 -1.404605429203281686e+00 -9.101311621357314863e+00 -1.023508337763213127e+01 -7.031592380058448555e+00 -3.952003254155288525e-01 -1.141788666945318731e+01 -3.824355914034677784e-01 -1.101560569832200187e+01 -5.054524048093631983e+00 -1.408759255910283503e+00 -1.025628824850910803e+01 -1.173069181777754544e+00 -4.519512625079916468e+00 -1.156974167330192815e-01 -8.857497566409044509e+00 -1.213208758969280687e+01 -1.147148511124454311e-02 -2.031028596276555742e+00 -6.729907461015542935e+00 -1.049404425622160097e+01 -4.699427302216123259e+00 -4.213029927159093746e-01 1.764958123546491731e+00 -3.925640619143620391e+00 -1.011427881646581817e+01 -7.219753266226632826e-01 -6.614824650300742404e-01 1.041021487818778318e-01 1.863608788636556435e+00 -8.527140890694518305e+00 -9.143709616859505118e+00 4.140796921358464999e-01 -5.690395727565279671e+00 1.641270290795493914e+00 -3.770645579078447662e-01 8.362780329445069771e-01 -4.416123599991556015e-02 7.318450040967621195e-01 6.582379994345345375e-01 -5.817237507457651446e+00 -7.234634083283894235e+00 -5.481093772282528143e+00 1.978199597498134121e+00 -2.965071297953963403e-01 -1.009341028166949705e+01 9.961448517706005257e-01 -3.855525568187827545e-01 3.104899260706675435e+00 -1.065705125333474079e+01 -1.050955318173317643e+01 -1.410776110054644095e+00 -1.032867338690034664e+01 2.078255714673040225e-02 1.622309709391690502e+00 -7.332547237805037144e-01 -5.598666290817466695e+00 5.365738691199489763e-01 -8.935708719540375711e+00 -1.289171564760392519e+00 -2.229797138951043478e-01 2.601843332539497400e+00 -5.151622560938195150e+00 -5.246448998932770280e+00 -4.681836764366349435e+00 -1.197308324710112437e+01 9.246934070537496941e-01 -1.948627415808787511e+00 5.892298821812942400e-01 4.586295650730364271e-01 -1.937396939808890162e+00 -1.082950379842461430e+01 -6.861892574396211142e-01 -8.183637026281195048e+00 -8.164945370393372759e-01 -8.614551246628256109e+00 -1.072062257939008845e+01 -1.122314612455372185e+01 -5.450520017921585136e+00 4.336731422586941331e-01 -1.879835348898863723e+00 7.209131998572806399e-01 -4.312064319508474242e+00 1.234689753501963416e+00 -8.244538550769329177e+00 -1.227625913261779544e+01 -9.446254110311850027e+00 -7.277515554494530248e-01 1.575932108747962745e+00 -7.459847281991072165e-01 -9.350160928486298317e+00 1.727367368761682231e-01 -1.070739447032065916e+00 -1.322073442374609165e-01 -8.561120057792516391e+00 1.004512430830504094e-01 -8.250137252372292673e-01 -4.272709522200283772e+00 8.741799952024698062e-01 -6.094331675798058789e+00 -4.430651251862133932e+00 -9.306762735862536218e+00 -1.916927656846104000e+00 -2.595956359051698303e+00 -4.631609266206947240e+00 1.375216846094604872e-01 -1.246296599935227079e+01 -6.248087805250870375e-01 -1.813832550205866367e-01 3.917598376018240347e-01 -6.696163448607551638e-01 -5.271772749144208348e+00 -2.256339909088458828e+00 -3.819141241268586118e+00 -4.953028898850296180e+00 -9.738523404042272347e+00 -7.720512730928604794e-01 2.821589407369223257e-01 4.564051013799089729e-01 -3.088722245297414126e+00 5.885892709986006999e-01 4.733602289902087978e-01 -3.165854522705714991e-01 2.389278105136686259e-01 -1.142549483476280514e+01 -4.738751914554303113e+00
