1.747527002235713223e+00 1.422504780750076137e+00 1.732167343042968266e+00 4.539822306755499248e+00 1.423845849257462826e+00 -5.160914261215280519e+00 -2.559157215942056141e+00 1.530030001674910656e+00 -4.301302229516527298e+00 7.852535801689890516e-01 1.333590949543796533e+00 9.802880817284819193e-01 7.665057932252786199e-02 1.828679070735035328e+00 1.392311689687047993e+00 -2.054392837356970869e+00 -4.404451728947109679e+00 7.311812967309831990e+00 3.686871775717119881e+00 -4.759896990894617375e+00 -7.170194437856191705e+00 1.938574927495057221e+00 8.479883402412227156e-01 3.257106376175714635e-01 6.434005485301869109e-01 -1.155848831695053258e+00 -7.152239242897627802e-01 3.177319308655702557e+00 1.170694306507013893e+00 -3.969832558090996777e+00 -2.981052652040092621e+00 2.985428643884539213e+00 -2.579166591481762971e+00 9.746794983370934418e-01 -4.468935544339474042e+00 4.216624963033297036e+00 4.428011409278132859e+00 -3.439764832015896473e-02 3.362231500111521942e+00 3.399435814074794227e+00 -2.108571067161678358e-02 -2.470423362623574093e+00 -5.286257978767017640e+00 1.584709460514551749e+00 -2.232948331276460419e+00 -1.621438031021024351e+00 -3.259368728351957234e+00 2.307152652221565514e+00 1.669945090011894617e+00 2.440554974305952474e+00 -1.372322659832104774e-01 -3.645159621556850915e+00 9.014442595566929395e-02 1.047913082087648329e+00 -6.436510363859046180e+00 6.744594716135017265e-01 -3.698237527038941153e+00 -5.767491414509295033e+00 2.365398561225431795e+00 8.787404803017884181e-01 2.355697046542593598e-01 1.496202155449982030e+00 -7.261711876939517252e-01 3.217220163832076096e+00 8.208144074162160297e-01 7.826335494196577924e-01 2.509793037116228476e+00 -1.681884418527914704e+00 -1.020041532484496249e+00 -2.949362160525013543e+00 -4.057336090597493339e+00 3.890962319640026146e-01 -5.475931417601177742e+00 1.966280123277511338e+00 -4.123821449214355894e+00 -4.132153786475348589e+00 1.421959314728408641e+00 -1.516591954358573746e+00 -3.165939688335809077e+00 2.952096834720149054e+00 2.239288036333295373e-01 8.062616045042728663e-01 1.698411787250591942e+00 -3.682770332389678991e+00 -6.886067132375367272e+00 -5.239196275045382656e+00 5.474528414175625635e+00 8.065820118045621268e-01 3.872044183672651130e+00 2.108474215287292175e+00 2.856185549142685520e+00 -5.879213430417065567e+00 2.776891002355434512e+00 2.053141578894103869e+00 2.134615744107928759e+00 1.865537367878364661e+00 2.984937728661742895e+00 -2.384738357318036683e-01 -5.647703522313617164e+00 1.217292409964523925e+00 1.054291051277150171e+00 2.994665085352128386e+00 2.573776614872466340e+00 -5.587124142121229653e+00 -4.509722351310918032e-01 -5.018139596204133746e+00 4.292821305484444849e+00 -2.655161666386838704e+00 2.212829176750641835e+00 1.279232647974473114e+00 -6.523890964722051322e+00 -4.638913927951926475e-01 4.318429865327390260e+00 -5.235068502107376176e-01 1.222595490239891225e+00 1.262990285898967446e+00 -3.841305362652358113e+00 -5.164744589512761941e+00 -5.453944708322221224e+00 2.807339629343761356e+00 6.958338694125432156e-01 1.200570409963724217e+00 -9.433053799390135330e-01 -1.417402783471359839e+00 3.027941208332744605e+00 -1.498230212359012992e+00 2.685795623976692248e-01 2.046753576157119170e+00 2.765490562747580650e-01 4.596230602220375827e-01 -5.512215244375944678e+00 -1.577906228145873779e+00 1.213257916086084715e-01 -5.227351612861499408e-01 -6.137899378693254526e-01 2.966084817820054287e+00 -1.708481110600598152e+00 1.994658794052310613e+00 -4.033799766288846733e+00 6.214635981225601569e+00 -2.990130379877604661e+00 -3.316990350393496101e-01 1.863829433109108535e+00 -9.508075196752037161e-01 3.221777161473458606e-01 -4.842293610941224458e+00 -5.832723730740638768e-01 -3.185496876362817975e+00 -3.677081427783046585e+00 8.520891508021202418e-03 -5.333189864047064965e+00 -6.399628721771937201e-01 -3.359811218337223959e+00 -5.803824208755471448e-01 -2.091711290760743136e+00 1.700034365831133432e+00 2.222865183226390151e+00 -1.266781302604800485e+00 5.488166368079494539e+00 -2.235229260791974149e+00 4.252698664672493578e+00 -2.062894734399413288e+00 2.715545879252004857e-01 -4.819054981774736568e+00 -1.587834883586517254e+00 -1.305405332112843375e+00 1.338191961164481913e+00 2.697109663636769294e+00 -4.340471054029593212e+00 2.310649026213338786e+00 -6.536593903011043594e+00 -8.605477440671364109e-01 3.251499013909558422e-01 -5.863029515900043398e-01 2.122061868805298346e-01 3.149121736980956765e+00 8.712343031538615890e+00 -1.590581960666865191e+00 3.206666701029360134e+00 -6.610885229147411835e+00
-9.639370360821960526e-01 -4.421180921439500366e+00 2.197289743370932857e+00 -1.019370976241631643e+00 -1.547314659085566202e+00 -8.188653197016503071e+00 -1.086681737895452571e+01 -3.012456399561273646e+00 4.286056543606596159e-01 2.363060230576909670e-01 -4.583575887988253217e-01 -1.588399370792876741e+00 -4.870179914089351136e+00 1.800921070216057407e+00 2.313134386990459923e+00 -8.333022006589981601e+00 1.221554398471649705e+00 -5.343904858202475516e+00 -4.945933118532132022e-01 3.477685770269657972e+00 -8.077597431144739604e-01 -8.752160987054957708e-02 2.752332849117858693e+00 -2.317727809062668509e+00 9.031839574439893825e-01 -9.980189817371558192e+00 2.035156791255814834e+00 -6.783420569501752428e-01 1.105148979166617584e+00 -6.021143860380897550e+00 -2.070089249933918296e+00 -5.762395473723967987e-01 -3.021470618542382081e+00 -4.122987618611255733e-01 -3.291690815406015158e+00 -2.580674688298492669e-01 7.620658695404280980e-02 9.016624234045189645e-01 -6.951121497396062221e-01 -5.074214775770101715e-01 -6.846460697857877920e-01 -1.493167679047073149e+00 -2.393236987074524702e+00 3.136402365740903475e-01 6.271098993744702588e-01 -3.423223579826152552e+00 -5.721609176626361482e+00 -1.604374969916513294e-01 2.115064539048942649e+00 5.359623921193485963e-01 -8.374295572492913564e+00 -4.911317404989127944e+00 -1.080790078196121273e+00 2.878109378937796947e+00 1.886632202654092927e+00 1.958485084541810695e+00 -7.312263859277161160e+00 -8.023031819740674919e+00 -6.693535083985494571e-01 1.101348945043190142e+00 -6.197606755762206099e+00 1.525779835404943718e-01 -5.507503517482756350e-02 1.711851842517831512e+00 -6.937360467546028753e-01 2.105347887484910085e+00 1.216083927619772131e+00 3.752467706845602491e-01 -3.366078492150643697e-01 1.420476879592232011e+00 5.089880343121358841e+00 5.351684667698378695e-01 -6.382816062023406900e+00 -5.273978760626127915e-01 7.237475055361391796e+00 -5.344798913358044246e+00 8.496490529443470052e-01 -1.346465491614835974e+00 -2.055902224331790595e+00 3.223593567426680795e-01 -1.075263499887148910e+01 2.266141031318403609e+00 3.532378665490151448e+00 -5.530735932612117489e-01 -3.448630146363498294e+00 3.263707757244445062e-01 9.010949591211304677e-01 -3.520048525532605832e-01 -9.507083071939157470e-01 1.614296286218164012e+00 -3.163737040561159786e-01 1.363076028286245578e-01 3.325362346672300906e-01 1.261563034782655635e-01 4.350416560279979361e-01 3.492604313660709336e-01 6.198879586316384527e-02 2.249758022205379238e+00 -5.032677764562631495e+00 4.410876508591619505e+00 -5.930799096160217942e+00 -2.608139614492805514e+00 6.463570220039347447e-01 -9.108887812336815770e+00 6.970499967015363119e+00 -2.219778034383330212e+00 -2.951876727159568059e-01 1.764679946215184980e+00 4.442581016245837233e+00 3.021319475530219734e+00 4.415755590764309235e-01 1.245213873738001409e+00 1.951439927644916389e-02 1.849151543656240904e+00 1.188971125213358793e+00 1.524482762968960847e-01 -1.064425726245077719e+01 -3.367507838950676291e-01 -1.041770876898534048e+01 3.455812144473316971e-01 1.044777786700551853e-01 4.984487273017992187e-02 -1.667089718351542071e-01 -9.757147894432014468e-01 -5.573817764565909272e-01 -4.174550504195573275e+00 4.549580156097794870e+00 3.236447188936698360e+00 -3.885308117236674907e-01 1.942617684293503344e-01 -5.698124223513636011e+00 7.361507418437573946e-01 6.015171420431523197e-01 2.419618571593931122e+00 -8.642381390042847000e-01 -1.557659326658810794e+00 -3.490876981000362367e+00 7.783803374363109651e-01 -7.827525533311390227e+00 -9.142289413057939074e-01 1.854323341463008923e+00 -3.766266681411427175e+00 2.991164233317709087e+00 -1.628312709176693573e-02 2.974872412829319135e+00 -1.216049710254975436e+00 -1.962822353405447195e+00 -9.822309127024670516e+00 1.165180782237164481e+00 4.958646739073930276e-01 -3.592706556607908608e-01 1.406542829719001464e+00 -1.593570326446723806e+00 -2.087644008878249302e+00 -2.412180280451063918e+00 -8.966907111452958323e-02 2.578093546499291122e+00 -1.132687653250813931e+01 -8.410009870205950033e-01 -3.044115342267544211e+00 7.612999567408405832e-02 -4.363534976998956871e+00 -1.828268451412303541e+00 3.574047451987384605e+00 -9.541547911211022637e+00 1.021901486771183531e+00 2.046733958282614119e-01 1.470434538350094966e-01 -5.619392101101266412e+00 -1.605654892509926768e-01 5.380988720250021728e+00 -5.797067412499653516e-01 1.654805725496479640e+00 -1.094234313871333164e+01 7.175233453396802352e-02 7.184803769814992469e-01 -9.869735391599169239e-01 -1.360626997115868431e+00 3.726558723860605160e-01 -2.312901945838167439e+00
-1.702484982539932634e+00 -1.346639202574449579e+00 2.061444216986562772e+00 1.537637535733913596e+00 -2.002989157172081480e+00 -6.597295988881952233e+00 5.269758820448471326e-01 -1.472762530134848369e+00 -5.010954957869611981e+00 -4.783091823142247567e-01 6.310968005247462598e-01 -2.370190969326384067e+00 3.664642928931095556e-01 8.023815066850589206e-01 1.861279433184283683e+00 -7.130457980642809224e-01 -3.901024751308918681e+00 1.288636626377478223e+00 -6.348536370874048596e-02 3.919385150832896958e-01 -9.694828185851583902e-01 -1.798111949140556387e+00 3.097938079936955358e+00 -2.756038008430087838e-01 3.727718225767001070e-01 -1.071903263674893303e+00 -5.828115624776165626e-01 4.986261959933870336e-01 1.037001216320317720e+00 -6.460097071350168196e-01 1.494976834164438273e+00 -8.632514161097637473e-01 -1.218895657840448399e+00 -1.057657808772753283e+00 -4.183014035936519215e-02 1.220128618420825671e-02 -1.375045188981385724e+00 -1.585502483686215047e+00 -2.611091551540353883e+00 -1.545814009462789018e+00 -5.390802913987564893e-02 6.995537316406778006e-01 5.112229412598719991e-01 -1.511090983164804780e-01 2.013109487444348089e-01 1.272645749047970787e+00 3.235810780466369940e-01 -1.336592398509388824e+00 2.728229370830747680e+00 2.412083979592087868e-01 -1.494263911566176661e+00 -5.272819135791197098e+00 -1.120025099654666789e+00 1.498463646309627917e+00 -1.647610698763005421e-01 1.758892082568219273e+00 7.970554784831541256e-03 5.400730430092534062e-01 8.328105403554438846e-01 -2.803068986802000895e-01 -2.951550651843846129e-01 2.203151722133421142e+00 2.700128984469688520e-01 3.175508936316625425e-03 5.654584428027854548e-01 1.554569270777385270e+00 5.232580580222907507e-01 -2.111731811771497380e+00 -2.684360818111909186e+00 -1.462580542862028876e+00 6.309564548795980610e-01 -8.559651611023938456e-01 2.059312449234621811e-01 -1.632798937547421947e-01 -1.069195290789838992e+00 -2.495359930451155339e-01 3.434296963769510880e-01 -1.698225732757425277e+00 -7.001013519373041616e-01 -3.483729982220096222e-01 -3.999273660137181996e-01 1.346905164735103355e+00 2.189224938056812508e+00 1.674896732952611822e-01 -1.738592799591653915e+00 -2.824761466517147768e-01 -8.423576273626517605e-03 -2.952236157516427095e+00 -7.149262004599034048e-01 -4.938118818270510468e-01 -1.345185747314922020e+00 6.880972184624805088e-01 -3.705323840635206811e-01 -1.470618482178298603e+00 -4.910234213115846069e-01 -1.616828658271032948e+00 -4.942394706874543298e-01 8.006425921649928945e-01 9.446932727017672005e-02 2.000302187823854272e+00 -5.317745531297612960e-01 2.136518614670781246e-01 -5.492103930941101275e-01 -3.638919896182190583e-01 -1.583256415626987712e+00 -4.281266432915090014e+00 -2.772902364506923401e-01 -9.942943619239127950e-02 2.067417149918987729e+00 4.125238088603138120e-01 -2.674935943438138120e-01 4.016731601121447670e-01 -2.003708959345626983e+00 -5.963246431700247596e-01 -1.485426315184196877e+00 -1.748205015426550935e+00 -1.476650546870439951e-01 -1.533696455546514903e+00 -5.412194119613524812e-01 -6.799420592859970469e-01 -3.193449710704549194e+00 -1.738759849196974905e+00 -9.422752784332807385e-01 -1.916440021378897463e+00 -1.550740792663046319e+00 -1.283074962775373473e-01 -7.900425615407251634e-01 2.842201569154465091e+00 5.599819643768906285e-01 -1.389498931317872055e+00 -6.155085461717189510e+00 -3.124895777208339886e+00 1.195983825508504239e+00 -5.903614147572044946e-01 -1.926197245963727323e+00 1.410584411196597943e+00 -1.162754423211983301e+00 -7.436559893355944029e-01 -6.236369039090570610e+00 1.081783481526175095e+00 -1.488183045641595648e+00 -1.985061081550884232e+00 2.721755210395104818e+00 -1.946551651066369848e+00 1.661007377849751387e+00 -8.518497432303375749e-01 1.638296949483944553e+00 -3.233161336958699561e+00 6.509030883414637092e-01 -1.700808160591987361e+00 -2.159242281003813879e+00 3.727761121671618882e-01 1.698683081143645079e+00 -2.259201793921974843e+00 -5.047832762468754675e-01 -1.971363158685937478e+00 1.507249135020241271e+00 1.131511807184440777e+00 1.328103754944923498e+00 8.959656127236781398e-02 2.756747471810278571e-01 -5.113699316398536698e-01 2.029271756557127215e+00 -2.751602506992866237e-01 7.934770027456267139e-02 -6.105450624811341598e-01 -1.225301175148091781e+00 -1.056993975037977540e-01 -1.254826362337184920e+00 -6.569061670600492286e-01 1.189470634458269643e-01 -2.418929628425574574e+00 1.075439686732017730e+00 -3.653967477750227899e-01 -2.124739505603677747e-01 -6.246161187552194960e-01 -1.762461413215570705e+00 -2.095624004282602648e+00 1.947855606239189408e+00 -4.535234771743110183e-01
-3.147396438472399582e-01 -7.225105234930121467e-01 3.585083473934219667e-01 -1.914098572679865939e-01 1.726145014470453487e-01 -8.445055822485969088e+00 -4.028834343229537596e-01 -3.364019327868140063e+00 1.235913891900113359e+00 -2.924237697106651712e+00 5.968730685538453651e-01 -2.053085189904504837e+00 -3.471660018738649267e+00 9.671933393605315343e-01 2.764747028195013168e-01 4.447595821788243864e-01 7.593248415263851303e-01 -2.634353761163325536e-01 -1.758116347163424686e+00 -4.391666687138505720e-01 4.392330376800790415e-01 -9.896509135523853251e-01 5.207879779764690298e-01 -2.677558361091673333e+00 -1.089626313971459703e+00 -1.005738494324030263e+01 -3.014241968860722043e+00 -1.079860614466511493e+00 -2.701102635188685763e+00 -1.193224916379205469e+00 -8.398703649971742680e-01 -2.358347846757985755e-01 -1.569589920633134073e+00 -2.744111191130378824e+00 5.346436117698920576e-01 9.941920750452013511e-01 -9.855594188900234087e-01 -3.892376084724056273e+00 -1.454027413990227835e+00 -9.411894378700451647e-01 -5.403715357790557228e-01 -2.292984693386262429e-01 -9.183905232992760626e-01 2.251653146564407907e-03 3.088221046916099152e-02 -2.904079542457966845e+00 -1.514001973450562311e+00 -7.266126536318376905e-01 1.683529234654772833e-01 7.809561279561409997e-01 -5.908185444554789889e-01 -4.265952149637993185e-01 -2.062607316823246439e-01 2.053256679933483930e-01 -5.444265621419211998e-01 -2.362773213501409009e-01 -3.429106630327340088e+00 -3.500101647299864727e-01 2.749729280941570764e-01 -2.761822823496638879e+00 -5.443565310038939176e-01 -1.336005988361751440e+00 -1.380139922010197528e+00 -3.067804076047167872e+00 -1.783834976605144007e+00 -4.185228089720353650e-01 -8.910928428476749819e-02 -3.100369605349581281e+00 -8.275533905748668762e-01 1.824762695640066434e-01 8.926800495864168905e-01 -3.450932536131483541e-01 1.014102600224652484e+00 -5.455355644579147345e-01 -3.473374327658897087e+00 -1.695962697830076249e-01 -2.591467027312497340e+00 -2.426553955336113066e+00 -1.720059341407615960e-01 5.922482569070432884e-02 -6.901232027043631145e-01 -6.663304296931833459e-01 1.441608598480018655e+00 6.814572712979558577e-01 7.736815381285415405e-02 9.937609731337003760e-01 2.233227860529470588e-01 -1.222098285039737053e+00 1.974859631728409504e+00 6.534517004967788090e-01 9.468405688399976761e-01 -7.683806558639992568e-02 3.358097075787663255e-01 -7.091344657505349591e-01 5.229547700391101728e-01 -8.296043719709522701e-01 8.196789369057087826e-02 -3.039099346745612884e+00 2.752331287000087667e-01 2.843103577308350172e+00 -4.571977063735269908e+00 -1.324153145650610819e+00 3.474774267254359672e-01 -2.139769477723854507e+00 -3.805585151423496182e-01 -3.818068066388638382e+00 -5.825297192252449907e-01 -4.448341931066421284e-01 3.071238414465254252e+00 -2.402173593658488149e-01 8.050527055234292240e-01 -3.475071885642663005e+00 -3.028236934300342909e-01 -3.573351646112915336e+00 -5.491964778114252210e-01 -1.128519085622220031e+00 2.241093696876986785e-01 -3.182215951958544120e-01 2.295197407054470617e-01 2.115311140922089828e-01 3.154028725281269097e+00 -4.961527553756527875e-01 -8.075429348709896038e-01 2.678682663618753068e+00 -9.923847398882542636e-01 1.441702336848275756e+00 -1.231674379192030599e+00 2.249491861583149621e+00 -3.530926864639892249e-01 -1.473562152893022503e+00 -6.403217988627939228e+00 -1.087977148895138857e+00 1.963738078887796723e-01 -2.964638032971678161e+00 7.063783772055618471e-01 1.086799206134196616e-02 1.770043007462841211e-01 4.621341057742023861e-01 -8.094817588869286595e+00 -3.139808168653814291e-01 -8.332515163381448708e-01 -1.417803535160319095e+00 2.651248581290043482e+00 -6.708882315298936305e-01 4.625175763976100418e-01 -2.518240474167664500e-01 -3.663910429299580329e+00 -7.837705120571015982e+00 3.507041797970890662e-01 3.528338316991474488e-01 5.824765096781414631e-01 -1.251842080174098149e+00 -2.181482876818443550e-01 -1.484972452278432442e+00 -1.098792118547659902e+00 -1.065812103872987748e+00 1.830376114125634057e+00 -2.131061901052854757e-01 2.895071175013090414e+00 -1.100539458555288785e+00 -1.877119985572170968e+00 -5.327193071212843467e-01 -1.071738721055225829e+00 -6.236180267157865886e-01 -1.137383252136004330e+00 -8.320230533095761272e-02 -7.658074285720782859e-01 5.467846954100338275e-01 -1.152645305032067524e+00 6.751597025257978224e-01 4.017898867029787713e-01 -1.096976640114025736e+00 -2.161351075756579920e+00 -8.603793744599737003e-01 -5.363244964209822330e-01 2.837002634333654627e-01 -1.977127179989400130e+00 -5.711929170036893488e-01 3.268310627497288956e-01 4.183508695375647291e-01
-6.414611381604443663e-01 -1.693444246053645852e+00 -2.442574437766504847e+00 7.670412600021196958e-01 -2.878445932401944241e+00 5.874820882426895485e-01 -1.126597993892737071e+00 1.989462698304000632e-01 -1.605308351885246010e+00 -7.331308055226299913e-01 -1.368058229332500098e+00 -1.805362997333131991e+00 5.154138551238794941e-01 6.052911632083016191e-02 -3.198655135624881574e+00 -2.358242449313464884e-01 -3.751413793631801052e+00 3.797978587906848946e-01 4.580370497165686672e-01 -4.450554996376467759e-02 -3.060917923148688824e-01 -1.372094335409763888e+00 -8.290483662660230735e-01 -2.282384538342601132e+00 -2.095621805003522908e+00 1.522874413238043401e+00 -1.918038890463208856e+00 -1.383199149878501455e+00 -1.434869279632070116e+00 4.321308410355780283e-01 -3.315875825970845403e-01 -1.456912772818592439e+00 1.795377370876532375e+00 -3.401474915688991185e+00 -1.340406829718310044e+00 -1.234832873132297060e+00 -1.173193700081956781e+00 2.361591142806049870e+00 -1.599382249783544374e+00 -1.085727458770497034e+00 -4.419336469799948208e-01 -6.611729556144481990e+00 -2.689909203117263115e+00 -1.606552227598577742e+00 4.487765543861345630e-01 1.444811292164298377e+00 -1.117575110460499399e+00 -1.341680934436721984e+00 -1.728347964807746440e+00 -9.639129419377370223e-01 5.409179442882794397e-02 -5.320256247870930544e+00 2.225395882771196918e-02 -1.257228208028965177e+00 2.291316918133311731e+00 -1.247215290316799230e+00 -1.569106038546340121e-01 -2.303855343550808676e+00 -1.561272698980580520e+00 -9.010304187940914034e-01 6.974281899524977790e-01 -7.080883347603794675e-01 4.792165529067483609e-01 1.285672592145261639e+00 -1.424926038842351028e+00 -3.189646348277636712e+00 3.417859245688989467e-02 8.423357052226209118e-01 -2.389600105626771498e+00 6.750448320471320596e-01 9.513614021076853833e-01 -1.410879099550479632e+00 2.612486264157837801e-01 -2.898979649023589178e-01 -9.731981760294693418e-01 -5.239766361182320864e-01 -4.998707911013249294e-01 3.025604955139356012e-01 -1.763754117937006871e+00 1.097822482435778513e-02 -2.531574908574462102e-01 -1.112718056041576142e+00 -1.138922660578432167e+00 -3.413537891049609474e+00 -1.509744135678940502e+00 -7.287672422752886625e+00 -1.200124251153357413e+00 -2.037105663243747866e+00 -4.188407268275217810e+00 2.232343352102170442e-01 -1.600030927162598537e+00 -7.330285433281131802e-01 -3.736793024011500486e-01 -1.129953126687103904e+00 -1.159477827829114016e+00 -1.018193780156676720e+00 1.250237859610245916e-01 1.443100671871152541e-01 -1.964400384036640634e+00 -1.524578063297317376e+00 -1.046516622938592905e-01 -1.132789744353174255e+00 -5.595249407184508250e-01 2.069393240766697950e+00 -1.635265173875920741e+00 -5.055917883784496469e-01 -6.687973539457618688e-02 -4.874701549764984598e+00 -1.289058117392767544e+00 -1.074715027193555050e+00 1.365293083683778441e+00 -9.526252797858317800e-01 -1.427247636884912518e+00 -4.006318725886723442e+00 -1.211862163462200437e+00 -1.461891050508446588e+00 1.176359748208211320e+00 -1.591629313212534091e+00 4.508107811102537443e-01 -3.788325355601030453e-01 -1.743401720598677374e+00 -1.181372425432627438e+00 -3.759856088901825100e-02 -1.515392192084370260e+00 1.185090211266267790e+00 -5.766886026624172601e+00 2.614208694828423774e-01 -3.726841349417232552e-01 -1.381361836385224251e+00 -2.175130072002800397e+00 3.893931901844454480e+00 5.006902256412519847e-01 -8.449141106882858132e-01 -7.243904449988407546e-01 -1.145012349068808888e+00 -1.280134964158944122e+00 1.710460968629875289e+00 -1.366187990802442798e+00 1.325993409074898821e+00 5.620468909323462769e-01 -2.107072449594886709e-01 -5.729948065295786819e+00 -1.114104104978106413e+00 -8.824601714806635799e-01 -3.271493593004269229e+00 -2.743097738083781212e-01 -3.042305240373996966e+00 1.477329972760050625e+00 -6.113815758480058982e+00 -1.545801522775881898e+00 4.903409787516113116e-01 1.009854943790181731e-01 -1.426244513675273051e+00 -2.850142032062700018e-02 -1.207377252727018568e+00 -1.160260977404833804e+00 -2.902082095788061977e+00 -1.106118848216285783e-01 -3.085053557317503081e+00 -2.944590795933829774e+00 1.021964454431731673e+00 -3.927196360139675324e-01 -1.673936036298799612e+00 -9.285823590702423358e-01 4.637596459107959923e-01 -1.778979019577025200e+00 -1.100951073777149292e+00 -6.717073257257493157e-01 -1.982810549217121965e+00 -1.234612423906886081e+00 -2.410733935544495221e+00 -9.557293451336255075e-01 -2.189934050712138536e+00 3.972989201352786562e-04 -1.335533171690443499e+00 -3.893676081682651002e-01 -2.545772078789500181e+00 -4.917845100864373542e+00 -8.102332234333965710e-02 -1.475013996331186794e+00
-1.371194395139087474e+00 1.363568658894374064e-01 2.559356828963380348e+00 -4.374335234891276736e-01 8.551032952629584738e-01 -7.642222960830147294e+00 -5.064432590252754274e-01 2.012608695932815550e+00 1.556538433330389770e+00 -8.372740556399819178e-01 -9.593715676921688029e-02 -2.028800375304014025e+00 5.555929735665336988e-01 5.397881203135886929e-01 2.064780391846004814e+00 -2.704285901347077137e-01 -4.628421073961405674e-01 -1.091293676125363987e+00 -6.393354568855166842e-02 -4.759506031227029310e-01 -4.193725608608148692e-01 -2.099717231977273002e+00 2.563452011945984044e+00 -1.175692706777409002e+00 7.096608173578861090e-01 -1.632844599748880521e+00 -1.388687337890712081e+00 1.034656310016005998e+00 2.051889004391825866e-01 -3.294440069840709473e-01 6.549722582876729149e-01 -1.155833828166957372e-01 1.235764045303529707e-01 -8.273371964151899904e-01 -1.922579556725853289e-01 -9.209962724539100254e-01 -1.992662551237025959e+00 -1.165256739598665936e+00 -2.637517730277138650e+00 -2.605455869108760147e+00 -4.632475945363122016e-01 3.781894700458072189e-01 -1.139002711859427253e+00 -7.479193213185959532e-01 6.261009483717759894e-01 -4.931637759947006261e-01 -3.429757316599627348e+00 -1.386141249582151680e+00 2.661495240042740740e+00 -2.859257848857211237e-01 -3.300799214026360340e-01 3.233007811212275762e+00 -1.864137135721578575e-01 2.599769013797349260e+00 3.789484336945997955e-01 1.490905174694974411e+00 -5.557128546602511321e+00 2.523835806027097672e-01 4.313185864962875704e-01 8.810991138963998603e-02 -9.850082874235640551e-01 1.805174273824382114e+00 -3.766269023880971026e-04 9.222485425633238920e-01 -1.202941933416624254e+00 1.605628010221607171e+00 1.511830273112257754e-02 5.260216920261527873e-01 9.800545415790501425e-01 -4.111787255935429181e-02 -4.408029968477462091e-01 -9.587235328812901969e-01 -2.777227078058724929e-01 9.821328456301553489e-02 -1.491148877818265106e+00 5.514161814113504034e-01 -1.178631257876739946e+00 1.503948099945956240e+00 1.833300409585892687e+00 -2.891769173391261494e-01 3.486184444561435392e-01 2.325448227226527997e+00 3.105821265581502288e+00 6.334350835209001662e-01 -9.756639717797140898e-01 -1.484320027647902940e-01 -5.140601537711011471e-01 -2.215320639613955311e+00 1.511682592825532856e+00 4.103581824964319114e-01 7.919725851758943058e-01 -8.910825847035134251e-01 1.140174784892460796e-01 -1.471588324282719018e+00 1.383882916552250930e-01 -1.318346429031953537e+00 2.600067185059477815e-02 -6.770373989289172334e-01 -1.397944998047462528e+00 2.450453309332373930e+00 -1.477347209298493780e-01 1.319779113193445541e+00 1.722187638948974309e-01 -1.267606830967650033e+00 -1.182704001483755318e+00 -1.561902150636232500e+00 -1.608582349715980797e+00 1.821520652852149702e+00 2.457280757418365713e+00 -7.789731404777106016e-01 -4.578723606783807742e-01 1.196187791890796159e+00 -6.820010342061794129e-01 -8.234827077259244676e-01 -1.132923715011697086e+00 -6.427606296739497571e-01 -6.518865445863677444e-01 1.629909996727483712e+00 7.417622992504684376e-01 -4.639373695183192370e-02 -2.700670942402441654e-01 -1.087166121579905331e+00 4.121023432044748080e-01 -5.670421766686760678e-01 4.987016272152454688e-01 5.559815921037720710e-01 -5.436124192265451294e-01 3.327310139807333034e+00 -1.521791926118018390e+00 -1.277802713054360106e+00 -7.226739813274477342e+00 8.937018438166119960e-01 -2.353139592304158978e-01 -1.709055197898680989e+00 -1.332319166508234121e+00 -5.886764970582616385e-01 3.087393848287061093e+00 -5.849064381230911769e-01 -6.670158858337775776e+00 -4.580586239795798598e-01 1.391147193748251687e-02 1.102206232379172812e+00 3.451436843561509704e+00 -1.239747433745450822e+00 1.633803281422839371e+00 -3.613587610137387052e-01 -7.745719533599555451e-01 -7.188119379894171601e+00 1.320148650398869361e-01 -1.686540646882490613e+00 -6.591936128558967267e-01 -5.062062032956672342e-01 -5.935766649718154930e-02 4.735428610093100343e-01 8.427523102104772512e-01 -9.573415459630126856e-01 1.285474054493549234e+00 6.806005094488730700e-01 2.625173465764120806e+00 7.747096886364148727e-01 -1.184534561893682003e+00 -1.944651270223820561e-01 -1.079195017591397132e+00 5.955827553259556151e-01 1.028751856745544035e+00 2.357021145344784796e-01 -1.070071876662358923e+00 -4.758525495864714960e-01 7.653455959667579966e-01 -4.927439026652167819e-01 -3.021906980351076188e-01 -8.027172949519593148e-01 5.388462877796036388e-01 7.448742742806369055e-01 -6.624116035126678126e-01 -1.836235306116655308e-01 -3.484727330455215544e+00 1.848815700720389588e+00 -2.788819916081007252e-02 7.274293798046040926e-01
3.551652025228811738e+00 -3.931320262313808822e-01 -5.737765525756705065e-01 -1.902472821791647561e+00 -9.359962913380299732e-01 2.768450818315549622e+00 1.833079617960549912e-01 -7.164277978558591942e-01 -3.092869631575446920e+00 2.009925814817973055e+00 -2.640842800657296152e+00 6.143043624477149134e-01 -1.428510531539193273e+00 8.084855250792918335e-01 -1.248805791008614996e+00 -2.709822130026194875e-01 -1.109816535162339468e+00 -3.762941764697483871e-01 -5.879757836403892712e-01 -1.690450494123664660e+00 1.635034221249637376e+00 -1.188295454781734373e+00 5.067917688502061591e-01 1.250873794206770917e+00 3.825966681517715351e+00 -1.173608443442907268e+00 -1.966842687462972084e+00 4.938874259072585926e-01 -9.658906544613181377e-02 1.242232884292478357e+00 -5.554955940186092622e-01 -5.681179344519486918e-01 5.766589782985405144e-01 -4.016280214487121802e-01 1.977836043961571866e+00 1.069661147798806722e+00 -2.232064643095574397e+00 5.925643091322924105e-02 -1.167053031317542233e+00 -1.056491688490214687e+00 1.786433504960615037e-01 -2.479937965940505418e+00 2.681102345422017308e+00 -7.267360041068846588e-01 3.450173973987260556e+00 1.171621929668614337e+00 4.933821564793146597e-01 -6.445551076699430892e-02 -1.324568859769476243e-03 7.496740405720904166e-01 -1.260625568733907687e-01 -5.390449887751032954e+00 -1.881549421979129777e+00 -1.413234954819791722e-01 -4.673143647365084474e-01 -7.062386980207771559e-02 5.958289307740859408e-01 -4.606219039265413984e-01 -1.519831465824068362e+00 -7.208896281278575069e-01 7.395781204172668932e-01 6.655764821633585182e-01 8.422563640896019166e-01 -2.459126568908924781e+00 -4.439863282579232795e-01 -5.285861819315489374e-01 8.676327578376076266e-01 2.553378904373778013e+00 -8.946243664213718305e-02 2.822451774678762515e-01 -1.862343541468209462e+00 -5.852467773398202233e-01 6.206404423764535494e-01 -2.970640054401966879e+00 -1.807862996708208714e+00 -9.154400644091191808e-01 3.086218220738307094e-01 3.301384092532612113e-01 6.892870292078447925e-01 4.355175591785806488e-01 1.153380299530595510e+00 -7.487539194764127881e-01 -3.945608940175044932e-01 -1.165579818742671359e+00 -6.665186648519455304e+00 2.140318583496964688e+00 4.067487726161723716e-01 -1.860923120811268205e+00 -2.748031142439737895e+00 1.079941182743659578e+00 -1.383782084682383395e+00 8.150705203714588010e-02 6.582035546738690401e-01 -6.980407735922277146e-01 4.067635999336258190e-01 -4.979002106930443539e-01 6.502500204718636434e-01 9.551838762299106333e-01 -2.069552312041071040e+00 -1.135699669901728548e+00 -9.452742267687390676e-01 8.740009390413888690e-01 5.848978121130276042e-01 -1.406864968180390418e+00 -6.654116620834127360e-01 -3.994995823650193234e+00 7.406844565506242040e-01 -4.664460685015838770e+00 -2.868866486223750067e-01 1.596165598872221481e-01 -6.382974688608824998e+00 -1.443378491302072186e+00 -2.716856081642652909e-01 -2.398786541654315041e+00 -4.049090386894335647e-01 -8.219106228580488338e-01 -1.930903954220722474e+00 -6.116550742285817854e-01 -2.827331089278462550e-01 6.763932973546930016e-01 -7.435531251867766311e-01 -4.130824138859455763e-01 -2.183493750979410120e+00 -8.504583638081546493e-01 -5.355082720884286607e-01 -3.314722014070459633e+00 1.078421304835157413e+00 2.523234290616689912e-01 -1.805708121802218180e+00 -5.094044861447460937e-01 -4.110116821136632903e-01 -1.286567837216999743e+00 -1.165276515630464749e+00 -8.066206366901065294e-01 -5.317812424024856988e-01 -1.945506456315274080e-02 -1.074829806801223198e+00 -3.404472496249234537e-01 3.480638975649614331e+00 -1.911785575745053312e-01 -3.991349009560805211e-02 -2.873119798459571328e+00 4.382487014690697458e-01 -1.413223613001091117e-01 -2.068969419037437696e+00 -2.781097825641838939e-01 -4.131116900664799196e+00 3.491696750604952992e+00 -4.456664991605398640e+00 -6.862157102847422641e-01 -5.713267796998962034e+00 5.186486272159401834e-01 -1.315310927707949773e+00 -1.941604504522995711e-01 1.178140360553701305e+00 -5.382492027642288290e-01 2.874017703991310624e-01 -1.501806911331341476e+00 -6.823333814651845186e-01 5.316588784989070504e+00 -1.800604138871097604e+00 -4.078919129743280858e-01 -3.516705127872118974e-01 4.515915556113085372e-01 -1.538893825449019481e-01 -1.423560319533654361e+00 -6.345656898348202013e-01 5.260428340064006170e-01 -4.358991655768341467e+00 -1.041232584836876279e-01 -3.051913521681361541e+00 -3.620445771161950876e-01 -1.219433278771947737e+00 4.240911923719876686e-01 -5.776525285467725146e-01 7.759307138733109177e-01 1.252823286680250892e+00 -4.332772649943279930e+00 7.859958350116429404e-01 -2.707366452569491155e+00
-5.303744947023097955e-01 3.583239436032393144e+00 -8.581582082323474525e-01 -9.950535134752345190e-01 -1.682777534394220398e+00 1.390972124331018911e+00 -5.667004679544922485e-01 3.102534647337696350e-01 1.979761211086985995e+00 -2.584504830096828965e+00 -8.716798007544536153e-01 1.603499289934177119e+00 3.429636517122146011e-01 2.059698727292435638e+00 -8.438962519367331216e-01 2.132062970135780167e-01 1.511088492087494739e+00 7.873782855772184508e-01 1.086100706884686184e+00 2.762381879463403078e-01 -7.188822173178649466e-01 3.421236124930597255e-01 -1.842667377477640589e-01 2.420987304851411448e+00 -1.087043364105503951e+00 -2.570109704590703981e-01 -1.726776115673479328e+00 7.538827970421396740e-01 -3.652582924776855422e-01 -2.370925208661814332e-01 -6.270028010505767080e-01 -4.846940812705645141e-01 1.036915229718776921e+00 -2.210725006376302648e+00 1.748306721476394543e+00 -7.881523574091383599e-01 1.325529394911480807e+00 2.347754536568191774e+00 1.040987219979980782e+00 1.773531562521909022e+00 -1.432247120519268613e+00 9.546882861267926013e-02 -1.030869148976671701e+00 1.517739043121101028e-01 -1.294928341753077250e+00 -2.569700085716817295e-01 1.240581598858695594e-01 -7.824515879300028010e-01 -1.857893477916849889e-02 5.257977354460320329e-01 -5.738723476416701663e-01 -1.297444321417177693e-01 1.091437040909652767e+00 5.509038474849434763e-01 -1.449293663966580326e+00 -3.495806880719611320e-01 -1.843420731756489073e-01 -1.892541245303939856e+00 -1.275519717849780355e+00 8.733285483623830225e-02 1.557576419595333217e+00 -1.902141892090276620e-01 -3.217104614351007363e-01 -8.098835312994036029e-01 -3.410722448154610564e-01 -1.850418423211319663e+00 5.718122632382034443e-01 8.451193252614083162e-01 -1.277261040042126039e+00 1.043443509367153688e+00 -9.078122356697118089e-01 5.787073222969484343e-01 8.792452587901914418e-01 7.793689025857128416e-03 -1.165976826890147422e-01 7.016787538403328472e-01 -1.770451223910304295e+00 3.996494641890978583e-01 1.904382917265519948e-01 9.216755474139761706e-01 7.934186873886386326e-01 8.942517551604888260e-01 5.747900510525284501e-01 1.273189170956567473e+00 2.112733797427936544e+00 -1.081294904412753555e+00 1.284772305280832416e-01 2.561978565431387356e+00 -5.242134716323746391e-01 2.332231811894620144e+00 -1.329795526616611934e+00 -2.133321580708214871e+00 9.928702585394834079e-01 -4.471685969551405515e-01 1.107204210823000468e+00 3.175944474612490409e-01 5.308505956163608319e-01 4.293052148225892095e-01 -9.103657163617336900e-01 2.899789504162511911e+00 -4.795184999275446946e-01 -9.384433229213713368e-01 9.182933724949782217e-01 -2.001866803890572033e+00 -3.611773755458370094e-01 3.672588264776686096e+00 4.024016234662988190e-01 -2.617499643031637735e-01 6.361137922267610101e-01 7.236581947837787965e-01 -1.380371532824406222e-01 1.395749686225911335e+00 -3.997889174529963702e-02 -1.741480118223039941e+00 5.337768697067963863e-01 2.643140341467388410e+00 1.292119830089519583e+00 -1.077659338506039011e-01 -4.300749187405167540e+00 5.088095134276080511e-01 -1.187910162799083791e+00 -3.570667380476495456e-01 1.026596508034781918e-01 -1.069262907821264541e+00 6.446480357259715133e-01 1.469948957893089103e-01 1.589223256538203843e+00 2.030457835691418467e+00 -1.163087811146493525e-02 4.705729873876000724e+00 5.391066697501924132e+00 3.144769158882012583e+00 1.790414149982864966e+00 -1.031629296473218327e+00 -1.067735970708263010e-01 1.974095728844827979e-01 -9.593548005532647194e-01 1.113124124364355039e+00 2.843034182419373335e-01 9.509801463109677222e-01 1.027633828290926310e+00 7.492001438664834811e-01 1.497857214555006422e+00 2.102813312184420802e+00 -6.184027327291189424e-01 -8.132645553155666285e-01 3.408703170789850301e+00 -1.176872387003411874e-01 -7.541904367503303452e-02 2.671116070751586857e-01 1.018070630692633483e+00 -5.306930713781514708e-01 8.297397635939484095e-01 3.640284849252772403e+00 -1.012254290720657979e+00 9.425553827454351552e-01 -7.425065473469302235e-01 2.143532696404895632e-01 -2.349264718154441267e-01 5.384959542506120300e-01 3.186819100313688646e-01 7.760175844161051883e-02 -3.136537413932666274e-02 -5.494555714671659485e-01 8.919046767189953845e-03 -9.191353669585575759e-01 9.972333404867077256e-02 5.440636027534325736e-01 4.293188944480595959e-01 -1.064793215650486680e+00 7.389664315268598127e-01 2.084802882912033528e+00 -7.794760757942407192e-01 -1.161741906900509713e-01 4.126834150756322206e-01 1.668226257488615027e-01 1.346201416376698212e+00 -8.188180798809370220e-01 3.959552993263626419e-01 -4.942761161995143926e-01
-1.020776667335722365e+00 -2.217522754717995426e+00 -1.102561824709352933e+01 -7.920615227587068929e-01 -1.212977609103708998e+00 -1.368274604537505645e+01 1.083698274104764880e-01 4.158611116923972562e-01 -2.693389774318856844e+00 -5.772665919074243313e+00 -2.152305787104591139e-01 -1.789379372711127347e+00 3.338951761420819730e-01 -1.636439449047643491e+00 -1.093133244311943031e+01 -3.583931250659027623e-01 -4.230522471781887894e+00 -1.585897772163120889e+00 -1.737351228570207379e-02 8.989531798918591887e-01 7.481374744970206714e-02 -2.576041639441762676e+00 -1.003252829567770910e+01 -6.825645549974463933e-01 -2.421922616650525883e-01 -8.137661709329747639e-01 -6.836903807025803026e+00 -5.133598437160061811e-01 -9.417087460052977477e+00 7.824465302732755978e-01 1.298091372197976989e-01 -1.667730401593809475e+00 -1.686422543541816532e+00 -6.107628072680282294e+00 -8.442153610869699065e+00 -8.070263327174771462e-01 -2.370739626536561673e+00 -8.318185916053215223e+00 -2.874188021099889578e+00 -1.793814314504303287e+00 4.468865846918177592e-02 -6.448227401543242365e+00 -1.148385367712577265e+00 -1.881507972044884847e+00 1.590234731114281430e-01 -2.863151482101798928e-01 -1.484613592434764984e+00 -1.885132605415761775e+00 -1.102005936294687949e+01 -1.728570004532787419e+00 3.398573521811835141e-01 -5.294579928694574278e+00 -4.639555571368338960e+00 -1.074069778062985847e+01 -2.417945275268182037e+00 -9.744440638596310933e+00 -1.045322623243017501e+00 -3.768228639340016617e-01 -5.829769250241583212e-01 -8.628080190760591961e+00 -3.128759657940224925e-01 -1.053292984897132101e+01 -4.858986784562681072e-01 -2.028907978910984955e+00 -1.817770757628453415e+00 -1.009800720241367067e+01 -1.856747915151202521e+00 -2.550979112172466201e-01 -2.179206025791465162e+00 5.549940885708672111e-02 2.884629355815044316e-01 -2.759794395605742245e+00 -5.470670787656367606e-01 8.327928977713524583e-01 -2.949943300327061646e+00 -7.933153010742322042e-02 -7.762253977927164428e+00 1.498106818421191200e+00 -1.147169021623539065e+00 -4.923517853807511391e-01 -6.857851941341196467e-01 -1.062809237879959312e+01 -1.156178723859944490e+01 -2.457442269717457606e+00 -3.365337571548994711e-01 -8.891280430048803529e-01 6.252291713361110004e-01 -1.251675699552342813e+00 -7.392874109293881446e+00 -1.848087974491914531e+00 -7.046069407500492598e-01 7.932956682981573415e-02 -1.841707276018420325e+00 -3.122594095813996606e+00 -1.810108111382972007e+00 -3.193114365776447361e+00 -1.816294040519479625e+00 -8.764696655834784522e+00 6.483273614902945736e-01 -1.247356772355266408e+01 -5.813790623589663031e-01 1.828053611296381054e-01 -1.846087893743062480e+00 -4.173023964954450271e+00 -3.152919558542860656e+00 -2.011969095590172341e+00 -3.620933242977920075e-01 -4.452504719113687948e+00 -1.102588608238538193e+01 -1.497593592614762992e+00 -1.164730311875613378e+00 -2.244137006945304158e+00 -1.742237456047124766e+00 -7.457622202445625348e+00 -3.174927281484357877e+00 -3.130891300156340762e+00 5.384169647216260901e-02 -1.493924720573927667e+00 -8.493487038734485184e-01 -1.713355855359594671e+00 -1.995771364566940598e+00 -3.045008775473755591e+00 3.271488664304824101e-01 -1.730108217870580889e+00 7.269091084747525411e-01 -7.412107606532000181e-01 -1.949771558371867997e+00 -1.190992354120717955e+01 -2.079312378533902717e+00 -3.164375587070840989e+00 -1.632267522625780742e+01 -2.295481347487527746e+00 -2.286208074164389537e+00 -6.884776031894046078e+00 -2.537712683414727888e+00 -2.157137912875403352e+00 -1.325682275148428069e+00 -1.825393307752277483e+00 -1.428423898768651057e+01 9.387270537761512879e-01 5.955291308198296107e-01 -5.263613496142920845e+00 -1.189418139974194588e+01 -2.508265110718788993e+00 -1.068953048879840928e+01 8.999178523160230592e-01 -4.232493150988089425e+00 -8.461567156122384858e+00 -6.827587340736509525e+00 -2.713604394356874394e+00 -1.712043931988798340e+00 -1.315712889949023356e-01 3.347465821297774813e-01 -5.205574424126085953e-01 -2.394072473149639446e+00 -3.072001004866333762e+00 -8.878414232206930379e+00 3.015750251729454323e-01 -1.087589431885013447e+01 -2.739145562809772727e+00 3.294724522042962733e-01 -2.054786765536698034e+00 -2.745708311849770045e+00 -1.264037615584287177e+00 -1.205613278782261766e+00 7.939391278885529757e-02 -2.977910918053636280e+00 -1.317975256089262137e+00 3.122103247966354078e-01 -8.057496297110909589e-02 -6.621317816282934476e-01 -1.512153779208638582e+00 -9.616621162152691582e+00 2.564776662284122821e-01 -2.024729744963535083e+00 -1.731620846212031273e+00 -2.656542863859415182e-01 -5.106996721610229883e+00 -1.670736845083277577e+00 -1.947006024635830279e+00
-7.319236062655237740e-01 -2.287628551547073730e-01 -1.379506118735625675e+00 -1.214645653310308937e-01 -6.530484459692941224e-01 -5.167059466452629257e-01 -3.580782156578631303e-01 -1.047414704518841333e+00 -5.377351939465018632e-02 -1.509410423005969060e+00 3.248908763083583340e-01 -5.668947308192922030e-01 -1.149563299399730537e-01 8.301889421098724853e-01 -1.939074151272124569e+00 -9.211850952843887719e-03 -1.521941954662765717e+00 -6.322849418601673710e-01 -4.739117976998049597e-01 -4.841387919428188913e-01 -2.491085116911539998e-01 -4.261265426169904558e-01 -2.083484839780194720e-01 -4.208696378300351704e+00 -6.147336468986599467e-01 -4.360253412489094038e-01 -1.452887891089036820e+00 -5.427035942976219385e-01 -5.972104469402621518e-01 3.522950164958541519e-01 -6.724814322402059563e-01 -6.707700642989620210e-01 9.103107117525459646e-01 -2.468388163312542183e+00 -6.716926333335295762e-01 -3.293051811085502545e-02 -1.234078621953135890e+00 1.820482096994155308e+00 -2.520749889546468059e-01 -2.416834716447304743e-01 -8.002703448222911464e-02 -1.618773763387575171e+00 -3.444227376987679112e-01 -3.741895191921031927e-01 -1.156769360183823592e+00 -1.470441077243982153e-01 1.778123383940504454e-01 -2.559301155336193290e-01 -6.614462136384122726e-01 -5.027546020322716247e-01 -2.945641190248794450e-01 -2.254233142666207890e+00 5.967857940828035224e-01 -1.048853513521000869e-01 2.305793885655327558e-01 -3.845689660129963383e-01 4.141786365318984586e-01 2.535963877094687957e-01 4.750067090827180677e-02 2.195914475491613782e-01 4.306270179871285464e-01 -1.622728306298051593e-01 -9.051686623300994605e-02 -4.164109718383155467e-01 -8.515608788892480296e-01 -2.262592620413475419e+00 3.995789714292360406e-01 -1.317607730669530408e+00 -4.666664549974489096e-01 -1.248120151770439473e-01 -3.138769156863905896e-01 -4.462455862419422714e-01 -6.373550855729863684e-01 -2.872093740018318297e-01 5.619114993107818812e-01 6.819817584276272049e-01 -2.668820036368496629e-01 1.368295344817139492e-01 3.097222719403909252e-01 6.198488034928502088e-01 5.032416904148011572e-01 -9.761575812380830774e-02 -2.145547155739836453e-01 -3.894842313267057765e+00 -5.325884641879363723e-01 -7.844409535290806090e-01 3.082925006514075639e-01 -1.600833942939745569e-01 -2.782037801174564340e+00 1.083152057089704856e+00 1.037897420703502105e+00 7.178388665146514525e-01 3.109916679726719702e-01 -6.357519010327209452e-01 -2.403754362267818134e-01 -4.742808932121452825e-01 4.211337639410961953e-01 1.033391647046977280e+00 1.113634851257536473e+00 2.117609583747574742e-01 3.830555262356205581e-01 1.742584165614354252e-01 1.619345344071326451e-02 -1.226006702404597526e+00 6.406933201616384910e-01 -9.866210489853391996e-01 3.760455810588630432e-01 6.039516790971084792e-02 1.305415621404968918e-01 -2.843105868118542268e-01 -3.092364800143225789e-01 8.149605599563287672e-01 -5.974872948588387800e-01 -2.665669847647933910e+00 -4.321159212284836348e-01 -1.451572998519810476e+00 -6.534915413402633266e-01 1.021155510466307259e+00 4.790644943633514674e-01 8.052010805680799577e-02 -8.805106330630934064e-01 -6.522887775733119398e-01 4.500500025495739881e-02 1.415592743268343223e-01 -1.059748644094493431e+00 -4.686200320700368294e-01 -1.482667599712209072e-01 7.705511286491198986e-01 -2.705233019428636143e-01 -2.413349124880014518e+00 -2.095315215275737941e+00 -1.899878296690237001e+00 1.440570857447197317e-01 -3.756977519023781964e-01 -3.290386175342894792e-01 -5.984240431819797257e-01 4.980197819566160033e-01 -3.405834013265725546e-01 -4.854261720529850499e-01 -2.336643917121677960e-02 -1.001722888397415856e+00 -1.473400860570645010e+00 1.108082835810818567e-01 -1.886976927643004842e-01 -2.003185792593506598e+00 1.471938723851347053e-01 -2.163709631859643157e+00 -1.883431062823694158e-01 -2.479757296802589384e+00 -9.119359677870609859e-01 -5.508099560481903578e-02 4.792884886796419663e-01 -5.782840200400172215e-01 -1.018934271612898623e+00 -1.133734711800537864e+00 -6.830296723554373228e-01 -2.713969783642041556e+00 -5.001789661222664218e-01 -2.042266203100687072e+00 -3.535261611869133347e+00 5.231915547082183204e-01 3.397047992635720548e-01 -1.043975473125850595e+00 3.171968671589575628e-01 8.005466748452980119e-02 4.135086755420017135e-01 -5.092313827788401692e-01 -2.157482873029314130e-01 3.424997121617819884e-01 -1.085840629844991440e-01 -6.396307550360849081e-01 -2.338249995612226018e-01 -1.349618071018352738e+00 1.221091107876424164e-01 -7.234557793045672813e-01 3.372277417832138524e-01 -5.016769003394734305e-01 -3.610693369821195819e+00 4.981362233198566303e-01 -1.543018558425202524e+00
