2.084216938843136066e-02 -3.724209342351991053e-02 -2.386484507162051072e-02 5.577275591451359704e-03 -4.564147221009193928e-02 1.820950989271254150e-02 -1.818157542594924306e-02 2.219226745579341246e-03 4.039775114722746197e-02 6.285631870334891513e-02 -4.530384030267906731e-02 4.239068446697216025e-02 -2.229249735252237727e-02 -6.111866734202444501e-02 -4.204840658140419213e-02 -5.628415770051808931e-02 2.071545421089272809e-02 -3.429606998843653595e-03 9.145169298680867753e-02 8.513401908170292742e-03 -2.420433495016101333e-02 4.157507414752701497e-02 7.962656433331992065e-03 3.036041568368629678e-02 6.139717649070887406e-02 -1.789377618715465995e-02 -1.784121678191846402e-02 5.847099303897351080e-02 2.064424477481220307e-02 -1.725983173527127074e-02 1.160738197901410671e-03 2.824366388661211230e-02 3.307043043451690645e-02 1.335942839021036360e-02 3.686321129959724274e-02 4.799923011464738223e-03 2.502124384758283582e-01 2.001507820535277371e-01 -3.370676195627042016e-01 -3.330427688604623571e-01 -4.554535493973437266e-01 -5.033367921795016409e-02 1.076030735065112293e-02 4.630451528897366713e-03 -3.977024790118471181e-02 -3.113057535372712112e-02 -2.060926967945763896e-02 2.039138859656336455e-02 -6.081929461615760701e-02 -1.560334325682802628e-02 -2.487164475976452044e-02 1.004871609143666474e-02 -2.969680588061784227e-02 -4.334563175984594563e-03 1.281151531665744971e-03 3.409133382615845559e-02 -2.934795439347112644e-04 1.838607204610518200e-02 -2.249072928560102644e-02 4.697260904844273444e-02 1.904971270961418675e-02 5.287025027236808179e-03 6.316145982501031320e-02 5.006915786438218552e-01 6.453018016831451042e-01 1.801642252969462288e-01 2.139919034388833297e-01 -6.068120780552849203e-02 -1.537028172521571201e-01 -3.158261186787958974e-01 -5.942140103626644687e-02 -2.940245009828417189e-01 -2.444670244902420464e-01 -2.740266618294661671e-01 -2.654037490387482490e-01 -1.990613938286991610e-02 -2.747587140045988363e-01 -3.465137849486614186e-01 -8.563140728610857400e-02 2.821545284420367422e-02 -2.335380521849326693e-02 -1.738874823344391946e-02 -1.444876834218752036e-02 -3.643487778337377303e-02 -7.413979037001621614e-03 3.778383618941130728e-02 -2.608522666429471948e-02 1.569143830343817849e-03 -1.858244075142488905e-01 -9.681804130415697096e-02 -4.749284956408432734e-01 1.565606171110167089e-01 1.168303111741707312e+00 8.712000482711986793e-01 -1.112058124312757190e+00 3.573508547314250324e-03 5.025436184616121071e-01 -3.389607225887640296e-01 -1.159274622417735934e+00 -1.172540740758125866e+00 -1.024146533945794024e+00 -1.797851405089786025e+00 -2.111512070108285677e+00 -1.990823000936817300e+00 -1.519166720796676362e+00 -6.264232802549397627e-01 -3.652150418666134657e-01 -7.076128268593862014e-02 1.349495889215271589e-02 -1.257145357711999048e-02 6.514674573257986379e-02 -9.921267617725302440e-03 4.380465425928238565e-02 -6.773600394508574873e-02 2.354044313837191926e-02 2.168843183246743633e-02 -1.338136616093364317e+00 -2.224688377594068456e+00 -3.066060498171276016e+00 -3.254074168943521972e+00 -2.804845923307212718e+00 -1.487871606235948274e+00 -1.441465148378854533e+00 -2.005694143436702159e+00 -4.657337032040732572e-01 -2.202905952907971976e+00 -2.642861226958228560e+00 -4.241033654729043256e+00 -6.164624070977547277e+00 -4.246949325966416389e+00 -4.000460556847872162e+00 -3.832044641486785697e+00 -3.756941746426412543e+00 -2.101114203445275663e+00 -1.947479184669440588e+00 -1.242790672008120767e+00 -5.442270225418146534e-01 6.238140581598987655e-01 -1.365941171987196476e-03 -3.705657223901793335e-02 8.825270065400618591e-03 1.735411514115437273e-02 6.301688548756907704e-02 2.158757423444250256e-01 -3.296588439799721937e-02 -1.750304544419663211e+00 -6.170376580498390773e+00 -8.355668734469229975e+00 -4.830631632263819419e+00 1.404894156797884763e+00 1.588452050644262759e+00 2.778005908349652664e+00 4.163355642600654605e+00 2.493872098631189083e+00 1.181994347210008733e+00 -2.486860252475247890e+00 -1.442791055370697073e+00 -2.441376485698516507e+00 -5.879041620384653832e+00 -5.936997309768838882e+00 -5.295413716565477991e+00 -5.259968033087362826e+00 -2.245736980992790510e+00 -8.816685761243443498e-01 -1.405161894428914315e-01 3.878668283136550432e-01 -1.269340632773210964e-02 5.476211308062937932e-03 1.266734986031477217e-02 2.784840889279594986e-02 4.318182779748994671e-01 9.740632562605155975e-01 7.989544100348447975e-01 -3.561591441266721780e+00 -5.650157729422585540e+00 -4.492347822057548790e+00 -1.055350180982459918e+00 3.454403922231504165e+00 4.042604968002672550e+00 4.955797551323016137e+00 6.099340397251856061e+00 6.724508325519829910e+00 1.111471746820476669e+00 -2.986620976080535783e+00 4.405176078127416850e-01 5.493077924009492463e+00 1.851051316226502708e-02 -3.749701176724460350e+00 -5.555600769104251491e+00 -5.723254324472231147e+00 -1.801195416767354507e+00 1.644016333686726616e+00 4.656564283138180937e-01 4.020820699170746804e-01 2.284698044669980499e-01 3.923730833423384051e-02 -2.295950513798348039e-02 1.877761799650326567e-03 1.089425042208052474e+00 3.796715117418700380e+00 3.132432559950355966e+00 -1.461331710442392406e+00 -4.011237599789446051e+00 -3.663582545600155616e+00 1.890096073257424791e+00 3.834792265385310817e+00 7.219306348303015319e+00 9.430100094787103870e+00 8.304869276105057097e+00 5.388356780914054234e+00 -1.481490761707754844e+00 -6.456641876395010193e+00 -3.091919995008058475e+00 3.906938366651582673e+00 4.602821881542876525e+00 4.944010122498546878e+00 4.462908075574113786e-02 -5.290817108046536710e+00 -2.107305676254931814e+00 -1.170281536370081366e+00 -1.470123136599469915e-01 1.415189319687082670e-01 7.448006939973438323e-01 8.796302151374434108e-02 -4.183070391072751110e-03 2.099349166053381399e+00 3.838695346762524885e+00 6.030147850115497477e+00 3.821500163449758958e+00 -1.546578370691569670e+00 -3.364363560730511793e+00 1.952188899289007407e-01 6.386803177540741672e+00 9.393979153134766946e+00 1.591177097161577869e+01 1.709087619760572352e+01 8.671633226910117287e+00 -1.597382079096586915e+00 -8.940336244415883371e+00 -1.164083858284324258e+01 -6.024780611762400540e+00 2.728194016743497041e+00 4.668321697973755846e+00 2.995820463856784244e+00 4.725662818856565472e+00 -6.209413857173784912e+00 -7.026565372841548474e+00 -3.539760697308096837e+00 -1.418141640422061034e+00 -1.154632220153783084e+00 1.093964221148263416e+00 -5.649845785540422161e-02 9.668985987226628304e-03 2.475070322702153103e+00 4.365710163075701367e+00 5.783326054674635230e+00 1.986034353924495122e+00 -2.903637374654632453e+00 -7.521858959319379423e+00 1.413738835859928544e+00 6.679648594100368264e+00 1.572870118946838325e+01 1.984834402356816696e+01 2.227292720505790058e+01 5.338900041533337415e+00 -6.842216426839260457e+00 -1.045644707413692664e+01 -2.886382519261681434e+00 3.215439531458531008e-01 2.840645779351074651e+00 6.939062471673807408e+00 1.060923569610422312e+01 4.642335177373309030e+00 -2.154529575973854971e+00 -6.087041746250537066e+00 -7.654573549941530164e-01 -3.526153577775197778e+00 -7.318473795036726237e-01 1.430701601988020322e+00 -5.027574227277920721e-02 3.780674345596652525e-02 8.490679307926812802e-01 2.923777362811976754e+00 5.170599197923482215e+00 -3.091020037460471492e+00 -1.315462691216375113e+01 -1.239009779720686666e+01 -7.552863286361831685e-01 6.199343378132410542e+00 1.211550311065788854e+01 2.515920008571929500e+01 9.918467150522319642e+00 -3.642586582433727571e+00 -1.061568583498702267e+01 -1.077346096401516462e+01 4.106975270573282266e+00 7.441228985459469314e+00 9.988985156487141026e+00 2.337508263422100896e+01 2.645108039164281877e+01 1.455195422571956243e+01 7.550180917359582189e+00 4.883746857642974892e-01 -6.405834626003423793e+00 -4.134953925175637757e+00 -1.484268082522739896e+00 1.079904838274201362e+00 8.591104568707749745e-02 -7.588617472010538920e-03 7.538409647048350815e-01 2.392995587016317760e+00 5.017113240711866595e+00 -3.565692636242744573e+00 -2.080814051173010526e+01 -1.955666679914894601e+01 -7.024849325466671957e+00 1.104826284767951527e+01 2.163604300864241736e+01 1.904600344349992014e+01 1.115855577469553950e+01 1.890761933983884147e+00 -2.801093951120727787e+00 -8.094952595343166024e+00 8.142043848724853206e+00 1.742347778581849482e+01 2.125754921859543600e+01 2.523108983844042896e+01 3.448788444209757387e+01 2.188006770892567943e+01 1.110594046294806958e+01 7.017745092568377530e+00 -1.120258735815484208e+01 -5.000104146667261773e+00 -9.371584060483482137e-01 1.214129360260692847e+00 6.454413086160958046e-02 3.283917175965853346e-03 1.195948412948621309e+00 1.617520073192342700e+00 -2.201363543381110510e+00 -1.003696511798840518e+01 -2.589781705481270890e+01 -1.903020473387069700e+01 -8.119237251424408441e+00 1.551864686365778923e+01 1.976588393448373182e+01 1.028910469675986761e+01 -2.824847908738119084e+00 -6.408229882648439180e+00 -1.361642879803511264e+01 -1.169233973574713303e+01 2.965154456509405678e-01 3.713341380047608276e+00 8.069440001877806523e+00 1.768595673053034290e+01 2.745214223040155943e+01 2.130855692601371132e+01 1.582387619221028885e+01 2.726750829158376632e+00 -6.709058637977952877e+00 -5.505000683692995445e+00 2.033458108665882058e+00 2.629727360562616134e+00 4.587107628960194750e-01 6.038435633115892161e-03 7.805095583380677882e-01 2.085021912938029853e+00 -3.759644303472314597e+00 -9.707680094335421117e+00 -1.616590439243523747e+01 -1.724413126926036810e+01 -3.401239664022187359e+00 8.663066961998204363e+00 8.116893873579334340e+00 1.444778723122897679e+00 -9.995385152859229905e+00 -1.176541325428259199e+01 -1.441939961427185501e+01 -1.776943461682034453e+01 -2.062654181071958703e+01 -1.437824830155125433e+01 1.628894113861111270e+00 8.794102415530828054e+00 1.704087401989982098e+01 2.288958490390304235e+01 2.149026337580452406e+01 8.097591325926876138e+00 -6.207318024035888726e+00 6.549143859208886864e-01 5.966812180875319394e-01 2.519953178700254703e+00 4.096283739314259820e-01 -6.027823743917500379e-03 2.944308278856727079e-01 3.128516841694669370e+00 2.138136712461268019e+00 -3.899624558841825017e+00 -1.115031267511873736e+01 -2.068509468518520578e+01 -1.295922712515805486e+01 -1.559754508677312135e+00 3.862340176542843562e+00 -5.838511024381059400e+00 -1.918441176781311341e+01 -1.689930604077785148e+01 -2.165549300534902599e+01 -2.167235190156024771e+01 -2.143684804945808153e+01 -8.919892675038704866e+00 6.695172255245504189e+00 3.730064098986087373e+00 1.240982703208689486e+01 1.318654907129861087e+01 2.720858562548797721e+01 9.612455244722342584e+00 -4.254048957777190942e+00 2.246123317908803596e-01 -1.977805023215236879e+00 2.840400326891329819e+00 8.730261274913456160e-02 2.485989774468871927e-03 1.988173218240097684e-01 3.354217995729788515e-01 5.614533942950622247e+00 -1.567212000546011730e+00 -6.828757730703461704e+00 -1.589583515214405551e+01 -1.766000295249822827e+01 -8.183204239405471370e+00 -8.199511618037249150e+00 -2.263015441498451352e+01 -2.239748200260387634e+01 -2.048521908598873154e+01 -1.911316883948120804e+01 -1.073097810679225184e+01 -2.557444418655235197e+00 6.353735095778476061e-02 -2.165689609333721677e+00 4.793641430978196283e+00 1.208201502421429119e+01 1.101305405796742676e+01 1.645543337107790549e+01 3.257182174948489717e+00 -8.843912489198039850e+00 -6.458905418122520281e+00 -2.599520190548194165e+00 2.855547655287535846e+00 1.899659162047941663e-01 2.146932820759298380e-02 4.793133802777439084e-02 -2.199310170368038442e+00 5.128655972759462500e+00 -2.567229934354065435e+00 -5.269974735609626038e+00 -1.785874956284680337e+01 -2.249133824171391538e+01 -1.326446361435275634e+01 -2.750440432445707017e+01 -2.811919134894700534e+01 -1.697656488157666033e+01 -1.318802051598436087e+01 -8.110083988405376587e+00 -3.878885053736296662e+00 -4.021376514095404531e+00 -8.404257567239083571e+00 -1.114223435269935436e+01 2.101002695787108188e+00 5.230739201452488274e+00 4.591989673451771559e+00 3.219537997384231520e+00 -2.213059772062952124e+00 -9.094862878615776580e+00 -8.163160479709917539e+00 -2.044894305649037847e+00 2.494716087453835218e+00 4.595869982619570776e-02 -6.728592519584261633e-02 2.236514195871469046e-01 5.318804362315915357e-01 1.532472702928133534e+00 3.381515169341268834e+00 6.365130430300990128e+00 -8.959399523589349101e+00 -1.927370000306315490e+01 -1.926185193457836320e+01 -2.312946588663522007e+01 -2.758994260442110047e+01 -1.503226216013408667e+01 -4.975626918057458603e+00 -4.605998845947865128e+00 -1.031836016201290462e+01 -1.502574582878215814e+01 -2.385229554896457316e+01 -5.562779169833782511e+00 2.830613381605772694e-01 3.894329711050581011e+00 7.687775760328720231e+00 5.573830180264442546e+00 -2.809054971556670832e+00 -9.304383479295832871e+00 -1.223467948390304016e+01 -3.692942136174149681e+00 5.782727120248898345e-01 1.038801191509887145e-01 -2.127893651212762593e-03 3.910505176565889363e-01 1.762804739286334854e+00 3.310187391007042290e+00 1.006251634815159335e+01 8.759929572127594710e+00 -3.977594395240012126e+00 -1.637668187519282981e+01 -1.630751192954212669e+01 -1.634176367003698616e+01 -1.861645632747456247e+01 -1.251258617027815312e+01 -3.510714405279943939e+00 -8.505860203171229372e+00 -6.799675933787149518e+00 -8.665738085848053274e+00 -1.108641301357387299e+01 -3.348718417521401758e+00 2.268302898539026113e+00 4.943131473378405971e+00 1.457658338043223756e+00 -2.190779004232720872e+00 -1.063676907578276243e+01 -1.163899891540406273e+01 -1.177538379466568941e+01 -5.206057507154763897e+00 -1.570255886719363614e-01 1.928767692159109176e-02 -2.232205074660139135e-02 3.321688751429509312e-02 1.057487001643200530e+00 6.970125174131213797e+00 1.408006255812434482e+01 1.766111683435250512e+01 8.654201324137424933e+00 -1.049423639503276817e+01 -1.722402452590037925e+01 -1.344825678793367985e+01 -1.220202486871140124e+01 -1.909677988135181792e+01 -1.655185089348542249e+01 -1.390875994850308928e+01 -1.224260275778114249e+01 -2.338196177903657080e+00 -5.129830686654739402e+00 -1.170224488482011882e+00 1.472180878881420130e+00 2.250606392075012452e-01 -3.450046114609939707e+00 -7.818648992789386298e+00 -1.333549648476249594e+01 -1.303640452379696590e+01 -1.111515904990997150e+01 -4.502655235961668723e+00 8.486326769716182605e-01 5.175805203940283539e-01 -2.313686546212846695e-02 -1.756737560924500480e-02 7.630366950390254921e-01 8.131119382486328817e+00 1.464378043049280187e+01 1.894210850438008009e+01 8.971384326144285382e+00 -6.272991402948216333e+00 -7.128844964174721355e+00 -6.377451392765476790e+00 -4.358144394246883380e+00 -1.127611220173709228e+01 -1.678535247467999270e+01 -1.179203006674069343e+01 -2.462899544749443947e+00 8.109960940270086738e-01 5.941739166294680352e+00 4.363696542495158148e+00 -3.384138646646421389e+00 -7.402277459610798083e+00 -3.289102985283975045e+00 -4.653976231614329606e+00 -9.866172397803467220e+00 -1.047465403998985956e+01 -8.882722878177551351e+00 -1.882555430670872942e+00 1.349266656586477486e+00 1.262549971816874679e-02 2.822870445734376732e-02 -2.992352444368925890e-02 9.313410874319337784e-01 8.729450656783308560e+00 1.417696226555317374e+01 1.615791206898278176e+01 6.971706550437031247e+00 -4.655358243763608073e+00 -1.858523796104550874e-01 -2.809948549011056507e+00 -8.315323176108963210e+00 -5.604888746152747458e+00 -2.824578163357049920e+00 3.485943889857921363e+00 9.788233592693810436e+00 8.063756661611115817e+00 4.452382918922254795e+00 -2.658721885930432904e+00 -6.573625794237561770e+00 -2.985319485344848811e+00 -6.322963855910435527e+00 -7.869847757395544541e+00 -8.379609889689547231e+00 -8.468978505360466258e+00 -3.980317680796582103e+00 -9.460726600330675584e-01 5.780105865103436491e-01 -4.091598637012840156e-02 4.026529101055747149e-03 1.255682665827876320e-02 8.727500038428926965e-01 6.869433544814727455e+00 8.186735544064896786e+00 1.049766964071220698e+01 1.010791167744075914e+01 3.934338006483616201e+00 2.374532870755564851e+00 -2.608772933499730051e-01 2.940839460368884328e+00 4.840029777253294085e+00 1.226882317325836880e+01 1.698181863504764166e+01 2.149147569476526343e+01 1.795037529880246652e+01 5.191876550906288301e+00 -4.069800486958541796e+00 -1.798638845472313008e+00 -2.443870051524906994e+00 -6.287994866631951396e+00 -7.189433286486263341e+00 -6.055878836926035014e+00 -5.130775861717015829e+00 -1.869484832271305130e+00 -6.178467322081561131e-01 5.498221273862071712e-01 -5.690184233715446516e-02 -5.500662467713915253e-03 -3.476479129130628787e-02 5.767604671028888630e-01 3.511473686998628274e+00 5.922055162987568622e+00 5.494734296653042804e+00 5.519046541776989834e+00 1.622301448785029132e+00 2.739502112023401104e+00 5.196261832669254455e-01 4.100798842068774874e+00 1.023427071591714821e+01 1.769775202568811423e+01 2.288926747864440969e+01 2.258272934910593932e+01 1.565676780490910680e+01 5.075177197175548827e+00 -2.897275981158988767e+00 -1.673990854368042847e+00 -2.582701637644009729e+00 -4.367521342390693562e+00 -4.115614871320011581e+00 -4.238095685454031702e+00 -2.786878980194296140e+00 -4.124765957974090291e-01 -3.373462886686410256e-01 -4.027802428078320479e-02 -2.182912658734937478e-02 -1.732591772421349227e-03 -5.399189322973479283e-02 3.785232197852387431e-02 1.413580431222136058e+00 2.657833317829219943e+00 3.081334676001671546e+00 9.197759983442274079e-01 -4.875809947803000810e+00 -8.939381619377146926e-01 2.818573738101444182e+00 4.732266135864111156e+00 4.677261246459927690e+00 8.104682898197346219e+00 1.228867581861550207e+01 1.359434537597770998e+01 8.099275715354014693e+00 -6.947487294492477039e-01 -3.621988878911444942e+00 -1.200849984007446691e+00 -1.293954994634318290e+00 -1.006704340371909145e+00 -1.380192471018796052e+00 -1.998092552261200749e+00 -1.348959390916460332e+00 -7.850040286382925503e-02 -4.562459809873065303e-05 -1.900570620797652904e-02 -1.065131104873614197e-02 -8.315351418102107095e-02 5.746943696347235099e-03 -9.200888487494729429e-03 2.453597066391880466e-01 3.504769166408095438e-01 5.910192258077259231e-01 1.679453321484130346e-01 -2.089978214794999012e+00 -2.572730234317888165e+00 1.418179053751690510e+00 -3.591848916173328021e-01 -1.717983980673174260e+00 -5.777963580064777727e-01 6.704097105541434454e-01 3.281685971215105302e-01 -1.061760946555881713e+00 -4.141305790150582311e+00 -2.470128225588855919e+00 -9.222225775345350707e-01 -1.582049678019904260e+00 -1.389590530383838063e+00 -1.082782052880765511e-01 -3.078214119026543294e-01 -7.642654686464600555e-01 -1.532933335341016279e-02 -3.573257570683182477e-02 5.902521780703474247e-02 2.411791916946116540e-02 -2.823702340020197571e-02 -2.298764364340239418e-03 -4.125180573497194692e-02 1.272024866866988332e-02 -1.380204116210604903e-01 -3.990500575620543611e-01 -2.926410039280576414e-01 -9.457767416687201667e-01 -2.530774152627125240e+00 -1.349792941270053781e-01 -9.242677677223380597e-04 -1.878277321753000884e+00 -5.173079199224747127e-01 1.749451943820090269e-02 4.091880545864239327e-01 -1.899688135512720977e-01 -1.216149074183612067e+00 -1.415817433092817046e+00 -1.322456554421123087e+00 -1.369300319663256049e+00 -8.331266949502624808e-01 -4.878591169378346248e-02 -3.090575314779475669e-02 -1.994119378899085818e-02 1.775058981340608272e-02 6.666748970082299330e-02 3.047502731195914690e-03 -6.252194670562931551e-03 -5.126950183722445153e-03 -1.461415433207274676e-02 -6.551613421066869447e-02 1.634898144213592711e-02 1.717988100923943315e-02 -7.784694823235868699e-02 -1.646782776678832119e-02 2.128171052719124434e-02 -9.626431622801441268e-01 -2.874404580296245904e-01 -3.326926013584910469e-01 -2.883181360888737582e-02 -5.167225465126715905e-03 -1.156356013357071749e-02 -3.266930490124903257e-03 -4.884276320606894400e-02 -6.965274902462247342e-01 -8.478135380939632038e-01 -7.463525730111245093e-02 -2.341954010025809954e-02 6.381651238855225172e-02 -6.429869234232500098e-03 2.473732685540539974e-02 2.635894739109328686e-02 1.600861998171180731e-02 4.970454770953676438e-02 -1.944120647487665443e-02 3.386186049536061421e-02
-4.154193963270321616e-02 4.855155127302071549e-02 -3.779296536027078757e-03 2.050383394416777083e-02 1.439095727654712484e-02 1.662953704022927456e-02 2.451741231089975184e-03 -9.117284010091310231e-02 1.983604566991492915e-02 7.477021611339439155e-02 -4.661355443871163101e-02 3.243257634849415483e-02 -3.788739850713830713e-03 3.805047269409565086e-02 6.794462522459841260e-03 -3.371537974519445841e-02 -8.048358746082069637e-03 4.063327639973332572e-02 1.932645109976275158e-02 4.589371389341254104e-02 4.615448052719368227e-02 -4.594212267456736221e-02 -1.023548034160980634e-02 -1.106034514417461850e-03 -2.335032207456608916e-02 -3.164802195143218838e-02 2.630055782213669424e-02 3.401261427069283277e-02 2.466694567817747860e-02 2.196865695941126531e-02 -2.063301120467402744e-02 2.016282511218417742e-02 5.093097930514597915e-02 -2.878457689043407985e-02 -2.368084095584949145e-02 -8.852745496018461085e-03 1.183392518008503091e-01 2.933620393881303245e-01 1.175594203401992138e-01 1.141046686570101332e-01 1.539849286606797263e-01 -1.563018313515488270e-02 1.940972041728061120e-02 -2.814303632539542216e-02 -4.576879669517383564e-02 2.324037996169815365e-02 -5.513053717555947003e-02 3.900610711546820264e-02 4.697892923139132537e-02 -5.552384061487138089e-02 -3.524927140617667865e-03 4.475589421161909470e-02 2.945019128977992978e-02 1.385592118854289678e-02 -4.219549231877851164e-02 2.417359026771459529e-02 2.700330922509086920e-02 1.635693889755180513e-02 5.228159062194279692e-03 3.820251120676745188e-02 1.030091820952656889e-01 -3.621105556251601968e-03 1.015437762629053525e-01 6.366649920857920808e-01 -3.221689012205160574e-01 -7.738750610327571611e-01 6.338427979486850779e-03 4.844149490016581572e-01 9.342669379083395897e-01 7.614955996040574382e-01 8.485511630002283701e-01 2.559594789641874701e-01 2.968941663290980970e-01 3.031674292242592661e-01 2.885336895284502101e-01 8.503492114803008761e-02 6.458216387388052704e-01 7.905869987854918790e-01 2.397984749322494558e-01 -4.391780609374375949e-02 -5.099487696286602798e-03 -2.727117818959098883e-02 8.158386075931618742e-03 -2.534294917757616561e-02 -1.949115578780320768e-02 4.331209839499247649e-02 -2.016655621370470886e-02 -4.935891877174868742e-02 3.282883346528653323e-02 3.533014484625043861e-02 7.059180197841214977e-01 2.247086678468948051e+00 1.845788716945213181e+00 9.331593316551259343e-02 -2.529203241771914357e+00 -7.635078155952110257e-02 2.388036198525858467e+00 9.528401666787955637e-01 -1.681786725540559413e-01 -3.532945750243868810e-01 -1.323423325339759815e-01 -1.464694804334096601e+00 -1.737345499745416966e+00 -5.096966738548318610e-01 3.138071512551043329e-01 1.347150259618141499e+00 1.195642133450938394e+00 -1.802147260882032420e-02 -2.714858652832780744e-02 -2.390251246453812747e-02 -2.539537780047058328e-03 -3.945605626563405792e-03 4.014682966812196246e-02 2.279986832710599251e-02 -3.039522585399911589e-02 4.285514922885778899e-02 -4.933351768651179636e-01 -1.204563563729006193e+00 -3.189563741275220909e-01 3.794457315464137004e-01 4.622597699580371367e-01 -4.814467126320814416e-01 4.603463305313648668e-01 -1.532437989041068038e-01 1.778198774812368210e+00 5.092921014027167459e-01 1.094344717886270191e+00 8.522947492658958790e-01 -1.073572135887306045e+00 -6.223616861948803036e-01 -2.988593708481106059e+00 -3.424506256548989658e+00 -3.694570206484289798e+00 5.749880597251753045e-01 1.486052255515983855e+00 1.145610435341450462e+00 5.331782692759362563e-01 1.511639543333270552e+00 2.115715700415957113e-04 9.811115466393986826e-04 -3.823342823196464874e-02 3.351075279669133572e-02 2.163593456925539532e-02 6.028296206767150833e-01 1.767926540748572251e+00 6.701919989098072961e-01 -2.556313791129540380e+00 -9.821228131477731438e+00 -9.448755336383010572e+00 -6.376832866061578287e+00 -5.239945673539069482e+00 -1.664004933953981080e+00 4.754204368125892088e+00 6.855781680351046958e+00 8.209771448185934517e+00 4.477254684047897726e+00 3.361248041106873252e+00 -5.073016344050904181e+00 -7.556795208462585123e+00 -6.783959964009715016e+00 -5.813647577548908707e+00 -3.604420803593943123e+00 1.704707018824494824e+00 -1.599988924931451673e-01 1.443625004260775446e+00 1.639467539462261536e+00 -1.117685549211094344e-02 -4.038996662495949802e-04 4.182854462766583820e-02 -2.558192358862389562e-02 -1.295792904352394970e-01 1.392448103655477443e+00 2.242374934429956390e+00 -7.449236305762066968e-01 -6.326298289840585731e+00 -1.138125308115255763e+01 -1.737659820702248226e+01 -1.929109286427375380e+01 -1.344372347968440806e+01 -3.892830920124692451e+00 8.357514206379137889e+00 1.739862221220481686e+01 1.685875686922803141e+01 6.634714160107046510e+00 6.029951657078561844e+00 -3.449643311693132652e+00 -1.362457408235252743e+01 -1.246007409859072190e+01 -1.318198378501972812e+01 -5.884457845839584422e+00 3.363784137226371040e+00 6.486599646942929454e+00 4.581033532851114920e+00 1.612167967068378394e+00 1.658404913437117600e-01 1.122331130425815483e-02 1.565474633923773923e-02 2.045541616924943795e-02 -2.975531747640446784e-02 8.207101630238050616e-01 2.520025087390271423e+00 -4.717977455822536470e+00 -1.051327624364616042e+01 -1.076875262583534720e+01 -2.072885839171942024e+01 -2.325213120670890632e+01 -1.616129948980987763e+01 -4.133654167037250637e+00 9.767325152500557550e+00 1.938025323752231444e+01 1.877202418782282933e+01 1.354735738715374005e+01 9.346026932059590564e+00 -5.480217479101340494e+00 -1.328372844893789484e+01 -1.108301455117095280e+01 -1.456187602539405290e+01 -7.984104721185897091e+00 7.516926391401073992e+00 6.822800447477021635e+00 7.262134764786192243e+00 3.130048848263447869e+00 -4.865750555606877109e-02 -6.125064171457808571e-02 -2.245734592903723265e-02 1.667998385756150614e-01 6.476610248943862613e-01 -1.183315697138083156e-01 2.509254843389135736e+00 -4.765514208893458559e+00 -6.653620540725803778e+00 -1.040066028478666738e+01 -2.310063771453595649e+01 -2.461280689496345175e+01 -1.384913549970016078e+01 9.761591491923632402e-01 8.218528459779953721e+00 1.645254244279978550e+01 2.532902110444252131e+01 1.797139433096012695e+01 2.254204028232835277e+00 -1.526611719023521196e+01 -1.640293464073283047e+01 -1.192360085516652823e+01 -1.245867480958318296e+01 -1.723392113768447231e+01 -4.929467209891841506e+00 4.088436107150611676e+00 7.009562560494815742e+00 1.805357576993857016e+00 1.279323859415377740e-01 -2.198996206499617689e-02 -3.860281600614796742e-03 2.016049498592173694e-01 7.257647417859313110e-01 1.713315074173364039e+00 2.324648021475617554e+00 -5.054330204533198367e-01 -3.156748368768166113e+00 -4.849854164221525821e+00 -1.104939333105872734e+01 -1.671201886492616140e+01 -5.681051400057432588e+00 1.251458527926252096e+01 1.758960799808887288e+01 2.112173157754617492e+01 3.240533333889031553e+01 2.833263940245762313e+01 8.822551781545127980e+00 -1.376808378132519728e+01 -2.130909140523189649e+01 -1.301663126413795446e+01 -1.467910246738161106e+01 -1.041038300387486437e+01 -6.941457472773516102e+00 5.111727722500666538e+00 8.868373066818735495e+00 5.413871643862481875e+00 7.516020206027473893e-01 1.254496529008365842e-02 -6.660483806915755423e-02 6.272796567569202675e-02 -1.271241259097155574e-01 2.157496458366369829e+00 -4.199419478716342802e+00 -6.514119558304477309e+00 -7.346278582455997075e+00 -6.789987771942734618e+00 -9.563801515656132679e+00 -2.075986148483213167e+00 1.262479390745430230e+01 1.208708436372809913e+01 1.452333848709639064e+01 2.143478489578247093e+01 3.082570524739405116e+01 3.503201684421846807e+01 1.456473736536232444e+01 -1.412134360090675678e+01 -3.004205517441674189e+01 -1.820873636192781575e+01 -1.391233818577578063e+01 -1.240884246805009816e+01 -1.019983415361853574e+01 -6.979993202054353141e+00 5.972584010949641531e+00 8.804345450146833230e+00 2.966888056250648886e-01 7.509219032422784768e-01 -3.821819219528801992e-02 1.263526926251246074e-01 -2.039347033756679473e+00 -1.728825648877707899e-01 -1.263980662545849754e+01 -1.493200120453831126e+01 -1.553488705986374185e+01 -2.311540773999020804e+00 -6.426016290718337132e+00 1.938920235605092302e+00 4.891675683714467482e+00 1.652365484144974062e+01 1.733689665236192923e+01 2.092761851960974440e+01 2.503091519737109749e+01 1.708696689383779699e+01 -2.581099205130008567e+00 -2.619269541005286328e+01 -3.936381674120084995e+01 -1.921592311553472499e+01 -1.628943925828193429e+01 -1.639957732253196809e+01 -1.626461297967353659e+01 -2.207722066788179305e+01 -3.122224305201347416e+00 7.972958289294218126e+00 -9.384604736591134477e-02 4.463850021225916342e-01 -1.226449835737865529e-03 1.039468858247179772e-01 -4.304058288311054525e+00 -4.993710633769710583e+00 -1.834423913135207229e+01 -2.594389697193980737e+01 -1.635823711564560057e+01 -9.849148776668851468e+00 -8.790862728648493274e+00 2.602294009554554588e+00 1.232437714700614961e+01 1.044508778610154209e+01 8.702618195272179946e+00 -1.812566795060853941e+00 -6.805350644553671557e+00 -1.436565628846382126e+01 -2.544806083426001919e+01 -3.066993920303911025e+01 -3.152023506638326111e+01 -2.391514461540958081e+01 -1.718332798433872455e+01 -6.611862288940446142e+00 -1.903089599527807607e+01 -2.155083049836340336e+01 -1.305864725089064216e+01 6.442455980829099538e+00 1.602510017166406397e+00 2.040555193782515320e-01 2.648210672625236212e-02 5.313827010512905263e-02 -3.289808194332976221e+00 -5.907067787393799563e+00 -1.650565646226684180e+01 -2.450244023755626799e+01 -2.057519241801255205e+01 -2.337794847848741497e+01 -1.527731416630950534e+01 -5.631615001815976740e+00 1.312785435625986352e+01 -1.167451697931967125e+00 -2.662957002811938167e+01 -3.778461237681101892e+01 -4.616369676833101465e+01 -5.113714296886457333e+01 -5.157003738996792919e+01 -4.580571749411439697e+01 -4.069026238123698391e+01 -2.953495427974439025e+01 -1.138600063380911287e+01 -6.140877445380508171e+00 -1.833680394694331994e+01 -1.787033778277858431e+01 -1.337043775066368312e+01 1.699700121091074934e+00 1.059351968121691190e+00 3.748196055998988530e-01 -1.906625322741811041e-02 -2.380563195716090541e-01 -9.255131790166072348e-01 -3.104356862635274883e+00 -1.781397405241654752e+01 -1.660786440277395215e+01 -2.805254721898895198e+01 -3.864282419717107331e+01 -2.695990709413946362e+01 -1.714687024553091987e+01 -2.463519800280120364e+01 -3.994115236070211239e+01 -4.991937665264526203e+01 -5.195195728545110114e+01 -5.979235150606714910e+01 -4.860199847198187939e+01 -4.717167965613398906e+01 -4.295974260712331017e+01 -4.972594747818574490e+01 -2.617902891279445399e+01 -1.576618943479844681e+01 -1.178632420518459512e+00 -1.187051947113763184e+01 -1.630470270264241250e+01 -2.653191806086752980e+00 -5.267229407576884626e+00 1.767619914469418019e+00 -5.013668902093457724e-01 -2.370628994970300912e-02 -4.648077820732519627e-01 -1.248384168526764260e+00 1.648967047982607959e+00 -8.050332858592447849e+00 -1.601881488818927934e+01 -1.719013622668991914e+01 -3.395337444502482072e+01 -3.442298398098810708e+01 -2.729058902740998249e+01 -2.701472169571523096e+01 -4.245375459494275816e+01 -4.628006332220556374e+01 -4.727662201947045872e+01 -5.242748195236208630e+01 -3.733529537840148294e+01 -2.777678332706862818e+01 -2.846420642507272447e+01 -2.587146438490277589e+01 -1.011623428781131118e+01 -7.414377165112694179e+00 -4.196332906663585050e+00 -1.055822162274137099e+01 -1.838674120831613479e+01 -5.668919361967529547e+00 -3.850752569175873941e+00 8.318219404349017632e-01 -4.548312953800967562e-02 7.217791514847324286e-02 -1.385626649697596635e-01 -8.576911477663621275e-01 1.662576202951128623e+00 2.055797124989150682e+00 -9.652148743073276194e+00 -1.207351754768989949e+01 -8.641099680875354849e+00 -1.839378687103847199e+01 -1.923328537641256730e+01 -1.890893248477156874e+01 -2.255586277438305487e+01 -1.924698932897169357e+01 -2.582556143935810766e+01 -3.237323849473308712e+01 -1.988800734195369913e+01 -1.021949114187371421e+01 -4.646125064457579334e+00 -2.240758035010955052e+00 -4.890641287058747011e+00 -1.138233366819792813e+01 -8.629010176717249792e+00 -1.176464374916172417e+01 -2.204390435169175078e+01 -1.021817386991746268e+01 -2.016268772884668159e-01 3.750788977397510049e-01 6.533715828031866346e-01 7.278673633781658492e-02 1.771352270926799255e-01 9.943763905423795846e-01 -8.588704213544647859e-01 -8.983989452432626921e-01 -7.285557325309957477e+00 1.887764761974277006e+00 8.730189912892749149e+00 3.884714076277183903e+00 -1.025683264005584761e+01 -1.832288063350946672e+01 -1.598620432941585712e+01 -1.047227231985001161e+01 -1.258487015269661313e+01 -1.355582259221375274e+01 -5.872782631659424268e+00 6.322489723453049715e-01 -1.327348363604372139e+00 -5.949603833524311547e+00 -1.790558248970970823e+01 -2.397691371998653054e+01 -6.538673794234583170e+00 -1.430611647729112512e+01 -1.635261358120097341e+01 -5.043994668552817195e+00 3.889151315064323100e+00 1.384334886662324848e+00 7.571092374920348478e-01 -1.239903770640265676e-02 3.056334843993447903e-01 8.430622563609413422e-01 -1.854925682102552542e-01 -3.631272303788947386e+00 -4.800223201328703837e+00 6.409889673421938383e+00 -2.764013649362968561e+00 -1.720773590661475083e+01 -1.175329120288990836e+01 -1.990538391485579695e+01 -1.861715208406655719e+01 -1.190313613133987936e+01 -6.970449160646420950e+00 6.161636196071023974e+00 6.690581958260931827e+00 1.721813607433538351e+01 5.220365651766106119e+00 -9.885420192662010663e+00 -1.258291093397092730e+01 -1.200449741289883399e+01 -3.955814408957381900e+00 -6.340102444227472489e+00 -1.073759517032476118e+01 -3.352216397210434906e-02 2.987532605528298912e+00 7.554240304730747146e-01 1.206769514075048400e-01 1.321038785932018497e-02 -3.024637716971724771e-03 4.977678060209885791e-01 1.260924343815293502e+00 9.833172658862977533e-01 2.729478984587543788e+00 6.993804774684556413e+00 -1.118011752866129527e+01 -3.160963457006294774e+01 -3.004449001599649094e+01 -2.702468274136071003e+01 -2.959882642808807063e+01 -2.384981650433251232e+01 -6.500718623331876778e+00 9.718431636252713446e+00 1.701187046417386739e+01 9.930547056752123680e+00 3.606456985160995110e+00 -1.007010281764365800e+01 -1.179636035632598023e+01 -1.290155315016474802e+01 -6.293229786514969781e+00 -1.110950639391279893e+01 -1.235233290518152316e+01 -4.500710273469441525e+00 -1.806167115514219379e+00 1.322803657470661864e+00 1.787781217052927474e+00 3.316712842040527714e-02 8.883185836199385815e-03 1.281966881577542294e-01 3.621534788713589137e+00 6.379763313152646553e-01 9.419774468425743397e-01 -5.032533736131107327e-01 -2.693170737998101139e+00 -1.556440233190941846e+01 -1.486005871477939877e+01 -1.833270144090846188e+01 -2.901772794825573953e+01 -2.489328723564872448e+01 -9.203002902252199746e+00 1.625961769303895466e+01 1.520649105367376208e+01 4.908149150460833887e+00 4.080961401346217876e+00 -4.786086234678376350e+00 -7.756353791753798355e+00 -9.023257571352136353e+00 -4.582854330968046064e+00 -8.491901247074975956e+00 -9.033072599191223517e+00 -5.346708608840651245e+00 -1.598755374943010787e+00 1.215653598876537345e+00 1.679957772582520714e-01 -4.184601197078971491e-02 1.267503206633984782e-03 -1.540717968642131563e-01 2.520942430237857579e+00 3.003112895994697773e+00 9.308883600591174812e+00 9.124895703332288832e+00 -3.154988518355639648e+00 -5.527097921698139515e+00 -9.570265370269122940e+00 -2.239836236499564492e+01 -2.886082172309028238e+01 -2.114108181681150356e+01 -6.891826378236729056e+00 1.046577462949147375e+01 1.355535582738115075e+01 4.858708564337304026e+00 -3.993751679994284043e-01 -4.984258404384480201e+00 -2.436423330636296569e+00 -6.246036508147478017e+00 -2.266986183925236098e+00 -6.362023031396588202e+00 -6.195428383731139910e+00 -3.170926748905551040e+00 -9.014785713133408596e-01 4.204711954220599068e-01 -6.680697511260441646e-02 5.387143817586764055e-02 -4.122433052253950819e-02 -2.539869458261829194e-01 6.243315964536900742e-01 3.286204949501753791e+00 8.792777371025700006e+00 1.779196604083445976e+01 9.796544179013704223e+00 4.901620417568997468e+00 3.516125606400141379e+00 -4.988409711995383411e+00 -1.666511645949461240e+01 -1.033885928236963814e+01 -7.629827844028094219e-01 9.550165715369296038e+00 1.377321036045290370e+01 7.722637964596501980e+00 -3.267824582224531760e+00 -5.388534914391778230e-01 2.560088726980809692e+00 2.218243027314260374e+00 -7.574040327907434200e-01 -3.340765123657372548e+00 -3.029949060922416670e+00 -1.940889529148818404e+00 -1.210681761563466186e+00 4.576000949765263170e-01 2.082510225440756951e-02 -2.518378797345306470e-03 9.086653073561275218e-03 -8.731195463970793658e-02 6.058568107702250183e-01 3.378950142109998556e+00 7.134526595779085767e+00 1.357823157237690737e+01 8.684271404211628465e+00 9.585520883017068172e+00 1.153352721793269353e+01 4.730746479050410791e+00 -3.974517017098359251e+00 -5.439917983387209527e-02 6.155452605887762552e+00 9.757769592485340482e+00 8.582259161010760806e+00 8.416042749851500027e-01 -4.567981338464513819e+00 1.417900358467536259e+00 2.909834103592319643e+00 4.809737326049673967e-01 -2.540994295563514971e+00 -3.167289436730819308e+00 -1.366060317976849792e+00 -8.131327445279477040e-01 -6.378612894883575191e-01 -3.142420579642664358e-02 5.036672092313985299e-02 7.752420985642840233e-03 1.413658627473271881e-02 9.245542958800038319e-03 3.160999356828676499e-01 9.804864822150757275e-01 4.468717321658973063e+00 8.524543588667977900e+00 2.783400752756761243e+00 9.054993560095656591e+00 1.340041634167171303e+01 6.821565071525650836e+00 -1.117904409578434288e+00 9.849180286964812625e-01 2.237657556073267440e+00 3.156816699143425442e+00 2.426405888803665256e+00 -3.566938160070616259e+00 -4.986867875670961681e+00 -4.684052013649003143e+00 -1.287974302252315795e+00 -7.744977589737717105e-01 -1.660265770029750065e+00 -1.788182499906029621e+00 -9.207268964627072227e-01 -2.450155735657468525e-01 -6.088931754626904919e-02 -4.168568199924456430e-02 -4.271362873748783123e-02 -4.744580497417417303e-02 6.058930306964000791e-03 5.601609687097969248e-02 2.920226786412069564e-02 1.272828134149936972e-02 1.565652110700997968e-01 3.282152985211336471e+00 1.626022220108965133e+00 3.973561148751424632e+00 1.139323857201898171e+01 4.307809390615754630e+00 1.395889849289107643e+00 2.761242625658743566e-01 -4.063393800531112099e-01 -3.474210057795699691e-01 3.405595100514957063e-01 -6.262601538958805225e-01 -2.927269309520458052e+00 -3.589886120216196019e+00 -2.021732463144410907e+00 -8.985243928638033672e-01 -3.988708571079460294e-03 -3.097842832414984815e-01 -9.536758425756666213e-01 -2.588546101005277655e-02 8.002112307274870939e-03 3.205126010871403586e-02 -2.125884258977096819e-02 1.592676506863925645e-02 5.032026825135749865e-02 3.719548310280916883e-03 2.910003705152740608e-02 2.657465874147250245e-02 -1.816295892385622890e-01 1.348291641800795915e-01 2.550370807824046127e-01 1.184989967082546114e+00 1.271791369202201150e+00 1.886158293706733602e+00 1.331838307940247934e-01 7.430272648274789671e-02 1.041225318120028165e-01 7.493655416385143209e-01 1.149144449619702746e+00 9.830411967015444119e-02 -7.283693538698770009e-01 -1.694530874099438478e+00 -8.985909155983644592e-01 -3.650956028445405677e-01 -5.135444504113675923e-02 2.438322434237239194e-03 2.869794021061191497e-02 -3.486309544157763229e-02 3.507164620703794727e-02 -9.639336815793854429e-03 -2.531438737501525912e-02 1.009531247075384081e-02 2.301108023305741077e-03 2.547000111574709846e-02 -3.752184230808078801e-03 3.603934273716229153e-02 2.993521039972711628e-02 5.031154562473614394e-02 -2.596852053702023225e-02 -1.193269855803962692e-01 -3.397229659737225349e-01 -3.616391583145215360e-01 1.692555500582531777e-02 -7.199948474063323778e-02 -1.258641322020647747e-02 -4.906483170615919681e-02 -4.160200286691254773e-02 -2.640201588756905249e-01 -2.931694714727413609e-01 -2.970638430049826195e-01 -8.588670324415310919e-02 -1.889879941486621168e-02 -2.900975819917299067e-02 -1.706058378356499483e-02 6.341057747290994306e-02 8.220112917641143532e-03 -7.430249905426546120e-03 2.542410924963424412e-02 -3.532836809942478673e-03
2.024839883476476071e-03 -2.536254941967221524e-02 2.884635381748653846e-02 3.638886165979857146e-02 3.008822137954660688e-03 8.578906047894463427e-03 2.519857771652974157e-02 -5.632634309881441766e-03 -8.438645017910096843e-03 -3.947212436064320706e-02 -7.757551284478845545e-03 5.475208740988424944e-02 -9.502105596573004812e-03 -1.928670392272152298e-02 -1.155018259486881305e-02 1.185591623674473426e-02 -2.172724169722370369e-02 4.041449910329242452e-03 3.340503921036605539e-02 -8.648657885082717753e-03 1.541991727988170462e-02 -3.245762298308822041e-02 2.340771478462619695e-02 -3.983721276933387817e-02 -1.152868104257392771e-02 -5.965660396962755435e-02 3.079965775028553968e-02 -4.796406849894698649e-02 1.771121061058898022e-02 -4.636012362141846144e-03 1.429529367897172058e-03 -7.345623531004454032e-02 2.649534025327396000e-02 2.447508735902263321e-03 7.047653387444622469e-03 -8.610318499489667127e-03 -9.586268348038538833e-02 -5.369901450316325597e-01 -6.165508719328244291e-01 -5.766630693340584202e-01 -5.449526880846675692e-01 -4.683504860133157199e-02 4.051017333840120985e-03 1.106710413942842836e-02 -2.496356274036609646e-02 3.483060516529578460e-02 -3.650956966997134616e-03 -3.643498871948420981e-02 1.507259910131369431e-02 -9.702248107919236170e-04 -6.356148976435271013e-03 -3.255387610994298769e-02 -6.089410163090561851e-03 -1.670958569907922409e-02 3.167211300639970889e-02 1.575763925244032596e-02 -1.045522462901889507e-02 -1.482247322327734547e-02 -5.175376022356206057e-02 3.245215216192445535e-03 7.146498608317586668e-04 -7.153423217115376792e-03 -1.053752368202748591e-01 -6.096043589468380652e-01 -4.395129188001876130e-01 -8.580224013843630246e-03 -2.734608369000176564e-01 -2.837315027259048605e-01 -1.743109800793915809e-01 -4.041777589735955356e-01 1.100311781424831575e-01 1.144511531669535565e+00 1.300739664585496946e+00 1.256704508441710111e+00 1.291371809815566429e+00 3.343589330067460175e-01 1.383723831574972918e+00 1.763346654584267537e+00 5.831106483054778744e-01 -2.628181788567838031e-02 -1.536502342568663243e-03 1.620996548886416422e-02 7.466989644010118936e-03 -8.247901186583698335e-03 -4.975053559245379287e-02 -2.095888755981579338e-02 8.422750575739044662e-03 3.659655571150253334e-02 -9.968973445018661228e-02 -1.534925783162285340e-01 -4.130632545452749271e-01 2.305512903061607943e+00 6.980520217526200000e+00 6.614757940746271991e+00 -2.852744061745542403e+00 5.526949542987459330e-01 3.100457624279837177e+00 3.779877099136660146e+00 3.804929764963686178e+00 3.014346118262442253e+00 2.019047519635651433e+00 2.460974012214546036e+00 3.762911910289310491e+00 4.647990679594382613e+00 4.850414961000248937e+00 4.554916539139300724e+00 1.965529166401758010e+00 -1.028777070063662813e-01 9.771219021800888610e-03 1.112970956430876270e-02 -2.470853218779975324e-02 -3.802168911163598258e-02 -4.017721258809073964e-02 -2.496734310124308284e-02 -7.145529660132671212e-02 -3.222143444892257985e-02 -9.608054491646343953e-01 -3.643959451619664947e+00 -4.145375321049551864e+00 5.224319380031856141e+00 5.202546613708173062e+00 1.798050529102972028e+00 3.245258646271775294e-01 1.742133208276624323e+00 3.921270824757637996e+00 3.277368044021993221e+00 4.832781655679150745e+00 1.033138816913450420e+01 1.528052875772892882e+01 9.896166908074887303e+00 6.546673544696498759e+00 3.291255244058266527e+00 -9.138187154324143302e-01 5.469224234386169670e+00 8.336940817363966971e+00 3.665636717847984283e+00 3.179581393663976296e+00 2.735833277865279189e+00 -1.862133483394166900e-02 1.037471603333567534e-02 1.547292609922347462e-02 -1.055291037055794065e-03 5.358580003682732879e-02 2.526700498391172833e-01 -1.842394479012875175e-01 -4.309563639241455135e+00 -9.384274368578015668e+00 -1.498034575776240906e+01 -2.049951016743891685e+01 -1.301052561076632585e+01 -1.509628549610847159e+01 -1.118045281722656448e+01 -3.698427281432930425e+00 5.420414371805825304e+00 1.374090521519638841e+01 1.252949833025267345e+01 4.240382851581376400e+00 -5.363812326095978023e+00 -5.842882444689636579e+00 -1.949705319333303821e+00 -1.041713657158287010e+00 -2.138618189901561273e+00 6.564865139021160978e+00 5.269081426950548597e+00 1.169969722053213523e+01 3.395630700505948507e+00 -3.531975173339321761e-02 -2.224080928133691237e-02 -5.366596145142261270e-02 -4.149484711348854632e-02 2.539880747477662459e-01 1.316568546442477672e+00 8.515970526336897883e-01 -1.180204746939448046e-01 -2.005883291566043169e+01 -2.855006921932551123e+01 -4.077000549668604634e+01 -4.533582338232705666e+01 -5.050183289955026567e+01 -4.824059758422287558e+01 -1.680993920526722363e+01 9.382190863575123885e+00 1.752331490721671159e+01 3.022041491949371661e+00 -6.113136855867279396e-01 -1.493222594745968834e+01 -2.302602980433255553e+01 -1.067492439989157660e+01 -2.024979300720424291e+01 -4.508321144842328820e+00 4.872353023114352588e+00 2.874746986443530883e+00 1.546886373138435467e+01 4.487363528172820359e+00 2.212633394061910286e-01 6.195304698315948905e-02 -3.513022961239940789e-02 -6.985866543169803877e-02 1.915687116845957993e-01 1.806922995546376143e+00 4.271517043307882844e+00 -1.184060383805645600e+01 -3.538548366624248587e+01 -3.077535505292214424e+01 -5.960968077885110006e+01 -6.217657943337268733e+01 -7.044452323878604716e+01 -5.481500284304679127e+01 -1.010660029005296145e+01 3.138778881272733301e+00 1.789913040027202840e+01 9.361590382800953236e+00 -1.189975352952144760e+01 -3.560509603359825093e+01 -4.662951882621022293e+01 -3.715873674160257423e+01 -3.726907031329503894e+01 -1.244428242926334249e+01 3.323787381750935310e+01 6.695291872102642650e+00 1.899953087510858651e+01 1.490552311045091116e+01 1.062762036411103672e+00 -2.049282998376865395e-02 -1.545588021547383319e-02 6.999169625463923516e-01 6.115339280293948798e-01 4.382161452307616223e+00 1.374951471091645594e+01 -3.667962502624111387e+00 -2.784516231931576868e+01 -5.684103275525414034e+01 -7.560242051778681116e+01 -6.623266566546723766e+01 -6.384338456459385469e+01 -4.861687051611962573e+01 -2.685885095857596738e+01 -1.792923947476765889e+01 1.210775840318099839e+01 3.084309495402659973e+00 -6.169996199776088019e+01 -8.262318301926747210e+01 -6.208250481716866886e+01 -4.537588058749032172e+01 -4.328085533802416762e+01 -3.962183042234874364e+01 -1.152372304208848597e+01 3.175819436045890676e+00 2.726314056325875512e+01 2.113114910683270153e+01 4.781143532335760504e+00 2.999902638706572131e-02 -4.577921907738739110e-02 7.202373800657904113e-01 2.009187345313514506e+00 9.790907556133607414e+00 3.020440488988998951e+01 3.953548025172985092e+00 -3.774782405262129714e+01 -5.306060445998332398e+01 -3.772034225027731225e+01 -4.524930821659293656e+01 -5.187447709934868101e+01 -4.389133703080755566e+01 -2.383784543757920815e+01 -1.032038603678153876e+01 1.610944005771262155e+01 -4.169584772102271408e+00 -4.627534863398624765e+01 -8.528667623379195106e+01 -8.467424883843780492e+01 -5.368318823233896353e+01 -4.225048309901349342e+01 -3.072814256241329289e+01 -1.996265023489842250e+01 7.210810483587432707e+00 2.349941722968510049e+01 2.892133159884596694e+01 9.325983416113089675e+00 2.203034126684354777e-01 2.912358129177413518e-02 2.431240925539787934e-01 3.405916266561673567e+00 1.031339228440285005e+01 2.069088905524985478e+01 -3.126282007065613655e+01 -5.691780672338011726e+01 -2.332327093378237137e+01 -1.999870057528514167e+01 9.790447583487077665e+00 -9.515761549852287615e+00 -4.356307119212998913e+01 -3.870336741464596741e+01 -2.807796629671598510e+01 1.264246243317864682e+01 1.490143521295528295e+01 -4.914072318938519146e+01 -7.504875241924803220e+01 -1.065976733789116366e+02 -5.728358435984284114e+01 -1.552985817651507006e+01 -3.142524207526260582e+01 -3.598900737489955759e+01 -2.766120313705348366e+01 1.660599946787495895e+01 4.059275222173656772e+01 1.009380794340147780e+01 2.689883815246061793e+00 -4.852163457105737425e-03 1.886814004430877600e-01 6.562574318402023543e+00 1.241976712850421549e+01 -2.183029171382395273e+00 -5.820081728912217045e+01 -4.697109082560155002e+01 8.732845722198909755e+00 1.434153599000458357e+01 -1.535681931240832077e+00 -5.046625008488962294e+01 -3.795315228902205718e+01 -5.290373611648024621e+01 -7.562821518053591774e+01 -3.171768792086728084e+01 -7.484438167177068557e+00 -5.191082666227803344e+01 -8.652791231213588219e+01 -9.334184567103908137e+01 -3.995606470902875884e+01 -3.110469105887753116e+01 -6.409450942557606368e+01 -6.268653501310864584e+01 -6.817520166749214638e+01 -1.962630423076275221e+01 3.613400262570542054e+01 6.871788780032197508e+00 1.737916933310339918e+00 4.170732134069488062e-02 2.457966027695414057e-01 8.562397309154023972e+00 1.709764763350673888e+01 -1.631380904573496693e+01 -7.251541962149613596e+01 -5.708721226991844588e+01 6.079948774773130893e+00 2.841698534775643381e+00 -1.613454871321341244e+01 -3.800537964836045290e+01 -5.760372950202219045e+01 -7.989278743073293754e+01 -1.120043160705555749e+02 -7.374009543721746240e+01 -4.670137401463375681e+01 -5.024454299438889393e+01 -5.292116161325006374e+01 -3.338265071391521133e+01 -2.206170345858943804e+01 -2.202996612929475617e+01 -1.458152391227740274e+01 -7.799565823240503448e+01 -8.537923137047066291e+01 -3.723451246447936569e+01 2.278605248692499785e+01 7.376573612432915539e+00 9.208808829821080177e-01 1.199742233447497197e-01 2.887673766243591955e-01 6.910049432586336415e+00 1.720114665457414560e+01 -1.596226367366307741e+01 -7.152447695256449833e+01 -5.879212321721534096e+01 -2.635481652457929513e+01 -1.022134251404600747e+01 -4.648760065580393785e+00 7.560612789627950470e+00 -4.915494054426540771e+01 -1.080224798733462706e+02 -1.090951042207240675e+02 -1.106699085410101731e+02 -6.985355056864257506e+01 -5.930277403889433430e+01 -4.900661694000071122e+01 -2.926178498961192176e+01 -1.054553312176919633e+01 9.220300195669929977e+00 -2.360101146874311340e+01 -8.719617470276998006e+01 -9.317491005112651692e+01 -6.396871148214838598e+01 -2.290526472890533682e+00 5.827093178120733796e+00 1.616279241385411902e+00 -3.862726897887142075e-02 4.353720968825089965e-01 2.916674324977367672e+00 1.423566998004876183e+01 -4.122217999601156890e+01 -5.253718130724137581e+01 -5.382670529819043281e+01 -3.222241670997544816e+01 -7.863139807817339566e+00 5.193906507726003596e+00 -1.632268160549444502e+01 -4.973346885758524394e+01 -8.526087434595801540e+01 -7.532616384431987910e+01 -8.890915448422416034e+01 -6.077543208576093292e+01 -6.001225446276859543e+01 -3.239511845678984514e+01 -1.103477879127434669e+01 1.943201190680729340e+01 2.884457521091401588e+01 -7.794330973324697709e+00 -6.354527261705752039e+01 -9.766865935466070425e+01 -4.278879801459621746e+01 -3.006610562358854821e+01 8.922640437211411424e+00 2.308495371588039358e-01 -2.381232266401282164e-03 6.621931158481626500e-01 5.299445409400765250e+00 2.167190047394316110e+01 -3.228612602861073810e+01 -8.243520454088320548e+01 -5.253693572628404240e+01 -3.356533909661542481e+01 -3.094854697057183301e+01 -9.459282737551669484e+00 -5.919201587334478099e+00 -5.401119284712527246e+01 -7.484928163383327160e+01 -5.933201304165026357e+01 -9.719653627625540082e+01 -7.633952356783984783e+01 -2.980096829849503592e+01 1.758114074100760860e+01 -3.468444322444909744e+00 3.273115182122048594e+01 2.468444024575627438e+01 -4.353812910908109757e+01 -8.338184503548698956e+01 -1.075923820018248023e+02 -5.654992712162463420e+01 -2.683039854578773387e+01 3.681920853890323198e+00 -2.453834375442394689e-01 4.665908792652440074e-02 1.618940348958079756e-01 5.872650486057057861e+00 1.468830635568124521e+01 -2.814056354136906535e+01 -7.589144803668533257e+01 -6.238891925494551316e+01 -7.382987910001041598e+00 -3.289656766171202662e+01 -6.955114934167753837e+00 -1.533132322184114571e+01 -4.649978469916370472e+01 -2.882514670409187119e+01 -3.731957587545047517e+01 -8.175953583324123031e+01 -6.798189054130358500e+01 -2.550658583103412624e+01 1.016375456597113569e+01 1.293807384814260253e+01 9.567354483840848633e-01 -7.533307436880819274e+00 -5.084856254310087564e+01 -5.853747587689742460e+01 -8.892503977161798900e+01 -5.502674272003434908e+01 1.109364497337968158e+00 6.435843652763856282e-01 -2.872736187069189762e-01 -5.838064296327143826e-02 3.771545833344713827e-01 1.448018629701843141e+00 1.032404297348459998e+01 -1.712679768881470466e+01 -5.334504609819380505e+01 -2.839630396503080689e+01 1.187841020451581642e+01 2.383214734174922356e+00 -6.204992042920944861e+00 -2.123793177062569626e+01 -4.045491967646179177e+01 -2.512168304735315516e+01 -4.822047306149703161e+01 -7.008498495482017177e+01 -3.942360036953413527e+01 -2.578107599396822636e+01 -4.547808874198548068e+01 -3.565088565561967471e+01 -3.816650121184618172e+01 -7.171333180564566590e+01 -3.660489392428304711e+01 -6.076343305974211972e+01 -6.807622869598300497e+01 -2.176635614431253885e+01 1.909102558207293399e+01 2.667619900205094652e+00 -1.885533590085106126e-01 -4.575102048123434045e-02 1.125500014094292567e+00 -2.331841208003121793e-02 9.021600816537445056e+00 -1.576342030251222326e+01 -3.192378290300134225e+01 5.648765041496502270e+00 -2.390505430061745784e+01 -5.363682909539305399e+01 -2.005300250358026659e+01 -5.628328582385136514e+01 -6.069995097526346228e+01 -3.493159989944334143e+01 -5.035965317111133999e+01 -3.622371565416558070e+01 -1.393058108036526299e+01 2.924723441698651882e+01 -1.063708353505715820e+01 -5.123473605708584699e+01 -4.032933425565096996e+01 -2.428127994033734538e+01 -1.857928120847449804e+01 -4.110480268729963171e+01 -3.645714049652558231e+01 1.705078919595917952e+00 2.116953870067991517e+01 3.324669673769834244e+00 -9.186807008207222014e-02 -5.654842927549795853e-03 2.364491005345378816e-02 -8.656295080360114635e-01 1.882273633474468300e+00 -7.953004896556301162e+00 -1.924164093172741374e+01 -5.724896189490674026e+00 -2.798746962479417633e+01 -8.315013790481380340e+01 -8.664081132687972797e+01 -8.377915594733239857e+01 -9.414051740259677103e+01 -8.574831472323531045e+01 -5.309990030957793294e+01 -1.519486759019648758e+01 -4.956506165062523617e-01 3.037880626454192523e+01 1.735823128907430402e+01 -4.408081176827312220e+01 -4.987361958073867640e+01 -3.765841239897223147e+01 -3.832619303714905357e+01 -5.336273944154108051e+01 -4.379254683154957206e+01 7.330685383671244892e+00 1.131961209188627748e+01 2.899161443591244502e+00 3.920266929937753719e+00 2.730504096045217183e-02 4.905106393035883749e-02 -4.341771835162580029e-01 -3.637823757302462990e+00 -2.639637220959924147e+00 6.027679852347277212e+00 -1.002568346811679056e+01 -1.310539960739834342e+01 -5.253728912254396732e+01 -6.458268036502609277e+01 -7.610896484450897503e+01 -1.092180986395177626e+02 -9.387267868418230421e+01 -5.580347142009902939e+01 8.793605020679887474e+00 2.332954219378434146e+01 -3.228841703458361412e+00 -2.128812537924230597e+01 -2.606223095505834664e+01 -1.778578571110604400e+01 -2.073917670795543700e+01 -3.215603318258291665e+01 -3.316378171896736404e+01 -1.960736779546386543e+01 1.691682524450535352e+00 3.186843502132909567e+00 1.957014831459714888e+00 4.449274627890897338e-01 1.556182078641180078e-02 4.714533587231654194e-02 -4.411862629984638628e-01 -5.943522539563899976e+00 -8.159922208873686245e+00 2.878869719683910589e+01 2.667874864644878841e+01 -2.508049698714107478e+01 -2.700565374662403428e+01 -4.021500944111713238e+01 -7.773158650494352173e+01 -9.255042652942795200e+01 -7.311492159410867941e+01 -5.853769146501858245e+01 -1.015358868134981840e+01 2.004368034092232875e+01 -9.161875231332903269e+00 -2.818144205212466957e+01 -3.359512144150166790e+01 -2.174487035494503573e+01 5.395523719748071656e+00 1.519032522591561118e+01 -7.116932988608872357e+00 -6.965525470750294268e+00 4.544237508086654387e+00 2.959169408893163045e+00 2.054562896298909980e+00 -2.499275635430572851e-02 1.288654006519909800e-02 -2.255560016049834235e-02 -3.502274904517086451e-01 -5.058063315017201411e+00 2.537055477506219958e+00 2.999945256346039812e+01 4.382265681380000899e+01 5.422251103233747038e+00 -1.998158216062567050e+01 -2.699575987768456287e+01 -3.835818021176937975e+01 -6.141739675226624939e+01 -5.191348942272800571e+01 -5.282668438078079021e+01 -1.925405054999423626e+01 4.017642692581167907e+00 1.599929672431705141e+00 -1.610843601597193597e+01 -7.723823003456122827e+00 1.265264911201877140e+01 2.009700825904791444e+01 2.611990512815699006e+01 1.608911968453554309e+01 1.225291502725767367e+00 2.227548526018653663e-01 8.861779697227730734e-01 2.016926761595073003e+00 -3.131902693164601015e-03 2.011376551455248615e-02 4.020940657368533497e-03 -2.287174721625687968e-01 -2.463417749490405040e+00 3.657679756312038233e+00 2.124417339995868304e+01 1.607434563530803473e+01 -9.312530193462418282e+00 -5.598181374048646575e+00 -1.081110990325711008e+00 -1.247500565112347637e+01 -3.394847012952292431e+01 -2.214823541489494829e+01 -1.653460146531155672e+01 -1.410354247604194633e+01 -4.732692759311217578e+00 4.690733255468157559e+00 1.251510261087546105e+01 2.553674381406418803e+01 2.416072798424634271e+01 1.561838865610738836e+01 1.288006160757653973e+01 8.623217478128292868e+00 4.354297763403190302e+00 -4.763283772243033787e-01 -3.542291894494638965e-02 -1.003560513296034538e-02 7.530626652587660459e-03 6.878312046880674657e-02 -2.629909567449884022e-02 -6.794531475396711935e-03 -9.570797935596540018e-01 -5.121900296993927570e-01 8.863950585175119912e+00 4.962439141001595999e+00 -5.187986223764094795e+00 5.862343860545771612e+00 1.904304091770799801e+01 1.188935410524552694e+01 -1.945708555142510932e+01 -1.033991357020978796e+01 -5.627795509355865811e+00 -3.724972586467004021e+00 -4.418168304398123247e+00 3.650465109408888242e+00 1.071166776108710117e+01 1.874842954791357386e+01 9.138629384826094437e+00 5.074982538295870427e+00 2.980226991904636691e+00 4.503593704438391576e+00 3.887879738767086479e+00 -5.276505926491949910e-02 -4.004032583887504743e-02 -1.175932758679747517e-02 -1.359861791491215853e-02 1.967675801133288854e-02 1.170572994443330739e-02 -8.370067448707477209e-02 -2.397973904514422161e-02 2.559639651478756717e-01 -2.789563892068546824e+00 1.617116348942661430e+00 1.826383323953722382e+00 6.065034516511464524e+00 2.606620152030744819e+01 1.747122361558451331e+01 3.176139152323858017e+00 1.219079888723715310e+00 -2.253770332684562838e+00 -6.149028260793127032e+00 -2.698231547745515879e+00 4.457968382992225642e+00 2.777908845863650278e+00 6.098224095721219484e+00 5.596845076429890931e+00 3.358518002959132165e+00 3.096742885066310902e-01 9.836154629304736385e-01 2.376304256288368943e+00 5.389057115243263418e-02 1.071009621379417041e-02 7.365629549289737232e-02 -1.970766781640670082e-02 -1.099184526848232500e-02 2.165390121283356645e-02 1.975880945956191848e-02 2.254548005803238761e-02 6.718120874204278614e-01 -1.472515411144137643e+00 -1.004388779668996534e+00 1.922883057339062063e+00 8.235823720682450499e+00 5.115537136607225754e+00 9.239107498827600295e+00 2.493109696164362177e+00 1.041513558387448857e+00 -1.159763887423932716e-02 8.630977416471495578e-02 -1.391891637652751257e-01 5.587460424753077914e-01 1.218267578237614002e+00 2.599458496936227547e+00 1.349332084142480737e+00 5.015819730481468897e-01 1.873607004460896008e-01 1.745562678085870595e-02 -2.966070157387338049e-02 2.533360985964543122e-02 2.044646082434000908e-02 -4.533460843993590220e-05 1.761055602592484504e-02 -2.033617810266906347e-04 5.859097660513612298e-03 2.709370077697854581e-02 2.726964572221698274e-02 1.897246623417382996e-02 1.000126744300929363e-02 1.079015272814991822e-01 1.242397169577920749e-02 1.204622288607275715e+00 2.473045454257882803e-01 5.474599176254036914e-01 1.894641832376948998e-02 3.133420338414539402e-02 2.427269701820551628e-02 2.636533938625978957e-02 1.656210978071968182e-02 4.096858197721226502e-01 4.375929794994688482e-01 3.610074088988141638e-01 1.496311235660195693e-01 2.991006261524734380e-02 4.016096043830422180e-02 3.744818468493792130e-02 6.870254940528707117e-03 4.372597686258190668e-03 1.826934925012909175e-02 -4.344450674964384779e-02 -6.665427275058126259e-03
-1.912439642034290121e-02 3.857102583475381652e-02 2.858946410762022716e-02 -1.347186602614980876e-02 -1.997886318518202892e-02 -3.871692603678175693e-02 -8.014663325651184833e-03 -8.783104141975955209e-03 -2.393334018487021028e-02 -7.599858959251163011e-03 -3.401702136662299730e-02 -3.740255321260004678e-02 2.274194539059067391e-02 -5.054512481264789026e-02 1.799364840503054480e-02 -1.557654282122938015e-02 -4.571074015969832718e-03 1.003096041789281378e-04 -2.248772802922971610e-03 -7.283695691871741595e-02 -6.455925350046337607e-02 -2.291804398328844278e-02 4.137253917444722040e-02 -6.253762512494832893e-02 -1.346418946352149516e-02 -2.341291491803847505e-02 -2.076408317037347490e-02 2.606934697586757096e-02 5.106429566710245227e-02 -4.973489895931262894e-02 -7.333487616446013324e-02 2.412706312253187768e-02 2.160702727683883224e-03 2.259314045987740206e-03 -5.455523931058361281e-02 2.629603418732352413e-02 1.252261910535056163e-03 1.052760635530673207e-02 -1.123663931056755189e-01 -9.798266683930111076e-02 -1.595475454183847008e-01 -2.556331161705942961e-02 1.752150359180458181e-02 -1.026718527175696141e-03 -3.691266158398910646e-02 2.075295234858081338e-03 -5.378440977591807375e-04 -4.199907661758532640e-03 4.385658398091494409e-02 -6.581277664001601059e-03 1.503601491213048605e-02 -5.272276771931518058e-02 5.141802962828274925e-02 -3.264279353210956802e-02 -1.640914008740249064e-02 -1.096813108050297136e-02 -3.430718362467105598e-02 5.822512204091388754e-02 -7.155700524409549720e-03 -2.483918432303203888e-02 -2.578648861402712752e-02 -4.857858726789322790e-02 -1.565209866084801560e-01 -4.520139263359024273e-01 1.868791545668711676e-03 4.098780989707623834e-01 -2.052908913010016989e-01 -9.007741140695997295e-01 -9.617307551242295638e-01 -9.279520923082605899e-01 -1.267094326918113856e+00 -1.103472587429584983e+00 -1.275195588976187455e+00 -1.300540329306179466e+00 -1.226873669143910384e+00 -3.260275968591416218e-01 -3.219644270850814949e-01 -3.874082867352751092e-01 -9.559783760890934456e-02 -1.697177919892614573e-03 -1.214231136866545172e-02 -5.492001054112747443e-02 -4.184316709161701141e-03 -1.574159592728338261e-02 -3.246019408744103135e-02 8.693693511597126375e-03 2.005529098544664088e-02 4.623970786832361929e-02 -2.569160844201180682e-02 -6.459437025304388957e-02 -6.737797645548484482e-01 -1.708096136609154270e+00 -2.649713179841225230e+00 -2.195670050179078014e+00 4.771192823380436820e-01 1.474406227819413884e+00 3.323320917397744712e+00 3.059292015457490965e+00 1.007729152655600258e+00 1.251788102714100015e+00 5.060607123264762031e-01 1.497151064488390748e+00 1.512909704369958863e+00 5.971331040193631479e-01 8.023069852250651612e-01 -7.127511251474275000e-02 -6.763997243711868945e-01 5.036414234963274006e-02 4.833716815395449132e-03 -3.339000772020302849e-02 -1.834228135767864906e-02 -2.042931599312578991e-02 -7.299935283213189463e-03 -6.177148396529674908e-03 1.814857086982515216e-02 3.845325466736350221e-03 3.616062664734571996e-02 -5.410855283530728865e-01 -8.656953911411832125e-01 -2.383748184959446625e+00 -2.386834195910391809e+00 -1.976374049595818194e+00 -1.356079837843893188e+00 1.927555545194156394e+00 4.459626724639594642e+00 1.543910480145070263e+00 2.216180145247762745e+00 3.732955643704954696e+00 7.273072443127198028e+00 6.683601667359063470e+00 4.662172756288148534e+00 4.163211165543746262e+00 1.918553571346137687e+00 2.020166862755885528e+00 1.041846394738503490e+00 1.207883812134927570e+00 -7.930525427462763177e-02 -1.486031316780282330e+00 -3.532893914548388466e-03 -1.797115601559845163e-02 -1.333203964936820717e-02 -2.096962380595085093e-02 -1.889407089015368709e-03 2.815007802730343789e-01 1.284172040700706452e+00 -4.053802466616175382e-01 -2.193450804417971522e-01 2.339004015128453684e+00 8.278248880146604760e-02 2.583623864157910788e+00 1.440254369012660796e+00 1.520452442939689730e+00 -1.551571187793781892e+00 -3.065919420018814900e+00 2.518850611429355180e+00 7.839710866403619249e+00 7.622613531696610600e+00 1.215998327794069667e+01 1.363704278047748986e+01 1.189970152331524034e+01 1.053905623086874144e+01 5.887791705711125090e+00 -8.768493842235950408e-01 -1.500143094571002367e+00 -2.894177471156187842e+00 -1.899368537814451141e+00 -9.539078931106635684e-03 -4.995809947127698679e-03 -3.321030923013899849e-02 1.854700723728246528e-02 -4.099941160305804397e-03 1.841853948168784283e-01 9.701511671190207187e-01 1.492517664109815900e+00 2.046120172087269665e-02 -3.497571541032328479e+00 -2.859844839345276224e+00 1.957948556014910135e+00 -2.816282867563012271e+00 -3.292333585083409009e+00 -3.644532396544445163e+00 -2.710355145651925923e+00 2.873097257944162042e+00 8.851191085555264237e+00 7.867629762033963914e+00 1.432873071215140826e+01 1.796169007000195350e+01 1.393469405965367258e+01 9.942722349008285221e+00 7.267351326212399876e+00 -3.843029327693150865e+00 -7.761483029394040223e+00 -4.677217568636923062e+00 -2.902036478799466135e+00 -2.522570791454226483e-02 -5.846460747607889162e-03 2.571870464656445671e-02 -1.129718770237804135e-02 -2.392387406703183339e-01 -1.368106821127101691e+00 -4.194786090859614069e-01 1.257231564562649284e+00 -3.593741432707355354e+00 -6.791372860270813661e+00 -1.004878513239893145e+01 4.145930097400274406e+00 -4.610929421212094148e+00 -5.473772258036706972e+00 -2.899458939494760301e+00 -1.896928142355030822e+00 6.795465916809843243e+00 1.302638957479830850e+01 1.278178317578243828e+01 1.805271117956184312e+01 1.810190234497843420e+01 8.814565895323440259e+00 4.221981384201970222e+00 1.536806323525940599e+00 -6.422873928990147974e+00 -1.069378054035518133e+01 -9.699466213276272342e+00 -3.913968387698316231e+00 -2.428177941780518545e-01 1.793086531838290407e-02 3.285948982027925291e-02 -1.125271931255178659e+00 -1.883048870808909259e+00 -2.591716361117630374e+00 -3.797812342443656064e-01 3.846741998539682683e+00 -3.773420864557873511e+00 -1.223293933198613637e+01 -1.119404414801532965e+01 -7.318277206695475989e+00 -1.143404382242827921e+01 -1.567050793102212580e+01 -1.005233922432088356e+01 2.629906401785925052e+00 1.013602519359622711e+01 6.972672776599675437e+00 8.432156742201623700e+00 1.820035384230279618e+01 2.098200941029347533e+01 1.452742831653402078e+01 3.003110672696585493e+00 2.221942733629632016e+00 -8.772736303180642681e-01 -7.400839634834841974e+00 -1.220899759050785605e+01 -2.412820960999066955e+00 -4.009233928470421621e-02 6.722125176669415010e-03 -4.506547746902602597e-02 -1.207036851835660451e+00 -1.797835264856264326e+00 -1.976301921527701788e+00 3.924368963237943486e+00 3.262023365488327720e+00 -8.646908286194518567e+00 -1.663804634324668541e+01 -1.315949022634580956e+01 -8.980522873847384346e+00 -1.487387180442418000e+01 -1.907672931406531802e+01 -1.067920061184199021e+01 8.685516610033867935e-02 7.147402871864967366e+00 -2.058416502797344894e+00 6.295030323785494097e+00 2.327758779676353740e+01 2.797777912252905708e+01 2.337293437687265296e+01 1.131189975222353716e+01 1.008969463112743092e+01 3.697881392738365580e+00 -6.259633475070353059e-01 -9.308528937396745917e+00 -5.783270837646491636e+00 -8.294469558646873075e-01 -5.281256775113651880e-02 -3.365078835714922084e-02 -2.201510128133482569e-01 1.573688206766081232e-01 -3.809965089662432636e-01 8.217189197663673284e+00 4.592755280148129948e+00 -8.133355519086782337e+00 -1.060338702286064283e+01 -1.126883567229651106e+01 1.808110406181202112e+00 -1.484221703179438023e+00 -8.963032162014757276e+00 -1.374866332188768325e+01 -4.185278663201513538e+00 1.356741604359391840e+00 -3.682213408513960839e+00 -5.488887400793923677e-01 1.437771651902550829e+01 2.295291411033365847e+01 2.873322584557760706e+01 1.897431503662195595e+01 1.403819274483390878e+01 1.229482182934074253e+01 5.698859286171867211e+00 -4.518308023497281667e+00 -8.690662469334620610e+00 -1.112691669778711479e+00 -3.067796844919239985e-01 -3.511933534228726950e-02 -1.156580366301096785e-01 2.039063024405460833e-01 -2.050792304694227131e+00 7.336777170286909566e+00 1.101563993722445289e+01 4.907895530921258853e+00 9.717047727958623149e-01 -3.010376732899267882e+00 -1.023599413451191653e+00 -4.846696838774565030e+00 -6.790914855511855031e+00 -8.569526359528888193e+00 -1.237173151934355353e+01 6.782253303591583293e-01 9.188380337449054691e-01 -8.146318358547917360e-02 1.211688977046667581e+01 1.865314168993704413e+01 2.018402098396296651e+01 4.527695667309147964e+00 7.477531162322921254e+00 1.628690930161814165e+01 1.334122930820351449e+01 -7.486421466667922076e+00 -8.186982358706831775e+00 -1.210935532493129241e+00 -4.407892148095033380e-01 -5.676637554137355796e-02 -1.776866543863234726e-01 -1.369841600934477155e+00 -4.928656204294922460e+00 1.145912953389553657e+01 1.624774132118910330e+01 1.080498654868258335e+01 7.078049467029824404e-01 -4.682468133579610559e+00 -5.212364382347993264e+00 -9.902894013781834204e+00 -9.770917677564304071e+00 -1.450816620014872704e+01 -1.241263691937070668e+01 -3.316784662174458109e+00 -6.897835892937983715e+00 -3.889989058093556551e+00 5.300593967299292331e+00 1.494192096838518502e+01 8.781794750492320389e+00 3.552581142030170280e+00 4.155106226264241087e+00 1.029360562399662271e+01 1.258280415338319713e+01 -1.017960365573126325e+01 -9.180312908878175193e+00 -2.596427175065205706e+00 -6.265367412730677987e-01 -1.523969705732984570e-02 -1.919138983250258390e-01 -1.466100629445183046e+00 -1.070159358236521252e-01 1.318473760336838652e+01 2.385832476224193854e+01 1.185325079544747773e+01 8.213823068961767504e-01 -5.471332217181490876e+00 -9.689361957483734855e+00 -1.582868142650521648e+01 -2.475701108298032693e+01 -2.605808481180770997e+01 -1.995021748471342349e+01 -1.624090305087327835e+01 -1.171478706591295094e+01 -5.561063755816892495e+00 -4.482074572680923019e+00 1.322266261448643121e+00 -8.656358308024737491e-01 -7.534993403130961553e+00 -7.430377341574500250e+00 1.679639653979153158e+00 8.304149323954653994e+00 -5.966281326585115785e+00 -8.231571037417131365e+00 -2.733210734626555283e+00 -6.169119211370633904e-01 -5.133847766093819348e-02 1.241606047103541999e-01 -9.944811946371606703e-01 1.175527293101056747e+00 1.024981915475423300e+01 2.437258943975668046e+01 1.616152642662209615e+01 8.244397531465805784e+00 -2.865399353702715590e+00 -1.440656773489134501e+01 -2.564016652154046128e+01 -3.335069840598238500e+01 -3.180540841776818439e+01 -1.964879785441711846e+01 -1.594754853224165103e+01 -1.463838232554258667e+01 -1.098910037842278875e+01 -9.125048026944256208e+00 8.321786124332163581e+00 2.750904779915579912e+00 -4.773547167035321337e-01 -1.168781552629247145e+01 -4.562272455273087779e+00 -4.163446257759384039e+00 -3.138765401558876622e+00 -8.467501147786046900e+00 -5.152594447366450225e+00 -1.046825278637940171e+00 -1.486526428673191035e-02 3.450459464457288905e-01 1.562947813915069206e+00 3.301566937666468249e+00 5.534655667120715883e+00 1.668032328815758447e+01 7.551566706008248531e+00 1.340320769832908354e+01 8.492072597370531994e+00 -4.628064555463914154e+00 -1.827876388040066047e+01 -2.415524851578969745e+01 -2.393383296693820839e+01 -1.625913897058509505e+01 -1.853541043666507804e+01 -2.780364099959261281e+01 -1.618762937472544650e+01 -1.260438446421752179e+00 4.848499698037250560e+00 6.708134370546621206e+00 1.325887163413973946e+00 -1.105010988035743225e+01 -1.030436150452006494e+01 -1.013869963774012284e+01 -6.790131813819311191e+00 -7.964666460115334523e+00 -5.434125054123120080e+00 -4.805368096874068629e-01 -6.695827927189050913e-03 2.528314045716520408e-02 3.170012526256448027e+00 1.794892689626405469e+00 2.338141457766510278e+00 1.412477228268143570e+01 9.875012427764316314e+00 5.953111502032299995e+00 1.297514854223680736e+01 3.726248542806162689e+00 -1.141369203637312602e+01 -1.136978609860021905e+01 -1.050959108791148466e+01 -8.632753530616334103e+00 -1.344965017220281567e+01 -1.877505289273456768e+01 -1.589475282689267388e+01 -3.413398039037132570e+00 7.089843535724259238e-02 -2.206403224259546381e+00 -9.670676863223238995e-02 -6.088913851545802558e+00 -9.232186030945248589e+00 -8.036132978230847712e+00 -3.112893843278252692e+00 -4.309659547337926000e+00 -2.970896732772286164e+00 -4.883972405987629384e-01 -1.858108044276299622e-02 -2.527488161404740225e-02 -1.109341165982492772e+00 1.436940406674094950e+00 -2.891544982785841378e-01 8.549612366665495955e+00 7.004348189491738985e+00 -2.025999928526565963e+00 6.056338615478833454e+00 1.031567408703545397e+01 8.733592801972232422e+00 -4.935490227257749440e-01 9.749577414407947229e-01 2.899245413345867273e-01 -7.165514566415389641e-01 -5.741902519379871173e+00 -7.306822954937435277e+00 -1.394561367522691953e+01 -9.999851896271991336e+00 -3.217836008227513034e+00 -1.786341615049857445e+00 -8.459649102968551659e+00 -8.589815650570550076e+00 -1.032393170772640545e+01 -3.491258599298570076e+00 -4.510247922312159652e+00 -2.308906524606550104e+00 -5.012071866456146996e-01 -7.496789866854843346e-03 -1.229437533791524068e-01 -2.879162736803810851e+00 3.605846681693921640e-01 -1.442689297496696499e-01 7.273980174647743269e+00 8.064992889594543968e+00 -1.830017326197593164e+00 1.279077449400899402e+00 1.057909503769890236e+01 1.189764527970723051e+01 1.488823699790894572e+01 9.565182018333301173e+00 5.944889423873594758e+00 -5.516162966788349387e+00 -6.837033463130530286e+00 -1.450901562299264258e+00 -5.651717578661064501e+00 -9.402007984638732552e+00 2.742063176183402451e+00 2.085135094601080930e+00 -6.730131071989294611e+00 -8.634210062271872488e+00 -5.442441888008132445e+00 -2.711185950948141965e+00 -3.009866716474952852e+00 -8.171158557375844955e-01 -9.657595523836835782e-02 -3.560170021381548096e-03 2.033060599465232648e-05 -1.074908207465147481e+00 -3.509520861240102541e+00 2.086978773951425892e-01 -1.391397023394113308e+00 -6.890288585404886756e-01 -4.777608072474042622e+00 2.845295147477095998e+00 9.289958041146102019e+00 1.713944077493846407e+01 1.689912065124658369e+01 1.587927359008463135e+01 1.008892918575817710e+01 2.584386849534490604e+00 -4.153748628773855422e+00 -1.015344017555113165e+00 -1.242563744461178787e+00 1.772944047428959280e+00 4.328603048395589070e+00 1.075862063292922333e+00 -2.276855262752897513e+00 -3.052784011354263694e-01 7.723921308304192435e-01 4.556523706811733909e+00 2.517417185954204384e-01 -1.621097532944490327e+00 -1.067541757983212491e+00 2.965481195936771341e-02 2.910443959942818348e-02 -5.657007277236271170e-01 -5.068583655669661958e+00 -4.280009132943770389e+00 -5.070035252532538728e+00 -4.804527431646591573e+00 -1.754286169287783359e+00 1.548493289598207534e+00 1.034276208492449989e+01 1.836010233735791175e+01 1.789039593706747056e+01 1.413207973026520037e+01 6.541454932853517867e+00 -3.279549438133825046e+00 -8.303063864219755175e+00 -7.873096957212463387e+00 -3.294617317926494593e+00 5.470789173460270938e+00 1.286206495495889612e+00 2.245971642561735759e+00 -2.854849433953497329e+00 3.446403864189355293e+00 5.503690855154068196e+00 4.560906278604129227e+00 -7.402438838868818927e-01 -1.708721193356722567e+00 -1.370086608552668062e-01 -2.495471222114597955e-03 4.826544883413825052e-03 -6.138265073189027587e-01 -5.323994619482537161e+00 -6.897368496630025270e+00 -6.685074809051307909e+00 -3.496007304749041644e+00 -9.983526107803124550e-01 2.639039654081997144e-01 6.030987342207818180e+00 1.191116526864920644e+01 1.364204825947776456e+01 1.062308185544205585e+01 4.916062499910789363e+00 -3.245998246102906659e+00 1.117652513378122991e+00 2.801807169813392839e+00 7.780258179672129515e+00 4.238074613319215089e+00 5.645805352205949035e+00 1.057891590404935123e+01 1.138640590071479153e+01 6.204674365018498783e+00 4.920501492742259231e+00 3.632789514246833384e+00 2.110889472741574457e-01 -5.538161223172208825e-01 -4.845966610808391875e-03 -8.793654813631137865e-03 4.889023706529767310e-02 -5.679575543126081927e-01 -3.757163822758839089e+00 -5.427234666973999033e+00 -8.540315061358972670e+00 -8.116277824860318901e+00 -8.388940244275554292e+00 -8.403195725442854425e+00 4.825889743028213830e-02 6.706396111184931286e+00 8.617950279957314663e+00 2.937868247012675127e+00 -1.774862976607940235e+00 -3.204758942614937212e+00 5.684861499060882117e+00 9.124786828467017941e+00 9.721134789621430627e+00 8.656513255833424125e+00 1.146450414974371412e+01 1.552291420055886917e+01 1.278410388927279939e+01 7.335680168161307080e+00 2.714687610738735213e+00 1.355166115603545496e+00 1.174317690391905922e+00 -6.681094919473921090e-01 -9.144740282637075363e-03 -4.282906117613293623e-02 5.630772006734593299e-02 -3.622461365874803940e-01 -2.016174804312330870e+00 -3.733811478046073606e+00 -6.183786254766708623e+00 -8.608895907590667917e+00 -1.394314265854684010e+01 -1.446101965573985026e+01 -9.157136888600637903e+00 -5.411126080547767003e+00 -3.154800688149394627e+00 1.700913009706945589e+00 6.889870831962728870e-01 2.369722443341410578e+00 4.941578133169535647e+00 6.421720266604760141e+00 1.307301287505965171e+01 1.537202032642625227e+01 1.405680482246728147e+01 1.166614776593390701e+01 8.189564009508330855e+00 6.066469308730546572e+00 2.494331389471756921e+00 5.404779965678667697e-01 4.478608050225457160e-01 -5.144380618136170334e-03 -1.507204918825810237e-02 -1.381484632410812183e-03 -4.662425602798936364e-02 -4.391592830813887544e-02 -6.950189127781039033e-01 -1.531349741624572047e+00 -3.968269027452765663e+00 -5.519383180553521839e+00 -8.788285200757089299e+00 -1.200853113679310979e+01 -1.000677313312582584e+01 -8.496784799052804260e+00 -4.744584129812453810e+00 -3.481732146775408099e-01 -1.480354475709151574e+00 1.105908365833928153e+00 4.393128125630477498e+00 8.726693739652214177e+00 1.258004286204793054e+01 9.738366753360210737e+00 8.151866895323164997e+00 6.098948242645490403e+00 3.527889736937988463e+00 3.435526303515128888e+00 2.013772520154747614e+00 1.101372800983717037e-01 3.129072835472565366e-03 2.216234302634921202e-02 -6.623069003108013331e-02 1.407874246838988069e-02 -2.806144460928583842e-02 5.025915609875701573e-02 2.201396888286651088e-02 1.505213592341697777e-02 -3.852140050485289291e-01 -1.483747839895934728e+00 -4.833327808148164983e+00 -6.728163194060671870e+00 -4.880353958339447296e+00 -4.937828418717107759e+00 -2.260392396724146380e+00 -3.236418123857713325e-01 -8.658737623478552914e-01 -8.984615511065147109e-01 3.605679822409130875e+00 6.203196098415547866e+00 3.115091546436727477e+00 4.141190174992170903e+00 4.026859971280329020e+00 2.464637251547712182e+00 2.185825650863627012e-01 5.945431528704298030e-01 1.550576090613060343e+00 3.161000325089596830e-02 -2.222914456022788421e-02 3.472039382711100686e-02 2.325342668030590601e-02 8.485042802073132235e-04 -1.318780044988951752e-02 -5.530025691731491793e-04 6.071058671262399668e-03 1.114969286424674078e-01 -1.713811414900219543e-01 -7.801095307967113035e-01 -2.400356009933930501e+00 -5.017572801904193192e+00 -1.539296532562206110e+00 -1.764813921806577257e+00 -1.644986546398278238e+00 -4.938972022118597316e-01 -2.128860944830325216e-02 -4.555836667101940129e-01 -4.889815847377376179e-01 4.082582679988442931e-01 1.049494506142787609e+00 2.648386552333672483e+00 1.533432088075749933e+00 7.161637601076510373e-01 7.508152287624202115e-02 -2.985739975724017916e-03 -2.136391132392019207e-02 -4.209631473196430440e-02 -5.261968260066771791e-02 -6.308433063546300956e-02 -5.420179822561450173e-02 -9.136895230960753256e-04 4.944664327269141652e-02 -3.256292647894230060e-03 -2.260242733336400786e-02 9.742984494598540615e-03 -3.397869641559207038e-02 -9.347353847000650084e-02 -6.469195840474878390e-02 -1.469536714406714628e+00 -5.003328372621022035e-01 -5.759138868844084769e-01 -3.889423931754076857e-02 4.916947520533758963e-03 4.158310336037271057e-03 3.263749333934170931e-03 -1.548808976369122747e-03 2.754707118928748644e-01 3.225857622470011954e-01 3.282226395271309327e-01 6.694507012847297767e-02 8.662446792412698687e-03 6.789433039977049548e-03 -1.752809467882622324e-03 -6.226269072611287370e-02 2.413392810926611246e-02 1.326068756660201851e-03 -1.631128658719246949e-02 -6.529040957712110849e-02
