3.562400395345532989e-02 -5.234245011522925192e-03 -6.729511865094049000e-03 1.596574543172081875e-02 -4.960946165662115381e-02 -7.948320297469736381e-03 1.777604862253776008e-02 -1.809635520977042472e-02 -4.441793813733353746e-02 -2.323084906548547948e-02 -8.372502494505960902e-03 -2.085364096678697307e-02 2.666902927845506491e-02 1.854976056240171395e-02 -3.520437217611561975e-02 6.723184119930766811e-02 -5.633759518312641407e-03 3.241358641228821863e-02 -3.836258341620869990e-03 -7.205088292711035736e-02 -4.469898355418727362e-03 -3.039667278776216758e-03 -4.554706975880428062e-03 2.169834795449290029e-03 1.728137505765597187e-02 -4.126658455760937733e-02 -3.064587522535616726e-02 4.202425101733748419e-02 -2.962482663223265159e-02 4.949302252249724449e-02 -4.071191659810492053e-02 -4.235006022769301562e-03 2.516445125638841138e-02 1.620240883883117310e-04 -2.739189859005298350e-02 1.018594746168082453e-03 1.907155537719335825e-01 1.977081596849540601e-01 -1.308635345655812521e-01 2.243944749886994661e-01 -2.598942679453786209e-01 -3.039117014074162876e-02 4.516334304982084179e-03 6.852415515188597234e-04 2.065372253288567245e-02 -5.178307795248008119e-03 -3.129175373964965430e-03 3.387232687934266934e-02 -1.539441501928611204e-03 3.937143757913704606e-02 -4.646271648537132065e-02 -4.042418979713523902e-02 -5.889316208476516601e-02 -5.767884327401607593e-03 -2.524954144551597515e-02 1.215269355647967398e-03 2.471290961340264977e-02 3.828975402214205431e-02 -1.664310882725022339e-02 -2.352217465880303976e-02 2.475395316204017856e-02 -6.784701019185269445e-03 -1.827739905522016706e-01 -5.893913328647429895e-01 7.413288489628311329e-01 6.852668708525756491e-01 3.367571639780184145e-01 2.930922117635852864e+00 4.513360411667235006e+00 7.645248217670053137e-01 1.142857670864855235e+00 -2.958811276373364274e-01 -2.950219597664327509e-01 -2.790634565447901450e-01 -2.498248869266046501e-01 -9.427205275177116817e-02 -5.355968646547473178e-01 -6.398579204715124646e-01 -2.124736412826321308e-01 2.343949873356570342e-03 3.919196266204887091e-02 1.752152212834777456e-02 -5.400417009918856426e-02 -2.719860113699069937e-02 -4.688353421844569831e-03 -5.881074227744026439e-02 1.103530949168560552e-02 3.119440390698482654e-02 -4.581077581946459837e-02 -4.069035399595813396e-01 -1.340704930542029327e+00 7.395078825829914937e-01 4.728758792343506379e+00 6.042081677585837696e+00 2.378000703176427866e+00 2.562492633113993445e+00 4.948290870044595557e+00 1.034048839328209013e+00 1.759191806332950914e-01 -4.065600053734606867e+00 -5.329265835202010138e+00 -2.893344823066354987e+00 1.420898904472378099e+00 2.420310656214525458e-01 -5.821624327547382238e-01 -4.090304669644354019e-01 -6.404437085784545625e-01 2.917839262932749034e-02 1.263804920674103417e-02 7.700218780065125335e-03 9.382519678443942274e-03 -2.965808593362269721e-02 -6.940659354772608924e-02 -5.329312303447256843e-02 6.633513830212099324e-03 3.751341517208486159e-02 2.586704852591644177e-01 -1.458525321184320322e+00 -4.586645880368261707e+00 1.556760467775185619e+00 3.447517293683107997e+00 3.311582515154299688e+00 4.147532858676120426e+00 4.117395840954075403e+00 8.156124142449115766e+00 -2.588387821541588973e+00 -4.317924796461443115e+00 -5.061098045873102969e+00 -3.320123533535730420e+00 3.790016591312092564e-02 2.572952697614451445e+00 5.609802258117368989e-02 -1.911180267672656585e+00 -2.468647453420865778e-01 1.348772724485242769e+00 4.072193901418277862e-01 2.619556012456093486e-01 5.923237739725853990e-01 2.438426239894346190e-02 2.832477319214262140e-03 9.936706074043389486e-03 -1.399213885551952793e-02 -3.891356153649284250e-02 -6.777633657253259725e-02 -4.233650348069207814e-01 -2.906907672253647767e+00 -3.138899826963557071e+00 4.105592251497293788e+00 4.352501014811645419e+00 7.567523708330924137e+00 6.574066127405329141e+00 7.345280596064929668e+00 5.232293778196881462e+00 -6.432484431293098659e+00 -5.761159053322438162e+00 -6.387487195263505946e+00 -1.049077293441037639e+01 -8.249756807999222730e+00 -5.787449745604463125e+00 1.156539571534618505e+00 -2.201478572089793362e-02 3.761928589243722088e-01 5.805257976701098777e+00 5.268740832495661053e+00 3.804231474743580144e+00 1.091044111201846523e+00 -3.732745985245290027e-02 6.539224970134440394e-03 1.807512159591507378e-02 -7.139207972423022852e-02 -9.683734790479752233e-03 -2.171463537131401444e-01 -1.047735663264848904e+00 -7.608685111807023560e+00 -3.571304842504127830e+00 4.467056103035095482e+00 1.239137334132105472e+01 8.702650954753625712e+00 3.185421948749696863e+00 2.095982096655406135e+00 4.905117933286043730e+00 -2.334336820913095689e+00 -8.407620095840405483e+00 -1.579811842678702227e+01 -1.984660415441814152e+01 -1.646905163744455791e+01 -1.157322983273645178e+01 -5.170850004193067839e+00 -7.625568003206753542e-02 2.857084928321427242e-01 7.369330971704176392e+00 5.186308426672042060e+00 3.078908116492868885e+00 1.590157226799020718e+00 1.446936975057445007e+00 4.650117254937620459e-02 -4.834850878916474581e-02 1.302991134779261581e-02 5.029243225470126921e-01 1.635549438894340624e-01 -1.056274956744124527e+00 -4.589364185034585653e+00 -3.064673096248047290e+00 1.096324983326467439e+00 5.288761778924383705e+00 -4.373061213493247834e+00 2.032883179827986275e+00 1.258933059761636031e+01 1.327590837858332939e+01 1.287838473193529953e+00 -1.098205745945349676e+01 -1.660060297895230974e+01 -1.712328807261491548e+01 -1.614804929824866164e+01 -1.878565895441757405e+01 -9.918742762417172898e+00 1.682864559810170801e+00 2.902388069212010535e+00 8.388815726269674755e+00 6.687521069872878421e+00 4.963136459642176312e+00 3.727844602335462110e+00 7.327391706874369914e-01 -3.283026998176633710e-02 -1.516505489040024211e-03 2.872144474506296508e+00 4.653777892991077358e+00 5.522245853997148402e+00 4.192172053262440912e+00 -6.274742918613088749e-01 -2.900041129579258747e+00 2.479317734311332622e-01 4.320288711335851239e-01 -1.249575835212784813e+00 6.574179509012067157e+00 5.178864519583674664e+00 2.229856093141111106e+00 3.024756739244371939e-01 3.361820812477495091e-01 -9.016537833723996087e+00 -2.539281183127470243e+01 -1.563675923075178531e+01 -1.109731401219267433e+01 -5.912888837047527879e+00 1.382753108245080398e+01 1.208349605377195246e+01 7.133221843553925190e+00 6.117518779275721741e+00 1.228829066108008661e+01 5.359938226244817194e+00 6.931698228250567917e-01 5.365232609306223172e-02 -5.783929262559361906e-02 3.405844759708770209e+00 8.144967933050168085e+00 7.028169467047493235e+00 3.403463086753668598e+00 5.366405692308192421e+00 9.882375522581849925e-01 -1.272635595985441403e+00 -7.045626439985307243e+00 6.057276571505592955e+00 5.552435517038514234e+00 -3.937468256823744017e+00 -1.097332869992882998e+01 -9.239847741561115768e+00 -6.791581127781856075e+00 -6.578621603727071943e+00 -1.562785550643671861e+01 4.620433041049738510e-01 -2.996548199163632908e+00 4.737585592670815693e+00 1.828011882870226401e+01 8.367154331871017092e+00 5.907131391978942325e+00 2.197637839562736950e+00 8.632804689961119493e+00 7.318206297504866065e+00 2.031484815805119748e+00 -1.144701452731480135e-02 1.168637995664525628e-02 9.908793839893751398e-01 7.276549797762591254e+00 6.397742491543131571e+00 4.791127145436916202e+00 -1.053785351979755536e+00 6.730510235720406076e-01 -2.512772130742402243e+00 -5.715046828912361931e+00 -5.399148140795321460e+00 -1.174404294742420474e+00 -1.620005057903070522e+01 -8.785716063410415444e+00 -2.137867519064689148e+01 -1.001229097924704625e+01 -1.139454686604019606e+01 -1.622576379999434337e+01 5.644257228011870353e+00 8.033639631255977687e-01 6.115251871930863281e+00 1.984359031590732414e+01 4.739989564946704981e+00 2.536517325667999145e+00 -7.486004993439354216e+00 -7.717889234065486548e+00 -3.359608303643378591e+00 3.777351250819447781e+00 -7.786841619671501513e-02 9.791066869858255917e-03 9.726043400694872609e-02 8.721977616357218466e+00 1.162762395678227811e+01 6.124420365918412656e+00 -2.094175621017626110e+00 1.152193680388567065e+00 -6.631008980364765382e-01 1.642212821412254720e-01 -5.018797731154867492e+00 -7.526548796895730753e+00 5.104393580776101835e+00 -1.399343922614072255e+01 -3.183721437520613406e+01 -2.057369572501063715e+01 -6.963167629820933513e+00 -6.664233361349861440e+00 -4.904563425062801407e+00 -1.292920181067227503e+01 -1.746300006873068300e+00 2.031428964850916685e+01 2.771491680603408447e+00 -1.594702640400101146e+01 -5.743539597778625883e+00 -4.418309176054505905e+00 5.457338920367370561e-01 8.079249923082331364e+00 -1.329189631361989490e-02 4.635500292029265217e-03 5.753996600270184364e-02 7.572972369429821882e+00 1.337806467645390640e+01 5.769875141639682070e+00 1.506423584100301127e+01 6.940988315928715124e+00 1.232599735222573223e+01 -1.144099896937060379e+00 -1.064931804173556529e+01 -9.381931359799459358e+00 -8.039956617236681424e+00 -1.761043377563339263e+01 -3.353816660044133613e+01 -8.005484917173063764e+00 -5.063905744468414127e+00 -5.959635270605788682e-01 -9.645558739832551964e+00 -2.326572514542067438e+01 7.166198443082333114e+00 1.636800562227935529e+01 1.123534983607915194e+01 -1.229421178198088160e+00 7.614414530446516949e+00 -1.019517541198230681e+00 6.366131472527473356e+00 9.917288744476937978e+00 2.935592143799397036e-01 5.121473583351439374e-02 -6.364943678494061619e-02 6.988065164616592995e+00 1.651390639027939855e+01 2.909238526775739686e+00 9.152121405709484847e+00 2.352713908464456694e+01 3.406111207759987280e+01 1.690199068631011770e+01 1.528828766290978258e+01 1.562426044623488686e+01 1.796714308593833209e+01 1.755658048249678060e+01 -7.004799282468583854e+00 2.252990471759941660e-01 -3.440794259829795365e+00 -4.456780868290921127e+00 -6.693836889415257119e+00 -4.822312904566914860e+00 1.783268733433391873e+01 2.294667799682299858e+01 6.539745779698028727e+00 -5.798486433093900771e+00 -3.742210146865384002e-01 -1.534125774010552723e+00 3.350072776977209177e+00 1.588474051336056725e+01 1.057582474299549657e+00 3.647244291394605500e-03 1.303309997843672852e+00 6.713170957389097637e+00 1.389435403149477821e+01 3.744613725274333227e+00 5.945711363978860575e+00 1.611042276608593671e+00 1.967583107190340996e+01 3.000093870473058644e+01 2.472368416807732316e+01 2.171485469417527980e+01 1.370012265456197476e+01 1.365776245791762911e+01 1.333592644080239609e+01 -4.171004290255114766e-01 -3.110635979059321876e-01 -1.029849183176309957e+01 -1.163019908905500444e+01 -8.915379686213515953e+00 1.082808525242536568e+01 1.400022601522129762e+01 1.493069745873624399e+01 6.706490164465378490e-01 -9.823914097831080161e-01 2.725846896112607887e+00 1.114145904796469644e+01 1.053539685780147650e+01 8.162815667233518369e-01 1.591170435218323227e-03 1.948653762609657392e+00 8.439528673000424419e+00 1.146669368647653897e+01 -1.366007084827824070e+00 -2.510385506633917796e+00 5.862913505801682135e+00 1.205152960149641217e+01 1.588728910812402972e+01 1.115880892144509318e+01 -8.762570479062878448e+00 -7.976076592469904192e+00 1.792132260585583614e+00 8.081925898194242563e+00 8.370729650540269517e+00 -7.399236301824740458e+00 -2.356935180593151102e+01 -1.061676398488790163e+01 -1.317391776400188697e+01 6.622514468607870519e+00 7.419790915587645586e+00 1.663412721829283569e+01 -1.918717509766002527e+00 -1.112777632315320631e+01 -1.163430306960756866e+01 5.091341625682940908e+00 6.824667412437019465e+00 9.325142834180510931e-01 1.798760016427387518e-02 4.437522121694046917e-01 1.638533415450752928e+00 8.347940323112652550e+00 -9.186891017503151957e+00 -1.348315949489841259e+01 -4.102498325257672995e+00 6.445601415161020142e+00 7.005763903836336404e+00 9.347293475989593148e+00 3.292279530495750839e-01 -3.981918542137329986e+00 4.936344552376110251e+00 8.617902647201470145e+00 -4.197329472753616564e+00 -9.219657618280745481e+00 -1.140032075866327688e+01 -1.443973585920756086e+01 -2.814376087955002825e-01 3.975135632148397935e+00 1.275002496659783624e+01 3.495929953642486154e+00 -1.187119611019440590e+01 -1.335944076783781576e+01 -2.301159496334045595e+00 1.376794970835891618e+01 7.440858390515241894e+00 8.503942813953443425e-01 -1.896600468145387755e-02 9.792387759892376420e-02 -2.729327716661520853e+00 2.661678807641283395e+00 2.344032676045780583e+00 -2.535973437488363569e+00 6.473549040332756910e+00 1.795497311407543606e+01 1.245683468946335282e+01 5.919637696588532449e+00 -1.224197492439812684e+01 -1.564192336135665506e+01 -1.485248100594344978e+00 -3.785644507548236337e+00 -5.198151709372980100e+00 -3.330197686409739344e+00 -1.523708479379230241e+01 -9.169536278843930077e+00 -3.247051287820429621e+00 -2.337010711390779538e-01 1.764581892487860015e+00 -6.349170423050064294e+00 -8.089776232328487637e+00 3.495497049144723894e-02 6.661761771569830515e+00 2.331965729429100165e+01 6.645732527413364288e+00 1.550663300394120592e-01 -3.527214538125594823e-02 1.996141184005336688e-01 8.403486970817191093e-01 2.172362323400460760e+00 6.605275456440725890e+00 -4.390949551792560968e+00 9.856122981039970199e+00 9.248192639910691071e+00 8.140809912931890935e+00 1.638218616159094809e+00 -2.051109627581879646e-01 6.774768499270931166e+00 1.634594915790662384e+01 7.173439751701954137e+00 -2.295066014160618284e+00 -1.925496932588627752e+00 -5.651924694567689755e+00 8.422533279904351744e+00 1.352455218447958796e+00 2.097775333028592204e+00 -1.824654632305610313e+00 -1.134026063671701579e+01 -1.024967620363751486e+01 -5.348249658233684478e+00 1.407209602177506014e+00 1.515384276563158394e+01 6.826308965201729251e+00 1.542120235856038746e-01 9.815907218743528950e-03 -1.963506568252398540e-02 3.063414633745116245e-01 2.187476772131472735e+00 7.847747891126648501e-01 -6.292347156754771298e+00 -7.062225728513679357e+00 -5.904551668892492167e+00 -8.837078830143504149e+00 -1.082540590627271904e+01 -4.862122831230233921e-01 -2.607122297131848399e+00 -7.979758447012949674e+00 -1.698530993397208277e+01 -1.141792936374275236e+01 7.111478629497413273e+00 -1.253219711564555716e+01 9.838637114840421916e+00 1.449990129467405886e+01 1.168964974072566854e+01 -9.846213476690401922e-01 -1.361303410205125175e+01 -1.917463051676298136e+01 -8.758292295884681167e+00 -1.137474173508685515e+00 1.209206839060068006e+01 5.834402612283115630e+00 3.736144912018501407e-01 -6.180522754206535692e-03 -3.455683029928206806e-02 1.731874933841609510e-01 2.427569511529412694e+00 3.468902531753747631e+00 -7.786430337746467423e+00 -1.181018712492415546e+01 -1.762368450840186185e+01 -9.348500065704556050e+00 2.183309236160208666e+00 -1.926230671235330538e-01 -1.301713312809876477e+01 -1.603990371562347050e+01 -1.471497195838680483e+01 -3.277590993265786512e-01 4.860728978732583805e+00 -3.718955218684603103e+00 5.037844213804154592e+00 4.478417453234986745e+00 1.082894397213626725e+01 2.480405536911062914e+00 -2.807304523109742878e+00 -5.736002110700085588e+00 -6.264151214075250884e+00 8.575952604270973723e+00 8.800919887856982982e+00 2.823228336584274079e+00 6.229191133798964858e-02 5.984371926189753846e-03 2.526444653404386412e-02 1.254534885934762388e-02 4.725951877457985617e-01 4.171631505227411246e-02 -7.665445626481663055e+00 -9.748393060913251418e+00 -6.836970894207992977e+00 4.193077481832043318e+00 -3.305423288727742381e-01 -1.237792421661615982e+01 -1.026490194487118934e+01 -3.581528507954214291e+00 -4.086968627787178399e+00 -2.420288240289077741e+00 -3.084067504902611834e+00 -3.907965617006432968e+00 -4.343019781794071887e-01 4.956330038186711917e+00 4.607529157773439188e+00 2.661903936887764388e+00 -2.544168522408055133e-01 -2.678131933200881942e+00 -5.000754843558426366e+00 6.879983550679891202e-02 2.821494600086159821e+00 1.206720393090662480e+00 -5.295170301941475727e-02 -3.506992710540955682e-02 -1.317964145701920088e-02 -3.865752458269154689e-04 3.114462392449618422e-01 2.017644707048543484e+00 -2.289210271494580784e+00 -3.088872218947062098e+00 -5.495306427685155981e+00 -2.965886145368211935e+00 -9.033565621604465079e+00 -1.339893237903950540e+00 1.782775287547093246e+00 5.142578073759920265e+00 1.022041127772419955e+00 3.040022630351795652e+00 1.995417273604034980e+00 1.971765121468321835e+00 -8.610416408881027550e-01 2.742477372764169807e+00 -9.679130801604022283e-01 -2.589861144195793941e+00 -3.857992803374063140e+00 -2.728333162860761885e+00 -1.130180047574276703e+00 -1.153807265275150096e+00 1.083115124902974458e+00 8.653771617842186403e-01 -2.048772499876827351e-03 4.421494192698509698e-03 1.282951893114229157e-02 -1.522172071236361775e-05 1.772737543991801390e-01 6.986729129832269791e-01 -1.935005825641302302e+00 -1.056805145736421281e+01 -2.216331636655214865e+01 -1.615275084813791295e+01 -4.916202678896527622e+00 4.856737064069673870e+00 7.254117060505931747e+00 8.487134341660798498e+00 1.007194304597113721e+01 1.779596861202782421e+01 1.670225379649765074e+01 1.190878906126945225e+01 3.898766387515569587e+00 -1.978453101786436408e+00 -4.394074704668700981e+00 -7.406323831557879878e+00 -6.835314042728531270e+00 -7.471468746796598559e+00 -3.595355548784042288e+00 -9.187064605618887603e-01 5.338983767744049924e-01 -6.312788616004670617e-03 -3.832249731468620468e-02 6.441239915665730384e-03 1.240656632238375419e-02 6.805877630418751163e-03 -4.827353438569175620e-02 3.487083968429642300e-01 -8.400459753405873364e-01 -9.960138929510097938e+00 -1.098749292786538412e+01 -4.601168860840468611e+00 -1.155457701702633372e-01 1.030586513805377713e+01 9.497555679853242339e+00 6.000340379736400109e+00 1.139282060868107216e+01 1.267445313429465159e+01 6.066008717395253491e+00 2.702235430897807156e+00 -6.999566585314027645e-01 -4.109188391206781255e+00 -3.986318971194004579e+00 -4.660867913943706142e+00 -3.418836309864955236e+00 -3.685218616568637362e+00 -1.345206732844496322e+00 1.364701467076559760e-01 4.240269021838600355e-02 -1.562573685568164131e-03 -9.104264485958581468e-03 -7.497540907781441617e-03 3.599167432947188161e-02 -1.878775351335570248e-02 -3.676966821485046482e-03 1.944518451701756079e-01 -2.549220736592420211e-01 -2.138207578712896684e+00 7.698393734395407861e-01 -9.165144876625329617e-01 -1.851200165451896362e+00 4.624158997265417348e+00 4.806929243591408607e+00 2.360710432499520950e-01 2.022373723147452562e+00 -1.354713299776050262e+00 -4.554498339492332626e+00 -1.994064887488486315e+00 9.565374120552750936e-01 -1.213250608867549207e+00 -1.037177030553579904e+00 -1.120752852859854709e+00 -2.541127638354811480e-01 -4.049150032079363304e-01 -1.238416564043082202e+00 1.821543860818744184e-02 -7.323158882261297624e-03 -6.808208633163649603e-02 -8.614175985700080543e-03 -4.098631464159500915e-02 -2.372649665982283149e-02 5.629956204252527241e-02 -2.076264261309970424e-02 1.895952988244815896e-01 -2.597098815013464956e-01 2.344181996752886243e-01 1.357792055041610046e-01 -3.543149481048118443e-01 5.698553627698142027e-02 3.981245964946897309e-01 1.056791589606897785e+00 3.912952609285403893e-01 2.840580918521305037e-02 -8.910868857276541544e-01 -2.497363737125070315e+00 -1.015111109630700170e+00 5.940831111341936532e-01 -1.955634585337646003e+00 -5.120983771361911074e-01 -2.613803593946174564e-01 -9.100720628353983765e-02 1.037413080873691301e-02 2.255169736026742949e-02 -1.677589864518280738e-02 -2.368537285326387590e-02 -3.450925719235286432e-02 1.025603573650025677e-02 -5.778587444222366837e-02 4.509337756750723264e-02 -5.011423594845233753e-02 2.955497445210503518e-03 3.365214214864426217e-03 8.673926317688476642e-04 7.521647556814510527e-02 1.247647572658330210e-03 1.154126235411925966e-01 1.675663287591879214e-01 3.419403084127497494e-01 -1.937155847737679834e-02 -1.620078651562081168e-02 -5.089749611389068028e-03 4.049059691634699504e-02 -7.199993580550914096e-01 4.648284818159907350e-01 7.344442521745064845e-01 -2.556956014226012819e-01 -1.334475860482791376e-01 -2.723374852049088857e-02 1.454706882981236966e-02 -2.162462167817882572e-02 -1.719434809882268780e-02 3.194216520413407402e-03 -3.046838810772769038e-02 5.192336096247382460e-02 -2.766609123644715295e-03
1.363485825559568841e-03 1.587071331458673323e-02 5.618485621033760327e-03 -9.541527825162430740e-03 -4.593080104782216143e-03 2.920510363213818864e-02 -1.748598672714554020e-02 -2.301078668616305528e-02 -5.765062757469328197e-02 -1.360730418504842686e-02 8.490679449961893374e-03 -1.679911612262561735e-02 -4.775685380403667940e-02 -9.767332189623010100e-03 4.772915032602000757e-02 3.457566146234683502e-02 -1.971904660946107932e-02 -2.229855006326970923e-02 1.460355903012390891e-02 -6.925461220493447922e-02 7.104392174230811374e-03 1.540632923560807457e-02 1.193035541202513289e-02 -1.983327442120565165e-02 -2.743989869174822196e-02 2.211101976575317613e-03 1.994351473772056071e-02 1.246589864338866656e-02 -1.759647460818886469e-02 7.500307880113285530e-02 8.720711967272107290e-02 -2.679032156789870611e-03 1.074941597790652313e-03 4.055875420546244808e-02 -6.068347585308959263e-03 9.818253891589322213e-03 1.548565474552395828e-02 -8.922450945424047208e-02 -3.459451010298976725e-01 2.847305087767923459e-02 -3.675150535287420306e-01 -3.414349282340634062e-02 2.768878524454269907e-02 -1.110923659983759429e-02 -2.733232083174605420e-02 4.124769393249166222e-02 -3.388728261609203624e-02 1.008928214157620018e-02 2.793607026059328688e-02 9.032167394237254621e-03 -1.439018623876730900e-02 2.203461197138061045e-02 -2.590832823172691413e-03 1.943654245151379620e-02 5.837497333409000233e-02 -7.588945823167802737e-03 1.305681569175571634e-02 5.669578512937643172e-02 -7.477609179248267957e-02 5.966521032630823368e-02 -1.869123268933595844e-02 2.604443171087403655e-02 -2.700411515506456750e-02 -3.851746086945647130e-01 5.639182898483542372e-01 7.826082060543009256e-01 5.900144518730057186e-01 3.635696214721274355e+00 5.373169296686361562e+00 1.400618303447827451e+00 2.043679901360779372e+00 -2.737046278775204233e-02 -8.142108545905180073e-02 -9.703732880678475614e-02 -7.243433195577290984e-02 1.728824160258806558e-02 8.909612974526462392e-02 1.522586689945371607e-01 6.759783117928276630e-02 1.510804680880958005e-02 -2.650546435507865274e-04 5.245559085630763230e-03 2.650637520643802855e-02 1.118576506386335587e-02 -2.288383831143935704e-02 -1.866556855140148394e-02 -1.777652758750768169e-02 5.174406996488092186e-02 -1.155957282698261562e-01 -4.696915062426271770e-01 -1.140623998186396593e+00 1.771979718758264877e+00 4.439080002565132688e+00 5.813353655157414757e+00 2.467436361077237628e+00 4.143009305462092229e+00 5.530769839581651581e+00 2.275629144235839174e+00 2.129749415676814195e+00 -2.995966739443148175e+00 -4.137355049202384727e+00 -9.451015402410904986e-01 3.869718287644190902e+00 2.188876020229355124e+00 1.106654841369792530e+00 6.262599204914183204e-01 1.847358278053908009e-01 -1.839133462955826193e-02 -1.205915000049032694e-04 -6.392292076336102136e-02 -1.829607034047102052e-02 -4.400989582718395354e-03 -3.622587144838657069e-02 -3.662728053037823256e-02 3.911013158285669283e-02 -1.200584617197291912e-02 -3.341089381099398570e-01 -2.814335121416839947e+00 -3.627682159066080825e+00 4.047852222573658842e+00 5.987791958350443977e+00 6.990692215885705885e+00 7.523988834279558446e+00 5.599671844583533620e+00 8.009159000478625501e+00 -2.432273973335329575e+00 -3.751911348314605821e+00 -3.167835788811797393e+00 2.745373302436798113e+00 4.065295515571224705e+00 5.302789571721929995e+00 3.868400162506376194e+00 2.261173269463454982e+00 1.920503461487666153e+00 9.174297012373078264e-01 -3.313010030489505625e-02 1.799093954191385847e-01 2.712594431791659488e-01 2.871830846082532723e-02 -1.007004211102836963e-03 1.395190900067712521e-02 -4.560934387157582898e-03 1.107429354690139395e-01 1.845560378001048774e-01 2.042755300827683168e-02 -3.768903703805772221e+00 -2.037045386269704217e+00 1.032478022426954745e+01 1.111347336611993519e+01 1.513360144158930076e+01 1.322378459295614661e+01 7.332370198486000135e+00 -1.711712599974678506e+00 -1.584835875529365268e+01 -1.427742311755935667e+01 -1.390623312323310223e+01 -1.561341165501912975e+01 -1.155022887259036679e+01 -3.607716858054873299e+00 5.396684666156865262e+00 4.572264511422686084e+00 3.222988879045089572e+00 4.455809926695648571e+00 3.541865328998701212e+00 2.910626913685502082e+00 6.396734821435746676e-01 2.370821264069470496e-02 -2.363631305001593838e-02 5.801541653262833921e-03 -5.572667299790418950e-03 8.821479258857869987e-02 1.868537193268978713e-01 -1.933510600896521103e-01 -7.008557657265779284e+00 -4.710276338986294498e+00 6.820918280115247256e+00 1.340388892186299508e+01 1.353563120611149451e+01 8.417823833180467119e+00 -1.227935662063848854e+00 -5.835983677035520678e+00 -1.806789788159454702e+01 -2.625107793433787151e+01 -2.839270310010093468e+01 -3.137706174913852664e+01 -2.343411860025220506e+01 -1.129924448232886469e+01 -1.739671298287923218e+00 4.750523836187501736e+00 4.813543544408499741e+00 9.726632380887474838e+00 5.477956540259638629e+00 2.903564801226541370e+00 2.729598133968491158e+00 1.721898755112181822e+00 4.289632280084142157e-02 2.098116486963946120e-02 1.751422887630503522e-02 -1.504761230967474883e-01 3.652400912146993028e-01 8.772832470897695689e-01 -4.652918506865190373e+00 -4.993779377647578066e+00 1.836202766050766932e+00 5.303335374400896640e+00 4.953050654926554608e-01 2.159432547611051856e+00 5.557137494947576251e+00 7.471173141570612408e+00 -1.654187454227842480e+01 -3.034448358609563101e+01 -3.520486526326727272e+01 -3.693687345104691389e+01 -2.521794687832403525e+01 -2.097138728004901154e+01 -1.043524293616213328e+01 5.898131209258480112e+00 4.424368676624125030e+00 9.631420628873542000e+00 6.441340626358927679e+00 6.962282799751561946e+00 7.357264755335565454e+00 9.666022217245320292e-01 -2.457973949798448673e-02 -5.655374088021328412e-03 3.530944161126588376e+00 4.658158480948667801e+00 7.251933752307565761e+00 6.744906081536163889e+00 3.401412772053933775e+00 -4.987927455128790655e+00 -3.813532591970161256e+00 6.253954063796044238e+00 1.144340540590827260e+01 7.311504610300039175e+00 -2.894099091927875289e-01 -2.604491208537455194e+00 -8.946432186495085759e+00 -1.296953324249074591e+01 -1.764457313156252738e+01 -3.970932989664449764e+01 -2.590405341133083539e+01 -1.711784269324061114e+01 -9.568838633813372851e+00 1.107539174074308619e+01 9.501012681222626099e+00 7.018417136480371354e+00 9.510119172669357468e+00 1.218890464100814164e+01 7.547518886102215774e+00 7.460500604476955067e-01 7.063577728480525952e-02 -3.296743394357395940e-02 4.154773533512940098e+00 8.974450896492053076e+00 1.067816281912354626e+01 8.550059220352819622e+00 1.165450620078664912e+01 -5.225132931381068602e+00 -3.624700467489815114e+00 5.384027729172149890e+00 1.381230991088129656e+01 1.551660960178795345e-01 -8.589596995814087421e+00 -1.504822242265280963e+01 -1.591627043221297200e+01 -1.623901158433105962e+01 -1.143693201870491727e+01 -1.750697544703157504e+01 -1.199317808757494053e+00 -4.216129332768636218e+00 8.334320292903868443e-01 1.438686927872673493e+01 -4.295058265869759473e-01 4.342619712910500973e-01 3.552764424419635247e+00 8.246134779581117513e+00 9.309710905365854217e+00 2.233174633733540304e+00 -2.116307312761035037e-02 1.935809927245867729e-02 9.364776142085211585e-01 8.585687080061411791e+00 1.178101945830573172e+01 9.655060256338664715e+00 3.230410437290236025e+00 -3.116259830564894528e+00 5.779609136125168689e+00 1.060623968764650371e+01 3.262703259028048031e+00 -5.970273203064460965e+00 -2.393930048911845887e+01 -1.344074006032839108e+01 -2.724763196196410675e+01 -1.318624627280655126e+01 -1.055428295062519872e+01 -1.759116458955233497e+01 7.675956062273416869e+00 1.498864807149082212e+00 4.427227959968611515e+00 1.913840311676524308e+01 1.168065693837656349e+00 -1.190739223571286365e+00 -8.060302350851907605e+00 -1.047682314698421813e+01 -2.851862943918345383e+00 4.666606945733882128e+00 1.092760452281038158e-01 2.526485069898421875e-03 1.369672399560623310e-01 9.203245668160814574e+00 1.585676222842179861e+01 9.602867091823680923e+00 -6.366992993182714056e-01 3.177845760831468969e+00 7.694686280364572362e+00 1.372457211156463153e+01 6.983854068093478418e+00 -1.031981653183539827e+01 -3.025046846460597738e+00 -2.638383952582328362e+01 -5.155314709000017359e+01 -3.236897443495249149e+01 -8.547226661914827162e+00 -5.988034274254677491e+00 -7.654075615863312199e-02 -4.889716187021688754e+00 3.066553224277255740e+00 2.671762162402019669e+01 -3.208351469076697882e+00 -1.803985939449507825e+01 -7.439253575613864911e+00 1.226723348529062063e+00 4.949897749501564803e+00 8.469032458482702808e+00 1.922338175708765973e-01 3.901393352682507726e-02 1.541427534952344303e-01 6.488193841664918082e+00 1.745313559524014480e+01 1.223817109426894589e+01 1.521991920800584452e+01 1.147153310952753635e+01 2.280888224621976690e+01 8.790832667159907743e+00 -5.869855417757980476e+00 -1.247456513896046104e+01 -2.134694520341250623e+01 -3.085434454399375781e+01 -5.496692477848342406e+01 -1.823746510623142569e+01 -3.748642009778214490e+00 9.728541606691148758e+00 -3.165018732574162996e-01 -1.793625411044584084e+01 1.303554149013246999e+01 2.617090265979413743e+01 9.346620878857441639e+00 -6.609709650713451623e+00 2.187610789322899318e+00 5.268068681129022934e+00 1.449099918805200105e+01 1.180041519587713772e+01 5.659181732044216151e-01 5.592905482977696130e-02 4.977565559992319644e-02 6.060855716020850714e+00 2.306883356961730058e+01 1.154497780146254549e+01 9.643283600351427509e+00 3.083424886176842961e+01 4.403431089882123217e+01 1.889184249218498479e+01 1.188010564632319266e+01 8.666795144538255613e+00 1.278878313268757871e+01 7.378124822206389766e+00 -2.118431270112550280e+01 -9.947393643486012849e+00 -3.546475918976694341e+00 4.703839144169413844e-01 -8.909917735426084562e+00 -1.697704904953159399e+00 2.500980038904198111e+01 2.889850966635059137e+01 2.946799092024194877e+00 -1.620805940140246904e+01 -5.018240961588743332e+00 6.327689206112372844e+00 1.113103679240890287e+01 1.886371963771752647e+01 9.849859895964420131e-01 2.556882284030046262e-02 1.546673307998631897e+00 7.190619186092348514e+00 2.053817598624641860e+01 1.084381488152955875e+01 1.019943881594660873e+01 3.969146018457451852e+00 3.122336635291360096e+01 3.150304233867553449e+01 2.113451949654580986e+01 1.106100995870032833e+01 6.214224329452023632e+00 7.691818016178132211e+00 -1.087255790842951209e+00 -1.738195620878992287e+01 -8.023182333624021112e+00 -1.144683013240375935e+01 -1.005818226885446265e+01 -1.873945324194496109e+00 9.250639354962920891e+00 1.558066737591740392e+01 9.330855352924436019e+00 -6.784090715526766679e+00 -9.153432571624280811e+00 1.575346813144383518e+01 1.679393394340698364e+01 1.361164839762066414e+01 9.563734065048941080e-01 4.748031083165502736e-02 2.306515470122860290e+00 1.042585682704977756e+01 1.827876433520567190e+01 4.161967140379609020e+00 -6.871015523565421113e+00 2.695279613920937845e+00 2.085669181037082964e+01 1.929138177317920366e+01 1.714606248821062806e+01 -5.459676237273833443e+00 -1.123775844928433543e+01 -6.695520155450193300e+00 3.535050930141390602e+00 3.105088554677392310e+00 -1.196342559642242165e+01 -2.731458935057939641e+01 -5.722393139375500759e+00 -1.119043263800698718e+01 7.881487556583230081e+00 1.115028104574136236e+01 1.017191512651989171e+01 -1.321135843927158682e+01 -1.786437558225362565e+01 -6.186899062462271282e+00 8.226778520899008740e+00 1.005127841672806532e+01 1.343615907673304077e+00 -3.083987419858576218e-02 5.307410570474798694e-01 2.991993415850353166e+00 1.199116031205729627e+01 -4.216177865686113080e+00 -1.761738207968163650e+01 -8.272267653390743547e+00 1.004150827870716256e+01 1.306193583006659331e+01 1.870162928511451739e+01 1.264315983540932287e+01 5.171240962492333892e+00 8.730822404555862448e+00 1.718222591683620237e+01 -2.347645842488621071e+00 -7.081552113540051430e+00 -8.219189678688776368e+00 -9.547103961793018456e+00 1.844138861056321188e+00 4.826156246810170636e+00 1.066308139328455695e+01 -4.237267554714195583e+00 -1.641866486522105006e+01 -1.958921736292614568e+01 -2.923075148244346444e+00 1.943990009989632028e+01 1.084687463147864328e+01 1.232048958457244048e+00 3.770647198615759838e-02 3.234791244935629473e-02 -2.491297270677423015e+00 6.402933760489735171e+00 4.724067466450114772e+00 -7.105952933805429694e+00 2.989276127867588340e+00 1.986377073318945463e+01 1.933839453182272905e+01 8.942077721051159500e+00 -6.771065695510845472e+00 -1.029159784377312192e+01 5.487274766007022464e+00 -1.926245776623951300e-01 -1.725649561199410931e+00 4.799742719275792879e+00 -6.419692183111822104e+00 -6.739199548149997554e+00 -1.205150099908338213e+00 1.657463252278941757e-01 1.474625344780006397e+00 -1.186425518621910591e+01 -1.130381902526172055e+01 -7.524019570814324709e+00 6.445045011075118069e+00 2.755598091566408314e+01 7.772147232260685712e+00 4.596226202441182629e-01 -3.208904188020122311e-02 7.472202334126880341e-02 1.282846190851964385e+00 4.670686878259709296e+00 5.129384042448633885e+00 -1.207572163675973975e+01 1.042216576768939618e+01 1.016999258341794388e+01 1.002812149350681636e+01 3.369144714107879857e+00 4.715560860902632712e+00 1.006825641250304315e+01 1.910042359249332478e+01 7.178072848030556230e+00 -7.230701944058318453e+00 3.820111110849123470e+00 5.974994703812008812e-01 8.461149791869408077e+00 1.122998936915286516e-01 4.330437593110633365e+00 -2.135609671619973060e+00 -1.527349824163034420e+01 -1.209736664489656377e+01 -7.470413623435028683e+00 2.128471648309787412e+00 1.581557390843428124e+01 5.561151724903443672e+00 8.803091426698878008e-02 3.499439983728969833e-02 -3.623691345472559999e-02 2.970601432345677528e-01 6.974481305831858879e-01 -1.996307604378936285e+00 -1.147425995320208969e+01 -1.305212369282075358e+01 -4.416828830864982791e+00 -1.180448928905583905e+01 -1.074003511675651978e+01 5.501159397622684688e-01 -2.128270477212509615e+00 -6.239238549704930747e+00 -1.590957908834114676e+01 -1.330637200717993274e+01 4.105087582745909458e+00 -8.468425248057949162e+00 1.663529382675424984e+01 1.107040288728644306e+01 7.685606393906265765e+00 -4.213942944683657821e+00 -1.580268874014861957e+01 -1.857262533641095104e+01 -6.565725319921137171e+00 -2.103855620222710332e+00 1.118121125319966858e+01 5.398310915996576753e+00 1.152839023668563945e+00 1.903242038023750596e-02 -2.925079551182719131e-02 2.201716253014931179e-01 -1.130137831362596046e+00 -3.905936376720767544e+00 -1.461829274628180286e+01 -1.902951762741894370e+01 -2.302416539471366974e+01 -1.700281765159284575e+01 6.989070586239238381e+00 7.980123355629342718e-01 -1.871735040176659837e+01 -2.454039282192161409e+01 -1.500561696175622473e+01 1.824699228125860717e+00 5.746849491779122410e+00 -6.851813101185900701e-01 9.071714894465392476e+00 6.304416788098727409e+00 9.150691096378762879e+00 2.224454849883188423e+00 -3.122348549788461547e+00 -3.034227069129771248e+00 -6.132996179039036377e+00 5.351550608676500786e+00 6.461661614460716407e+00 2.439713395274667906e+00 1.162521127713377206e-01 2.913617002353168298e-02 7.815998400058091905e-03 -7.143582865716106844e-02 -1.837094639979645061e+00 -5.890473960274664300e+00 -1.505818165738992676e+01 -1.681152878953419716e+01 -1.414205735986321599e+01 -2.329881777825872913e+00 6.053417415325853312e+00 -9.753989941024448385e+00 -1.121758013505485785e+01 -4.425706541040304032e+00 -2.146901128398753578e+00 -8.197517235565083826e-01 2.373333740407438164e+00 -1.423346708745340639e+00 8.314818035534690566e+00 8.358818713289029034e+00 7.078460596574482011e+00 7.247937084026013110e+00 3.311706872174804417e+00 -2.678862436234328737e+00 -7.437944869981382823e+00 -1.283893882283366983e+00 6.629596884116617517e-01 2.047009960458090472e-01 5.148466077308630484e-02 -2.940276204688857878e-02 -3.521471757880001788e-03 -8.030621628899403674e-02 -1.366314759042474014e+00 -2.156379230423054238e+00 -1.011293101314218035e+01 -9.144040365215658994e+00 -1.288195446186708182e+01 -9.144419799573254792e+00 -1.108109672933272982e+01 -4.060345500524487505e+00 -8.204954826187048411e+00 -8.074159234609687985e+00 -1.178284423978816342e+01 -8.700930221546480325e+00 -7.134506764178735416e+00 -2.788583617597187314e-01 4.071749725142805865e+00 7.785272325378860714e+00 7.281500524485838177e+00 4.868335978833902900e+00 3.701144454885346047e+00 3.111176965237907766e+00 -1.400080594914470566e+00 -2.343265686601062381e+00 6.160436188302544913e-01 -1.167561972900767187e-02 1.794426820365322903e-02 -7.234154487832707842e-03 5.116096036487334520e-02 -5.039632341823461342e-02 -8.971496700472203489e-01 -2.282581466830552408e+00 -6.674292726127280417e+00 -1.817403973825732777e+01 -2.877628322455483456e+01 -2.272998969078184572e+01 -8.817456504243450510e+00 -1.883448966845914008e+00 -3.541478027210375856e+00 -3.126494730712237935e+00 -3.293289577163051263e+00 5.794022570249414805e+00 7.377958231268622491e+00 1.410230591733656169e+01 1.426726608911860517e+01 6.039637837541973475e+00 4.212508787596619619e+00 1.171620825147384970e+00 -1.360725116248069910e-01 -2.950618066191467381e+00 -2.916177892570592789e+00 -1.201195416732259824e+00 1.758275750115903535e-01 -5.068071014789696238e-02 -1.686186268759644682e-02 3.629033864976762783e-03 -3.470847987269216894e-02 -7.987659803920152922e-04 -4.132363486349027171e-01 -1.204172797117538218e+00 -3.978470677493834096e+00 -1.679703020370951805e+01 -1.802146926448254050e+01 -8.854015556682949040e+00 -1.707735919870151164e+00 9.494694292475960751e+00 6.455667943126116803e+00 1.273878807635380417e+00 6.438276764278496600e+00 8.281753494359373136e+00 4.083523436650707161e+00 8.307171119084545197e+00 6.852820915047749928e+00 3.573614645882576379e+00 1.787801061133912128e+00 2.247909352271550087e+00 4.923069080163941513e-01 -2.284562161015273041e-01 1.491831022589968025e+00 2.641873384736547273e-02 5.216403166896910193e-02 3.842540542124273789e-02 4.566401994809787812e-02 2.048042021910289820e-02 3.290084184465755929e-02 -7.145166737675585911e-02 6.349968754461485232e-02 6.950913894960403239e-02 -4.533921808397674003e-01 -4.304016357615205735e+00 -9.479902766906783684e-01 -1.285432335205040744e+00 -2.182760717439025555e+00 5.623766650463760897e+00 5.757077480574956496e+00 -3.680789083232535175e-01 2.353181630720291739e+00 -1.412892745489940927e+00 -2.491534641356157209e+00 3.319521290043833339e+00 4.241141672201640844e+00 1.877090758676402293e+00 1.869339729650774773e+00 1.072219541355774686e+00 -1.910659681852139996e-02 5.521477925562727762e-01 1.464714136409353218e+00 7.352433338545585895e-02 -4.499985453107049199e-02 -6.274677400974769392e-02 -2.267494957791169746e-02 2.631937674472789243e-02 1.805583046567851499e-02 -2.746895197018128787e-02 2.840328181767807700e-02 2.044787648079456899e-01 -3.093741471128122478e-01 1.469342162058645540e-01 5.795321142368770051e-01 1.279630210912303223e+00 1.637075455659407763e-01 8.931817086278326379e-01 9.427605209630885996e-01 2.502289113951193245e-01 2.918639395968374364e-02 -7.070381065789769215e-01 -2.503340448587410005e+00 -6.137524950511238364e-01 1.928185278920029555e+00 9.547360217787252967e-01 9.067303608794795577e-01 3.973322100144973668e-01 -1.678291720276033072e-02 -2.418233304623642471e-02 -1.587712646578973499e-02 -3.401486477959728832e-02 4.817169211948141815e-03 6.278803857673197208e-02 2.224721228484859842e-02 7.056128882875330188e-02 -3.808496854704885443e-02 1.753312071210547107e-02 -1.685035049967910023e-02 2.947159414694866530e-02 2.042298115196042319e-02 2.055701555498958277e-01 3.873555453046973948e-03 2.977952951673374371e-01 4.634942591906075771e-02 1.610124266586728803e-01 7.995222487314146897e-04 1.690474819104866369e-03 2.471922703044765815e-02 -1.379423157766465624e-02 -8.151591336479735439e-01 9.606386958274517607e-01 1.318088698374664913e+00 1.031729208910204393e-01 2.311560139931442825e-02 -2.593499273666164534e-02 2.615452790883200304e-02 -3.175999745220623588e-02 -2.768687338903650860e-02 -8.804680728891142727e-02 4.048642325240239120e-02 -6.244776452282642387e-03 -1.918392813380626191e-03
2.917198182050611058e-02 7.454531886745995040e-02 5.979734205708841371e-02 2.028843795045874240e-02 -2.771096659398480933e-02 3.066368250948170449e-02 6.699722825102003010e-02 1.519018405306102847e-02 5.670044441596575752e-02 -5.616090836165697764e-02 4.389421002775607122e-03 -4.684043501037227220e-02 -2.716912049226643741e-02 1.779351957465767631e-02 -4.157300687762194996e-02 2.313889490488038256e-02 -1.020844245565640795e-01 -2.982973841362156903e-02 3.302231277886361061e-02 2.647608812995813285e-02 -1.389181247404196184e-02 7.348002482563677218e-02 -6.109541869237444106e-02 -2.195229940546014266e-02 -9.274142474711390832e-03 -5.437172692814833813e-02 8.233886588122404232e-03 2.630092034276326068e-02 -3.041157895821182747e-02 3.146849578502684819e-02 -1.566695383525326321e-02 2.341416663638214157e-02 -5.625039671069276617e-03 5.896753798723997769e-03 2.314177927986865377e-02 -5.919357670847481129e-02 -1.122446335442422727e-01 -1.521695312865122829e-01 1.017051712219246978e-01 2.268315099870510110e-01 1.629333177820221357e-01 -2.359566749634393196e-02 1.731529631376678771e-02 -1.736282709937763541e-02 -2.000231921986516531e-03 4.171638640480898608e-02 -2.899331587524434095e-02 1.160249113007676657e-02 3.850243064070053671e-03 -1.477654837448310471e-02 -8.319969679681576621e-03 3.946696537259680726e-02 -1.566105340480152333e-02 -7.424759091111975129e-03 -1.367856548558309127e-02 -1.385845055496469184e-02 -4.491903287426089741e-02 3.899616295332104798e-02 8.866746404484935132e-03 -1.057918397067276507e-02 8.508943404046703796e-03 2.090316401148442291e-02 -4.855514805520347310e-02 -2.114191394257014245e-01 -2.114799812848838223e-01 2.465837995557370044e-01 1.887581422858526370e-01 4.076116776430920297e-01 3.999728192466883159e-01 1.259652471301201393e-01 1.706167631127908924e-01 5.107211858640627877e-01 5.617208476849387955e-01 6.248187725566748396e-01 6.281433302563625976e-01 1.434896254167130070e-01 4.235917963204752917e-02 9.686624133524247837e-02 3.766542304948528042e-02 -4.934165986009076549e-02 -3.172095882971323003e-03 -6.050978386004179921e-02 1.388934587956864794e-02 -2.121243228020112601e-02 -4.838692100055343170e-02 -2.211242397318706129e-02 1.107611896628878621e-02 3.692371899052988155e-02 8.548017129246986145e-02 9.918827645061123466e-02 6.457824548997092018e-01 7.488748426309086437e-01 1.122520581368608772e+00 2.093277309601327740e+00 1.829795113637863402e+00 1.863867256326295352e-01 -3.423759230353870642e+00 -2.246827674464915603e+00 7.350999825385665654e-01 3.695895641984998092e-01 4.536892225491759995e-02 2.199732536495601076e-01 5.115849081574850299e-01 7.800873048169404411e-01 2.634902119400349685e-01 4.514502743826844244e-01 2.798427638541843288e-01 5.609472729055828277e-02 -2.975507858742082110e-02 -2.626847183894648677e-02 2.926502269251361320e-03 4.825989767509874379e-02 -1.746314830143122845e-02 1.656492278739343793e-02 -5.986840747922811574e-03 -4.538705572722253473e-02 6.232225635626550408e-01 2.383784463706754675e+00 3.400638229533498258e+00 4.811023978145325231e+00 5.965365163294008788e+00 5.226373550151165226e+00 6.720834355974396601e+00 4.722275139423116386e+00 -3.373053722028960255e+00 -1.845896621575898067e+00 -1.975758268226946779e+00 -2.710407216756341775e+00 -5.679517620473410133e+00 -7.069318404744956652e+00 -2.423455097056014917e+00 -5.334216864079495135e-01 2.634788065587208905e+00 7.716613172874423610e-01 6.932787695683965135e-01 1.006234737797713663e+00 7.961805337826803886e-01 4.507757492233573915e-01 3.768299171057228059e-02 -7.872104831275704429e-02 -9.800287935605542233e-03 2.256857927835469180e-03 5.524008784820719220e-02 -7.185563073536659073e-02 1.006416546488730634e-01 2.760207014563885508e+00 5.887839391517545096e+00 7.154397549565476133e+00 8.046500144772663177e+00 6.834891101773966859e+00 3.808956827877097773e+00 -9.954517928685040484e-01 -4.366224535886897407e+00 -8.461727534844683873e+00 -1.754161667213168485e+01 -2.583520739259897780e+01 -2.818060733470036183e+01 -2.189559672954396063e+01 -1.198527204511689348e+01 -4.302623936036215291e+00 -4.321473413827942700e+00 1.454975032762918286e+00 3.356793061605177542e+00 2.849095571589651765e+00 2.299456453802307898e+00 1.023129410975616160e+00 3.692552971495006824e-03 -3.524342412642837014e-02 2.269258939269153466e-02 1.624862274016741423e-02 -1.330140190282006751e-01 -4.039803971741364741e-01 -7.634384824727274976e-01 1.962099407488524072e+00 6.622718980356936846e+00 8.165606566519761245e+00 1.030552041035324073e+01 4.960402929125789839e+00 2.240040575093267705e+00 -2.606577176950233721e+00 -3.796144290483663308e+00 -1.942973783967083534e+01 -2.114013303778736486e+01 -2.138164166706100389e+01 -3.027497383077554716e+01 -3.323733002408903303e+01 -2.071743032546993746e+01 -9.188542692126913991e+00 -2.572500066200821500e+00 1.091177868904746662e+00 5.508183731590856169e+00 3.031798026074025376e+00 2.813911741793988952e+00 1.240283111833427432e+00 9.352163430817070355e-02 -5.978430911328003368e-03 -7.245692500480294986e-03 -2.646790399652318784e-02 -4.005516711626257442e-01 -2.985725484150774989e+00 -3.260645549948639310e+00 3.770914168757200091e-01 7.405071987881136408e+00 1.253911808077876699e+01 9.680960190117611219e+00 8.785652737190746464e+00 8.447991323889942450e+00 4.824958157398324232e+00 -1.389903089105945844e+00 -3.486877372927925212e+00 -2.004159229672526799e+00 -8.890543288031507174e+00 -1.163270577695292118e+01 -1.894854862556497821e+01 -2.543940194463487003e+01 -1.861441719216098178e+01 -8.064950461817762317e+00 3.278036090874719921e+00 6.789065395654435342e+00 7.572391528582109288e+00 6.165577196745288369e+00 2.722435517734333565e+00 2.029820358352989462e-01 2.063122921859789072e-02 -3.847418758193911492e-02 -1.875663027867826571e+00 -3.308254557851963984e+00 -6.722985642985165988e+00 -7.342524838391610409e+00 3.476385832482176141e-01 9.156514318344218140e+00 1.248930434919696708e+01 1.611551881279226706e+01 9.472991698142198658e+00 9.500253634090425336e+00 5.111030477187587628e+00 8.825827437029060363e+00 1.344818434442951194e+01 1.242901301732675279e+01 6.610639214790420937e+00 -4.733024009120747166e+00 -1.820163058564614644e+01 -2.892998074235791961e+01 -2.790934992293550820e+01 -1.936451156941605234e+01 -1.075917731322576820e+01 -7.293063677804719758e-01 5.670346074767850020e+00 1.222388501620010359e+01 5.967949793755390253e+00 5.720735366488424178e-01 4.026702150098629418e-02 4.155022557796192451e-02 -2.194619962413288938e+00 -3.816612168217218493e+00 -5.959283042100966377e+00 -7.279740937721993710e+00 1.811087385354793300e+00 1.422180593349141731e+01 1.960173460801219036e+01 1.445555928140313995e+01 1.161077018761525537e+01 1.029408536941146401e+01 5.995734904839627788e+00 1.668466762140014836e+01 2.123649859384754279e+01 1.169232104157265084e+01 -4.774980611963581256e-01 -7.724289557552831198e+00 -2.035959086337917867e+01 -3.283689283817653859e+01 -4.857956996246578996e+01 -3.303965931613038975e+01 -2.282430610241349456e+01 -1.078063708783727392e+01 -6.128178156891467054e+00 1.531480672695539269e+01 9.273131673691977994e+00 1.444167955069367348e+00 4.313250718085716306e-02 -2.817061556141966031e-02 -6.810136084866420525e-01 -3.512567383871468607e+00 -6.296122142032100300e+00 -4.499988171186387831e+00 4.584965027223645073e+00 1.169750514096809191e+01 1.269979782165338555e+01 1.087689449637128014e+01 1.039091015746057955e+01 -6.036427936345072354e-01 1.292320548220872389e+01 2.748082471740818988e+01 2.135970459563769452e+01 8.803202136306709225e-01 -8.319916272424789483e+00 -1.144392260250251248e+01 -1.422944328402387093e+01 -4.333330947208706618e+01 -5.927341795532669977e+01 -4.591990939041101427e+01 -3.688398716769197705e+01 -1.245175053851337310e+01 2.833223447814912976e+00 1.452550102831037471e+01 1.181286742925323807e+01 1.650978938264758167e+00 -5.595845863810669507e-02 1.892677534498229605e-02 -1.504559172643745502e+00 -4.527666832780752770e+00 -4.670423429190400988e+00 -5.501121574410955617e+00 3.014652316774805829e+00 4.142502968407391961e+00 -4.872708693479219200e+00 -3.756123992747753437e+00 -2.337476674904900520e+00 -2.437733453191689659e+00 9.781200639926010965e+00 1.756502242319312401e+01 1.746284215882582203e+01 5.936798683867363202e+00 -8.025780559879848397e+00 -1.226935470236993098e+01 -2.394250090995646829e+01 -3.798455273450989722e+01 -4.801219927581963987e+01 -2.767879740244717723e+01 -3.278064736403876367e+01 -2.732009541552800869e+01 3.912429523628394801e+00 1.673033237173280696e+01 1.003300120491282499e+01 1.622161254621178550e+00 -7.042030960981139620e-02 -1.416341743885497079e-02 -6.694471167160597203e-01 -4.210908559997992739e+00 -1.252834051860250764e+00 -4.925816571312839010e+00 -2.226605716190720230e+00 -6.640946112962788916e+00 -2.679937701522412397e+00 -1.565604895899022964e+01 -1.757829854655013335e+01 -5.770298196769426902e+00 6.750332859258092455e+00 1.479541916420062009e+01 3.186367883567529447e+01 2.000387601995536713e+01 1.305706972162033175e+01 6.039077130713084607e+00 -2.642827189308507574e+00 -2.169374158550351339e+01 -3.314992326963621849e+01 -2.658877201039172178e+01 -3.257089397385411189e+01 -2.146818167014715328e+01 -2.597748519804267353e+00 1.540265791322972611e+01 6.202871945220450378e+00 1.269056539324898925e+00 1.059303311323897719e-02 -1.951140505796769217e-02 -5.655806709294026735e-01 -3.468212390583527593e+00 -3.699890833106480592e+00 -9.635658266118698023e+00 -1.629140858867760144e+01 -8.205784950730988569e+00 -7.582613963262838652e+00 -1.809533422886318377e+01 -1.427548665082120216e+01 -9.520306890209832673e+00 3.852064375019453202e+00 1.145884999256135295e+01 2.774424801212887814e+01 2.896768111391589073e+01 2.970710213811975819e+01 1.378343868690291174e+01 4.507527102363098948e+00 -5.946351308703385463e+00 -2.309132475311086097e+01 -3.049351068933445319e+01 -3.486620918554163495e+01 -2.122821243583850048e+01 -2.484536930572192048e+00 -7.412371386407587415e-02 2.297124098494529587e+00 1.818990370437232329e+00 9.583754053967226405e-02 -4.763522927454003856e-04 -7.029610015706615200e-02 -1.233812543565395936e+00 -7.742444017439505721e+00 -1.800419443657044027e+01 -1.819590920379410548e+01 -7.258368358747239846e+00 -2.916437298698471903e+00 -1.694337185274383728e+01 -1.414428026796512761e+01 3.722591492544965686e+00 1.122553741838048502e+01 1.390178923095195174e+01 2.814971287212288686e+01 2.937694857124239434e+01 3.621054781077135942e+01 2.253025706644152137e+01 7.271848850401065434e+00 -9.554925940933745032e-01 -2.280508616777562381e+01 -3.654414163136500093e+01 -3.637066162662803492e+01 -1.468499010106108926e+01 -4.649946834708141852e-01 -2.872558429066268681e-01 7.170138737950222385e+00 5.728060773407017692e+00 7.510803622076995811e-01 2.356700953671345480e-02 5.581526893511270376e-02 -1.701123829536540066e+00 -1.390122980039689793e+01 -1.266595029267378258e+01 -1.628744451893082257e+01 -5.161156854759481938e+00 -1.091568690344405468e+01 -1.734173721671112389e+01 2.482731829827549141e+00 2.606195485235028642e+01 1.959762841210322648e+01 1.893226157091335438e+01 3.363132316957738510e+01 3.233454866453149634e+01 3.883005532733051979e+01 3.056698309434303340e+01 2.329154802647067157e+01 -3.347360558434818445e-02 -2.508811158740020275e+01 -3.726262644324071260e+01 -2.250605171719647757e+01 -9.754022964955057162e+00 7.398636877086040897e+00 5.580681671839740510e+00 7.507337767026987407e+00 5.346715211012488034e+00 1.823212535468303475e-01 1.537194774571961492e-02 -4.393308451868581377e-02 7.502895221095447209e-02 -3.201121995184658342e+00 -8.385608461976179484e+00 -1.706201425725065945e+01 -6.204082905366934853e+00 -3.293514457637905513e-01 -1.035328210755750789e+01 1.739896990793614506e+01 3.442502380800173967e+01 2.341684044301401713e+01 2.619785023665269108e+01 3.368324120974826741e+01 3.225223657458400339e+01 4.106604713375679694e+01 4.697773222038364338e+01 3.076904048173182460e+01 9.420435565126748401e+00 -1.836077901284223657e+01 -2.257709021561833040e+01 -1.995923342672625367e+01 -1.193437597149938512e+01 5.400628440360253357e+00 2.530813417729417925e+00 3.807655852392604956e+00 6.748347346001828395e-01 -3.031806008872882374e-02 3.027861112103646599e-02 -8.360343679348117285e-02 4.006707345668615861e-01 -3.471092761317702280e-01 -1.232952704223670715e+01 -1.926915747909758281e+01 -6.867054392290759424e+00 1.182777143759090244e+01 -8.543273912657168845e-01 1.075057869527657495e+01 2.517986573256407823e+01 2.349554240806343230e+01 2.139706224646690202e+01 2.930743868471859415e+01 3.276894266022966207e+01 4.499696034401816291e+01 4.189662367839586921e+01 1.970521064360800167e+01 4.915622615549729346e+00 -1.297353234662723587e+01 -2.455753714521957676e+01 -1.762414836051550893e+01 3.580046075942703965e+00 1.180753905589870278e+01 9.282547719208643855e+00 6.551306076033228010e+00 3.540706910965556453e-01 -1.322814363565298357e-01 -2.240752060056281497e-02 -3.785800583217981130e-02 -5.219329760134634455e-01 -4.450742947666747718e+00 -2.050608276998968549e+01 -1.754816871795882705e+01 -1.012928809704045108e+01 1.726860032939192280e+01 1.039403428106520444e+01 4.811348658069436901e+00 1.747924384474893245e+01 1.720724143065606526e+01 1.063838383897362938e+01 1.637089070871581953e+01 1.753517492621848817e+01 1.933253476417688432e+01 1.482284510198229555e+01 1.295033826572556102e+01 -9.727148639861088242e+00 -2.303290089800860230e+01 -9.783343828153553190e+00 5.061871189051052156e+00 1.159367563703256998e+01 8.369354969985204562e+00 1.282555184263763159e+01 7.983441370919795332e+00 -3.804957569197017515e-03 -4.769248357373893216e-02 4.420347216444180105e-03 1.975176337217796063e-02 -8.666722667632148491e-01 -3.321231199657037170e+00 -2.123830714520685348e+01 -2.432507802147699394e+01 -9.265387321349409788e+00 1.417626288987552208e+01 1.795183860742818638e+01 1.030972692706500915e+01 1.257101095170059679e+01 1.946959315493841913e+01 7.714351463244669027e+00 2.738779068687003715e+00 6.566637066478535623e+00 7.488998472953521279e+00 2.257015248799729257e+00 -5.403199245626812086e+00 -2.000997108644075695e+01 -5.629255694420076672e+00 1.016897895447131894e+01 5.683002291278192786e+00 5.127639580962186194e+00 8.395902350799493874e+00 1.275632557548819079e+01 7.411092304479736548e+00 7.958561208225968520e-02 -1.432710511448068158e-01 -1.598103300236550922e-02 7.877963621885093748e-03 -1.662958741003553731e-01 -7.017192780674450958e+00 -2.248611495840448882e+01 -2.663871321454384145e+01 -1.016099642552325300e+01 9.017815828452373950e+00 1.184102338764144502e+00 -2.562313038982028335e+00 -3.527783169731468327e+00 4.471334276618327053e+00 1.137578606948852711e+00 -6.988291380200239544e+00 -4.714720380985827575e+00 3.086731650032673357e+00 -7.523604931921036076e+00 -1.429624337662181155e+01 -1.040966986504126268e+01 4.288335002476278746e+00 -4.655487610180625846e-01 -3.100693039088561753e-02 4.711397704314069124e+00 8.143286881603735594e+00 8.063790897065715058e+00 3.663864467351956922e+00 7.145132941019263773e-02 -6.108347715854579689e-03 -2.264669483872608705e-02 -4.392648804357456721e-02 -2.244136806947264473e-01 -8.655643033193694436e+00 -2.038707364352725193e+01 -2.161462721877667192e+01 -7.430535866329428529e+00 9.063364683495672480e+00 1.766526247643195102e+00 5.294123147993564649e-01 2.695126332526305291e+00 -9.964438729462107958e+00 -1.857759453166140418e+01 -2.206774005371846314e+01 -1.682686959132631443e+01 -1.626616059904092282e+01 -1.345545555588348385e+01 -9.475899443815174905e+00 -4.011128524463789979e+00 1.903499743172913705e+00 -4.126465789541700069e+00 -1.337739858198524923e+00 8.150627018300033555e+00 8.369520658202167951e+00 2.912376574492290704e+00 9.117420396866519061e-01 -6.825178207599470748e-02 -8.752209162337801565e-03 -1.954689718493072756e-02 1.910039044959306251e-02 -1.821304964662384673e-01 -7.637610326471639510e+00 -9.488721815548794680e+00 -1.312502191179312483e+01 -7.923536569957147613e+00 2.950196643340152303e+00 2.599451951797455695e+00 7.453961091536378980e+00 -1.499641039612966964e-01 -9.325011787382493367e+00 -2.621813987205487351e+01 -2.574756323648912826e+01 -2.374308606200682448e+01 -2.838406742019712325e+01 -1.592860005325268702e+01 -1.150549108019497879e+01 -6.173260942841621635e+00 -8.345368703520957609e+00 -4.825139106136253631e+00 -1.521513833743196598e+00 2.671593785242521779e+00 4.220158665580909130e+00 8.339589799581018648e-01 1.543091129076495649e-01 -1.478457890217226012e-01 1.443615850144889731e-02 -7.669108434366449928e-03 2.497845694870120745e-02 -1.300085563176073544e-01 -4.458679232563844685e+00 -7.096467102721152997e+00 -3.094410144412732322e+00 6.267710040328459131e-01 7.738577839552531756e+00 7.480632924428232577e+00 1.228383868529191325e+01 7.768582366535570216e+00 -3.711428606753201187e+00 -2.358584485170808875e+01 -2.661760129179890910e+01 -2.374007288594161835e+01 -2.125630075890839521e+01 -1.055044857803537717e+01 -7.321526475701465309e+00 -1.042451676027335772e+01 -6.271882864413710124e+00 -1.441862041208837875e+00 -9.541042318514958431e-01 2.285804933171687647e+00 3.197657605603202668e+00 1.626732837358912664e-01 1.496355558498357607e-01 3.281854201260493709e-02 3.202904080464699654e-02 1.561756569104550546e-02 1.666194152495728553e-02 3.205306089915967160e-02 -1.679179877846339153e+00 -3.354531045494197006e+00 -9.289634420915400259e-01 4.760617499952165765e+00 1.226508009214157724e+01 1.148870039805097854e+01 1.227089408513224100e+01 1.018005308910271900e+01 4.893206566902017940e+00 -1.036717921302567724e+01 -1.458349364593864372e+01 -1.244026722334032620e+01 -1.142589447412752968e+01 -9.052489570527619378e+00 -8.272998222331429119e+00 -6.582366429846183031e+00 -5.318684996994467173e-01 3.544427511571910938e-01 -5.152105552699548507e-01 2.532236958170255847e-01 2.319838629917643225e-01 5.454191939186539551e-02 3.987690748930292073e-02 -1.527387456272784501e-02 3.758694427264113336e-03 2.194464097998596874e-02 5.098880942922515321e-03 -1.468897395202765042e-02 -2.096706795078072949e-01 -3.009565113268204972e-01 8.046390998220176449e-01 4.000582051491608837e+00 6.216232480161327345e+00 9.753708293542086238e+00 6.941154504804002201e+00 9.148547913096320983e+00 8.293650986576553308e+00 2.310186842050124145e+00 -1.882154307577000196e+00 -1.247116244080033631e+00 -4.349613641774608297e+00 -2.111062860305481070e+00 -1.724965784460479323e+00 -7.851035559535102237e-01 1.962551402126844646e+00 1.102115495100872922e+00 -4.329859234359735853e-01 -1.694926332156647397e-01 -4.777165915306832988e-01 1.370196326155949731e-02 -3.695988362403189367e-03 -3.063234523833825718e-02 4.166741893543488701e-02 -2.297277464821246770e-02 1.613870633549168918e-02 3.249567539074627140e-04 -3.335448022364626702e-02 3.511106083405398648e-01 1.203985834738634741e+00 2.773588683373673369e+00 3.513314004003750934e+00 6.022495419255674776e+00 1.648035569627380514e+00 3.088010262658297922e+00 6.294240558566171373e+00 1.723350956629732478e+00 2.977218294553755917e-02 -2.027380080167786591e-01 2.431689714773120348e-01 3.525058390134145347e-01 4.228392763782093944e-01 -4.986790661665328750e-02 1.841373345617003388e+00 6.868935105685403109e-01 -1.141021217670449978e-01 6.707144272218480696e-02 -2.060904739309834394e-02 -4.332020337613053107e-02 -3.370119898051325558e-03 6.606930468828539627e-02 3.457971804711679892e-02 -4.765895025090841758e-03 2.038419278996149789e-02 1.720891314996360810e-03 -9.668270672414994854e-03 -5.818347091307644880e-02 1.714882915318396636e-02 4.600184027329642378e-01 3.955503278705894965e-02 9.480057799248832184e-01 5.723713362390138171e-01 6.931762031969865845e-01 -5.842999859768878423e-02 5.093422780744975148e-02 -2.160420664766493637e-02 -2.549823922313413684e-03 -3.997569398407441882e-02 3.832714615925917889e-01 2.889334749602234242e-01 1.828229822030612572e-01 6.651762731096436121e-02 -3.536100061893193008e-02 -1.454034805532559808e-03 1.651266113336119327e-03 2.348621701320032645e-02 2.764415745202617944e-02 -3.739086230319137172e-02 1.084661225560949564e-02 -2.869629696519852141e-02
2.444687615821080490e-02 3.658356724596247000e-02 2.086283008913460222e-03 -5.245922697030303700e-02 1.113517791248385888e-02 -2.245372920161293681e-02 1.614566688122049884e-02 -6.329705671359997510e-02 -8.314145214893140987e-05 -9.299949192460478173e-03 -5.337302663107731243e-02 2.093210327843006424e-02 -2.964996285952843993e-02 3.519598428402202772e-02 -3.112782404456956170e-02 5.234780130670953213e-02 4.126930873412786721e-02 1.656494282038251369e-03 -4.926995110670549793e-02 -8.299293420698398982e-03 1.920995355247430078e-02 1.548943744991624835e-02 6.348524285879941775e-02 -3.332798439266698026e-02 -5.576164417741473998e-03 5.101356130495472707e-02 2.062635909877056500e-02 1.638412887226243977e-03 -8.093886110689814742e-03 2.993956357459271606e-02 3.076613566025092686e-02 7.089853777885849612e-03 -2.371666150426227429e-02 -4.370286626369446897e-02 -4.006262964325853215e-02 -2.967201057360146360e-02 8.630218444372785014e-02 1.323751800477199203e-01 2.533720614458385631e-02 -2.994108171223537271e-02 -4.959898328927247330e-02 3.363855943952748923e-02 4.161954353492573755e-02 3.328953503517557283e-02 1.092896612969820186e-03 5.426502622092999745e-02 4.316105631915265195e-02 1.272325378287016140e-02 1.114991299871871330e-02 2.897946822270438400e-02 -2.946255135031408678e-02 3.497016308899891096e-02 1.970015607903254085e-03 -3.776174765387530635e-02 2.603899515670489787e-02 -3.324157517152419739e-03 -2.249368031363346149e-02 3.057275534348162863e-02 2.927932692041559752e-03 4.500630538671960418e-02 1.700632432998521598e-02 6.352825772794556958e-03 1.401231525147311925e-02 2.430327276186362573e-01 1.813713988320417025e-01 8.469504265064192738e-02 5.957907713019633400e-02 -3.962246186344952487e-03 -1.427820803018471918e-01 4.049637457514274619e-01 4.036771288118327083e-01 -7.787031892855590665e-02 -8.195675673095111080e-02 -1.483803427581834034e-01 -1.264093945892867388e-01 1.330456898858267331e-02 -9.398865620624651251e-01 -1.132211834913311232e+00 -3.786346407070335651e-01 1.588413711693159158e-03 -1.540921732417763722e-02 1.311948637186151345e-02 3.966451122195499557e-02 -1.289557568349402250e-03 -5.642575044309814519e-02 5.159271357383674733e-02 -2.165414369095990457e-02 -4.869709052612405248e-02 -1.738287154127994907e-02 9.551553497296748352e-02 6.515458031964072028e-01 7.701681650958456249e-01 2.999382220704689406e-01 3.355186404360356311e-01 6.872817120933175650e-01 9.859296311214665876e-01 -1.931904403341689447e+00 -7.812764739817578130e-01 8.185335529399186960e-01 9.151434802433547899e-01 9.070187056166634232e-01 6.795927688324489013e-01 3.412886070329818611e-01 2.868604678922087037e-01 -4.534709217479591103e-01 -1.404611222588951547e+00 -1.380312233942294409e+00 2.243973740470236317e-02 2.464242121361847129e-02 1.765556337612836715e-02 2.224706153639354617e-02 -2.002647691233096997e-03 6.102963212520580438e-02 7.905286379324975854e-02 -2.034688825581352015e-02 3.930093355153742307e-02 6.507491191085292837e-01 1.629400444898163380e+00 3.788455665290373808e+00 4.542477839929402350e+00 3.391518933450077267e+00 3.588660237240688389e+00 5.121186728279498723e+00 3.392291693917024453e+00 -2.486265845548435216e+00 -1.096933700311147453e+00 -2.006209061625905399e+00 -3.200201641271585018e+00 -3.975158459689852375e+00 -5.047635155900656478e+00 -1.925083023363917345e+00 1.457379995453303156e-01 1.879004552394668348e+00 -1.317785669747366217e+00 -1.041647034658153004e+00 -2.278625043912128612e-01 6.281531964885411767e-02 1.323948997109087866e-01 -1.594106345437388758e-02 -1.863306152822612541e-02 -7.263594107577290779e-03 5.913864036697950854e-02 1.859707709900358316e-02 -2.871618638363077625e-01 -3.754230303327174001e-01 3.128760749253134410e+00 6.876846217905129066e+00 7.544794566543071568e+00 6.478803349479246521e+00 6.042762202855184839e+00 4.383275769186197657e+00 7.076713118142921588e-02 -4.002320951474772848e+00 -5.313530019407949112e+00 -1.172904213390500416e+01 -1.516423538127161841e+01 -1.329485731152789718e+01 -6.921948394573071539e+00 -3.618399767096906139e+00 -2.288756661133536374e-01 -3.342565259425060553e+00 -3.572464395801721260e+00 -3.355411331443372891e+00 -1.454623304827276087e-01 2.669123580576219790e-01 3.951496613079250597e-01 -5.688824023204834546e-02 5.872377837888811307e-04 -1.979678776370694202e-03 2.872009221946605906e-02 -2.602138445053313667e-02 -1.316294298674590024e+00 -4.758369829673226303e-01 3.838085921151868085e+00 8.824869069230780738e+00 8.466160019650164514e+00 8.873255653925051334e+00 5.770807543356414548e+00 2.237693769298835011e+00 -1.778990754541044383e+00 -5.313704483224928055e+00 -1.355285964812796706e+01 -1.433045173910828396e+01 -7.908423586585973553e+00 -5.752065195999224834e+00 -4.470123466200461415e+00 2.099004239473426514e-01 2.749911247169521955e-01 -2.980648180255590085e-01 -4.064654677327213861e+00 -4.171876253594451356e+00 -2.539576534292631305e+00 -3.072549470362148996e-02 4.776449545224085713e-01 -5.768939010917786825e-02 -4.359152586217733029e-03 2.331669329906611160e-02 -3.367942481106397934e-02 -2.278192475251324955e-01 -1.434889939883308818e+00 1.203003869802563297e-01 3.251572280426361594e+00 7.256013867875888756e+00 1.013078078101887236e+01 1.017857080793227986e+01 5.131748958286896922e+00 1.384445048202004092e+00 -1.113911176166232142e+00 -8.961171898996152407e+00 -1.272599476997551804e+01 -1.194976582351837102e+01 -7.100203304423054362e+00 -4.243140954960965772e+00 -5.190212909186638690e+00 -3.111618654894904523e+00 -3.462973113669874259e+00 -8.832357440082435618e-01 -1.582694214333911331e+00 -2.869086762086047404e+00 -1.091737488765949005e+00 1.669197880522601540e+00 1.121890461955243667e+00 1.544914419068466327e-01 1.088450371136114384e-02 4.908317560153400289e-02 -5.280346692314364931e-01 -7.722829932370591788e-01 -1.975048674593512799e-01 1.207015548457437637e+00 2.415375772595300230e+00 6.001843390875954753e+00 7.082787293609205115e+00 1.227889562467436768e+01 5.359040402398257186e+00 1.229007428365644250e+00 -5.625910721836032025e+00 -8.461488906743966254e+00 -1.072181114550870795e+01 -1.448544576462796662e+01 -9.250123951772566855e+00 -2.385830166484181003e+00 -3.719420624856086821e+00 -6.078330863343948565e+00 -5.457984637830596952e+00 -5.511633365868591206e+00 -4.168741239743956939e+00 -2.359603952572600694e+00 -5.506121487976515239e-01 1.875363515628965416e+00 7.227056195689749440e-01 3.517130252787243477e-02 6.399881950667724029e-02 2.905280257906473623e-02 -5.600480956235470709e-01 -1.142202027287023691e+00 -1.373716604210007741e+00 -9.794046721299621422e-03 -6.411569787152419098e-01 4.118607254883687396e+00 8.282661260513464185e+00 7.070829966383514353e+00 -2.576784783842542836e-01 -3.408484817501792996e+00 -1.046237057851706886e+01 -8.818319121303396457e+00 -9.201525792619401400e+00 -1.563221982515042363e+01 -8.360949987424758589e+00 -7.855469313399698894e-01 -5.557992570229045581e-01 9.721740614751738230e-01 -6.477062914408440619e+00 1.042348083646787993e+00 -4.792846176658286161e+00 -6.390517448832025771e+00 -7.339460216609089649e+00 -2.995981848258065794e-01 3.431355311884544679e-01 -2.604510442097648371e-01 4.007505370076093650e-03 2.877961091411748717e-02 -2.568767816553504391e-01 -1.311406383171977774e+00 -1.719644277598736837e+00 2.951624675035477097e+00 6.598646790893143432e+00 5.574357329669761718e+00 1.246393147562461223e+01 3.811609053558369542e+00 -4.463601084749790004e+00 -1.235291050280385328e+01 -5.754022625942699642e-01 4.977898233863862210e+00 1.528426459595767284e+00 -6.380562372775943736e+00 -1.062779263185388601e+01 -8.010253613413862439e+00 2.472179520815807496e+00 6.489983881522519482e+00 -1.917626658388021488e+00 9.149291097284847352e-01 -6.743589514166229426e-01 -3.687622964873678466e+00 -6.646692070430208155e+00 -1.794403833425856742e+00 1.393999711621549398e-01 1.511380093407971026e-01 1.318201456865758792e-01 9.136906697844067449e-03 -4.135361590788348973e-01 -1.481044741094836859e+00 -1.283145343269221028e+00 4.244764246175531497e+00 6.389208346883155976e+00 7.060972625934041957e+00 -2.770881281428108078e+00 -1.045845057254059629e+00 -6.672500822743943516e+00 -1.635239399330768784e+00 -3.675867097842652420e+00 -2.455391005609888211e+00 1.218077900763408383e+00 -4.540834920932742769e+00 -2.090481730152402573e+00 3.113541753684824887e+00 4.735930198199985952e+00 8.068890714168423628e+00 -2.046737440764807126e+00 4.056281176476222328e+00 3.351614062647666703e+00 -3.149380972514990606e+00 -4.076571391348519313e+00 3.396239132605589184e+00 1.990550526444747614e-01 4.274227333957910102e-01 4.537772582788435205e-01 2.507784989310243157e-02 -1.805917307921509618e-01 -2.430043051604701410e-01 2.712939569742582435e+00 4.014925447856138696e+00 3.553317959757803290e+00 -4.415613428869955115e+00 -4.195368017991862430e+00 -7.030857122982411944e+00 -1.195254815464122622e+01 -1.058779768041541836e+01 -7.918985251930845237e+00 -7.956062393993256876e+00 2.932314531253253254e+00 4.462251244445093690e+00 7.983070216620484771e+00 1.093367398445731808e+01 9.883550215685591667e+00 4.363991742011252839e+00 -5.290029632829681638e+00 -3.573497221644468702e+00 -5.162457402651894789e+00 -8.142357346871676782e+00 -7.714688723685233285e+00 5.625420510319986356e+00 -1.002614315933891387e+00 7.102393451717955442e-01 3.619811683504093325e-01 4.249831793751246423e-02 -7.091278806495000808e-02 3.086063032991657185e-01 -8.564376562315864083e-01 8.048784190746866019e-01 1.661538671474043216e-01 -8.190866550527596823e-01 -2.251303359607528698e+00 -6.868059796687512097e+00 -9.822602271486031711e+00 -1.964237980919315874e+01 -1.545180134609014289e+01 -8.787431219131441651e+00 4.097654798908108909e+00 1.249434732159153860e+01 1.645384565664242871e+01 1.457451509428741154e+01 1.365211143220401446e+01 7.997057678105415235e+00 -6.828965154925439762e+00 -9.348051295370476410e+00 -8.790840431115215736e+00 -9.302799985686306172e+00 -7.826598053409832723e+00 -1.150478172692832368e+00 -1.741507733247353862e+00 -3.768761652408486595e-02 1.402352055963825180e-02 3.137771409982778592e-02 -9.582931180179007913e-02 1.075980688611711367e+00 -1.895788562389297605e+00 -2.086266609733481658e+00 -2.203339635313080525e+00 2.458163186488354857e+00 4.708673894582826591e+00 -3.750345787202590930e+00 -8.696757994900169209e+00 -9.952201077927510298e+00 -6.478382044553042007e+00 2.162808797852227904e+00 9.357122843014243685e+00 1.844363921770738557e+01 1.607061030134497415e+01 1.668019063097602839e+01 1.291690441891065610e+01 8.327241317132532572e+00 -8.054051278287579052e+00 -1.249118614185309006e+01 -1.037053245898776765e+01 -7.255706420897401365e+00 -6.019957613924938222e+00 -6.077487166660386908e-01 2.796464559366022229e+00 2.000508333723805432e+00 5.419572537518996258e-01 -2.665208426473797063e-02 -1.332961362388559168e-01 2.458521290392338687e-01 3.897473162028303739e-01 1.553096876523880843e+00 -8.042467829123179923e-01 1.669797548368949558e+00 -7.904011720920800510e-01 -8.386155555032859255e+00 -3.652881690294591088e+00 1.640674515298063296e+00 7.461423342179779539e+00 6.642912647768864254e+00 1.464922376771349732e+01 2.231299051530314870e+01 1.873990726144064567e+01 1.640905492354181305e+01 1.166839731651007916e+01 -3.840671013748700457e-02 -1.272568908558428369e+01 -1.018138433989468261e+01 -3.225591314078209981e-01 -5.116784094879450073e+00 -2.198975093972487471e+00 -1.371583263362645466e+00 3.052481762598832304e+00 2.541629365150780195e+00 3.774643768374076336e-01 2.038040647132486130e-03 -9.225493691946368147e-02 4.202922994819868197e-01 6.990929394183945433e+00 -1.616208745598240348e+00 -2.420722908342459512e+00 -2.813677551354603623e-01 -4.568053076790458356e+00 -1.279418483128879735e+01 -1.473486983193333044e+00 1.248187711047497217e+01 1.834963555675728486e+01 1.033823068080426033e+01 9.513057295823999837e+00 1.903729208109986359e+01 1.580138082901197549e+01 1.185939697242191038e+01 6.462069557438987921e+00 2.905029758573603349e+00 -4.341963374554413946e+00 -2.235325986226104414e-02 -5.244471985073690057e+00 -5.484538781426978815e+00 -3.663352636823076658e+00 -2.462358639656376358e+00 -1.797219064336383676e+00 -2.550670266851861462e-02 5.623599266949308451e-01 9.597639486502352116e-03 -1.056826041236790942e-01 3.207964314525218463e-01 8.500831888765699063e+00 1.969105945623327525e+00 -1.455899735736292833e+00 -3.203918768038209297e+00 -4.777533695019394955e+00 -1.299349790355140577e+01 -6.025999238730294749e+00 4.487387052497581408e+00 1.029732046598832618e+01 5.686187100031419916e+00 -8.576169506967876166e-02 5.946392838677621917e+00 9.467703857093543007e+00 -6.842971528308958717e-01 -6.249285779233710869e-01 6.825942457299712940e-01 8.254068593895894423e+00 5.186931358774733880e+00 -5.621670345117729894e+00 -6.586610481287957786e-01 -2.514157083326602482e+00 -1.489034180706911847e+00 -4.451934346143185728e+00 -3.277785221684423878e-01 2.934790767542168610e-01 6.388599672882305791e-02 -1.832617491077210004e-01 -1.272983354540188627e-01 9.349947243321590662e+00 5.812952470450583498e+00 -1.543725975075989743e+00 -6.035123071045025434e+00 -5.520743579938894641e+00 -4.873425910890371249e+00 -1.099858658623628926e+01 -5.384182783958803675e+00 -4.142836564320244719e+00 -5.575786922495275633e+00 -6.616246056304314394e+00 -1.095217578474779963e+00 -6.296100588179890378e-01 -8.441000999923465642e+00 -6.827400942190191557e+00 9.844732737169515913e-01 3.699192806870561956e+00 8.049907707850330496e+00 3.573183486870169290e+00 -4.910836775789221842e-01 -1.742624243191980504e+00 -6.040973969367559038e-01 -1.464479675713256102e+00 -1.320644890134252125e-01 -2.626300684813704517e-02 -3.745831517757302470e-02 -2.667149840911545861e-03 -6.670143396098208999e-02 5.260354239886336103e+00 4.002895502864170396e+00 -3.255534196374236799e+00 -4.040741446849676954e+00 2.426854866796267496e-01 4.120268200684161997e+00 -5.868828066588474557e-02 1.608766656196912503e+00 5.916419769848562993e+00 -2.673889503906368703e-01 -7.618133532275810360e+00 -8.991691287641712549e+00 -6.910800412288817363e+00 -2.185809096215541647e+00 -2.051086702621846836e-01 1.227041344622643027e-01 7.400110872625963232e+00 1.266999284677854121e+01 1.860209266054642763e+00 8.208125946710539411e-01 1.364928846086521208e+00 3.815737494716423761e+00 1.148055458333254286e+00 1.770697962455216323e-01 8.344297626400949408e-01 -3.165556169536446612e-02 1.731543527486426037e-02 -1.075337071843788517e-01 4.290609582131780786e-01 1.051858573305708644e+00 -2.990321962969565650e+00 -3.682803115115807380e+00 -4.328793648726576571e+00 -3.592801965040039125e+00 -6.808678956654841130e+00 -7.734082783759205215e-01 6.876573967347261451e+00 2.929205732480558044e+00 -3.260143634403554480e-01 -7.386893215324673356e+00 -3.501788713173579204e+00 -9.289931565769748295e-04 -4.952416755979213159e-01 5.140294888756227198e-01 4.353058663763048841e+00 8.638464965891476943e-01 -2.650244311885190385e+00 5.507568889407506996e-01 4.601715461617545522e+00 2.703185996190532236e+00 -1.155386660570662860e+00 1.519950911200545207e-01 1.002647140865343262e-01 -2.857162883829543476e-02 -2.169567448009858054e-02 -1.063431893727358885e-01 -3.152140440656521769e-01 -2.664755358562410414e+00 -8.858645383864638845e+00 -1.092326037151723739e+01 -7.438263826570390869e+00 -3.845129098917572374e+00 -3.811640489774913210e+00 6.674007939909694542e+00 7.649103451220097050e+00 1.819263137423726917e+00 -1.375952990298478396e+00 -2.455434925107656596e+00 -7.035535347729858557e+00 -7.419473484541816433e+00 -4.844308630090388590e+00 -2.013726077994465236e+00 1.815435340193976010e+00 -5.498619362639046715e-01 -1.858935054269535758e+00 3.884751228146178903e+00 3.747146339584568331e+00 2.945558288467902686e-01 -8.550958159466163222e-01 8.546760873493815247e-02 -3.902332289135408000e-03 2.948556026050646109e-02 -4.877539863080074950e-02 -5.958372297779168658e-02 5.187566294623346952e-01 -1.900158954999658478e+00 -7.628134413380784018e+00 -1.394144355845922689e+01 -9.134611083910641582e+00 -4.137595304940288266e+00 -4.445079782376970101e+00 1.133923270353947688e+00 6.836689200863031779e+00 1.048538342099363030e+00 1.802040262247267821e-01 -2.907086526186851483e+00 -1.294054965517879907e+01 -8.026724016077821489e+00 -1.896481994046451236e+00 -6.910780763848988206e-01 -2.243923212723195615e+00 -1.270316540333462196e+00 2.175842458611199959e+00 2.231408663126257519e+00 1.717294684467669086e+00 -3.667789168317913129e-01 -2.702183361661122385e-01 2.060845165155240077e-01 1.250979474973909489e-02 3.396924949410574240e-02 2.338737268352809526e-02 -6.181677941513873120e-02 3.166598489136330796e-01 -1.932658767560933466e+00 -4.752427779540687958e+00 -7.839570568634302461e+00 -5.407975116169109420e+00 -4.948779918124046162e+00 -5.936491689891418844e+00 -2.204312218086978276e-02 6.189412613392473617e+00 -1.685290808187307920e+00 -5.156003977599730170e+00 -8.055283690485913084e+00 -8.233698434927603671e+00 1.545958609655256610e-01 2.323757150906726299e+00 -1.324529005672202553e+00 1.873307974032039303e+00 4.117318793788529163e+00 3.109693592119924688e+00 2.966134191922316532e+00 2.323495804006825871e+00 1.351791092010734205e-02 -1.079395049925007399e-01 3.804422850243963095e-02 -7.683315823152065197e-03 -2.313985189165548503e-02 -5.963589250104347865e-03 -1.745083342505308194e-02 6.301953209095176311e-02 -4.868789682720723877e-01 -3.045667819437754442e+00 -5.330385100836798173e+00 -2.698831067726779498e+00 -6.104366425670555429e+00 -6.131455888217496764e+00 -3.062582897721802588e+00 -6.477381961068859884e-01 -3.090945837291998899e+00 -3.788142602204938036e+00 -3.533928320243131527e+00 -2.549504699675610553e+00 2.754381201169848192e-01 -8.142519922290643031e-01 1.943762043761392944e+00 3.106768657100932973e+00 2.307510483802073686e+00 5.002107938645914409e-01 1.192600589653510568e+00 8.576393800323230954e-01 -3.731753863218243567e-02 -4.793464920196824353e-02 -8.744311757706259985e-03 -3.268388403137031939e-02 4.697496411382105774e-02 -3.492558280490207223e-02 2.807185968774660381e-02 3.309664112380292927e-02 2.530313374942447929e-02 -1.727259436368294154e-01 -1.511072348095398032e+00 -2.821374695342132810e+00 -4.567691950523844469e+00 -5.530513163047863223e+00 -1.621409569807391593e+00 -8.269038050044573707e-01 2.966972966149475921e-01 4.314333146734810609e-01 1.084047084811409212e+00 -8.927410722727766590e-01 -3.313703200252188785e-01 4.009416808906162144e-01 2.233617708829769732e+00 2.835082522550978812e+00 1.527168949444341672e+00 2.342759077757507746e-01 1.834222556490325007e-01 4.368117709854764663e-01 -3.832995073450341100e-02 -1.094644086082651596e-02 -2.964132793945216740e-02 4.678144078375565118e-02 3.491390919981651048e-02 6.572173826299375354e-02 2.777431004443273524e-02 -8.453900956636757613e-02 -8.036789316357688395e-02 2.316995615967547273e-02 -1.335172296713426909e-01 -5.230334334504865845e-01 -1.735403500533945653e+00 -1.356788953308624146e+00 -1.550154787349679486e+00 7.265510563671625510e-01 2.814550795579968678e-01 -4.191926602475364722e-02 2.112478401140166773e-01 4.819520640669773814e-01 2.448479905981423288e-01 2.371087822503962772e-01 1.049052614338346734e+00 6.968315852686973733e-01 3.814318628166895597e-01 3.713107004659701310e-02 4.482227625606157589e-02 2.371986093669055991e-03 3.104972210324141724e-02 4.290025646978517376e-02 1.575035445258736108e-02 -2.732061694321845716e-02 4.705148821322064322e-03 -3.957986907641684177e-03 4.932403689184376716e-02 -5.971093284474439031e-03 -2.628617236301477797e-02 -4.497948731370824890e-03 1.063971499471073473e-01 4.782213653917285340e-02 -4.251169109448976191e-01 -8.269028905586306433e-02 -2.506314444798967145e-01 -2.599372545653857308e-02 3.217172166447444803e-02 3.590145397929508930e-02 2.420045807675544509e-03 1.999064421801910810e-02 -8.209464606336586145e-02 -5.117713126108898794e-03 3.181805940189061932e-01 5.212131860432274444e-02 -2.157242119113863925e-03 3.346254783324646709e-02 -7.066582155942531529e-03 -1.584801305117183867e-02 -4.543344798740772683e-02 1.509828066449080131e-02 2.408555855729340930e-02 -2.435361434954049636e-02
4.022514038735788139e-02 -7.433700904106347630e-03 -8.279768037578414189e-03 1.368663847274526058e-02 -4.095781933365012784e-02 1.237437153482671102e-02 -5.562861225567999196e-02 -1.337985823693513265e-02 3.429868309508021101e-02 2.101714298066766420e-02 8.827573330997321582e-03 -1.494130460644533566e-02 6.050827602828297985e-02 4.751235432034442430e-02 1.284818073517192578e-02 -8.214036544204777676e-03 3.134567495106417578e-02 5.038599683119190931e-02 -1.918668399086705112e-02 -3.347136754143505144e-03 3.444851448869216959e-02 -5.791191956537156821e-02 -3.808459385980192402e-02 -1.570051295641790995e-02 -1.278576070637480952e-02 1.214968708242176662e-02 5.131912201234774262e-02 -5.048723829868587837e-02 1.682083189674403803e-02 4.624013518529140193e-02 3.417537760669213387e-02 -6.487318331562250476e-03 -1.291280842470117658e-02 -6.432338689433911294e-02 3.723027595338657125e-02 -2.538113797833686444e-02 -3.072617083992788475e-02 -7.081744327070146200e-03 1.277454099840638901e-01 1.620199865073198298e-01 1.780234980785043719e-01 2.959384439289007573e-02 2.170085052099888362e-02 -5.128173209094694096e-02 -2.687867768379823344e-02 -2.527538629482131358e-02 -1.671079197854629869e-02 2.583291795319213671e-02 2.750344242450920157e-02 1.720661998332938952e-02 -2.895114298648014672e-02 -4.721284247975601062e-02 -3.781861022616710144e-02 3.392188434875469810e-02 -8.011894577812342377e-02 4.754049223351962394e-02 3.333717886700240246e-02 -3.818047114355142824e-02 -4.948957545526874724e-02 -3.590204881960999683e-02 3.784625215231886362e-03 -2.609011626189795124e-02 1.786481624873088869e-02 1.148490411712412562e-01 6.834324961948637367e-02 1.720262852904172815e-02 7.263763563967724768e-02 3.837419814425954145e-01 4.212003911076936946e-01 2.792478176246876442e-01 2.193552312036735896e-01 -1.009295845862516333e-01 -1.278852958857027433e-01 -1.759061360661051676e-01 -1.354456197871533873e-01 -2.333723904636075819e-02 -1.932589400138568503e-01 -3.149479084933743955e-01 -1.753799743665636068e-01 -1.079093717544439904e-02 -2.918904082718827911e-02 1.579274512271346131e-02 -3.833801745548006540e-02 2.818207218625016358e-02 2.539900660725964363e-02 5.837770933201734576e-03 8.348826649287301171e-03 -3.400822493079422304e-02 8.602954722280758970e-02 1.398011378739468791e-01 3.915474497871429538e-01 6.589294325266562558e-01 9.829954662364422946e-01 1.217714419679198246e+00 7.049905863256212823e-01 -3.566752531918956221e-03 -1.183339764987513032e+00 -1.118436050514250324e+00 -2.927222937628785604e-01 -2.790267591910423062e-01 -2.929390603795300474e-01 -1.736881994199954149e-01 -1.501392733484094300e-01 -4.972666700466648465e-02 -1.644709724818345931e-01 -1.920872177726178354e-01 -3.274548743439339438e-01 3.691328478229898014e-02 1.276765675333399463e-03 -4.068100204746782737e-03 -4.719453594611293379e-02 2.176831840974378408e-03 1.284797035301243201e-02 7.361440424578785668e-03 -3.218195025944835946e-02 -4.802669399993891863e-02 4.319770023769500811e-01 1.259540835389794555e+00 2.049139247634487848e+00 3.416143032146969460e+00 4.196590796563825165e+00 2.971150316267908487e+00 2.496704508991669513e+00 6.003506811775369822e-01 -2.648089252529977067e+00 -1.932667513878223442e+00 -2.330247211353895676e+00 -2.539116597771930550e+00 -3.600943163519262136e+00 -2.625398297883380749e+00 3.707170288837727812e-01 9.637003055717994204e-01 1.197295438846732729e+00 2.431466483072677875e-02 -1.712181452194022624e-01 -2.605127361241700926e-02 2.012165311083167762e-01 3.330539489905739448e-01 -4.853525956482961784e-02 3.311603015716545889e-02 -2.015715538412849242e-02 -2.472026325898278587e-02 8.593218380756229013e-02 -7.164962096544436054e-02 3.427310382400679256e-02 1.940209233956038171e+00 3.690231845829019974e+00 3.434347031990069521e+00 2.987764110899567616e+00 1.042490451272314322e+00 -1.931752327551298887e+00 -2.626334562550612262e+00 -4.260826333513106690e+00 -4.676708970624188666e+00 -6.885931958989274904e+00 -7.744502961691400955e+00 -7.385725852837581762e+00 -4.060452652037657373e+00 -3.958795744716075427e-01 2.466219480062013858e+00 1.711811081764711195e+00 1.500063421118089213e+00 9.985902183479655747e-01 7.050393743750846820e-01 2.632863729974469491e-01 7.414966723981752938e-01 -8.231061826335508286e-03 4.265457960926485881e-02 4.902063416242551791e-02 7.477492692429613293e-03 3.713251809207913923e-02 -2.255008337940824226e-01 1.133933997104054521e-02 2.050970119001978009e+00 5.030349675615218175e+00 3.866438606298176595e+00 1.709541725891103869e+00 -4.245173960488717313e+00 -6.669064594335198493e+00 -6.909565891357006606e+00 -5.547822608159019175e+00 -6.033183084957309816e+00 -3.524946965822593814e+00 -1.405064912503917851e+00 -1.693503418430110541e+00 -3.916568395020955329e+00 -1.994518481598849535e-01 1.061137430273823457e+00 7.868130723075689170e-01 1.715586671378732220e+00 2.082844327482828106e+00 1.523803652575056233e+00 1.019124158404209002e+00 8.997344441053701791e-01 1.249856809981677308e-01 2.766821878206277355e-02 -1.471399446821021820e-02 2.073545731552475443e-02 5.129557373504772767e-04 -7.689294275917736288e-01 -2.973772925867414554e-02 1.494314108700244281e+00 4.680469584710955644e+00 5.548819296411354074e+00 2.433660823168833920e-01 -6.543581720300708504e+00 -7.138233541594245501e+00 -8.660801894288059799e+00 -8.409464654178174570e+00 -3.762599930474663790e+00 2.415884814311665352e+00 5.419159406939185075e+00 7.358300183378616133e+00 1.326710926755962916e+00 -1.909970869903738988e+00 -7.726058095870669273e-01 -6.240514216168124850e-01 -1.305688967093351360e+00 9.965088693333005176e-01 1.706614546016306244e+00 3.041506042948278754e+00 2.515494584022937463e+00 1.770297088103146843e-01 -2.349454997811808304e-02 -1.097842838930260939e-02 -3.184166823116684197e-01 -4.984532113059126912e-01 -1.359318910861578411e+00 8.610446090185435164e-01 2.301697918994010994e+00 6.858662332093193648e+00 4.796057659292896069e+00 -8.418814484013346089e-01 -7.078173038435353170e+00 -7.893283281231718185e+00 -6.254907047655358099e+00 -3.513374663924474284e+00 1.944521520872151132e+00 6.812712342043749203e+00 1.028841221140960904e+01 1.021254825685392476e+01 2.329360013584490297e+00 -2.290752339025916129e+00 -2.881835619049446517e+00 -3.509349887902542431e+00 -6.843048820548581546e+00 -1.401489728222255815e+00 -9.786289572539174086e-01 3.711088865151075833e+00 3.190271140061423427e+00 2.701769458148450820e-01 -1.915284914012234385e-02 4.367467980935738764e-02 -4.444774836385648187e-01 -8.649465240949146816e-01 -1.387182414643022277e+00 -6.693786833085730859e-01 4.617761210728694721e+00 9.417670941004958607e+00 5.215667112210238265e+00 -1.626707810778535102e+00 -5.554228970276319011e+00 -8.423786394314376480e+00 -5.324415857319699796e+00 3.539243972369779723e+00 9.645374102797184435e+00 9.907192346422672102e+00 1.025108915081316141e+01 9.533785285053459901e+00 3.050354238214453506e+00 -3.686920593800816714e+00 -1.112208005548275302e+01 -8.918135746224209015e+00 -8.657328449043435015e+00 -3.832535801550716492e+00 -5.119313254303060390e+00 2.819605201950384110e+00 4.404230822549100033e+00 9.557531314866681837e-01 1.459890354845795775e-02 4.415163222088698547e-02 -2.540865252599981972e-01 -1.462867301374257023e+00 -2.320524743302460280e+00 1.022138344063435511e+00 6.899562878218834960e+00 6.069051013798771876e+00 5.972376688376693110e+00 5.269104144946554769e-01 -4.808031690930921087e+00 -8.170514493468079564e+00 1.359828222076199244e-01 1.269719751031156108e+01 1.506101314555199799e+01 8.531695639957071364e+00 4.405764315926098185e+00 5.772142539889687285e+00 4.661136595013113393e+00 -8.857558661279851364e+00 -1.745046024670331519e+01 -1.309821454858907686e+01 -7.591508208624408560e+00 -3.904734029712977339e+00 -1.664017406015541711e+00 -3.926915231610209056e-02 4.159095420926346875e+00 1.005087126534232489e+00 -1.369831829746016687e-02 1.992090136416209412e-02 -5.643874422881417496e-01 -2.271100080100863838e+00 -1.435122358127840725e+00 8.383605856087966712e-01 3.628712130495453270e+00 2.825267250732330648e+00 -1.856964665661664515e+00 -7.793840896852618272e+00 -1.207488708262838806e+01 -8.431550230868545270e+00 7.368226142264596712e-01 7.146431085596515409e+00 1.108253130921786145e+01 3.811281026284619955e+00 -2.396067647572595494e+00 2.117232587572264180e+00 7.848588205768947113e-01 -9.880598570108254819e+00 -1.671687828904044437e+01 -6.930674526533919355e+00 -2.466282778944462795e+00 -8.146006319747250757e+00 -3.408940918871048886e+00 3.038925636528416518e+00 1.277143379428704817e+00 5.284966702789614112e-01 -1.022868958017658508e-01 -6.319833734592329721e-02 -3.014416760438042853e-01 -2.459327186105420449e+00 -1.628716702417626616e-01 -1.953485483359396868e+00 -5.273415063305011280e-02 -5.759030501614241793e+00 -7.656772328577392983e+00 -1.432953246167617500e+01 -1.556213434022864206e+01 -1.019730201266340863e+01 -6.306369139607467034e+00 -6.139469492691683961e+00 2.205638939949926325e+00 -5.860149957855161074e-02 -1.458270804186651670e+00 1.720771300776877011e+00 5.073838646849030631e+00 -5.105727160576272183e+00 -8.517566812474827387e+00 -2.303149994691532143e+00 4.331418459012193606e-02 -5.116251294947276484e+00 -5.557123880808357619e+00 1.431711947031205412e+00 -2.655028480657672052e+00 -6.375874330324478034e-01 -1.295493994738231847e-01 -2.837535371585344149e-02 -2.320040682614810390e-01 -1.842102413288348783e+00 -5.030663911167342350e-01 -2.289188098452548115e+00 -5.874341543924574971e+00 -1.040922709811214553e+01 -1.380551997483474480e+01 -1.596309042590987914e+01 -1.198105491474830231e+01 -1.116634458798927199e+01 -1.363038495907979630e+01 -1.672881866254043715e+01 -1.032675281580583082e+01 -4.172410230878200288e+00 -9.671246990717371483e-01 5.362245679301688384e+00 9.666821709419350483e+00 5.786845895802222195e+00 6.874337038427934532e-01 1.514465646398974963e+00 3.220844996794400394e+00 -4.099179756921258466e+00 -8.790154057662332931e+00 -6.240223181687992060e+00 -8.823278298198939495e+00 -1.102600669287781665e+00 -3.076331190263927318e-01 -2.626636180123670741e-02 1.595393195131939931e-02 3.396571654794545148e-01 -3.342492296545500619e-01 -5.751432733309989054e+00 -4.548491388350271336e+00 -1.011857981295672104e+01 -1.600568852626395611e+01 -1.445366027718933033e+01 -9.646970731285291478e+00 -9.379976532194804761e+00 -1.367443901641442316e+01 -1.787629044683547619e+01 -1.083909321564983053e+01 -4.860428524540592932e+00 3.178154954515671093e+00 1.470791619006950057e+01 1.551173281653928981e+01 1.045292663148462786e+01 3.115850368428161321e+00 1.261624584643954439e+00 8.062473639788823032e-01 -4.674890074671342433e+00 -1.093423113519160239e+01 -8.906481084458020447e+00 -7.453527697889829717e+00 3.953779372601236020e-01 9.588169241534956477e-02 1.783732135094132781e-02 9.951043546840293574e-02 3.185866982296696737e-01 -7.781194337846816245e-01 -2.004853984856397986e+00 -1.310271410811271853e+00 -3.534181346408888480e+00 -1.659634759634628409e+01 -1.820387363113056978e+01 -2.672141060997444750e+00 3.682671819257305468e-01 -6.492575356316053536e+00 -1.143343670367682208e+01 -2.024192966839887031e+00 1.662359893539408384e+00 1.196837106299390285e+01 1.806468666844378745e+01 1.722613883141714908e+01 7.481884290910937985e+00 1.737958090571891434e+00 1.521596252725802234e+00 2.156808417000944722e+00 -4.960051744359785353e+00 -8.880896779229781046e+00 -7.146998280795695990e+00 -5.697964709262964611e+00 -6.076409938582463255e-01 -1.585519498038935604e-01 2.410021839584439857e-02 1.634202179992158901e-02 -1.064457908884464260e-01 2.901239083217429293e+00 -8.197287588501574185e-02 -4.145576659904451899e-01 -2.860816611246646435e+00 -7.435572621486230105e+00 -1.395660299262570270e+01 1.166527713940102240e+00 8.400324350600099521e+00 4.052407091666798244e+00 4.556524928240238914e+00 4.948763620775917360e+00 6.001918274726609326e+00 1.058173871415358214e+01 1.647230077106084778e+01 1.401100867451684451e+01 8.392818163865751302e+00 1.558728736651340041e+00 -2.413785098418657959e+00 -7.918562222582286481e+00 -1.084203635750554717e+01 -8.882517983695507269e+00 -9.205304797556502550e+00 -7.741915831145131932e+00 -2.732052458560031205e+00 -2.568357471224526067e-01 -1.743056015655071109e-02 -2.670129195611002648e-02 7.596225133798556461e-02 3.175104318042619056e+00 -3.677569417554134579e-01 -3.943909111693765901e+00 -9.632096871962292362e-01 1.050286244826250881e+00 -6.485813575258801755e+00 -3.435990569456465749e-01 5.402120390578686759e+00 3.581270750537607572e+00 -7.702820306492461633e-01 -9.490995294551441974e-01 1.881395525280886494e+00 1.032620765483946101e+01 1.001170014307604283e+01 4.384805138058542440e+00 1.397922555960282809e+00 -3.230466956719264093e+00 -8.854587833266428731e+00 -8.971241952018274901e+00 -2.905449129492533533e+00 -4.972169992378312031e+00 -8.765271464910139088e+00 -6.776576602058710819e+00 -2.905680284572061289e+00 -1.234456395633878045e-01 -5.052365608802309588e-02 3.953072922648280529e-02 6.462423015106840384e-04 2.560073615960637650e+00 -1.850462617581773106e+00 -2.681144723490667570e+00 -4.412107459900094231e-01 5.279766859377298616e+00 -4.396679087810020370e-01 -2.718938997166943761e+00 -4.975607973584895705e-01 -4.928845671373849768e+00 -8.791979181182059122e+00 -3.385691518947508083e+00 6.531861274603186551e+00 9.288226171597809611e+00 7.187992179050774588e+00 2.073235754812498222e+00 -7.071812990325062387e+00 -9.803159874246663463e+00 -3.829037446072867112e+00 1.404251904683629926e+00 3.546137060470923585e-01 -4.548265538891523185e+00 -4.430068148257535476e+00 -3.736014868066573236e+00 -2.058172502437964457e+00 -9.113732237695572336e-02 -3.135690391649379599e-02 5.868808497605702834e-02 -1.636271409057121762e-01 1.593621387466140460e+00 -4.197776561881799928e+00 -5.372684584587831047e+00 1.994374835163869930e+00 1.104816838358976483e+01 7.109258473823553359e+00 1.661811638881292019e-01 9.404335823466634103e-01 2.284646977979335691e+00 -1.559703055258066851e+00 1.342364547134100805e+00 7.813049982893173429e+00 1.215170001957361556e+01 9.556616043907011360e+00 4.065823787064266170e+00 -4.113729360984860861e+00 -7.279776482605344601e-01 2.126937296607862571e+00 -1.425778610953970515e+00 -4.201408447898631771e+00 -4.183639049117903852e+00 -1.202860198389948065e+00 -2.149347098905722397e+00 -7.460231609466665414e-01 7.180054827893854741e-01 -7.161695414162896900e-02 2.048852321341674068e-02 6.912345261531304937e-04 -6.688106961293420749e-01 -4.100836895190307807e+00 -6.272024454267780769e+00 -1.647835126915230264e-01 7.845026242333607236e+00 2.701731830904206433e+00 -1.728357927654735060e-01 -2.695356811043436163e-01 3.793180067995769900e+00 3.750402430230058037e+00 3.759723229308920001e+00 6.648214668005475225e+00 1.232688735232596144e+01 6.225498623625989048e+00 1.395099652075890040e+00 -1.390941993914565744e+00 4.202093146366252974e+00 -6.165889613869607322e-01 -1.369198531689896248e+00 -1.229968793503952718e+00 2.524100246353851995e-01 -4.855475990499421579e-01 -1.097972097093750321e+00 -3.530051402807601324e-01 2.159675647526226525e-02 -1.307012460203317052e-03 1.472379513770711440e-02 3.771256593494950321e-02 -1.025334726721978562e+00 -3.621993642572852057e+00 -4.927508104582802417e+00 -1.982303969708557823e+00 3.498646592825363832e+00 3.213920907007104422e+00 1.305485833864926448e+00 2.040389157939213938e+00 -1.454335115992287264e+00 -3.898365215080278112e+00 -2.568820970118084190e+00 1.749297432836670163e+00 3.866943415129737160e-01 -2.285601249653213873e+00 -4.825551262090845839e+00 -4.513741453112477764e+00 3.526828527951518577e+00 7.986878629568477939e-01 1.862986281805825151e+00 1.696331089690573002e+00 9.496970490052109026e-01 -1.075518154412586469e+00 -4.243568979450336731e-01 -1.937394356795063000e-01 -2.728511609404075944e-02 2.002637161923970146e-03 1.884865600508699515e-02 -1.227679271606778050e-03 -4.652528404120521710e-01 -1.236809172573028803e+00 -2.668575016503152764e+00 -1.019428362775750996e+00 4.553132197668730896e+00 4.375186860969971114e+00 4.946098619508152439e+00 1.521583977431834711e+00 -2.606326357216504519e+00 -8.275739669280525845e+00 -6.758079747901976297e+00 -3.854331498814969503e+00 -8.773343969697677380e+00 -7.903392587517734214e+00 -7.502276803858376475e+00 -1.804304441313605345e+00 6.198175388683220266e-01 3.374340052784860600e+00 2.216219750640374908e+00 1.219249927086241359e+00 1.055350296458466453e+00 -6.171677329694983394e-01 -7.773529663512934729e-01 7.378446871781248195e-04 2.942412905577482252e-02 5.453784058476682239e-02 4.358765555291370386e-02 1.296779922794236151e-02 -3.242746843924140809e-01 -1.256725456017723008e+00 -1.500581550345698734e+00 6.567091784343236371e-01 4.639705095858702499e+00 2.442218386913498129e+00 3.822429696734113591e+00 4.406744806126920544e+00 -6.055139791144080741e-01 -7.959531652602257701e+00 -7.942996471770584321e+00 -8.100910707170173808e+00 -9.132281725308285303e+00 -6.427228243314942802e+00 -3.911621384135498758e+00 -1.519473328192537442e+00 1.678444209214851712e+00 2.899109178615191240e+00 6.378595982716854795e-01 6.153826200231192756e-01 7.228039877659454548e-01 -3.562737472598809241e-01 -1.525278527449669963e-01 -2.550305391009962536e-02 1.448489149059135200e-02 -2.243702969857237078e-02 -9.250861247735008702e-03 -2.911086605746386960e-02 -1.990794257813094104e-01 -3.832597788176282938e-01 -1.370216531108136682e+00 7.006092433469237601e-01 2.918016365392157585e+00 5.872621976530395527e-01 1.740491948466578398e+00 2.755291062106879796e+00 -2.316894910013130374e-02 -4.023489674939376926e+00 -4.135036199423603342e+00 -4.225639788177270262e+00 -4.399304232733852515e+00 -3.928405792622386095e+00 -3.508178882401829846e+00 -1.490941833328185862e+00 2.542408378729894558e+00 1.240478536662565912e+00 -1.888556230970971916e-01 -3.459054999594511348e-01 -1.866771961772895339e-01 -3.667602573193440296e-02 -1.522618251854405101e-02 5.149261198608564248e-05 -3.366205501511251169e-02 -6.413370085297606660e-02 4.032431760295282497e-02 -2.476714711517776987e-02 -5.124979216172500379e-02 3.528703751241347997e-02 -2.764702762627377908e-01 5.615584994909790240e-01 2.882840124872360632e-01 4.553030796416251275e-02 -7.903649359857267687e-01 1.603481882810455117e+00 1.336946340048453363e+00 -5.926371018641895909e-03 -4.761259234742368229e-01 -1.536246860288417726e-01 -1.732785881998000432e+00 -1.449851292600174979e+00 -9.611652813554256714e-01 4.926551246919800287e-01 2.076942481283007069e+00 7.765114005504499817e-01 2.264494987082100660e-02 -1.637171011006003374e-01 -6.093423948096121645e-01 -5.597980298035198227e-02 6.610806521400777735e-02 1.767006711715648354e-02 -7.618195490039381124e-02 -1.775876637295878413e-02 1.642692053254606391e-02 -2.000373990140873540e-02 2.273193239542474833e-02 1.938392688499138705e-01 1.097341832114064331e-01 3.189642757787934935e-01 2.585035595752315229e-01 1.315656593747358327e+00 -1.267673723509971651e-01 2.523064322724583586e-01 1.304400668801910745e+00 4.373701944964465960e-01 2.747235696287786411e-02 2.732664131565341187e-02 6.660352744469182351e-01 4.006382705373661701e-01 6.905122292120202676e-02 -2.395209421584989229e-01 5.331047180075298986e-01 1.840346119602361274e-01 -9.055174736317765649e-02 -2.984243738906653017e-03 -4.426639405720247944e-02 2.018695266072046898e-02 2.864769048842866900e-02 3.815417618627495178e-02 3.049310182197083330e-02 -3.083397308403051928e-02 -1.039424872405084535e-03 1.665417636128192075e-02 -3.426954808101547497e-05 -8.437192755308302317e-02 2.098630167227404780e-02 5.696870566398728325e-02 1.065036754614243422e-02 5.144619110265641337e-01 8.638515932694983135e-02 6.558438713070076365e-02 6.209656334492329698e-03 4.358865476021517998e-02 -3.544591640388262965e-02 -6.164530110026698179e-02 1.501727235761799242e-02 1.318712831076333525e-01 1.319945885168414268e-01 7.021324208372832498e-02 -2.335848845619125161e-02 -8.264050633231477885e-03 2.946895395915516760e-02 2.200896844701422106e-02 3.428093527476326185e-03 -2.030290300021573083e-02 2.752799707852328012e-02 2.143259009753682720e-02 9.276595571352515973e-03
