2.531380885837826444e-02 -2.455396605868117796e-02 -2.616411358555871883e-02 -4.415264600551836727e-02 -5.264584808506542202e-03 -1.598206772245142418e-02 3.633142710837614087e-02 -6.796309308146225060e-03 -4.210602338264810701e-02 -2.492265475708623987e-02 3.301585651254283077e-02 -1.674411723059187826e-02 -1.116977447149856278e-02 2.484000332747421033e-02 2.211176999696493062e-02 2.920302696809633225e-02 1.360904391811385353e-02 -2.342506210872747144e-02 5.391921914075539085e-02 -2.796541809748646218e-02 8.724315646842303526e-03 -1.345455960333467003e-02 3.509815882748840155e-02 -1.101140680474640803e-02 -1.159075968801584304e-02 1.896451995047100875e-03 -1.665315326633071830e-02 -4.008827163607813632e-02 3.456474369513960060e-02 1.639857147099707188e-03 -1.959787160720269372e-02 1.260994883636938103e-02 -7.383732876991246086e-02 1.666341906253776539e-02 7.986024968588125925e-03 3.818804702665976741e-02 1.036374664981363353e-02 1.848993655352746401e-01 -1.798413424062679511e-02 -2.285628157364226754e-01 -1.560892986448656761e-01 -5.008292227861872031e-02 1.873872428214938546e-02 -4.452744929959970288e-02 -2.108147452126291760e-02 -1.753788056333185777e-03 2.354076049598751580e-02 -4.623634220839985265e-02 6.355343282774843228e-02 -1.189791200395995396e-02 6.157125745745705044e-03 1.791614395983830502e-02 1.862681023048168294e-02 7.609013689835754032e-03 8.440928720577911678e-04 6.270653371227619989e-03 1.092169085086729281e-02 9.901915162884088878e-03 -6.006669033731077550e-02 1.215730842892484044e-03 1.173509371321090379e-02 3.553446968406383938e-02 -7.108515640121823576e-02 2.140536680696489003e-01 7.075638285654713977e-01 1.857093077238060053e+00 1.771665606869363252e+00 1.454777699743803776e+00 1.519245268818196548e+00 1.550955024286253536e-01 2.232129958571256734e-01 -1.794219214673942187e-01 -2.070154333772226962e-01 -2.693650331884868132e-01 -2.157075101516626181e-01 -4.244079251355025589e-02 1.222032127898461162e+00 1.583256576886399758e+00 5.253784483582207843e-01 -8.894015574040476518e-03 -1.749580968216628285e-02 -3.085507784757077817e-03 -6.374733938961131552e-03 -6.090021973513839136e-03 -2.558731442167922615e-02 -2.085786411439309769e-03 2.854571290679170162e-02 -3.291564693036765771e-02 2.233014069030414897e-02 1.729033789815084543e-01 1.844446364099834090e+00 6.069095712228120831e+00 1.098247199812414898e+01 1.540760418355075778e+01 1.119710443379422316e+01 5.090100868995725669e+00 -4.381066857972939488e-01 -1.567296591699418595e+00 -2.700994994868401555e+00 -2.090982088760190205e+00 1.898589820331819389e-01 2.878033647104006221e+00 3.351325196240348081e+00 3.023411506570740315e+00 2.022324136555732732e+00 2.217832705191100651e+00 2.064928144612399930e+00 9.768314358536983599e-02 9.927885730226513814e-03 -5.448657497436041469e-02 -2.654972817421393395e-03 -8.011172309935268854e-03 3.346538850077208221e-02 -3.511002231930778015e-03 -5.883888397859859259e-02 3.522547066358257956e-02 2.368929691066720689e-01 1.615309498233225449e+00 7.144462240812495146e+00 1.706909854834634643e+01 1.890517488404107382e+01 1.653571395952842593e+01 8.490931098219174800e+00 -9.885760450728102722e-01 -4.767593713342420436e+00 -7.987117212925955556e+00 -9.245655775408238242e+00 -4.742152026908876827e+00 3.793017397099592181e+00 7.889076795676345455e+00 6.035595401864406462e+00 4.825589025482710070e+00 3.855193895875897780e+00 1.297670361635157033e+00 -3.772933659537149875e+00 -6.858605076184898230e-01 1.514006096153764469e+00 -6.003948413902850945e-01 5.274943476452471913e-02 -2.488060852941197804e-02 -6.679134813701126383e-02 2.699581662440026647e-02 3.425854579386068688e-02 2.750867384164804585e-01 2.946458587955507191e-01 3.807149383616448723e+00 1.473815513067911631e+01 2.609405352630167485e+01 2.670773561986597500e+01 2.552346739295878209e+01 1.482427356482209468e+01 9.336140707544403616e-01 -1.412637128987490698e+01 -2.558416030484560366e+01 -2.651209054087723871e+01 -1.406352221288904047e+01 -3.248699647808896529e+00 5.297944782712925793e+00 8.388308227314269061e+00 6.246486802935879545e+00 9.001920376213940145e+00 2.614607885299600643e+00 -1.082447846049089168e+00 3.695837349668152361e-01 3.797714767891366527e+00 1.395321495385656307e+00 6.883748270450547324e-02 3.823932011180133581e-03 5.833240837225174558e-03 -4.364133693553011450e-02 2.570854971735703765e-01 5.591777594284508268e-01 1.638186181199174030e+00 1.073595357353804225e+01 2.225291240822364713e+01 3.210468198345677848e+01 2.334720156088971521e+01 1.944783705727870071e+01 1.466951508251785619e+01 -6.892245621587201221e+00 -2.396090790010735461e+01 -2.794839461013999937e+01 -3.312753543753052554e+01 -2.917842261668202397e+01 -2.216713813973280622e+01 -6.420356026313528197e+00 1.609917874473463328e+01 1.585767955401507479e+01 1.735100574956703312e+01 1.590267850665664540e+01 7.031386202425230714e+00 2.417728267646423124e+00 4.877445443468418240e+00 6.887565711820286651e+00 -1.275529830337990000e-01 -3.407785325902138156e-03 2.512854680874934687e-02 1.894553542618924611e-03 1.275949534791237738e+00 2.342548161505764170e+00 4.612510407525027389e+00 1.745247129053446500e+01 3.009932328661478707e+01 2.398413660781632117e+01 2.514851400985353536e+01 2.513369425198907692e+01 4.424138811493580903e+00 -3.680370444676872665e+01 -4.113571816920433832e+01 -5.042568312358337579e+01 -5.944892394602563712e+01 -6.405183272041200837e+01 -5.096271014030094193e+01 -1.881099125940330197e+01 4.807827841426580484e+00 1.940811948580252633e+01 2.303438289001543282e+01 1.817813768479161496e+01 1.627852691328911305e+01 8.383593486637488823e+00 1.474695479547561483e+01 1.274722118266862481e+01 1.851914610248605930e+00 -4.360802550046217335e-02 5.285703463654785328e-02 1.461295066118835084e+00 2.644060949689859719e+00 6.093319581665261886e+00 1.037795147157205911e+01 2.163473581871900819e+01 2.703690999717617771e+01 2.449895878011222905e+01 2.736519940060761158e+01 3.621744343386980347e+01 -1.240084698103370897e+01 -4.551228847198996874e+01 -4.561769945857815856e+01 -4.432529878645297572e+01 -5.754837001820038722e+01 -5.280691954313071079e+01 -6.519588391172742092e+01 -2.887097548655302148e+01 -5.924431893615660361e-01 1.119826654024883617e+01 1.675113834505605226e+01 1.634197233776300351e+01 2.479328792142051086e+01 2.918719403615043007e+01 1.827024140132275321e+01 1.294301707744829599e+01 2.093185275473342433e+00 -2.167515269761201291e-02 3.333586402038225815e-02 1.717009802264522822e+00 5.019860074749729506e+00 8.049027329433760869e+00 1.283810714645070306e+01 2.738897810613298134e+01 1.912938728326643201e+01 2.023484953265911912e+01 3.701486293249363513e+01 1.039256180420271569e+01 -3.824223403238728025e+01 -2.054648774212592599e+01 -8.572668881048381095e+00 -1.211395325391924160e+01 -2.574057404260778625e+01 -1.817215181194656992e+01 -2.431412643925892070e+01 -1.647879985431999827e+01 -8.136302917049990313e+00 1.209940227802124646e+01 6.965630183805219922e+00 -7.614355408354290811e-01 1.102508533054768769e+01 1.846307681096790532e+01 8.141797399588208251e+00 1.205553574241886494e+01 3.333129667887871239e+00 8.517926820847456296e-03 4.351725176788703332e-03 8.155577385195852402e-01 6.437864512295821129e+00 8.966605334318931142e+00 1.255930725464802933e+01 1.273532137476516901e+01 8.951301705425454003e+00 2.074677931375373063e+01 2.623662582277150790e+01 -1.348896663440537225e+01 -3.050749209335630496e+01 -1.593517217686318510e+01 -1.350327820901963172e+01 9.852016801360986564e-01 -1.754382384955225049e+01 -1.452635784770643701e+00 -1.139861041571630906e+01 -1.274734582338133926e+01 1.181425219873829668e+01 2.966799342714071130e+01 2.114430491107424359e+01 1.277537052690972175e+01 9.803461512308953019e+00 2.975139746395590734e+01 1.130008372810867279e+01 3.575261098087458844e+00 2.550288599888107521e-01 -6.076829105021741562e-01 -2.188780615846491057e-02 1.043653324132775229e+00 8.348245342843357619e+00 1.354967603742678683e+01 1.283644252341981762e+01 -7.269477647498717054e+00 7.312210212134266030e+00 1.412610678865452662e+01 2.508883870266608973e+00 -5.278869835879348438e-01 -1.543144731303592287e+01 -1.642011003667065694e+01 1.141010845637473237e+00 8.299023453564327468e+00 -1.088155756680525066e+01 -5.990305944171708807e-01 -1.780895056815280242e+01 -1.616088746227412543e+01 5.661739893060632411e+00 3.714306545362867951e+01 4.761440620741476693e+01 3.307807327983956469e+01 2.289053380982611685e+01 2.250179459015533112e+01 1.379779720694070377e+01 8.271020866584965603e+00 5.086754007502169994e-01 -8.350946041764990835e-02 5.010687102361246863e-03 1.172334311618600911e+00 5.891510546168436946e+00 1.388336093498376478e+01 7.390667389468184467e+00 -1.012184998463987817e+01 4.094140462399102343e-01 -6.879818502723541229e+00 1.663500793212580575e+01 1.510426745860217679e+01 9.280290872053026163e+00 4.918218970435287218e+00 7.530901339957720708e+00 8.859121595858569620e+00 9.160144732976181814e+00 4.233219648733618889e+00 8.535430054312123094e-01 -1.971643489400083382e+01 -1.768487985823243136e+01 2.320587847650028479e+01 4.591720714206012843e+01 3.053341252903268099e+01 2.191796094585257748e+01 3.060451988992441130e+01 2.828420671317452317e+01 2.179405928237068935e+01 5.103805407089328838e+00 2.282188310617180971e+00 1.854882365572557701e-02 8.491868825597859161e-01 6.298802649274915844e+00 1.964200021640347771e+01 1.614936875192227106e+01 3.799449166941674672e-01 -1.873987130223129327e+01 -3.043171620415999712e+01 -7.344574331112357690e+00 7.780698568725059161e+00 6.574194187994399918e+00 2.873695548881739015e+01 2.102263777592413874e+01 2.937568247542217392e+01 2.515718399857534493e+01 1.065700772486193060e+01 1.302246084580767516e+01 -3.675287919155672967e+01 -3.643208697104980587e+01 3.014722217336477161e+00 2.828238512897952361e+01 2.758351013998563417e+01 1.222864323874132353e+01 3.715534024620615838e+01 3.856117096885088102e+01 1.338928152806242267e+01 3.637429329493974128e-01 1.048788160052951612e+00 -5.414119024274824388e-02 9.653262269144269325e-01 9.158103113793339745e+00 2.099360659437153842e+01 1.382998057212654786e+01 5.726175464048623986e+00 -4.356560747392133237e+01 -5.110087306010959907e+01 -1.363829975012839490e+01 1.785618640058652673e+01 3.738401878152893687e+01 2.761495933957378668e+01 1.106841320489199099e+01 -7.504486943322717707e+00 -1.886800414839131079e+01 -7.379687744609041644e+00 -1.863709992861563303e-02 -2.569986317915120466e+01 -2.132754156795308376e+01 6.035929895252267752e-01 2.412362039513523371e+01 3.050507666152984854e+01 1.302584510553979591e+01 2.305904280316705979e+01 2.754799122606980788e+01 4.868525873054768027e+00 7.922781606115795405e+00 1.534914484007045665e+00 -2.967345110991658971e-02 9.279302607597116337e-01 1.276617763258880345e+01 2.064453694518672577e+01 1.897115345639082307e+01 1.534499110475820416e+01 -4.395323439854215763e+01 -6.507644524143184128e+01 -1.288809701331184598e+01 3.412156728646679937e+01 2.188633147973531123e+01 1.728177988699641077e+01 -6.959262270885417934e+00 -3.486655648974539901e+01 -3.035558115051496841e+01 1.433879799614071615e+01 -2.808157753698663051e+00 -1.194026997203712881e+01 -4.806389068082483895e+00 2.183322222091123166e+01 4.044310354559385701e+01 2.338679896067966624e+01 1.609189939167625738e+01 3.094629349431471255e+01 2.492758892091964640e+01 -9.303806644122472491e+00 5.068730093754503230e+00 5.207507237674106060e-01 -3.057752200696931336e-02 2.548609380616874143e-01 9.949146961615504381e+00 2.131706370240571502e+01 2.583069453261787629e+01 2.393674565942469101e+01 -2.773446801348640278e+01 -5.856894685083307905e+01 -1.272523445081860594e+01 -8.340238008228386235e+00 9.726540630795055264e+00 3.330595942545070631e+00 -6.345286446684081483e+00 -9.263026519755442223e+00 -6.401970312510168348e+00 -9.533294322314031177e+00 -1.154644796682239694e+01 -2.412847615006989344e+01 -8.316044176394495224e+00 7.820907866842128797e+00 2.029146600350635055e+01 1.951111855371261328e+01 2.747111094988007451e+01 2.357476162192566349e+01 -1.456974182269128804e+01 -3.444608994623268217e+01 -3.228157444078933569e+00 -1.563319721983595922e+00 -1.928077502993728182e-02 3.619890870249721226e-01 5.864472305428293453e+00 1.769623993728360389e+01 2.716268209463386185e+01 2.019887115687876644e+01 -1.825738818128425933e+01 -1.554872114233707592e+01 -5.773121505399547715e+00 -1.482965328747974354e+01 -3.202501278793913997e+01 -2.984268870077061564e+01 -2.589709851656316886e+01 -2.664360195686950306e+01 -3.002109217635327454e+01 -3.637520254506762996e+01 -2.099111729102490642e+01 8.265096932006070318e+00 4.185109324700515998e+01 3.986075705773579614e+01 4.863216621093458514e+01 3.265173310403483242e+01 1.098145164218772507e+01 -1.008182219725915019e+01 -2.322048941491314622e+01 -3.604667910817335752e+01 -1.077398133903384370e+01 9.417248299705101022e-01 -3.336761522829619769e-02 6.647716021752542170e-01 5.296972914595814430e+00 1.021162387933637916e+01 1.554362520801824488e+01 2.416405909135765029e+01 -1.523692777956281930e+01 -6.514456770750937764e+00 9.066103094082281544e+00 -3.594908160201974123e+00 -3.242004160706204630e+01 -5.789454175445193584e+01 -6.045199252197829765e+01 -4.157287176642494586e+01 -3.157746446169516830e+01 -1.530229748941082413e+01 -1.824343202945203757e+01 1.202609255169022973e+01 4.131733363110457447e+01 4.474975358496045175e+01 3.894224609598732201e+01 2.378305895184339391e+01 1.019914747197853133e+00 -1.515829964951655207e+01 -1.088649309222296679e+01 -2.902642598243440375e+01 -1.283922333268396443e+01 1.358489051877606879e-01 1.271491178816850677e-02 3.334990697630755424e-02 1.207072642304463539e+00 3.524985716306138439e+00 6.620070512703194687e+00 1.983775532495753424e+01 1.030764620956925226e+00 1.262940675009251201e+01 1.466238039687197947e+01 -6.305915015121208889e+00 -4.500996603051896727e+01 -5.896603268079100246e+01 -4.801347252162089774e+01 -2.897569797594056240e+01 -1.499174306014240088e+01 -1.627680971051261238e+01 3.275925946170645364e+00 1.267835244600516376e+01 1.690444208169464346e+01 2.548454956348317069e+01 2.721985406175465272e+01 2.369557130218478846e+01 1.048012842049748095e+01 -2.060861244773621315e-01 -1.981992658472237068e+01 -3.021933845407460595e+01 -7.563671735895370674e+00 6.048797979904259048e-01 -1.892322212792207914e-02 -4.111786482325559267e-02 6.019218788986164803e-01 1.877608355404541685e-01 2.196769686766431029e+00 1.317280824537921902e+01 1.086475239743686849e+01 6.195825448302048954e+00 -3.296335560536949760e+00 -1.398502916415090880e+01 -2.945326831184220140e+01 -2.557174957966250162e+01 -4.063224658943935452e+01 -2.773289679341724323e+01 -7.999526243014627447e+00 9.836987994618346942e-01 1.704337358265756919e+01 1.984512312012505575e+01 1.833473770275639936e+01 2.111630924226155415e+01 2.133745026440866255e+01 1.612024463524015516e+01 7.929901625965623424e+00 -8.886562242850807536e+00 -3.085558470117289076e+01 -2.015570002439253727e+01 -1.396579675379881480e-01 -1.578177173696226065e-01 -3.174673551481774214e-02 4.292093800139200332e-02 1.560195418594500782e-01 -8.879023618196075773e-01 2.907913964986024724e-01 4.690496061798473448e+00 1.563510852682356322e+01 3.579007606899400340e+00 4.744183096821423362e+00 1.976378038096144962e+01 1.006658378873909676e+01 -5.742420989232808637e+00 -9.925810964580126239e+00 2.578198132821492905e+00 7.411915219227460661e+00 1.256363806424002227e+01 1.644720585855714035e+01 2.252112129852074318e+01 2.624266732397824242e+01 1.942580061752626008e+01 7.128921358710497813e+00 5.936362104647351368e-01 -1.030859283740092636e+01 -1.935996060979092093e+01 -1.245688078255963660e+01 -1.061171301371573428e+01 -1.408604691199051073e+00 7.701811003864488187e-04 1.972614708405344940e-03 -9.030917016466180267e-03 -3.182246597578332337e-02 -5.255858161839460641e-01 -9.809256415383366123e-02 8.697882953515861937e-01 1.022023193410592690e+01 8.780229933020613942e+00 9.251176382097613171e+00 2.433663718448359248e+01 1.141127244533136675e+01 -1.190972016929665678e+01 -1.051253680990082806e+01 -4.694884424680576096e+00 2.713301677369417853e+00 1.095924453693227818e+01 1.471519909518317881e+01 1.910554824586682443e+01 1.121193302267717229e+01 1.617964017445563840e+01 1.143705355110462030e+01 9.222475411745366669e-01 -5.538364001265317249e+00 -1.179718081271450636e+01 -4.829989039003882212e+00 -4.383745304788156716e+00 -5.604660862859719428e-01 -8.311714480916353176e-03 -4.212670622165088502e-02 1.257239320517315045e-02 -6.345550301079785904e-02 -5.050181211508685264e-01 -4.829661215655076112e-01 -2.822616839933840827e-01 5.780330358874938845e+00 5.788211823570938108e+00 1.316968077886098065e+01 1.617756561768763390e+01 1.107869194141428082e+01 7.017564024966057579e-01 -2.856343555734971659e-02 8.846717998770415647e+00 1.200193326118849413e+01 1.163837973929375202e+01 1.220300774486499940e+01 1.863521939064733601e+01 7.328562406129016438e+00 -3.507977543133734000e-01 -3.567547580501698956e+00 -5.529631432007721115e-01 -3.831563627203462996e+00 -8.956767950566456804e+00 -7.259625947494560139e-01 -9.759438909560695929e-01 5.991836361829112195e-03 -1.559499039456191394e-02 -1.625099925861227604e-02 -4.959354615590724769e-02 3.888700457433836438e-02 -2.606194554181530676e-01 -6.117619904416095045e-01 -1.808584541859535433e+00 -3.996297208901751774e-01 6.944011074348744872e-01 8.121673383866051310e+00 1.159191132278916747e+01 9.978199611933066038e+00 8.890158744067552021e+00 6.814929484481743849e+00 6.812389931177331270e+00 9.505783681217339520e+00 9.269128963691013467e+00 9.749295057464284042e+00 7.718849399345642404e+00 4.596527567807689785e+00 1.853053469161513700e+00 2.632721114687123887e+00 3.911598269005700512e+00 3.921603132041747930e+00 2.330977096343209709e+00 -2.670676091300975830e-01 -4.481589227223178179e-02 4.205208335043542772e-02 -5.298720404111260246e-02 2.859196123220306140e-02 3.288744971976315101e-02 1.229580500890899326e-02 7.555342758038541273e-04 3.910181925033394922e-03 5.515033990959502391e-02 -1.715974381218824674e-01 2.261037536443208484e+00 7.285525857289885998e+00 8.502780102888152669e+00 5.041069671512639516e+00 1.054976019084875594e+00 -4.639520878737168341e-01 -1.849227316969604407e-01 -6.667688703287140140e-01 7.840137732538714488e-01 2.420218524098566970e+00 2.205181463797859731e+00 3.171830771854001529e+00 9.074440547591734463e-01 2.281525093475977040e-01 -1.355010859714960991e-01 1.737515930984920187e+00 4.485696939365205971e+00 6.290904061753180287e-02 8.067369366815832499e-03 3.529720545649214086e-02 6.525166203339208965e-03 2.999500696895416457e-02 3.185952591911904181e-03 7.419714792287849907e-03 3.092200035462321431e-02 6.904515193554500163e-02 2.687914939759569188e-01 5.369076722758298059e-01 9.380267751992495961e-01 1.616184732549323044e+00 5.438537792762758727e-01 1.312594658479364851e+00 1.971652437833267268e-01 1.381110085539870823e-02 -5.941306905349831580e-02 -6.342476378997287112e-01 -8.958396626725394496e-01 -4.375100797236338573e-02 9.159933625382552513e-01 2.330985034026844094e+00 4.146973016663155209e-01 1.424066814988309559e-01 -1.393117853287288432e-01 -4.508098381996813835e-03 -2.007534093272665687e-02 3.188318205933294430e-02 1.478361454993771563e-02 4.830028106074310892e-03 -2.104724253079227198e-02 9.807730634752723220e-03 3.452731128948344913e-02 5.917206208195135986e-02 -1.547430107839238046e-02 -7.189676067142905698e-03 2.996555502347677397e-02 -3.571288313740033499e-02 -2.041170694503396249e-02 3.265601730698844407e-01 2.196676766821890059e-01 3.569395038333647574e-01 -3.687378237974496282e-03 3.051829037926041474e-02 5.688237951810996146e-02 2.955049771062125477e-02 2.990599933662976828e-02 2.270561049248078223e-01 2.292568615189083114e-01 4.629351520868860842e-02 -7.270460424675566705e-03 -8.252006923275970532e-04 5.040640928425194067e-02 -2.878856382920573498e-02 -1.645356281150489011e-04 -8.660496863909783460e-02 3.878694614812643049e-02 -2.772376633117689879e-02 1.583877095032955318e-02
4.931363553615707163e-02 4.948485186915352330e-02 -4.879824585118849173e-02 -1.893546889955778634e-02 -4.220618839958527324e-02 -5.032686736743603381e-03 -2.485937216532557725e-02 -6.814568044246987165e-03 -1.000289274427262551e-02 2.923847928901990648e-02 -2.316680933997359096e-02 -3.747211619921785031e-02 -2.090584982219245713e-02 -2.854934082018371552e-02 3.416211471902404900e-02 3.129382069247317599e-02 2.842164464432977988e-02 7.619969911794073625e-02 7.209346680442996202e-02 4.060836549653907418e-03 1.442523865918385795e-04 -3.360441683393620982e-02 4.575965503631156811e-02 -3.140797752490425560e-02 1.785592837020204618e-02 -4.338472885867884071e-02 -4.619979969658146932e-03 1.132400123967071751e-02 2.632329145990823516e-02 -1.180483418469731663e-02 1.523887711437257007e-02 3.803686509849558278e-02 -7.543511285606310443e-03 -2.490594989807175252e-02 -2.782504179948913289e-02 4.023988137239966831e-03 1.503597210370548609e-01 7.974782805391035234e-01 8.165736038960828003e-01 7.434912276176207646e-01 6.766931157980652367e-01 6.256290557014301812e-02 -8.084934831557996290e-03 -5.970245707189940354e-02 -2.085743294646367346e-02 -3.106545419471819919e-02 2.036648868670584700e-02 6.207743553585238355e-03 -4.882020161203252939e-02 2.360570031450776041e-02 5.191768332354637118e-03 -1.171035058649844314e-02 3.797415032301612592e-02 -6.951701142527523525e-02 4.682871718555486201e-02 -1.125185744298528266e-02 7.027170830549643935e-03 3.926865301214697845e-02 -2.440832103323384988e-02 4.140796633012520239e-02 2.948714698241830523e-02 -4.714057674512031962e-03 1.112561252703011920e-02 6.027737176217837778e-01 9.868220847005831908e-01 1.270144788407293168e+00 1.113604224791719943e+00 8.943957841381666718e-01 6.617361571769417861e-01 5.118994815183270930e-01 2.288940827740552075e-01 9.993666441931167155e-01 1.137620984965916238e+00 1.154395658753214926e+00 1.076476278879201498e+00 2.163902527965558542e-01 6.223371535207823380e-01 7.701275329857740770e-01 2.774873531039248609e-01 -3.681002926346037697e-03 -4.919728398857566021e-02 -4.676438279666815523e-02 3.019396990089747226e-02 -2.636043292447103059e-02 -3.329986090349201094e-02 -5.145214328877022181e-02 3.237475283662127890e-02 1.581088707237053581e-02 8.787384914484297482e-02 9.158064880221705728e-02 3.598357239949231956e-01 1.313667729261459360e+00 2.933074565351540652e+00 4.432224366243196378e+00 3.156360308400901982e+00 1.477693578759533999e+00 -1.920772159000850410e+00 -1.334246650003528156e+00 -7.385112948647744036e-01 -9.269306153019106487e-02 1.234131992905765030e+00 8.993197846796217032e-01 4.939642478979630602e-01 7.266259083227112336e-01 4.414644192085861452e-01 7.719193248169010646e-01 8.183037728581933345e-01 -5.823676692309699005e-02 -3.396058602402206306e-02 3.367169521740187663e-03 2.255823186799880975e-02 -4.076738962228936003e-02 4.339172156078098530e-02 -3.039839499150689614e-02 4.740518814645931778e-02 8.226779121762206257e-03 -1.918365505197690835e-01 -3.575449496740446542e-01 -4.541017147698778178e-01 1.561225630032941236e+00 3.583494551853811050e+00 5.362157612117560035e+00 3.157238067816187321e+00 -4.442896520873130251e-01 -3.367518058255194902e+00 -9.157191318373303357e-01 -1.247838760650770373e+00 -1.248596109220705186e+00 -1.879570189068352271e+00 -2.294896382613570651e+00 -2.108724804196566271e+00 2.058319383251562551e-02 1.901957432586577346e+00 2.116419793554056572e-01 -1.789096365240368858e+00 -6.642350655823626715e-01 3.969328858083977923e-02 -5.162619618667955860e-04 8.414457796497822051e-02 1.218225193602637778e-02 7.190755301139307998e-03 -1.208822282391631975e-02 -2.172886161393383989e-02 1.238632276824804812e-01 4.441327092674220434e-01 -3.207472691771911522e-01 -1.073391658431485984e+00 1.681047865988165135e+00 6.460513384609919640e+00 9.369095514568337890e+00 5.676660545662771895e+00 -1.126102733539351197e+00 -5.567972938818199324e+00 -4.512498133941967637e+00 -5.951857777542898020e+00 -4.334049274016635422e+00 -1.014053293243730502e+00 -7.795836279494962051e-01 2.290061641165647810e+00 3.342118318993091197e+00 1.445700687032179355e+00 1.012843870138831592e+00 1.195183237865693249e+00 -4.080981980887052329e-01 4.742982278481160940e-01 4.241399297155473147e-01 2.053041049831322296e-02 3.851625736664686384e-02 -6.435655072902275557e-03 -1.096583934361886233e-02 4.707400401575595299e-03 3.483192685414048251e-01 1.043483940789868614e+00 9.800480367983240848e-01 2.637926804967075434e+00 9.498640920754683137e+00 1.020126776432583071e+01 9.895414778198295735e+00 5.183450888440164661e+00 -4.661656784798668518e+00 -9.578193488897063901e+00 -7.695505200907590826e+00 -8.371429976330279743e+00 -5.395569051558910090e+00 -1.036530958535794911e+00 3.167752717546363339e+00 7.957170776654147737e+00 7.446211882674262483e+00 8.486342592569686261e+00 4.135938764807535861e+00 4.304347184984839814e+00 3.797425465815404078e+00 2.777669109456439855e+00 2.418955483741511259e+00 -8.353265558317542194e-02 3.235456284652120373e-02 -4.183249820502772665e-02 1.947645700183801495e-02 1.522023363872264390e-01 1.189695883707539759e+00 3.119835319808518914e+00 4.397366326952425020e+00 1.014029439449525860e+01 1.387391191176445204e+01 1.638295399590105461e+01 9.138063792917487049e+00 4.231415262052642401e-01 -1.381195137710682985e+01 -1.536727210645727482e+01 -1.386862075374703274e+01 -1.620509347057782179e+01 -1.862733119209254440e+01 -1.356157888947661405e+01 -6.127043218055254759e-01 8.802829029493125290e+00 1.237675916290361400e+01 1.065884906471141669e+01 1.079436152099505364e+01 1.044640108772684428e+01 5.729231469629813667e+00 6.042179411013063550e+00 4.069980258602540424e+00 7.020336646225083799e-01 -2.079735490620431698e-02 1.959844545179241851e-02 7.760857918527007682e-01 1.603413690466553021e+00 2.817141769479571511e+00 5.845204698959038048e+00 8.116464786615052773e+00 1.156777400732193328e+01 1.678545030882022715e+01 1.707937862137464435e+01 1.195197649760723380e+01 -1.361190954280999010e+00 -9.273124034196293053e+00 -7.356210599380588633e+00 -1.052247176101420223e+01 -2.055828108494852202e+01 -1.754230093956056891e+01 -1.493160834458855923e+01 -9.202878726110160557e+00 -1.707829407287150714e+00 3.772520829457520097e+00 8.942503862920000657e+00 7.856728274993856509e+00 1.189298852544540885e+01 1.156650054913597536e+01 5.811473887485582246e+00 3.090864331768363726e+00 7.787405636771194128e-01 2.952357591470496090e-02 3.569663312927807974e-02 9.263741302006303080e-01 1.973568725291656945e+00 4.290683598243099084e+00 6.661202056840920704e+00 8.706708809642124791e+00 9.469535359691869658e+00 1.613914557532895344e+01 2.086606393336512610e+01 9.880980856367111542e+00 -2.231935686999865887e+00 1.611705162814278447e+00 3.430849917752795797e+00 -9.985086500796956921e-01 -9.923867510636716460e+00 -4.635422797814160667e+00 -7.368455062221522134e+00 -1.789931308269218491e+01 -1.462882085122362064e+01 -8.275224057563049129e+00 1.614763840355274871e+00 6.201622158868838497e+00 7.117935446129912691e+00 9.930492585500825697e+00 6.508408784918305656e+00 5.651703066252999008e+00 1.329343131833479630e+00 3.085046092965997369e-02 -1.186116616134953684e-03 1.764930193674253966e-01 1.658603678195321729e+00 4.751584472973067186e+00 3.447362736788164295e+00 1.603051763279037090e+00 6.166613047790177937e+00 1.257242567788205179e+01 1.200725404639035965e+01 -1.166046926916906923e+00 -1.424945668228341678e+00 -7.566311167306113417e-01 9.581623483698299693e-02 5.459727885895713229e+00 -4.159184666502664385e+00 2.820190061731389641e-01 -4.683141742944383346e+00 -1.899309937197707399e+01 -1.589290743624487590e+01 -3.968668707566434417e+00 2.052832548727853368e+00 1.029350696802073983e+01 8.034169468730658181e+00 8.519417749053250333e+00 9.746280730290465044e+00 6.781260080717212979e+00 -5.297541467709905305e-01 -4.784191753391382057e-02 6.823587005424731726e-03 9.755624708698176772e-02 1.259496370066886861e+00 4.875075611855384849e+00 2.023909875098708788e+00 -6.777702896976816049e+00 -4.973477673510931396e+00 -4.596847683439484911e+00 -6.233375916316671095e+00 5.064543010738350226e+00 5.485918137902274339e+00 -4.517761070082089603e+00 5.038193006966322773e-01 2.922591997332645963e+00 -9.114679825865129814e+00 -1.513189500279567135e+01 -1.418054913015851781e+01 -2.017110441568362589e+01 -1.115200541403864420e+01 5.029922055720499330e+00 1.195197042368106288e+01 1.410119715584969136e+01 1.002867279249827703e+01 -3.968253475608322312e+00 7.859274478533251340e+00 8.013449859336803982e+00 -1.136318391981102405e+00 1.678825058719391750e-01 -4.570932642045372196e-02 -1.482311859688252575e-01 -1.816104831564187838e-01 5.658959538793051358e+00 -4.448510404069603297e+00 -1.883499797774190299e+01 -2.175052050225861322e+01 -1.912439859479771798e+01 9.218738286784161629e-01 1.639920486673118205e+01 1.321782030156906451e+01 -7.695839553113267284e-01 -9.582912953230357522e-02 -4.469070775631696968e+00 -1.786261554809637886e+01 -1.998128161500721589e+01 -1.638507400655732837e+01 -1.580838921772649641e+01 -4.562891201872502300e+00 9.167662775486558502e+00 2.039544603751600960e+01 1.880912974348331801e+01 7.668719702658608028e+00 -5.285279266752104022e+00 7.436596434593295335e+00 1.233003773072669951e+01 1.790388004886459550e+00 1.002759076682906647e+00 -2.751645785910802888e-02 -1.483668723560638558e-01 -1.760361315664239201e-01 2.662089130659583081e+00 -2.089347873816028489e+00 -2.160144736368043894e+01 -3.085529747519744603e+01 -3.348590560893574519e+01 -1.042648741034046367e+01 5.281593526979652786e+00 4.773974528945209350e+00 -4.049530726019767712e+00 -1.770130284712411850e+01 -1.771286740764590917e+01 -3.200998185255149764e+01 -3.332603841873088157e+01 -2.171818461930221389e+01 -1.763605999068429497e+01 -3.829707606131672382e+00 7.651273023195380496e+00 2.118662924837443384e+01 2.679425722834399792e+01 8.787893350281420268e+00 -3.895444675971556414e+00 4.332289740649249765e+00 7.234570937628189924e+00 4.749109611276872145e-01 6.685342469169832658e-01 8.158524354379936838e-02 -6.795662922757501889e-02 1.998376351469112189e+00 5.951009191455195690e+00 1.370310270211289039e+00 -1.695423662093794803e+01 -3.907920309340195075e+01 -4.222615740487085390e+01 -2.166062638453380629e+01 -1.537646923028997525e+00 -4.870571623250890880e+00 -1.709474261093888359e+01 -3.262576109362610310e+01 -4.497643674048259754e+01 -4.444092741795174106e+01 -3.686326937858678576e+01 -1.766719821607642871e+01 -3.375631643641975099e+00 -1.994634583864768773e+00 5.598845559990909493e+00 1.574360693040249437e+01 2.408764406813095960e+01 4.080085756550223763e+00 -6.139772064424500186e+00 -2.291114850117176527e+00 2.921757779567311086e+00 2.279802275903565878e+00 9.439657925366612412e-01 4.518250607047380463e-02 -8.743132421231221418e-02 1.837092479103137110e+00 1.067777013586731805e+01 1.269284710976814523e+01 -4.348877728108125673e+00 -3.038292246505551475e+01 -4.706093288376249006e+01 -2.607748016630150190e+01 -4.458249023816944323e+00 -6.003618817232149851e+00 -1.691508450562419341e+01 -3.646717135716861691e+01 -4.786537091202227145e+01 -4.279329287074614285e+01 -1.355527915590668009e+01 -2.276341315666986276e+00 -3.124785348714970823e+00 1.074473176400008390e+00 5.998636081415964938e+00 1.738728950791314176e+01 1.692631754435863201e+01 3.881586840516726866e+00 -6.469504984785676704e+00 5.179193027718488329e-01 -4.036157792477456513e-02 2.016767391787487984e+00 6.596670344734211211e-01 -6.587320691157194652e-03 -5.551775690673230526e-03 8.676220102865712658e-01 1.379807851588851975e+01 1.572004967667448661e+01 3.998086644176042981e+00 -1.812464172629008985e+01 -3.305658015797379079e+01 -1.971735621767390612e+01 -1.592479358166603021e+01 -6.213556207956266064e+00 -1.145076741506428597e+01 -2.390743781315020655e+01 -2.895929818726163774e+01 -2.679091476382034998e+01 -1.197630837394021697e+01 -1.906214530880637303e+00 -4.822816633633427941e+00 -4.890143060146366238e+00 5.307072515215171649e+00 4.949196738014047803e+00 2.550461394369127444e+00 2.491386447239426705e+00 -1.266091185618633119e+01 -1.427832342593667825e+01 -1.412722278303742485e+01 -2.184373370072441034e+00 -1.391594725822362932e-01 -2.458407942192301909e-02 5.737077970946429656e-02 2.029063473257215922e+00 9.084405794640664666e+00 1.783561574339709566e+01 8.123634664599686417e+00 -1.317327948818895322e+01 -1.798016132122252131e+01 -1.742869226350944345e+01 -2.100510349341790572e+01 -2.396529117231337125e+01 -2.834969387233730842e+01 -3.279658344695404537e+01 -3.008565099216874117e+01 -2.939619725272288875e+01 -2.358608034314218926e+01 -1.250876750355310563e+01 1.461433463442546765e+00 5.567039165525698330e+00 7.316267410051708886e+00 6.622736944281864879e+00 1.002201356081680483e+00 -7.021493630176997236e+00 -1.902225222756245060e+01 -1.969527677956583389e+01 -2.030659867338419744e+01 -5.848125067116360043e+00 6.775799189920778121e-01 5.693118986889077193e-02 3.261110640987543441e-01 1.937291514805742576e+00 6.890219158049760040e+00 1.408164552649839152e+01 1.482289482333648500e+01 -4.549853050715355174e+00 -6.653850117851223267e+00 -1.325895792266370421e+01 -2.102083734334617304e+01 -3.805948847939933444e+01 -4.794110913045254563e+01 -4.898814337317645595e+01 -3.655770971719198315e+01 -1.833999188082265519e+01 -1.127329034945437769e+01 -5.981210839450024075e+00 -3.590498884342072788e-02 1.136878557549446533e+01 9.075536828486306717e+00 2.704109692569597545e+00 2.360450142372259030e+00 -8.305949556484375051e+00 -1.499203818645426800e+01 -1.169663144479488182e+01 -1.703292225816240091e+01 -6.074799626608106351e+00 1.250004328936124010e-01 -9.116830243265089742e-03 5.068701061092882598e-02 7.418129570401076345e-01 5.071508999781424443e+00 1.333724344683241014e+01 2.348900051906903386e+01 1.375444807692551663e+01 1.059002309662021979e+01 1.527129999251854997e+00 -1.883561150938993123e+01 -3.717715746497120222e+01 -4.153175350341074790e+01 -3.406691390226805538e+01 -1.474468099543666710e+01 -3.032762839648332598e+00 4.011521003469299629e+00 1.269902116972052042e+01 9.309896713152172154e+00 4.068284370911984915e+00 3.303123041944357130e+00 8.348647389203092573e+00 6.071045362383554078e+00 -1.349575495357942412e+00 -5.953842966381529322e+00 -1.173504031067133369e+01 -1.479984645364585383e+01 -3.821069608376771676e+00 -1.832354265865640264e-01 -1.780088208445973486e-02 3.398638902111657256e-02 3.620567281087482825e-01 4.860420760628975323e+00 1.178745916673470617e+01 2.172721589971438760e+01 1.862924913214429878e+01 1.117792777327451503e+01 3.290241394668435237e+00 -1.504684337578712672e+01 -2.182454019058057426e+01 -2.065704911554206902e+01 -1.812507014341043288e+01 -5.918014581695236309e+00 5.197429320680361009e+00 1.456192736307320601e+01 1.951523003016266600e+01 1.237329174293406098e+01 5.783832252140923558e+00 7.340214949781485920e+00 6.803896427763814536e+00 4.979804840839793911e+00 7.580724162314784742e-01 -5.936800436423415483e+00 -1.355494689582993217e+01 -8.121488914704359630e+00 -4.363565352933005403e-01 -1.780655646836892814e-01 -1.927173266016008607e-02 -1.663305478649004798e-02 4.664372843616040321e-01 5.197491276744099942e+00 9.073392209664692842e+00 1.557532644437727143e+01 2.005639427830534771e+01 1.189509412198139948e+01 8.210444081841483666e+00 4.545797723317544836e+00 -7.650307257272160877e-01 -8.013027374311390005e+00 -8.360613967896320275e+00 -1.387631221595326536e-01 8.195745920290963937e+00 1.043270054289796178e+01 9.351908321964094384e+00 4.112091694891703675e+00 9.335191282760478160e+00 1.315408993732285658e+01 6.840459275014109330e+00 3.878131681958683963e+00 -2.130561381319242553e+00 -5.763357197561131073e+00 -4.447344543348622281e+00 -3.711315918963088212e+00 -2.955907214546074635e-01 -4.293718912689502287e-02 3.418200683571665129e-03 1.574782763921781306e-02 4.635804211726201607e-01 3.302852486804563892e+00 5.600955970557476959e+00 1.137972888106598646e+01 1.905865344368998748e+01 1.983627233741544416e+01 1.673056461038103038e+01 1.283965755256616781e+01 6.401445106542572816e+00 -4.249016747198379740e+00 -1.170332543764163402e+00 1.854950570471745053e+00 9.024001012371506647e+00 7.287395483183720657e+00 3.941937601140563352e+00 6.007751877499921456e+00 8.426411687293549946e+00 1.038295396664617876e+01 6.920195857040752685e+00 3.374197978168317125e+00 -5.765836424771980662e-01 -2.807344616692552641e+00 -1.818794960009741946e+00 -1.907195636264781502e+00 1.126391495313723429e-01 7.107838343510368417e-02 1.334630848122204255e-02 -5.207591749830174643e-02 3.046783394754170593e-01 1.770498734963815712e+00 4.549649089207429498e+00 8.514947814081791577e+00 1.671188338297069009e+01 2.088621296504163993e+01 2.173080048673089593e+01 1.502583406179267733e+01 1.020441039474471268e+01 4.780760014780629064e+00 1.066234708822301647e+00 5.403241653656147392e+00 2.153923633766361867e+00 2.437152318408868368e+00 3.175199264118564013e+00 2.642771710312004085e+00 2.562326631210461780e+00 3.830592417333747779e+00 2.554060302887576128e+00 2.743696234085710728e+00 2.816378543502255360e-01 -1.996941414916036939e+00 -4.467360439275836481e-01 -5.633705848490400125e-01 1.592038227194014430e-02 -5.785995078385260809e-02 2.148104988140432658e-02 3.304058269600967934e-02 1.654557574427874961e-02 5.010916834266720965e-01 1.565759416599360021e+00 4.888324995576263987e+00 1.113717979959023907e+01 1.161814320921124377e+01 1.478459492777445838e+01 1.308718380672146431e+01 8.727937246207764233e+00 2.108420198348191832e+00 6.953532131830068019e-01 2.645073459106349389e+00 1.803542159049222438e+00 1.538671968239740506e+00 1.881699766295584997e+00 5.363750058362223849e-02 2.428546366777069920e+00 3.230907684471657770e+00 2.325635360909040550e+00 1.826855108673311578e+00 1.118624201406409613e+00 4.983108048586646910e-01 -1.481322906204017853e-01 -1.089920354527915483e-02 6.755274266154906622e-03 -1.704432217636128169e-03 6.221141205994921118e-03 -1.575102671427760365e-02 -4.667973022664032023e-02 1.591243869623092388e-01 4.917146495651523730e-01 8.406187569216063693e-01 3.160051416885808706e+00 4.552406167740582710e+00 8.085518811354107882e+00 7.015847990490581054e+00 3.864221141083379329e+00 7.477171297699534980e-02 1.808301975927605887e-01 -6.322688318145512631e-02 4.477280141579124129e-01 -1.181037061672306487e+00 -2.550601833941687158e+00 -1.367839855589924047e+00 1.156522121401182268e+00 -2.556928606695988426e-01 -3.894711085520038973e-01 7.831258086831627274e-02 2.724289771303319840e-01 7.873026856447497002e-01 6.725225951368086347e-03 -3.488095998122983654e-02 3.312329056594979365e-02 -2.025739002963292471e-02 1.456037736514801274e-03 7.661162153834935248e-03 1.094168997262921078e-02 1.431737206601924571e-03 2.048075723891867039e-01 -5.090993909664124489e-02 5.001626268228124284e-01 2.077724802335954024e+00 4.319061974353924249e+00 1.538301512435121143e+00 1.706999905639037696e+00 2.899274861993002550e-01 1.246954566623000860e-01 4.715059486068295252e-02 4.896996326059065846e-02 -1.190191175986524824e-01 -2.730637611996540315e-01 -1.368238273712577280e-01 7.747267565504913078e-02 -7.057466948211725821e-01 -1.079511147023225065e-01 7.752608564871947203e-03 -2.117691396173590479e-02 -2.747799340845176463e-02 -6.877613363551390857e-02 -5.667525321221153489e-02 -2.689156167165650257e-02 7.023477114596615722e-02 5.279969081055081725e-02 1.583848791940159484e-02 -1.324994668093009038e-02 -1.767304970873890754e-02 -3.294721844363120676e-03 2.384242149459269919e-02 1.253098158014797625e-01 -1.771440403679372042e-02 4.383244318314742927e-01 4.504154698539912238e-01 7.327387264453996130e-01 2.568350867787464603e-02 2.507770753170882050e-02 -1.264971673647879123e-02 1.966169908002502256e-02 4.629024222474372591e-02 -1.318856068091177891e-01 -2.246362806736962869e-01 -2.722567053783389590e-01 -3.065214473073893386e-02 -4.334811407240098113e-02 -2.875167490701831252e-02 1.245987549419124395e-02 -1.405288152428100026e-02 -2.332401305701785679e-02 8.349061803290366846e-02 1.793741118935289307e-03 -6.301284706348388165e-02
5.008102164616372309e-02 1.067628872791893425e-02 3.309533375383789944e-02 2.255631832185863925e-02 -3.448317626817616610e-02 3.099907726247442055e-02 8.459327422479859249e-04 -3.552934678702215215e-02 -2.869072076885018086e-02 -4.078304945040012175e-02 -2.640827155601959894e-02 1.796143255291191704e-02 -3.971387752471430832e-02 1.598857498332189112e-02 2.704318153367346600e-02 1.607723051364924258e-02 -5.016245953409787656e-03 -5.982741618427997259e-05 1.792971142961114622e-02 3.709666847638371651e-02 -4.122931378093987187e-02 -1.633073969138893952e-02 2.753342523987678883e-02 -8.708832146050397849e-02 8.011923013708101282e-03 1.131693964924793648e-02 4.181364931343427294e-02 -3.800018068936999310e-02 -5.523645436988753460e-02 5.642995870501511628e-03 -1.363432271501840119e-02 -7.378852670698708358e-03 8.632552210299606656e-04 -3.981416001182850467e-02 1.281808317273820143e-02 6.398707040397630386e-02 6.247606877366095324e-01 1.079808779484984438e+00 3.843147954936074195e-01 4.393695887517802823e-01 4.198957762744525701e-01 1.287168960476995500e-02 3.838372194133669868e-02 -3.542109880312099834e-02 -2.133697962941109860e-02 2.738518929155112427e-02 1.816252194356171926e-02 2.438695993853496127e-02 3.258420488337938209e-02 -1.451620561578403565e-02 1.546812045513884515e-02 1.493214360810788885e-02 -9.931507626313115095e-03 -1.903966743429077188e-03 -4.603795374987684069e-02 -1.344604762164207552e-02 -6.759789062956106896e-03 2.583174895456854386e-02 6.155765664715527608e-02 2.294543700703627342e-02 -2.872728096044646282e-02 -4.046776027628499334e-02 9.915967265144152998e-02 2.269702556860667908e+00 4.338113275480489861e+00 2.810513222104198849e+00 1.152204563416265426e+00 1.180470905952065497e+00 8.638281298392838092e-01 1.159875047127127079e+00 3.328359409252936718e-01 -2.744876767335397094e+00 -3.112153792048583778e+00 -3.113168543726402504e+00 -2.949828736864858136e+00 -7.933900950185820422e-01 -2.136895155533455881e+00 -2.609716001274927866e+00 -9.213012704540524123e-01 -3.865900903666551897e-02 -4.188578993169871784e-02 -1.331292696649874485e-02 -6.835733782790379132e-02 -6.280094060537010081e-02 1.458118282150941501e-03 2.524017732289056404e-02 4.352548581157549001e-02 -4.988742790661478133e-02 5.612762729357551050e-02 2.543751327303110377e-01 -6.879771998390998844e-02 6.784694417009979883e-01 5.229974856828359719e+00 4.627068304615971073e+00 -9.266676130638998865e-01 1.439792751768141921e-01 -1.210286607588688002e+00 -2.429537907797456597e+00 -2.937857906956563347e+00 -1.892019381420611657e+00 -1.733342424660729408e+00 -5.737196369176468913e+00 -8.857938558247159477e+00 -8.312872174311912943e+00 -5.677771551437535535e+00 -3.016521804206172330e+00 -3.603719949456622551e+00 -7.305070490213113471e-03 -3.660047073773021326e-02 -3.862047501500277119e-02 2.249934995771242160e-02 1.253059143333249033e-02 -1.910840022757815532e-02 4.074269485852827222e-02 -3.865469772464384841e-03 1.299687411329654839e-05 1.237588538555063122e+00 2.885203654898644832e+00 3.103290189576804359e+00 7.075239029127724066e+00 9.514082098210407068e+00 9.121916295778531136e+00 7.717497536601975128e+00 4.865993060120604730e-01 -6.905826941728632207e+00 2.915742477542694111e+00 4.875068143530560505e+00 -2.413880576693236968e+00 -1.260248201270565005e+01 -1.626188991971534747e+01 -1.431372865484295254e+01 -1.493222111783208028e+01 -1.027002007002352535e+01 -3.363585314650027414e+00 6.853337135905081645e+00 -9.936166311734518919e-01 -1.529982107400415181e+00 1.908503243118769621e+00 3.781711239885163049e-03 5.099167932495569239e-02 2.629267423045146546e-02 -8.023968906412073249e-03 2.278195109521320982e-01 -9.337030524165237377e-01 -4.740188115946672442e-01 8.488506674464620261e+00 1.127513514727772659e+01 6.541719664496471687e+00 1.338513685661400565e+01 1.166265648773966035e+01 -5.119509497933178999e+00 -1.444234272858280121e+01 -1.842453586328177240e+00 1.333785811090999474e+01 3.591694783094951937e+00 -1.428797926916092198e+00 -7.169902766400277017e+00 -1.320504651804701268e+01 -1.540376747520331158e+01 -1.454487629955447225e+01 -2.129687759843928418e+01 -1.574932107968169248e+01 3.658896057496847209e+00 8.218755547144571239e+00 3.225874647945535578e+00 1.899774155891579941e+00 -5.987941909289828252e-02 3.964051274504332839e-02 4.630300102117660202e-03 -2.468415684042873232e-02 3.028657811891891649e-01 -5.049269700226775015e+00 -5.388552581749418202e+00 2.955575434743731744e+00 1.251687686259030308e+01 9.508917271044786901e+00 7.204160657021149383e+00 -2.230672289052081592e+00 -2.394631755939568407e+01 -1.657985739597548402e+01 4.598062472140663992e+00 1.491531891027164392e+01 1.215222075462410700e+01 1.404773210883318590e+01 2.202257427996207539e+01 -6.413583725056091200e-01 -2.230182172195740975e+01 -2.660376882641793372e+01 -2.867877274959745293e+01 -2.086551715669168061e+01 -6.163623218542017668e+00 1.648105096216054832e+01 1.107065539179162883e+01 -4.494929816740891315e-01 2.399539941381135244e-01 -7.927927464377737196e-03 6.609179306669317466e-02 -1.610234390948027958e-03 -4.899350133799243445e-02 -6.346610206845571867e+00 -5.510809462145561888e+00 -3.906407155189492553e+00 -5.933720540419899159e+00 6.982937399101473375e+00 4.357061459682789462e-01 -2.929884793464777459e+01 -1.833439769746859227e+01 6.357328239833685224e+00 -6.478146688087441873e+00 2.348045659886246028e+01 3.297689433858842989e+01 3.781653277229080601e+01 3.087033613248624420e+01 7.723867026221116205e+00 -8.948682524317019826e+00 -2.201630343530275624e+01 -1.980470131796799294e+01 2.315785346325709426e+00 5.986104330333457568e+00 1.679671029938529969e+01 1.904323221228098362e+01 8.382424326614410504e-01 4.482483950396168870e-01 1.666195548727869916e-02 -3.534146006243125103e-03 -2.286600340818142119e+00 -1.067009936773296586e+00 -2.650025737961948735e+00 -9.219085171598730977e-01 -1.170934492468485111e+01 2.258173898448226691e+00 6.495747632156098739e+00 -1.527301627783683102e+01 -4.654147841415308307e+01 -1.059108315321721427e+01 6.653948687643606696e+00 4.622767832128087395e-01 2.319206792649407234e+01 2.994754053409345929e+01 2.833670879493066863e+01 3.224216475662817061e+01 2.163658804295390325e+01 -2.180073753990652285e+00 -2.340967399624294032e+01 -1.883640535786648584e+01 -1.185110774750976503e+01 1.956641914523371106e+00 3.931798648934460072e+00 2.056979695199627045e+01 -1.264530132780935734e+00 1.282547839260923084e+00 6.837143403590781321e-02 -1.686225621803140451e-02 -2.608650741808972384e+00 -7.811925102655341568e-01 -2.978101298029607769e+00 -8.522504734907263568e+00 -2.994086388076470939e+01 -6.074745888020030904e+00 -3.669315909784400365e+00 -2.827034627752508911e+01 -2.454865486394838570e+01 1.091383097160669280e+01 4.102809408891738840e+00 -1.024883948091804520e+01 1.205122059245292121e+01 2.267601998622188120e+01 1.404617502591206879e+01 1.714918356197476967e+01 -1.160507828970347211e+00 -7.589625629791742156e+00 -2.023830421962167492e+01 -1.644300266681397815e+01 -1.881294298705818591e+01 -4.478539255838371425e+00 1.084343691319109126e+01 1.301437790454056298e+01 3.712411717770644604e+00 3.606406336047608185e+00 7.758386288843446832e-02 2.066441357371778028e-03 -5.269652473731806230e-01 -2.618943286220676847e-01 -4.651719663643066660e+00 -5.479845897906418628e+00 -8.604905379315995972e+00 -1.094861584799942200e+01 8.592471583460795648e-01 -1.169772809557250959e+01 -8.009011682481173011e+00 1.900827067827621786e-01 7.682699169182877874e+00 -1.720696254828176563e+01 1.385333425763534798e+01 2.354069893906600086e+01 1.365925506048899329e+01 1.321665233896165415e+00 -8.535832757578983632e+00 -1.775611824247027926e+01 -2.241651374402662356e+01 -2.568649341661001273e+01 -1.779317801517313669e+01 -2.712001921106919866e+01 9.777149940273162088e-01 1.233649429326597158e+01 1.276945553026642877e+01 5.618399348444638619e+00 1.584420679258550901e+00 -2.936258923842607893e-02 -6.435095807702033710e-01 -4.916982692980577108e-01 -5.657989430404989584e+00 -1.400330821355619904e+01 1.270331430880836887e+00 -2.332859094083705642e+01 7.356848347036259561e+00 1.700837522119700651e+01 -4.254197169341410678e+00 7.265764584290815620e+00 -3.887182278840292327e+00 -1.220636401287038275e+01 -4.414392959513907755e+00 1.624779345742558001e-01 -1.043882501465624912e+01 3.810731276068642703e+00 -1.246894031487598475e+01 -2.118955359730519561e+01 -2.502036745123225714e+01 -1.696374093202226874e+01 -1.232834624940057289e+01 -3.847744847488144160e+01 -1.431950140071444366e+01 8.875156312807467529e+00 1.704747780595187479e+01 5.757316870984400481e+00 1.177362072114031877e+00 1.368756326123390281e-03 -5.698171061020169681e-01 1.071997195977350437e+00 -5.233485152286710296e+00 -3.327775650219588499e+01 -1.506149499308923190e+01 -3.323027822293453681e+01 -1.074628425330423198e+01 -4.398364960865368545e+00 -9.165231905212142038e+00 -4.000928253355155562e+00 -5.989951778187032616e+00 -2.809885003821752036e+01 -2.510386388808271363e+01 -3.303880312837736000e+01 -2.807626000667682220e+01 -2.838009114387682885e+01 -1.130997389708734957e+01 1.265833216885573931e+00 -5.890825494826571251e+00 -5.845718944639863857e+00 -2.351319146120241044e+01 -4.410777503240122854e+01 -2.299510797644692772e+01 -2.335020132011396132e+00 3.108391500043975686e+00 6.350830505399611248e+00 -8.215961194870367024e-01 -2.802112402238295108e-02 -2.748300319316697715e-01 2.204584725510939869e+00 -8.480630083793704088e+00 -3.748051334315043448e+01 -3.181223238127612163e+01 -2.751921756209495840e+01 -2.763603247749807679e+01 -2.628668976212232278e-01 7.543016936367719083e+00 6.751120359532808202e+00 -1.962746498046545796e+01 -4.237508628018505163e+01 -4.749701407577775569e+01 -4.135172177301815566e+01 -2.268397062867884628e+01 -1.430591008282994459e+01 2.987679792277524982e+01 3.909051032019927163e+01 5.997102442400326083e+00 -5.601683727050533967e+00 -2.622521131710521924e+00 -1.651589984155136293e+01 -2.605791633930035900e+01 -1.974941487832790221e+00 -4.333716926027666894e+00 1.047726936462752256e+01 -1.658122236886576673e+00 3.608383609754051841e-02 -3.610032117139123642e-01 3.570190308313390126e+00 5.007590090554445261e+00 -2.561630493251489682e+01 -2.680007330010709410e+01 -2.213618942959186242e+01 -3.867185281119871121e+01 -8.446351257484916886e+00 1.640372812267806779e+01 6.371174095917498725e+00 -1.752247851528805356e+01 -3.471728315874642590e+01 -3.223469842248181294e+01 -1.389209921366221501e+01 -6.128085491355147241e+00 9.646924853150583345e+00 2.507638590832367242e+01 2.145336323159784797e+01 5.904282230180364799e+00 -2.794776076215028104e-01 1.781896022058974349e+00 -7.702970379250545285e+00 -1.514877131154090328e+01 3.349892730639861593e+00 -1.542450546770226527e+00 1.100953184834438270e+00 6.765735119691188570e-01 -5.184203203757225577e-03 -1.253762416961959003e+00 1.030352886708977289e+00 1.652871139739957940e+01 -1.393572633905121538e+00 -1.783702804794203090e+01 2.626174459830073804e+00 -2.519660746834400911e+01 -1.533496336591958631e+01 1.823325359631559905e+01 9.018214959561161592e+00 -7.301441326678987487e+00 -2.068293822019235151e+01 -1.568291283484666820e+01 7.926535719392152401e+00 7.798669529005350043e+00 2.908277226959298645e+01 1.872072839913867526e+01 7.189381177269384970e+00 -5.059549403580790639e+00 8.356818622178570521e+00 2.003994282723927256e+01 -1.370785938276534388e+01 -1.405521192530803809e+01 -5.492954651293150192e+00 1.235179767362544467e+01 3.956321539586634461e+00 1.743970608571208780e+00 -4.729143077538807555e-02 -4.356196759483815795e-01 -3.351016971076343776e+00 1.871220830071129981e+01 -1.393263305458080126e+01 -1.996403254043787712e+01 4.850600520470411681e+00 1.533678533749907480e+01 2.154652981626065511e+01 3.421319302939435403e+01 1.725731720476333919e+01 1.280484528695097168e+01 1.736179779047438387e+01 1.666476959522241286e+00 1.553792939437621534e+00 3.988566495816737056e+00 2.480173394839492929e+01 1.592775954559589024e+01 4.840959756555057503e+00 -3.646987465673082074e+00 6.138864178832879936e+00 -1.298196660517778334e+01 -2.420454892227089516e+01 -2.063664349765956629e+01 1.065063425185825086e+00 1.330439212470882993e+01 3.190188092503047024e+00 2.209973926306684877e+00 1.451122459370423994e-02 -4.882766664122591832e-02 1.217133088787945461e+00 9.743882797373535354e+00 -7.232688762600512078e+00 -2.110798460318608960e+01 4.115985228219357417e+00 1.584007078727857731e+01 1.651824300535706413e+01 2.978263624645472163e+01 9.447921187624533701e+00 1.807057579292098382e+01 1.476322860966937078e+01 4.844271942383969076e+00 1.150252422458921764e+01 3.032651481193924425e+01 1.489986546714808568e+01 8.853668829508624327e+00 -1.409334084858119951e+01 -9.511605780889782480e+00 -2.287401095447663124e+01 -2.371036245590505587e+01 -1.615448263441977161e+01 -1.501462005529522692e+01 -1.155215852444072056e+01 5.267864058471287692e+00 6.137694372267008092e+00 1.005972826522425256e+00 -1.918875076063959392e-02 -1.847652700144818694e-01 4.412135097346553958e-01 1.606489902500389988e+01 1.026972220288845961e+01 -1.525211909754687234e+00 1.247952025833042633e+01 -2.581782897521888831e+00 8.702041290032651588e-01 1.198237852538526482e+01 -7.086448106812205161e+00 -8.922868183437065781e+00 -4.389980409930860361e+00 5.911110821401930338e+00 3.797464328344723583e+01 3.816948965322132636e+01 2.317362620925354832e+01 -3.929238671522674586e+00 -2.420852448763399778e+01 -3.097828473908622016e+01 -2.493065753588023625e+01 -2.557957077482669916e+01 -2.279588178584998914e+01 -2.046288344830141526e+01 -1.288136575876090717e+01 3.510662593896185069e+00 8.360509158114719952e+00 -4.066563242695488134e-02 -4.002942684122461764e-02 -2.268698824915650961e-03 6.835643330920495586e-01 1.386292216524589627e+01 1.008949830726339059e+01 9.511115021246636658e+00 3.058292581514248454e+01 1.804565799243869151e+01 6.943333947207514179e+00 2.471537722716975694e+00 -6.890303768257327599e-02 3.621578035521338723e+00 4.046163233199473908e+00 5.282247965844739213e+00 2.827272982017001368e+01 4.940779990848907488e+01 2.939847849638674759e+01 1.031713259134357630e+00 -1.011887959344524113e+01 -1.179066991457724889e+01 -2.206322893586850498e+01 -4.158140038642657998e+01 -3.247529171937836168e+01 -1.957356052234064592e+01 2.761656678953834376e+00 7.291229920767207773e+00 7.229152989194479240e+00 2.326432088886122074e+00 -1.651727106075135537e-02 -2.963155955929535484e-03 1.288143536783528331e+00 1.043451929315943261e+01 1.349831903304581360e+01 1.714756620597602677e+01 2.546660520904852376e+01 1.293401316406721691e+01 1.510147202133176769e+01 -1.415855338876937353e+01 -1.802645460150133161e+01 -7.674345894493464826e+00 1.067222254741526655e+01 1.367826057057751221e+01 8.168571709624238508e+00 2.462272661105871663e+01 1.755418472646438488e+01 2.061878191371499636e+00 -2.363789459798209336e+01 -1.419162354868150899e+01 -2.239262236266284489e+01 -2.764621267796131576e+01 -2.068982498771874390e+01 -3.816147840378069311e+00 7.766814737522169665e+00 3.980852303480957755e+00 4.153702520931725317e+00 1.688173619914244139e-01 -5.937062038235182276e-03 -2.431661329442491928e-02 1.848792702528162080e+00 8.255939153415422282e+00 1.288473536550076659e+01 2.330565612724201330e+01 1.230286185640380836e+01 9.562449669269847519e+00 -3.900592123177276438e+00 -1.615133055024186604e+01 -1.924081938083837784e+01 -1.250281026038167198e+01 -1.334831300318560920e+01 -1.033135879681377567e+01 -9.847313279434029454e+00 -1.144486132926427313e+00 -6.990425525130390838e+00 -2.368730674964421112e+01 -3.448463070768000449e+01 -1.017499437474348767e+01 -1.623572116700014689e+01 -1.238338853294926167e+01 1.934627291992575548e-01 1.054401568439748971e+00 -3.962892728165723355e+00 2.553534964757994796e+00 2.802348713323158158e+00 1.920848293756981587e-02 6.435111697944115132e-03 5.469325296050214780e-02 1.690162075728479651e+00 8.441251236825829452e+00 6.006044273684807422e+00 2.235776727687850851e+01 4.235756458369904109e+00 1.144439366888429888e+01 1.197559267423497253e+01 -6.261396071258853446e+00 -2.496968694046359349e+00 3.983113251694469614e+00 -1.138286676163053679e+00 1.187234762785683989e-01 9.947417005542130708e-01 -3.823178951792246760e+00 -4.642502213015425205e+00 -1.398792647348539653e+01 -7.320244694880646996e+00 -1.080247981234618315e+01 -7.071128197537609239e+00 1.439979696109839225e+00 3.030006895975278169e+00 2.142931161681933538e+00 -1.564701064852002999e+00 -2.446562498678003239e-01 2.621089348743892433e+00 5.618110785374622745e-02 4.130218148871356819e-03 -2.043360964145064448e-02 1.127775916930482181e+00 3.995666433722230959e+00 -7.203215776681896054e-01 3.621402465157957273e+00 4.012695397972376732e+00 3.354610304379474162e+00 4.106181789048629405e+00 6.164411946925056007e+00 1.173006257849644207e+01 1.665120202200662547e+01 7.086034728604146515e+00 5.277061120668309790e+00 -7.259455627317094040e-01 -2.972592869185301634e+00 -2.602340677202612529e+00 -9.584723128063153297e+00 -1.121132598009749737e+00 4.282464169164454049e+00 5.187206387777468786e-01 -1.212560226032443955e+00 1.975952728783209489e+00 5.024075244630417991e+00 -1.177782091657760266e-01 -1.287327515382115928e-01 -1.415374893670389919e-02 -6.809909157254556700e-02 2.537950565159672808e-02 -2.786057968180004688e-03 -7.693834025658585589e-03 1.088553737246313657e+00 3.844567529256484595e-01 7.892017938705335744e-01 2.357239924242795492e+00 -2.777272327490722947e+00 -7.066120109166217134e+00 -8.334782955504364210e+00 -7.855507651120805512e+00 -1.002461670575498864e+01 -5.197309729633124986e-01 7.691718029001414436e+00 1.464950241156627531e+00 -2.052327676562838710e-01 -4.643956835449610132e+00 -7.500369912964772290e+00 1.389090090720817905e+00 -1.514476035013490041e+00 -7.518055898026987371e+00 -8.152145129930886469e+00 -5.309443880941736360e+00 -2.597556016720867778e+00 -4.814966368460318197e-02 5.431409167809041899e-02 1.496662930602496054e-03 1.973583066313929282e-02 3.755388072641498848e-02 -4.407703702248932237e-02 3.861782279439883447e-02 7.173599845449812884e-02 -1.972980076974859109e+00 -2.142778850341794605e+00 2.107336149401613512e-01 -5.293057620324706392e+00 -1.626413611370457701e+01 -1.486204822426364025e+01 -1.422523588144531992e+01 -1.169465571924139802e+01 -9.504398919675725033e-01 5.322965126644115585e+00 4.660484149928852737e+00 -6.366379835857603808e+00 -4.871247779851535675e+00 -3.024549275854158115e-01 2.406988045117632868e+00 1.950795797827441225e-01 -1.747353299069218213e+00 -4.632911981308900917e-01 -1.861784281838923416e+00 -5.094893953802547948e+00 -4.864083609360219523e-02 2.995095693914970325e-02 6.384704615599716415e-02 2.349719038020789408e-02 2.303135597474713792e-03 -3.262521682598142764e-02 -3.130810079426864928e-02 -5.105133269605378887e-02 -2.306517612309414211e+00 -4.564571177596717377e-01 -8.921599401535305063e-01 -1.778901231727378685e+00 -1.178095748849748503e+01 -2.962324460597061559e+00 -8.841247163669699205e+00 -9.364056136487374005e+00 -2.110850903180888416e+00 9.699547442737861680e-02 8.251153590316340214e-01 9.931230520546141527e-01 7.219520770705180057e-01 -1.363213240641742430e-01 -1.458018695547155685e+00 -9.209117966740808514e-01 -5.394861975203270321e-02 -1.814387685062941458e-01 5.157339833569198062e-02 9.546313917706005815e-05 -2.293683727482533768e-02 3.781767514362485705e-02 -7.472150020726624729e-03 1.041507664728472289e-02 -7.953212604118039750e-03 -3.016682290782974479e-02 -4.160512998056963702e-02 -1.632218067050382818e-02 8.506061997478298400e-03 -6.953043456221935648e-02 1.738940275833696439e-02 -3.074895753441145643e-02 -4.552621912891505751e+00 -1.437586995094140320e-02 -1.279838689967419452e+00 4.277847926023943537e-02 4.740234946631308351e-03 1.718039819037745983e-02 1.567305221175211913e-02 1.092763634263052910e-02 -1.117693630340692128e-02 1.461008623123346006e-01 -6.166390772718035596e-01 -1.430316554860846523e-01 -3.086481834676951114e-02 5.805044738667163029e-02 5.297848944172371677e-02 -3.310061347358988354e-02 -5.891439127624890221e-02 -1.089539418609742315e-02 -6.531411863031266751e-02 3.047480896588477053e-02
-2.505404886352435596e-03 -8.869990022831737708e-03 -1.183635198288738796e-02 -5.816228462226936523e-04 -4.846097172761498761e-02 2.894921757024681783e-02 -5.619677646350771522e-03 4.731326367282943229e-02 -3.086685707031138967e-02 5.697657258101710559e-02 -1.905791538322084387e-03 8.615610306955440167e-02 1.057550742166395857e-02 -1.820393861185852502e-02 -1.014032907832876883e-02 5.719700526844443550e-02 9.679389116585769733e-04 5.021803939546593334e-03 4.299784638275565979e-02 -2.837272008610898164e-02 1.493047729532045141e-02 5.916916563852283803e-03 -2.825817360273275014e-02 1.864277845077920437e-02 2.675696237427168875e-02 -2.168397127315411718e-02 4.889764709410426846e-02 2.567191157958220726e-02 -4.934014244991050124e-02 -4.416093238330630333e-02 2.789521227733484515e-02 2.609042237695663458e-02 -1.506463766511264429e-02 -6.204428002765690481e-02 -1.594680999191793597e-02 5.675000704949664798e-02 2.341014363218200944e-01 3.621958259746621001e-01 3.778710953598412442e-02 1.218215397768730550e-02 -1.177607321956407466e-01 -2.114539768797498928e-02 -2.912373713829434149e-02 -1.927728694542042362e-02 2.059779989235253211e-02 4.641624661656933160e-02 9.276050859349618469e-03 -1.540131022127006529e-03 3.328989468645112380e-03 1.448919142634234880e-02 -2.855921963490144419e-02 -5.443928529137204327e-03 1.512938660209435689e-02 3.171667203235155330e-02 1.816902926130409268e-02 -1.877110536821192249e-02 -1.365847335535638578e-02 9.544653151655315207e-03 -2.836341797856355498e-02 -9.047674064866263743e-03 2.163044997124088237e-02 -4.664028926122672225e-02 1.645157470074964101e-01 1.220526127441695197e+00 1.430673191460518190e+00 1.479842448649081321e+00 1.570330423408549780e+00 1.659856975983174276e+00 1.690231066580686115e+00 1.256926805587142981e+00 1.797237169393771428e+00 1.000110729644978935e+00 1.135610596005603323e+00 1.170740985487698005e+00 1.098770646566419984e+00 2.641907353923362289e-01 1.658089934282514832e+00 2.035574030951125657e+00 6.901349142620849531e-01 -3.479602476479411871e-02 -4.695848089943227555e-02 -3.689726762153179573e-02 -5.134082298526893018e-02 2.416992928897207168e-02 1.836884248471233258e-02 -5.316233755492373808e-04 -6.061144357912794101e-02 3.441766531514635439e-04 2.980766646226951089e-02 8.673304938692252830e-02 1.091513755049574375e+00 5.033858538204292188e+00 9.563836193523821194e+00 1.284745715585173897e+01 7.199837964493399411e+00 3.381803245567059246e+00 -1.471547913667608787e-01 -1.223920558593066588e+00 -2.229224387813121044e+00 -2.025147702257278137e+00 2.527987654672104179e-01 2.873806598018395220e-01 5.545248764899274319e-02 2.300391848241068737e-01 3.706752892877486216e-01 2.096653334351170628e+00 2.171055379876869473e+00 -1.384297202208752686e-01 -2.193136649387126755e-02 -4.586383406272349916e-02 8.514650687380690905e-03 -4.063944089552822513e-03 1.437185145000610328e-02 3.343036138407583235e-02 -3.219151296504049048e-02 -5.026185353603514205e-02 -2.468075216361048652e-01 -4.413860795094544098e-01 1.771586281242518490e+00 8.578432465156097919e+00 1.667806854010821027e+01 2.012428543237493272e+01 1.380719205789808690e+01 2.777695847229765813e-01 -1.889695312772972757e+00 -3.585301774571498346e+00 -5.196281208584841771e+00 -1.916024585445341932e+00 2.873858504630838695e+00 3.605753748465286623e+00 -1.731190880969462498e+00 -3.963973962501534110e-01 8.653094358721563628e-01 1.030082943236993315e-01 -4.661968022838554049e+00 -1.640645355733684640e+00 4.112905626749825960e-01 1.076527121826272859e+00 -3.139497126311919378e-02 -2.701018323736214741e-02 -2.296782447248195413e-02 2.539324707842497558e-02 7.652708631775302639e-02 5.336472090640507204e-01 1.331435337645533901e+00 5.852856137060010733e-01 4.413471200726496235e+00 8.803127384970089508e+00 1.842852993617742996e+01 2.453659604811841533e+01 1.701226769657814586e+01 4.177267535257366937e+00 -2.974520352743212470e+00 -8.246885253135586069e+00 -8.098735989835400773e+00 -4.574566930961658784e+00 1.645916226348115963e+00 -1.423759649189399124e+00 -3.438387980826295709e-01 1.133486997448686306e+00 1.629548583150610686e+00 2.719013624519317496e+00 2.467703806942220357e+00 1.007733187009368425e+00 3.971905813141229924e+00 2.373021652306142038e+00 -5.336419309115880694e-02 -1.528262159470863274e-02 1.233080739565894750e-02 3.721301012992535295e-02 2.896688753946288775e-01 1.292923534918358985e+00 1.253450682174607644e+00 5.018977769582518844e-01 3.628680808950874415e+00 1.668852539164539905e+01 1.824563133068462406e+01 1.684644456239804811e+01 1.429855458970399340e+01 3.142121445020989334e+00 -4.694892804698671540e+00 -1.636813298012012918e+00 -1.000955191497346419e+01 -1.665369407839245142e+01 -1.301731051261807792e+01 -8.571152647875235786e+00 -6.395734884808421672e-01 -5.120006329174056070e-01 1.743856751839575558e+00 7.024695921570471846e+00 1.194656864664964147e+01 1.403941112088424603e+01 1.058494573571052833e+01 6.605331296729330504e+00 2.888200917314858174e-01 3.895337014427544681e-02 5.420800152273770600e-02 4.906820432513567948e-02 8.338144220250567340e-01 1.122334024998582480e+00 2.727912782597972097e-01 1.045664726122887966e+00 9.018899460958435199e+00 2.280497810438320272e+01 2.954161268027990772e+01 2.176460321388099572e+01 1.405374242055813738e+01 -5.998178174191911793e+00 -1.002101395263724370e+01 -1.487664077194679280e+01 -3.213846736268673254e+01 -4.142319065112070575e+01 -2.962918241428321764e+01 -1.426204184001944952e+01 -5.486893469633524312e+00 4.631901012727921874e+00 7.626665538813202083e+00 9.396380104939813904e+00 1.552549843436985810e+01 1.449092971005775965e+01 1.861434502731257012e+01 9.844221906329968519e+00 1.777452676214341665e+00 -1.531725229186273705e-02 -2.500280535978245330e-02 2.767563902388635033e-01 1.036754724784604731e+00 1.013245515655089718e-01 -8.558635999524887294e-01 3.417620390404084496e+00 1.068279732646801250e+01 2.965604750673327672e+01 3.341652506073211271e+01 3.227875273536788114e+01 9.809328516416178090e+00 1.070600505523128687e+00 -3.484779169428422474e+00 -1.184393334196293246e+01 -3.211895262836836196e+01 -3.318584029641605326e+01 -3.397628244557060384e+01 -1.916357005283624204e+01 -2.873793949811495274e+00 6.329075989636907096e+00 1.675482700022912397e+01 7.249121708212482140e+00 7.305722646213935967e+00 2.147151256534336028e+01 1.310006233015650956e+01 4.121276038528215224e+00 2.219480016877001916e+00 8.571369086225888098e-03 -8.051548476542463861e-03 4.265019726278455048e-01 1.987519877887714337e+00 1.566785487588892245e+00 -4.354345374787541800e+00 3.926827319453727316e+00 1.106331697628482758e+01 3.029918221664846456e+01 4.183698587815424474e+01 1.686260939739995379e+01 -3.274048012430998411e-01 3.103902143179393747e+01 2.525372577554494669e+01 1.018671801277032785e+01 -8.698971085232495071e+00 -4.184027372448430704e+00 -1.276911919405248064e+00 -9.167111971773788781e+00 -8.813464348951262295e+00 1.045608900259578178e+01 4.591138395009554785e+00 9.985529043075213051e-01 4.871208470671541391e-01 1.223738069627029112e+01 7.565200292357471490e+00 9.152711368310949780e+00 4.328449890388556653e+00 4.961462095778915171e-02 -2.647904477203720172e-02 3.509126424804882016e-01 2.176141570399883651e+00 1.203295099026091775e+00 -1.285228428177952686e+01 -8.023750658424422255e+00 5.677889746833580276e+00 2.296642138251533893e+01 2.865494364976076724e+01 8.826335380183047974e+00 2.177775022736805610e+01 2.877431393939266968e+01 1.529046844318807707e+01 1.803627701493568836e+01 -1.073312667476209237e+00 1.817014561781342508e+01 7.470813791300557227e+00 -1.048011896075259486e+01 -5.834730086800105298e+00 1.158159632338363920e+01 3.992853472531910253e+00 9.154158432825068026e-01 -3.493800110278332927e+00 1.268654597950084728e+01 1.469975125884807277e+01 8.467735422138590096e+00 9.569635642643106177e-01 4.718452654781464806e-01 8.623730231282680792e-02 3.666654609737219905e-01 2.174524747851626083e-01 4.795436663136658506e-01 -1.811285637840984819e+01 -1.720571467506245611e+01 -2.660259756853075030e-01 1.354629813768612578e+01 6.871797681197004515e+00 2.206901786782191621e+01 2.902293545465854407e+01 2.997366982655323753e+01 2.870963040239286812e+01 2.230342555459147036e+01 8.358331711120440488e+00 4.437179064152078745e+00 -1.967811551522014568e+01 -3.123897318183427885e+01 -1.955590677248776288e+01 1.732055707414469126e+01 2.509312363164239557e+01 1.409832864339056613e+01 5.548723418375292038e-01 1.223828690188286661e+00 2.051065266731082914e+01 1.428216581706444721e+01 -1.577637950021913538e+00 6.800158932788700206e-01 2.406204185569750520e-02 6.014398692320620521e-01 -2.786841366888031413e+00 -3.767676884000966897e+00 -2.245963346313559938e+01 -2.961494895943391725e+01 -1.084453079139917442e+01 -1.185606502688917807e+01 1.342335133546744075e+01 3.958270250253999478e+01 4.400471476249050085e+01 2.529298327273094671e+01 2.342965347749628435e+01 9.545384538813967978e+00 -7.998267950373478818e+00 -1.881560774563939731e+01 -3.007300080650320595e+01 -4.146298291526661473e+01 -2.311788753098002047e+01 1.779825354209772570e+01 3.041238297008199254e+01 1.931845047369546720e+01 6.874757495694480802e+00 1.635861728989509345e+01 2.283059149549007572e+01 2.614524743053000932e+01 5.102048784287238625e+00 2.434102289844113809e+00 -4.909036953544887449e-02 4.271478614753371206e-01 -1.236970007825881845e+00 6.007726655693410578e-01 -1.636613814880809414e+01 -3.442659428357987395e+01 -3.367713548548093883e+01 -3.940948779463565899e+01 -3.545677249138851739e+00 1.625729323592587150e+01 3.057258437880205904e+01 2.319005336058777544e+01 -1.090297763482172400e+01 -2.208503657436290268e+01 -3.888779597462573889e+01 -5.393980590045023860e+01 -4.876028315369492105e+01 -6.339391386648247817e+01 -3.720290245491790415e+01 -6.707086618512991816e-01 1.614019501436579063e+01 2.077713116822913264e+01 1.518227795296012061e+01 3.207953931432025740e+01 3.260589375976608295e+01 2.226727558333598012e+01 4.920574471719112886e+00 1.372308542440177748e+00 5.486295973754339028e-02 4.589225339766608847e-01 2.334727434348712549e+00 4.205350423585342945e+00 -1.764777579700864507e+01 -2.822092077416508715e+01 -6.407909701751538023e+01 -6.040787309389025950e+01 -1.783333527973372412e+01 1.291302114238707155e+01 1.408675126142675005e+01 -2.181000539481709311e+01 -4.654295835567417328e+01 -7.383981628194506186e+01 -8.214670450029899484e+01 -6.149482758540212757e+01 -4.745907129151354553e+01 -4.985236355797709251e+01 -4.017562682226199655e+01 -1.738187393386492374e+01 2.594950375240483442e+00 2.542769579703989180e+01 2.120820066100285572e+01 2.570128066063710648e+01 3.046870148043689142e+01 1.398020987660404657e+01 9.789800022184488526e+00 1.282976429828118548e+00 1.535203742037613735e-02 -1.923094917086825076e-03 5.228924901070858944e+00 7.104673649544660741e+00 -1.884468506302556801e+00 -1.010129912808144859e+01 -5.393081432123761232e+01 -7.069278866802217465e+01 -2.301138512284180138e+01 1.377129620956265832e+01 -6.132347968229973745e+00 -3.788689238429475381e+01 -5.362123130111030633e+01 -7.579413693653572182e+01 -6.741256934952866686e+01 -1.009179431899118207e+01 -2.252348482757712134e+01 -3.073237657612909146e+01 -1.809719606380110690e+01 1.935912881188765144e+00 2.365238499626096669e+01 1.815570724471129083e+01 1.622602760436632252e+01 2.157940700809657386e+01 2.313042415859439416e+01 5.012634248689260552e+00 7.643003486613257458e+00 6.229262512991410317e-01 2.761254818888165402e-02 1.295217288673662865e-03 3.475052462791018648e+00 8.415133886957034903e+00 1.592118113305527949e+01 8.515701607710951748e+00 -2.381356958953584524e+01 -4.366957738702193836e+01 -9.526332236709018630e+00 -1.849597683460342168e+01 -1.262839722693195732e+01 -2.656649618408767211e+01 -2.701731925378404853e+01 -3.120851939952628484e+01 -3.520431255609428689e+01 -6.537044103822953645e+00 -6.582843938040794818e+00 -1.224256839202456426e+01 -6.943956202734579364e+00 8.885776251549900806e+00 2.468538240543726392e+00 3.645454939215356571e+00 6.381749354524933970e+00 1.582344183204897003e+00 -1.138863034936529317e+01 -1.650176565432525422e+01 1.244813516167720291e+00 -7.204163707798325600e-01 2.641550068035639423e-02 2.109558934408189146e-01 3.209364875624261426e+00 5.290479382346555681e+00 1.561640175371202233e+01 1.003915250778577395e+01 -6.199347201647371186e+00 -3.287557846558363028e+00 3.238272805292129686e+00 -1.540133085181225603e+01 -3.203841054072079686e+01 -2.810912090707130062e+01 -2.739373837615913487e+01 -2.715108284470178290e+01 -3.135705929086762112e+01 -2.423452132506841750e+01 -1.416812104188132748e+00 2.097893241712704437e+01 3.549566745837930171e+01 1.764369080395498557e+01 9.122970357473136005e+00 6.210956546808453993e+00 -1.375340783774222153e+01 -2.118373549861422234e+01 -2.056378808178200046e+01 -2.212623726473875507e+01 -5.843518560234386428e+00 1.139400970127251833e+00 -1.098152901138546057e-02 4.561950665381826475e-01 3.022729581458595938e+00 4.314956074852010381e+00 8.453394255826383485e+00 1.607665494102601045e+01 -7.114511113698145373e+00 1.055192635506996446e+01 1.408556458188405713e+01 1.219569103478655592e+01 -1.178121591350550013e+01 -3.471814777940784325e+01 -4.556397597012664136e+01 -3.237286948875217973e+01 -1.530755146907510955e+01 5.413298134465393652e+00 5.681997484663223297e+00 2.552525033321257908e+01 2.584755416917736071e+01 1.503025931285883665e+01 -2.363834393576500492e+00 -4.084358948840200121e+00 -1.158860422751755692e+01 -2.028584540644725465e+01 -1.080355448193722623e+01 -2.216999528267433206e+01 -8.390859616887238914e+00 1.186295417049119394e-01 -3.952476203515669501e-03 3.805523159950614104e-02 6.015159425311252805e-01 2.284607892126218953e+00 5.467977909198635800e+00 2.544269665206760322e+01 1.697324351405813303e+01 2.517152856828402818e+01 1.874780511195355359e+01 5.017280811684486252e+00 -2.322953646763998137e+01 -3.879083475439868778e+01 -3.142326744460623900e+01 -6.824788647918002660e+00 4.714022188805405023e+00 1.071169939241986668e+01 1.185215741236445552e+01 1.589419582282475929e+01 4.064468982284653364e+00 7.847934141908410766e+00 -1.371583009128464870e+00 5.447208081848966543e-01 -6.068466196119767453e+00 -8.080043997060199601e+00 -1.676097889705982880e+01 -2.314802552326452556e+01 -3.455262530321604686e+00 1.803569887028387608e+00 -2.899070978033849340e-03 1.127879622508572675e-02 8.870843140702684704e-02 8.752218510927736173e-01 2.040916241013552845e+00 1.782744353259161585e+01 2.138532887192845777e+01 2.641286774445242358e+01 9.976528628086992256e+00 4.959169137586334486e-01 -1.564347484680299516e+01 -1.982639317836495607e+01 -2.804356436606492053e+01 -9.457979814577834432e+00 1.408334486802438157e+01 1.957256297994448602e+01 2.051709085321321879e+01 1.955429735933878632e+01 6.995255668803270765e+00 8.276489563172459540e+00 -3.963587476891008987e-01 -9.268151962247765940e-01 -6.472345209860755233e+00 -1.712288829806936263e+01 -2.824598767322271087e+01 -1.394126226374576660e+01 1.786229688643939717e+00 -4.955694685781295711e-02 -1.321432878498400099e-03 6.551082341694661193e-02 -2.270959790313005489e-01 4.418380970426055709e-01 3.403785505016328816e+00 1.368815732224682336e+01 2.760991998079947862e+01 2.335937397190611975e+01 1.996084914595763138e+01 2.353387508285108609e+01 2.872688731595821388e+00 -1.374417313162015297e+01 -1.030534277032060864e+01 7.980518227591533176e+00 1.884602565263648799e+01 2.259332828461576881e+01 1.981687534893516300e+01 1.746756222406530412e+01 1.656798683095071212e+01 9.056946605560973751e+00 -9.390168747886555423e+00 -1.113576831692916436e+01 -1.688213799715484242e+01 -2.153426190658333539e+01 -1.252234541779432142e+01 -7.852760425965029434e+00 -2.501356086574790805e-01 -4.035212101658931100e-02 -2.432716707431801378e-02 2.133654219170067270e-02 -2.207133964265871051e-01 -2.587524805422100616e-01 4.614384767486619410e+00 7.999520220826096484e+00 2.339797731985623130e+01 2.577018728455988494e+01 2.624788744848484612e+01 3.142186539867999429e+01 1.896332226991363257e+01 -8.039617711253811194e+00 -5.441807848057463204e+00 4.106456452480507835e+00 1.325228446002011218e+01 1.822108297704384228e+01 1.442382406299987352e+01 8.196891549910066743e+00 5.212980204559936048e+00 6.737313752394761934e+00 -9.652303500052754615e-01 -7.400246369040623051e+00 -1.036253737593903956e+01 -1.110942908232880200e+01 -5.201335389837280943e+00 -4.018509243249263285e+00 5.536827991856277942e-01 -8.809281572052974837e-03 2.245127769917344002e-02 -2.848622717632967594e-02 -1.322719482661588175e-01 1.612391771145978703e-01 3.908357737760803197e+00 8.061548364072740114e+00 1.930182415676060614e+01 2.523805226095004173e+01 2.928802241756165614e+01 2.915226424118952409e+01 1.962589596365769395e+01 1.768715494160515211e+00 5.222097044048451542e-01 1.057923468108479881e+01 1.755498920796859963e+01 1.616155336899545247e+01 8.773689045868756864e+00 4.583459468156561023e+00 1.895552096582402424e+00 -4.685319998054077395e+00 -7.512092499649032362e+00 -5.165106146906248696e+00 -6.338187072288136825e+00 -8.426567582422102021e+00 -1.344544400304156451e+00 -9.931739536670103341e-01 -1.510442502126692343e-02 -5.839918846710057121e-02 2.386334457615894508e-02 2.483659039451359754e-03 2.037166537785000189e-02 6.001332649942649894e-02 1.287105669433700639e+00 6.426806986848173864e+00 1.126511884114641582e+01 1.029699492719797682e+01 2.355520107263854257e+01 2.388938381546692824e+01 1.714909252651751004e+01 9.487136300662397659e+00 5.173430572596768862e+00 5.950540196238599755e+00 9.441512847491836169e+00 8.981369150913113941e+00 3.054373194117969703e+00 -1.090612750823007418e-02 -4.144787980088153745e+00 -3.363872998365041944e+00 -2.489650594721775523e+00 -4.278515465088905123e-01 7.291619282307004735e-01 8.235505558936435655e-01 -2.737839478835015217e-01 -7.317420502530021242e-02 6.262215302858080423e-02 -6.875807501069508554e-02 -1.678429520285730156e-02 -1.048603167872100630e-02 -3.010211657953501541e-02 7.703568146628851643e-02 9.048635813475206513e-01 1.795042296611968569e+00 2.639103472921600968e+00 5.410152878917385166e+00 1.290872624985388484e+01 1.497827020024321421e+01 7.571780139298214252e+00 4.603853253392450995e+00 7.221272358835861827e-01 9.229148158365174659e-01 8.075668303946772486e-01 2.185527181938229369e+00 1.773338213841136657e+00 -2.399439064902328667e-01 -6.668907336144938025e-01 -2.535908120811461330e+00 -1.481085163843558483e+00 -3.039599668569619162e-01 8.730278225246232982e-01 2.319326002337859904e+00 8.601092134557739022e-02 -1.731808315714796279e-02 -1.353300758123962208e-02 4.878603797743224363e-02 9.171412273914540669e-03 2.531953600714834454e-02 -2.872113384180040654e-02 5.304301054042525471e-02 8.794925376820605933e-01 6.391222649181262927e-01 1.065199089384364139e+00 2.154478242902640783e+00 5.181019464779875072e+00 1.916001455190887715e+00 2.837670529862730717e+00 2.447220818019964828e+00 5.755614084149761611e-01 7.181689567889472207e-03 3.151172039401369807e-01 8.393571326228609353e-01 -9.492356771750541655e-02 -2.245812761752486245e-02 1.294414496466243847e+00 -7.314091168378157315e-01 -2.377306189079488319e-01 -2.706053121205218362e-02 2.719262411511282063e-02 9.302726552787429423e-03 -3.846042172188224306e-02 -2.984681188986475220e-02 -1.729629105598658179e-02 -2.999751553129268583e-02 -3.996981289047837199e-02 7.678145335099240826e-03 -1.175578965712668553e-02 1.362512758536419018e-02 -3.279069825010394457e-02 -1.757290157343550582e-02 -8.830049625383137868e-02 4.587038848443046601e-02 1.438999433699031272e+00 1.305123348960164353e-01 4.518268946337585246e-01 -4.742107998888028114e-02 -6.416229794862014606e-03 -5.119339997226859951e-02 3.371894240867914783e-02 5.573824240164899912e-02 -3.277308199950211831e-01 -3.176223242299279215e-01 -2.365746950263771520e-01 -2.576628009654482326e-02 1.910413021668947928e-02 1.363582460334793536e-02 -1.100979500522807769e-02 -7.243795556763081567e-02 6.521645577247847658e-02 -1.494947194861474121e-02 -2.401680161811970901e-02 2.047055765908047803e-02
-3.086707413489990851e-02 -9.944794237874547693e-02 1.015677485350874147e-02 -3.911483083128711874e-02 6.276898570590599968e-02 -6.079710531063440421e-02 -1.142763940654914837e-03 1.352240914696300512e-02 -2.326899573004262423e-02 2.316742078087453624e-02 1.184683641073642525e-02 -1.915535694366209130e-02 -2.415451311217494540e-02 -8.651387400395933389e-03 3.409545888576288875e-02 2.402460318784313195e-02 -2.214564836346489402e-02 -5.111287755604165123e-02 -1.378116253572067920e-02 1.018251366144732814e-02 5.559591403144918502e-03 -1.193160494126839499e-02 -3.083539777268749522e-03 7.710253819184227642e-03 4.385659472002132603e-02 -4.740712448964478666e-03 -5.243804535686744789e-02 -5.668795248736585926e-03 -1.574465435887032567e-03 -1.666600732199136894e-03 -3.262841241711805784e-02 3.648894020906761314e-03 -5.283293524766583676e-02 -2.896383740483258681e-02 6.921103022184339933e-03 5.991342805796853049e-02 1.225628522068876181e-01 9.775785437461803618e-02 -1.667121962112004252e-01 -5.006308951509687299e-02 -1.854417142222505865e-01 -1.097846286190897955e-02 -2.729551689551558066e-02 2.901181094513084063e-03 -2.708118158016939447e-02 5.574483370353571637e-02 -1.212563526811063531e-02 3.405727074804485582e-02 1.932242026578330843e-02 -9.616324939029098282e-03 -1.167665541777839627e-02 -4.195566822681398578e-02 5.498457139216721828e-02 -3.432798860019430770e-02 -2.114168562333601856e-02 -3.364243539052916288e-02 -1.390437815767274661e-02 -8.929879037499014252e-03 -5.960218213968068723e-02 3.356487119666894808e-02 5.739219925649524656e-02 2.866948254319449593e-02 3.492711296504395768e-02 4.347822813081580473e-01 1.213669840813166756e+00 1.007080888736677560e+00 4.965466375435279578e-01 5.737530988020824729e-01 3.675009342332507534e-01 4.672552656930487047e-01 2.204578872534461720e-01 -1.599905475819288325e+00 -1.866863453596264266e+00 -1.834449556821978744e+00 -1.794443951457008524e+00 -4.374931591868438385e-01 -1.049383308042631135e+00 -1.262900227399715192e+00 -5.248399466413066206e-01 -4.111496668697983692e-02 -2.800669073114726848e-02 -3.845573279689850493e-02 -6.962827479877961578e-03 -4.557143109653993829e-02 3.527909452043999361e-02 -2.416701474642070011e-02 -9.331066640844234983e-02 1.345772807047950024e-03 7.714540509062314810e-02 -4.665998290973759344e-02 4.595688870369461498e-01 1.244661219661556739e+00 2.748626966968680918e+00 2.264200926130695457e+00 1.305881517117635504e-01 5.783988140162149572e-01 -1.544114048283003193e-01 -6.482894251568049881e-01 -6.787549370351720901e-01 -8.600543190093917767e-01 -1.256163384629139124e+00 -1.823138986072647461e+00 -2.664459924845938410e+00 -2.225612298438973014e+00 -1.426657341849325578e+00 -7.417836527336137964e-01 -1.210650546679405970e+00 1.826889463905138900e-01 7.115439835004890023e-02 -2.038153503028818092e-02 -7.896179063563156172e-03 -2.458965136596024878e-02 -4.230747181771096072e-02 3.522722287990479734e-02 4.183524117774430930e-03 -3.316255143646498760e-02 7.906460656903538942e-01 3.095942932971985861e+00 5.082873109402117784e+00 7.678709766200176645e+00 5.117506395961180843e+00 2.873828203987724983e+00 3.292808140121255889e+00 1.266744649377055110e+00 -2.672088638263779181e+00 1.329849405739681467e+00 1.441549204526326511e+00 -2.875720685841869351e+00 -7.504669785895924150e+00 -7.763305231307713328e+00 -3.817704902404755796e+00 -4.869271501669986790e+00 -3.221880119488206518e+00 2.372661901966368891e-01 5.880712511240928642e+00 1.864806656522220107e+00 6.538842383757269561e-01 1.181628478126977244e+00 -1.890574779274807994e-03 7.658788087136937997e-03 4.992279694599139478e-02 1.995411193050842386e-02 2.159373025561862197e-02 -3.722664649525676550e-01 -2.563159272026402369e-01 7.364106226075299411e+00 9.868581514196179683e+00 6.466676793103036225e+00 4.275683276234431673e+00 1.892210655553900445e+00 -3.872678709095531691e+00 -5.323708881536976634e+00 -1.033462524317935449e-01 4.862368195466033605e+00 -2.071148423611388179e+00 -6.277977799270325399e+00 -8.128989843914434132e+00 -8.548367776274847785e+00 -7.551700549409277485e+00 -5.305937254813793302e+00 -8.509188107727030825e+00 -6.984559456644654496e+00 3.718958549078919429e+00 6.699598137667799769e+00 3.868255518915390212e+00 1.912253514273719590e+00 5.808991345250221622e-02 4.256303888246725647e-02 -1.353011312545565614e-02 3.776838972463315847e-02 1.398143328634247340e-01 -2.600419868038542859e+00 -1.882706898244251636e+00 5.846235487840939271e+00 1.057435797613566919e+01 5.224079811209579205e+00 -9.589057571828575322e-01 -6.484278685465825198e+00 -1.251238548572853304e+01 -7.990033022238229421e+00 1.376055053828229680e+00 1.775848263481432987e+00 -8.312721358064111277e-01 -5.663677382048796227e-01 2.955770267704040943e+00 -6.592780475752633151e+00 -1.185966945184046395e+01 -1.155817811632323355e+01 -1.242788193935024310e+01 -8.297872485065074244e+00 -2.038050229475000030e+00 7.584245303824576290e+00 6.291858471439635281e+00 8.508141321829786330e-01 1.487229546152940840e-01 5.134870137842011129e-02 1.424600014930042964e-02 -4.937322689341824139e-03 9.790069440936427503e-02 -2.947179047616365732e+00 -4.508479754302334164e-01 1.151817441981950019e+00 -1.629430570613063622e+00 -2.481326145188420540e-01 -8.231029788805663827e+00 -1.960372206351861024e+01 -1.265141226307009958e+01 -1.584300578418558647e+00 -4.842879068150030442e+00 5.620700047823135037e+00 1.085128113401325933e+01 1.145309439458359968e+01 4.744298057357350551e+00 -6.343213128321360195e+00 -1.023085011365380836e+01 -1.120140485841666766e+01 -7.478494999801112542e+00 3.541781406901158835e+00 7.967689698854809599e+00 1.019093692871952683e+01 1.165892705358523784e+01 4.848893681820011459e+00 4.088969730602320940e-01 4.825458817613024337e-02 1.880205577146188203e-02 -5.633713039029218939e-01 2.930593208169819941e-01 1.244760575971291416e+00 6.386767181621508804e+00 -3.114871083341812952e+00 2.299050002823323613e+00 -3.094261360062268373e+00 -1.728835148953180223e+01 -2.853232850552210209e+01 -1.099050963013733551e+01 -4.364074006993622135e+00 -6.304752079778666030e+00 5.364549991825079189e+00 1.244780643686121735e+01 1.081239891772566075e+01 1.689981295511404635e+00 -2.881054021537658993e+00 -1.287249236831795507e+01 -1.811381029672912391e+01 -1.210611847895118842e+01 -4.692148086859655010e+00 1.027185725068467725e+01 6.272993239300570067e+00 1.644836885592187059e+01 7.896721733539089350e+00 1.395958591667193494e+00 -2.550448976388390923e-02 1.212975426377719407e-02 -6.172530757184615524e-01 9.795576048712324457e-01 1.681064637645021120e+00 3.162169500762410213e+00 -7.231770282467342881e+00 -8.222039935444577230e-01 -4.832302830919977588e+00 -1.762635612352612924e+01 -1.577535334316561055e+01 -8.006275141824605868e+00 -1.808430940033866818e+01 -1.842364033517342392e+01 -2.644637656928202407e+00 9.619161562794339204e+00 5.870199093817948466e+00 -3.992834314398659767e+00 -1.277603640647027206e+01 -1.821216251377360251e+01 -2.344063423998588647e+01 -1.377282743790912356e+01 -1.232211471843738870e+01 1.916279293527518801e+00 6.452047994544550136e+00 1.151531402406066107e+01 9.489128412219967501e+00 3.435858925135060193e+00 2.743250356613785579e-02 -2.468950156055122261e-02 -1.671062294818741467e-01 1.439070759465247651e+00 1.588112960173210464e+00 7.905912544479635429e+00 2.849784868263663284e+00 -2.715643103369376643e+00 4.723547649942164028e+00 -7.695144098088061435e-01 -5.659589370047060086e+00 -2.256298481476071061e+01 -1.958961382023881015e+01 -2.572686536783827549e+01 -5.508854219316445366e+00 1.195477157063358753e+01 5.714692901884846910e-01 -1.006244816928932195e+01 -1.641195164753161606e+01 -2.465302015689326964e+01 -2.901043989090709729e+01 -1.994972465370472392e+01 -1.095203914082160068e+01 -1.018290540760618867e+01 2.070224879518101080e+00 6.841548591953658054e+00 1.222436607350879001e+01 5.447996759984565784e+00 7.023897904227421884e-01 3.755849486901453871e-02 -1.945815366182467310e-01 1.611977609735535166e+00 3.380001453257156285e+00 7.513613833171059575e+00 1.145657929933599384e+00 -1.213934984755909952e+01 5.428835003204532050e+00 1.447158153146316018e+01 -7.316849689811686375e+00 -1.768251556756233001e+01 -2.743328867011252115e+01 -2.777893372200031763e+01 -1.600663027399525618e+01 -1.057779266233857740e+01 -1.284613645302529683e+01 -1.141516477297473386e+01 -2.344870254673472232e+01 -2.695857141773932852e+01 -3.321118599418891648e+01 -1.767106849640907740e+01 -1.171717615918575106e+01 -2.017698314325575737e+01 -7.728921937992639712e+00 6.934234049699156133e-01 1.384750030048163083e+01 6.427132915046538386e+00 5.723119650781078871e-01 -7.791015001435345859e-03 -1.304617628945383134e-01 1.820843691277522103e+00 6.370428219715952523e+00 -2.761346048686470933e+00 -4.427597717006416467e+00 -1.656278318699058971e+01 2.780559766097239649e+00 6.077073186799688997e+00 -1.222408088406829307e+01 -1.684828687810140835e+01 -1.714593598127427043e+01 -2.790809814870751993e+01 -2.460583595839873894e+01 -2.513303241462091009e+01 -1.973119627903191997e+01 -2.436663326115683503e+01 -2.089802132189559813e+01 -2.381683192074599731e+01 -2.671194548645028277e+01 -1.556113815304806458e+01 -1.647102271253859485e+01 -2.828558239487064085e+01 -2.098536518029417408e+01 -2.989309921230351108e+00 5.657472898650534709e+00 6.315971793570020587e+00 -6.558019415782654349e-01 4.159583485468259373e-02 -7.162488873447592219e-02 2.161017227529688167e+00 1.885754984979991944e+00 -9.651775860609319579e+00 -1.270637582827391832e+01 -8.594764382982473805e+00 5.659985910758919658e+00 1.310712378359909636e+01 7.465095149369013861e+00 -1.141751911589731439e+00 -1.607879411973885908e+01 -2.925176330505387767e+01 -3.458038488501000529e+01 -3.165100784412624435e+01 -1.504130770250651850e+01 -1.617902838120779307e+01 -3.302841803271998611e+00 -8.936138728462907466e+00 -1.495993508575470976e+01 -6.859292580595052868e+00 -6.489882102720783585e+00 -2.451428749217846104e+01 -2.574751000678391577e+01 -4.891842781583751076e+00 1.983042601442091657e+00 9.117923584933917525e+00 -8.921148881320550839e-01 -1.946948082185419662e-02 -6.651778920692125174e-02 3.189614674433509656e+00 6.062992334935013439e+00 -1.036085660629978378e+01 -1.362738398514811422e+01 -2.211406184704804989e+00 -8.595037767355582226e-01 1.186854991467830800e+01 1.368623885008106100e+01 -3.555760431666595167e+00 -1.415747914252591855e+01 -2.450486233005959846e+01 -2.512675735367496443e+01 -2.251045537718860245e+01 -9.297105587922693815e+00 -5.182459211279678790e+00 -3.966981947733712044e+00 -9.631121981354334949e+00 -5.000677870267036695e+00 -4.175978991030400156e-01 -4.498103036972890045e+00 -2.186823324898113796e+01 -2.487684770818106372e+01 -1.395232764481074028e+00 4.044879278039939408e+00 6.527536673566129544e+00 5.074560334088983327e-01 2.125131180482386570e-02 -3.901562024299870535e-01 1.747122357191663866e+00 1.169249955167709842e+01 -2.721530946431242715e+00 -2.302072354543725297e+01 5.297646312847340333e+00 7.343988201089393542e+00 5.407323425277589912e+00 1.204300415226807530e+01 6.643664582061525881e-02 -7.883305242792796541e+00 -2.023516310215765657e+01 -1.536115209857801922e+01 -6.402805707126792534e+00 -1.118121335836538499e+01 9.860951220064934075e-01 3.439072750464312378e+00 -5.345833452394415097e+00 -1.895860805889725720e+00 1.117418441176498467e+00 3.490999107971798132e+00 -2.200456937966759341e+01 -2.618900161016303585e+01 -7.635210739381994571e+00 9.885710643376919293e+00 7.680052683347803999e+00 1.332625934367117848e+00 4.784960510950840226e-03 -1.241676687705933063e-01 -1.163012585061868664e+00 1.014193086987969394e+01 -1.389199795066016208e+01 -2.879728875548748945e+01 -6.119758296098765982e+00 2.155726605940286333e+01 1.631910752555726063e+01 2.563231263889571565e+01 1.240596855532939813e+01 8.186655900804778341e+00 7.567259579420541726e+00 1.208298447247341922e+00 5.921364917078507872e+00 -4.041424863368772158e+00 4.753720681294357320e+00 5.834245617798213601e+00 1.075852228861160675e+01 6.959761974390719530e+00 7.414636713084163944e+00 -1.146025349063895682e+01 -1.899212635074414379e+01 -2.417368323351733039e+01 -2.125962160012337065e+00 1.467243077803443718e+01 6.999684283066947899e+00 1.592010769004026161e+00 4.997240591105724800e-02 -3.770438620055702877e-02 3.944155963973001167e-01 4.612527997409809899e+00 -1.191560044926771944e+01 -2.796903852945207447e+01 -1.055162944766013489e+01 1.429261607484933094e+01 1.688499435656278891e+01 1.990624259387871930e+01 5.972147670317217383e+00 6.687546907012312580e+00 9.159820412249295885e+00 5.611002633064801515e+00 1.299541976478714034e+01 2.275661726888152003e+01 8.808944284411756698e+00 2.842889085737139165e+00 -2.945203465528614561e+00 4.585104174145560485e+00 -8.711607975223625289e+00 -1.391973958385907473e+01 -9.292064041986737521e+00 -1.349747920361368436e+01 -1.905303898229719683e+00 1.373988586341668316e+01 7.759090988440267900e+00 6.138250576627856114e-01 4.917257737316800027e-03 -1.340450621554994080e-02 5.544379581694631742e-01 9.087616952569842255e+00 2.181343385081813691e-01 -1.794711646533047755e+01 -5.243074803076248180e+00 -7.395885884941804989e+00 1.231892799617956058e+00 5.408718095806307247e+00 -4.336692953234688730e+00 -2.438808931343382724e+00 5.905260959815445965e+00 7.487224080382823388e+00 2.198751176797043172e+01 2.156711863897859516e+01 1.494135494641804129e+01 -3.201661285249396416e-01 -7.524227927423480899e+00 -1.217643659819274227e+01 -6.294799663529843770e+00 -6.426524290141128581e+00 -1.030451650724814705e+01 -1.399782837550627690e+01 -3.594729581049019629e+00 1.019839316383243855e+01 5.736507402912121911e+00 1.926002332157022642e-02 -8.064027843272582319e-02 -8.421635546599833336e-03 4.271479580453850788e-01 7.646143970638780374e+00 7.770729311233979253e-01 -1.287877256940826065e+01 -4.614307859240963872e+00 -5.497011685103271539e+00 -7.048861089738904795e+00 -6.899864929652982148e+00 -4.197766509300303039e-01 4.613475410049574066e+00 1.421741664453791021e+00 -4.660786452796824797e+00 1.014956894097183948e+01 2.534589070697543889e+01 1.603267141852649402e+01 5.320117811299355459e+00 -2.292300787444525589e+00 -4.654616876663881797e+00 -7.336725272790916463e+00 -1.883411935606390486e+01 -1.816794973509889743e+01 -1.250461019756920145e+01 3.267600769009046502e+00 9.521190518568326766e+00 3.684785952435501333e+00 8.710708674677354324e-01 8.311376672655317391e-03 -4.760920494044208751e-02 7.820702774668653046e-01 5.622717409018934021e+00 4.462214796679448980e+00 -4.867209675586630091e+00 -7.376149531226546152e+00 -1.485167478027957166e+01 -9.120976415460125608e+00 -1.676609822437464459e+01 -1.331017007852681644e+01 -8.195572058455381281e+00 -1.150401832271906954e+00 -1.556653276504762706e+00 2.057528439043315949e+00 1.488332092932600226e+01 1.200144786487486570e+01 5.036887794075136426e+00 -3.440783215178941479e+00 1.438936113979536913e+00 -6.907204649742538116e+00 -9.893632042633567991e+00 -8.436184108544694027e+00 -1.876793422979670334e+00 7.037643071748106216e+00 4.101563647841731886e+00 1.712238325306756570e+00 1.570086234954407578e-01 -6.272865347347825714e-03 2.413851603826289854e-02 9.989295052183845280e-01 5.004746423465487482e+00 5.246485130325905466e+00 2.010073422258517262e+00 -1.019969480816154395e+01 -1.369373975960895962e+01 -1.605670196198236610e+01 -1.726260419107036626e+01 -1.535723670688560816e+01 -9.739527354753453992e+00 -1.000669362472186030e+01 -1.021837719098898845e+01 -3.645147180059594927e+00 4.810175787421236748e+00 7.399482673390049836e-01 -6.344679874470229741e+00 -8.672642225160462459e+00 2.754719781546966395e+00 -2.537337621246550157e+00 -2.436930520755869356e+00 1.155332528388828273e+00 1.534776420221053428e+00 -7.197342873994063694e-01 2.235934223396970566e+00 1.186364765966291701e+00 3.004265932079763779e-02 2.121767070023875684e-02 -2.509843526737932234e-02 8.860460221799162372e-01 5.082425367549366690e+00 1.914030932639762872e+00 5.158300136457577345e+00 -7.446083131843102443e+00 -5.050089711874719889e+00 -3.629351590066974165e+00 -1.197500504208785976e+01 -9.270057739218186654e+00 -1.231200812165042624e+00 -2.359571753070059952e+00 -2.152190348157859479e+00 -1.378323123363973446e+00 -2.406131948752372463e+00 -1.123255304447507985e+00 -4.494896143241774666e+00 6.506143354663405931e-02 -2.424925368776784662e+00 -8.015803661249216727e-01 2.144474594978270865e+00 2.477349248429872475e+00 1.162380006375154595e+00 -1.757864586129065931e-01 5.574011405453483947e-01 8.607414547391970538e-01 4.829083047542967466e-02 -2.854445212213768679e-02 -9.283344103102754430e-03 6.439736036875941538e-01 2.327158886575339647e+00 -7.518320386055129534e-01 -2.182796481320027571e+00 -5.876614362252150947e+00 -7.623880305284305159e+00 -6.045988878600299543e+00 -2.849139745919635924e+00 1.450248422862404407e+00 7.247131514288603249e+00 3.315534861408497846e+00 1.875181236983751276e+00 -3.507410916356483277e+00 -4.027408784109530515e+00 -1.283072878651272175e+00 -2.782886677957014498e+00 -1.126391888225010574e+00 3.235468552272330101e+00 6.825135070893916245e-01 -5.415452039250862049e-01 4.272458540325307919e-01 2.477070039138098867e+00 1.267517797424206061e-01 1.495620488378142654e-01 2.129243375020188969e-02 -1.705909488487433734e-02 -1.156972533623611306e-02 2.911542529210105201e-02 -1.258763424721775354e-02 5.799154757641544755e-01 4.189251674062237085e-01 -2.175269634993600487e+00 -5.193558331269991335e+00 -6.365484962432679694e+00 -7.971992898414193007e+00 -6.253841114029798476e+00 -5.028097947238512333e+00 -6.665008054059449627e+00 -1.175072519835890672e+00 3.557127264995326055e+00 -6.815171376778905721e-02 -2.403440301721722072e+00 -3.276788612371668741e+00 -5.006024023649406018e+00 -1.227820376707998984e-01 -4.304206742604019253e-01 -3.602671150620429419e+00 -4.056114030871505349e+00 -2.656768103226572642e+00 -1.297745821255530840e+00 7.399660286711448598e-02 3.605704085975598022e-02 -2.365943882564337797e-02 1.212934294806842367e-02 3.876519763800777979e-02 1.997958686717876339e-02 4.357070527388128174e-03 1.753406715771227420e-02 -7.964858488559701799e-01 -1.082157778303884044e+00 -1.536884146570612009e+00 -3.612381667584868339e+00 -8.654819376448044110e+00 -8.051156464547927882e+00 -6.757709498422035388e+00 -6.803241459255628953e+00 -1.095623766884795014e+00 2.217282801018431115e+00 1.544708444049817331e+00 -4.054134875048275966e+00 -2.745604609230643867e+00 -1.191640670110239553e+00 5.665049745590763353e-01 1.402515402370574892e-02 -9.062549070676729768e-01 -1.480938254891050188e-01 -8.586900227463566404e-01 -2.319610529098234508e+00 -2.181426596881009747e-02 7.164316084663249935e-03 5.089888642517001460e-02 -4.609705362175748992e-03 -5.822824156302371101e-03 3.383340870094934776e-03 -1.560002967572371446e-02 -2.585503797688168751e-02 -1.094009644614674759e+00 -5.078865416206792549e-01 -5.765832495304638039e-01 -8.807462335175151313e-01 -5.599389988110375249e+00 -1.541668654648843173e+00 -4.392918064004870615e+00 -5.043855976276174324e+00 -1.061068779168351517e+00 5.872030213696025069e-02 2.148729052248263549e-01 3.184441309511105156e-01 3.056704286938444759e-01 -8.259173360353253002e-02 -7.167069080670614989e-01 -3.846980855696836010e-01 -8.870394029042993900e-02 -1.134470153077479782e-01 -1.257462831317669900e-02 4.170442800957088053e-02 -2.548390365107134486e-02 4.769879558185364382e-02 -2.077857537292523635e-02 2.418474858103375480e-02 2.911789447809605066e-02 1.842069220738283336e-03 1.085054316371162481e-02 -9.392744908932113349e-03 8.725532841208413076e-03 2.959284893791967047e-02 1.977323362183953243e-02 -1.833954233497561009e-02 -2.380204061573685248e+00 2.439577270661442282e-02 -4.346686685230236047e-01 -1.156861763579744851e-01 4.637650623870792806e-03 1.206858639888430153e-02 -3.113804409423677651e-03 2.767344660191826261e-03 -2.667269652714328657e-02 1.434890172233800054e-01 -3.136752064684701913e-01 -2.920063115432166428e-02 2.868623521793219576e-03 1.726558503820155993e-02 5.857688203657014647e-02 -3.151745197002772669e-02 -3.945927024797690058e-03 -1.675276819894648203e-02 1.718390417352761573e-02 2.521748325545728267e-02
